3090 50
= 0.40230107 0.32115752 0.058727127 -0.37747207 -0.19837968 0.2025604 0.375604 0.14043476 -0.4946929 -0.34889197 0.30550292 -0.44449925 -0.061983522 -0.041898366 0.037966043 -0.08952164 -0.09711597 -0.50185084 0.083670124 -0.29653174 0.3046485 -0.3821803 0.49056193 0.048395958 -0.30288023 -0.49377206 -0.68193424 -0.62366027 -0.14242747 0.065898366 -0.640545 -0.14711311 0.19854514 0.11543211 -0.38778803 -0.19929793 -0.041722752 -0.34504136 0.52634203 -0.43866843 -0.8999535 0.47670484 0.33891553 -0.63712925 -0.23030391 0.6509175 -0.16537045 0.5230296 0.5006066 -0.21094586
call 0.30129 -0.21013021 -0.11594006 -0.57466006 0.17221215 0.18712495 1.0286609 0.43116564 -0.13416862 0.08238829 0.20553823 -0.34976286 -0.23314092 -0.037586734 0.2172918 0.3509386 0.15761988 -0.030014146 0.26464522 -0.38497183 0.42659226 -0.24236082 1.0027187 0.0016575974 0.21098821 -1.517861 -0.33645344 -0.26267716 0.021873685 -0.034713447 -0.79571974 0.34788606 0.023623586 -0.48095873 -0.31338185 -0.69200975 0.055119075 -0.42230085 0.117236614 -0.32348633 -0.23400469 0.7933612 0.39524835 -0.27267846 -0.22905572 -0.2502078 0.068441845 -0.17996044 0.22012697 0.1732382
decl_stmt 0.05025826 0.30878347 0.08707204 -0.16899195 -0.114381924 -0.0043078335 0.5671141 -0.0055656624 -0.49017796 -0.48124942 0.12500009 -0.4870813 -0.0013449801 -0.08156981 0.195064 -0.008959463 -0.25766045 -0.49361065 -0.026953114 -0.2130215 0.379363 -0.4400609 0.5697624 0.19689552 -0.32929397 -0.52870667 -0.7471921 -0.66120774 -0.15736568 0.08351409 -0.39938098 -0.30578 0.4101805 0.1216612 -0.39775226 -0.3822969 -0.059915517 -0.38499138 0.49176517 -0.69876266 -0.645086 0.5181584 0.27467656 -0.31118008 -0.45620152 0.50855374 -0.19890796 0.357497 0.6652336 -0.093594536
new 0.47521925 -0.14675218 0.22778718 -0.72583777 -0.44682804 -0.091017835 0.4034712 -0.34335792 -0.6206692 -0.09709967 0.717402 -0.58523726 -0.13446566 -0.049907975 0.252506 -0.18191214 -0.18493685 -0.34696093 0.11776813 -0.53842306 0.2880448 -0.48217204 0.6351969 0.5122204 -0.6143381 -0.3262814 -0.64432734 -0.5286359 -0.13687475 0.12846519 -0.49523607 0.17999054 0.043475818 0.36198047 -0.44892505 -0.384235 0.020453682 -0.16505526 0.61786294 -0.24681695 -1.0800618 0.5395478 0.08095194 -0.60067636 -0.068174325 0.7545506 0.079356916 0.14665042 0.6728645 -0.76089907
if 0.22613916 -0.1142595 0.6292383 -0.54610795 -0.25649327 0.44298324 0.36806738 0.7774295 -0.46686244 -0.7346715 0.40568194 -0.37984622 0.5006414 0.21125543 -0.11142914 -0.0006082359 0.006141465 0.095196895 -0.10443588 -0.21606426 0.0598821 -0.83699 0.35753444 -0.34997958 -0.2653645 -1.1314187 -0.517334 -0.505889 -0.63104546 0.07518757 -0.09877399 -0.32173657 -0.46121204 -0.058343332 -0.43917653 0.19490847 0.29078394 -0.21736507 0.04613575 -0.2579154 -0.100346886 0.30960196 0.41541722 0.11581197 -0.52470756 -0.20165168 -0.113667555 0.3319501 0.3896099 0.20943427
< 0.59867686 0.38086396 0.32930773 0.3171001 0.15573592 -0.5308981 0.88670754 0.10387608 -0.5087386 -1.0193748 0.11457098 -0.23733063 -0.6664036 0.3002959 -0.14670862 -0.13594498 0.2012043 -0.015959542 -0.6732707 -0.30145898 0.33378294 -0.5606627 -0.1565516 0.11755933 -0.15515861 -0.5593902 -0.6070186 -0.42902902 -0.46473777 -0.062373076 -0.44035116 -0.30712116 -0.10058689 -0.42821422 -0.64477575 -0.37042835 0.07529183 0.122052774 0.44895643 -0.113357395 -0.60235524 0.42051315 0.2953466 -0.12460967 0.3038696 -0.103617154 -0.26393542 0.41080704 0.82857466 -0.8766507
string 0.24997382 -0.013519639 -0.6160336 -0.61600006 0.12367927 0.026513588 0.5815135 -0.5107972 -0.28271315 -0.39332247 0.44201225 -0.3935887 0.48230535 0.10809335 0.57197535 -0.4555864 0.4937813 -0.6986069 0.32618755 -0.263834 0.4803149 -0.8410423 0.5174447 -0.4210548 0.11317818 -0.5602189 -0.72180796 -0.65682536 0.04115571 0.29540932 -1.0533291 -0.13933377 -0.08742165 0.061587848 -0.55593354 -0.5727251 0.57091844 -0.51245725 -0.05121957 -0.3576596 -1.1008842 0.43933007 0.31633624 -0.6863415 -0.6679492 0.3986057 -0.0075752325 0.17497067 0.42417026 0.012284303
== -0.2676985 0.32670516 0.50244045 -0.36012852 0.32063916 -0.026577588 0.65119004 0.31389043 -0.061607763 -0.8007551 0.3314 -0.4923499 0.49487302 0.054963175 -0.55357486 -0.21017812 0.24855794 -0.13858433 -0.58723086 -0.7023308 -0.08796646 -1.0160705 0.16481234 -0.4753231 -0.25416952 -1.1215645 -0.6542467 -0.5367684 -0.81511575 -0.4306575 0.113654025 -0.6775258 -0.30348074 0.22588612 -0.2607328 0.3188459 -0.11938261 0.25556612 0.24502893 -0.17697208 -0.28071606 -0.042158376 -0.22883011 -0.33731514 -0.5836142 0.47060084 -0.33947554 0.17253429 0.37034374 -0.16671291
case 1.4306211 0.103801824 0.6349156 0.57288426 0.04859865 -0.14734216 0.32367176 -0.82839173 -0.49951845 -1.1135854 -0.10027113 -0.75720227 0.18660705 0.11099238 -1.3933588 -0.5606179 0.5076521 0.41138354 0.1400105 -0.1576279 -0.13556169 -1.1794889 -0.1527486 -0.3990233 -0.64388794 -1.1188022 -0.43699062 -0.028363984 -0.18046391 0.19882569 -0.41454977 0.091591395 0.47370055 -0.2986844 -0.5490465 0.6512861 -0.12979661 -1.0868789 0.8614653 -0.2649909 0.79519874 -0.5047623 -0.16494986 -0.2345825 -0.79493916 -0.04633425 0.26245356 -0.047752634 0.050108872 -0.071105964
!= 0.39801586 -0.4937301 0.43216914 -0.82968724 -0.7311666 0.43041748 0.22269374 0.68083394 -0.3980237 -0.429588 0.22275048 -0.546146 0.63549834 -0.20023881 0.045843083 0.005960513 0.14446014 -0.18767451 0.04510146 0.0437644 0.6054806 -0.45990884 0.36264065 -0.5585064 -0.4181024 -1.0254595 -0.7130602 -0.36757556 -1.2385886 -0.19173802 -0.65866596 -0.3468291 -1.1497599 0.25476712 0.04593655 0.51518404 -0.005013615 -0.17100419 0.9829748 -0.8880885 -0.23262136 0.166816 0.42324626 0.37224957 -0.08495094 0.031088086 0.27185494 -0.13893941 0.16151148 0.05358154
typeof 0.25005132 0.6939098 0.20372395 -1.3516096 -0.67791754 -0.5097574 1.2972078 -0.91094625 -0.13597535 -0.278752 -0.052527715 0.14098759 0.008833702 -0.30436292 -0.9762351 0.48596048 0.5075987 -0.108262725 0.112443805 0.405718 0.9698895 -0.8265091 0.21678455 0.5367066 -0.44025338 -1.2840962 -0.4290518 -0.95973015 0.37980083 0.6299535 -0.23690547 -0.20143004 0.22244646 0.01854143 -0.76040715 -0.31751698 -0.24245363 0.7506494 0.28103867 0.26259246 -0.42196405 -0.42330903 0.44398382 -0.8038656 -0.38268417 0.23395057 -0.057166502 -0.36680347 0.7992093 -0.40390736
! 1.0767868 -0.1357435 0.14904371 -0.27885544 -0.20168519 -0.322776 0.4194164 0.5150863 0.12058814 -0.5134355 0.20308915 -0.35369423 0.4592993 0.45278 -0.017591136 -0.339066 0.19976161 -0.46146932 -0.22711036 -0.47297227 -0.06337083 -0.90817946 -0.13273787 -0.515956 -0.23337184 -1.5397801 -0.15341635 -1.0649462 -0.25916252 0.24414685 -0.36836737 -0.22944383 -0.85248536 -0.3832304 -0.78704005 0.36829025 0.3768213 -0.068102926 -0.450846 -0.15746023 -0.10514152 -0.30263728 0.5127864 0.7414072 -0.47757965 -0.03600183 -0.00904379 0.6433956 0.45025584 0.09575938
await 0.6562593 0.29787034 0.7415977 -0.5474706 -0.62418455 -0.8408571 0.9863231 0.17905846 -0.97837394 -1.3045559 0.34459135 -0.35614595 0.19420607 0.3993301 -0.40286624 -0.8100218 0.14743891 -0.23862426 -0.74686676 0.30045354 0.7940179 -0.16180356 -0.41916835 -0.6674273 0.34045327 -0.0770232 -0.39150044 0.5698094 0.65038705 -0.23494981 -0.68506473 -0.5736271 -0.299103 -0.8280206 -0.55001014 -0.032906204 0.47930095 0.13396703 -0.21119687 -0.6652152 -0.12558529 0.30361068 -0.75762415 -0.3162891 0.17961885 0.2576025 0.21699105 0.3243684 1.1539463 -0.20549026
break 0.8388205 -0.25865954 0.2482711 0.10904432 -0.27985913 -0.45688367 0.16727489 -0.23212913 -0.26043728 -1.5127909 0.1240133 -0.8049303 -0.22873588 0.07211237 -1.1363846 -0.67568135 0.37283972 0.5489818 0.39568064 -0.19230652 0.27299982 -1.5568843 0.14483303 -0.7466221 -0.5805248 -1.5124602 -0.09550742 -0.49032718 -0.43115488 -0.22942396 -0.8706053 -0.2753112 0.93493515 -0.16394538 -0.22032546 -0.10499381 -0.057155058 -0.7207491 0.6280106 -0.52945757 0.4979846 -0.48205754 0.09698094 -0.05663319 -0.32276887 -0.09185113 0.24580254 0.2613079 -0.02670532 0.49542603
throw 0.64732826 -0.57207596 1.2755139 -0.49338767 0.5276081 -0.45520863 -0.18411054 0.24185593 -0.54002243 -1.1945422 0.27567646 -0.5149264 -0.23508193 0.1652332 -0.18343917 -0.46031845 -0.004585062 0.27154833 -0.10071779 -0.32242998 -0.28616562 -0.4570416 0.17280956 -0.15985201 -0.69192344 -0.9468506 -0.8134317 -0.8281386 -0.66359806 -0.16427734 -0.5476554 -0.009061522 -0.23057881 0.50795037 -0.5848191 0.1326097 -0.45313895 0.17322719 0.05176355 -0.22655188 -0.6137743 -0.12254103 0.58120626 0.06893014 -0.7875906 -0.08448321 0.25390536 0.27731964 0.17589812 -0.2452041
&& 0.80478346 -0.24242336 0.5053875 -0.47058994 0.18943736 0.29054558 0.52191424 0.57843554 -0.45242512 -0.7813627 -0.13538262 -0.71093225 0.8067621 0.08545909 -0.56978273 0.085946396 0.52855545 0.17566381 -0.5773153 -0.11499678 -0.015283351 -0.83159244 0.19517456 -0.8447795 -0.2529072 -0.9788623 -0.5384331 -0.31904045 -0.85301155 0.064381756 -0.3673966 -0.50025034 -1.0242958 0.09579959 -0.034281302 1.1330564 -0.052794717 0.38493413 -0.10403833 -0.7554477 0.11656869 -0.4762686 0.13977934 -0.0872083 -0.60818547 0.046093162 0.04388419 0.010737977 0.3231304 0.40207693
|| 0.42017737 0.24508001 0.606841 -0.9309485 -0.58771694 0.3921352 0.69817114 -0.072002396 -0.23353715 -0.57530844 0.58611363 -0.08766985 0.5360441 -0.18093272 -0.7586054 -0.5974112 -0.019100366 -0.74605995 -0.32973075 -0.8107435 0.39008802 -0.951603 0.8356204 -0.18055446 -0.8940513 -1.1854134 -0.09974648 -0.47561997 -0.7985043 0.30987206 0.44702965 -0.43089136 -1.5352442 0.18581915 -0.9068735 0.61793995 0.16608101 -0.5839549 0.06041583 0.08038147 0.5764655 -0.5910708 0.18653423 -0.23805146 -0.79900664 -0.2663553 0.519839 0.16375707 0.5232305 -0.07454081
+ 0.39615938 0.16794577 0.055751126 -0.26669204 -0.41885063 0.44177014 0.65253663 -0.5525692 -0.40872672 -0.69669366 0.44423127 -0.1336798 -0.58577603 0.5671998 -0.5006569 -0.66817176 0.70532256 -1.0674196 -0.2036005 0.44408518 -0.1726736 -1.2665755 0.5084821 -1.02041 -0.39883578 -0.80802137 -0.53601223 -0.82865113 -0.41025135 0.82463497 -0.6623749 -0.2748903 0.078194566 -0.51889676 0.1865167 -0.17085066 0.09571185 0.18326256 0.3072088 -1.3506697 -0.6680153 0.3704117 -0.40510643 -0.7920551 -0.79671395 -0.5048147 -0.42605552 0.2556121 0.7812383 -0.8385207
var 0.8233795 -0.14853902 0.59270597 -1.082395 -0.29617137 -0.6396384 0.7961106 0.4642678 -0.7253918 -0.97934175 0.07425243 -0.51306534 -0.511789 -0.064592406 -0.12751582 -0.59949666 0.05602896 0.3116188 -0.92804813 -0.29013187 0.4991318 -0.46044558 -0.4983012 -0.5958941 0.024385255 -0.2504166 -0.16182595 0.6141274 0.641451 -0.5769717 -0.33186537 -0.58093435 -0.22569874 -0.8752526 -0.8402998 -0.6308717 -0.1482549 -0.28272885 -0.15579301 -0.37472785 -0.29130757 -0.07731188 -0.87091583 -0.95467407 -0.13818748 0.38889614 0.062208597 -0.17344421 1.4484907 -0.37826762
else -0.17030787 -0.65930516 0.50758296 -0.4632046 -0.17795485 0.402788 0.29357857 0.7239756 -0.5269804 -0.8954825 0.82078975 -0.09782257 -0.07430388 0.26638985 -0.37227413 0.22034135 0.44667488 -0.10360964 0.54943675 -0.41435662 0.6168137 -1.0252308 0.34221733 0.13916425 -0.8553889 -1.0763363 -0.25658125 -1.095876 -0.41697708 -0.48297575 -0.24420422 -0.51096946 -1.3092984 0.31717753 -0.4444731 -0.25772306 0.528744 -0.8758873 0.37742314 0.48749462 -0.18247639 0.25256383 0.086866125 0.16012143 -0.031557262 -0.047621742 0.3224187 0.21125422 -0.2352626 -0.15646124
int -0.19013804 0.78428566 0.37576923 0.5910008 0.3808175 -0.28778407 0.53658307 -0.15441895 -1.2218891 -0.8445065 0.677723 -0.33949256 0.18379378 0.28309485 -0.3523888 0.016548429 0.44150832 0.04867041 -0.6932746 -0.038100887 0.123775735 -0.9011898 -0.53230613 -0.78773165 -0.655592 -0.86275226 -0.42977068 -0.40243977 -0.7191328 0.049576864 -0.18869828 -0.07220874 0.20671718 -0.09747612 -0.17489916 -0.022118349 0.07253595 -0.4762721 0.060916968 0.1512375 -0.38594982 0.5820482 -1.0591339 -1.2275255 -0.47690332 0.44566667 0.6250518 0.1809111 0.50596917 0.051143028
: -0.21541202 -0.905514 -0.05168053 0.12383151 0.6809457 0.021551909 0.8041004 -0.97414875 -0.8620037 -0.3987801 0.028709758 -0.56233907 -0.5230459 -0.5498579 -0.3691056 0.14629138 0.6788599 -0.18459666 -0.32563215 -0.42521265 0.6030889 -0.033944294 0.44482055 -0.75809795 0.011196825 -0.59626985 -0.5402343 -1.0451943 -0.8527443 0.14231257 -0.7697232 -0.6545903 -0.8324542 0.10655826 -0.5859311 0.40538526 0.098049514 -0.4052927 0.7242723 -0.8782945 0.27784038 0.23372582 -0.109809875 -0.5975874 -0.0005247634 0.5590152 -0.09180713 -0.20558667 0.85725194 0.08413586
- 0.15125236 0.4457374 0.010818984 -0.15884776 -0.6783603 -0.21865846 0.5572064 0.29124558 -0.72938156 -0.86838835 0.70618886 -0.1865874 0.7021517 0.9608786 -0.73263025 -0.84310836 0.18634547 -0.37722602 0.10267999 -0.2845917 0.4481835 -1.3003097 -0.50079745 -0.61266756 -0.57179654 -0.89203966 0.23447785 -0.13185523 -0.9868342 1.0777237 -1.3700876 0.20032647 0.41561463 -0.1692586 -0.1860725 -0.28126964 0.08441862 -0.1888693 0.1642377 -0.3510621 -0.6456621 -0.08112546 -0.5524585 -1.2804719 -0.014443409 -0.45239088 1.0374482 0.031918067 0.12170294 -0.21755934
is 0.406042 0.6270573 0.13939068 -0.8841541 -0.61672 -0.21397051 0.6075499 -0.34173575 -0.7171884 -1.0182475 0.6784628 -0.32153583 0.06457151 -0.0765469 -0.6576992 0.5447685 -0.28499573 -0.084244184 -0.06999803 -1.3919628 -0.6160486 -0.67219 -1.5976437 0.018673891 -0.7469242 -1.2504928 -0.5271585 -0.45112374 -0.39240822 0.059589513 -0.40554962 -0.7789902 -0.42097208 -0.4394878 -1.5809524 0.4085844 0.00030937628 -0.19931206 0.03747445 -0.40288788 0.48201442 -0.675638 0.116344556 -0.22286485 -0.3741946 0.16586019 0.1966975 0.1285369 0.6221534 -0.31971863
out -0.4754559 0.49524504 0.5623628 0.5563011 0.021743516 -0.3194548 0.4829182 -0.39403006 -0.24896999 -1.279364 0.8951256 -0.50619656 0.48022926 0.7513575 0.32759744 -0.5794599 0.86829823 0.85645795 0.38619322 -0.34771875 0.5642612 -0.46315685 -0.33269006 -0.43395552 -0.25133383 -0.61113495 -0.6585682 0.04935034 -1.1398001 0.533356 -0.09737695 -0.11647022 -0.6706068 -0.44448546 -0.5774482 -0.34068745 0.788301 -0.81840134 -0.5368446 -0.093025215 0.4353807 -0.021044353 0.60808444 0.6195095 -1.4631805 0.67360747 0.12097467 0.8661347 0.7456355 0.43121263
++ 0.8235153 -0.23661807 0.15273638 0.088231236 -0.6634195 -0.08630399 0.49313986 -0.057247866 -0.6883358 -1.028996 1.3685334 -0.01831209 0.087461226 0.86186564 -0.37650815 -0.23659214 0.6665598 0.6056069 -1.1881393 0.011710599 0.5470442 0.024801705 0.36237204 -0.23919922 -0.16347589 -1.4686139 -0.62998825 -0.76406765 -0.9273195 -0.37037915 -0.23581228 -0.969953 0.55385464 -0.23180756 -0.22722745 -0.38989264 0.36407176 -0.4182629 0.42565724 -0.49342093 0.24014938 0.52422756 -0.7756109 -0.51473194 -0.15251909 -0.05946157 0.53529125 0.7688591 -0.018447448 -0.6257782
new
decl_stmt 1.4159049 0.45303395 0.46983507 -0.5515015 0.117370404 -0.9270145 -0.07596125 -0.39092034 -0.5127541 -0.8407877 0.45778933 -0.7530484 -0.08182571 0.24958426 0.33091986 0.11134677 -0.5357492 -0.13024312 -0.050480198 -0.69871306 0.101496644 -1.2373583 0.52814007 0.11531798 -0.5312379 0.23055229 -0.7906652 -0.379766 0.3323172 0.40396544 -0.29160643 -0.21103954 0.10296317 0.49854657 -0.31173432 -0.1442492 0.28020918 -0.026972793 0.9470637 -0.8054502 -0.8237968 -0.3221743 -0.026533412 -0.8434161 -0.09282411 0.54278165 0.33417717 0.8070504 0.62310433 -0.44682887
bool 0.08426716 0.67069495 0.23233907 0.2816239 -0.8102226 0.41608626 0.7471469 -0.6693017 -0.8550212 -0.98890024 0.40635395 -0.45695192 0.8853959 0.6503886 -0.7068388 -0.5795151 0.2934709 -0.14053378 -0.62795043 -0.39936885 0.10885307 -0.68190104 0.535774 -0.23375782 0.5348783 -0.2872612 -0.9933351 -1.140834 -0.0024499618 -0.6667668 -0.07779046 -0.32250407 -1.0896354 0.1178529 -0.76578796 0.53710866 0.7725066 -0.668901 0.39217436 0.4267338 -0.21862823 0.24156138 -0.11281049 -0.72355896 -0.88943464 0.06525284 0.17523856 0.47664165 -0.0028781134 -0.11831598
elseif 0.29514217 0.029524134 -0.005612821 -0.51526576 0.66387963 0.51364344 0.38628662 0.3351085 -0.9952981 -0.7661926 0.3520043 -0.9464976 -0.055976775 0.24914046 -0.8800861 0.34587312 1.1188062 0.5831834 0.36013567 -1.3588519 0.3932141 -1.4364976 -0.011465114 -0.17722352 -0.7543217 -0.6646296 -0.78028226 -0.21609718 -0.9474469 0.43611026 -0.1604109 -0.83577484 -0.4877851 0.78592515 -0.53110385 0.17489783 -0.2144857 -0.5287037 0.4480467 0.21661822 0.12538888 -0.5426863 0.379899 -0.13004653 -0.07823616 0.07910326 0.270889 0.18186703 0.509834 0.22037235
=
decl_stmt 0.00060349616 0.15749799 0.2916513 -0.34530988 0.03333432 -0.50500727 -0.14777257 0.13379058 -0.74902207 -0.54852587 0.80419314 -0.23260888 -0.5886926 0.18848045 0.58223325 -0.8869725 -0.29378483 -0.1347937 0.2956157 -0.48436323 0.7484859 -0.9258646 0.37431735 0.19235896 -0.7361329 0.21563885 -1.0249202 -0.5645 -0.2416512 0.72180676 -0.7141649 -0.55488324 0.08941811 0.48267403 0.24544874 -0.10614559 0.5481948 -0.46740118 0.912084 -1.0919904 -1.145943 -0.24088894 0.2440518 -0.5904891 -0.062468722 0.18588711 0.4459217 0.49056518 0.37650836 -0.32314405
> 0.40904686 -0.34732902 0.19684115 0.37223446 0.2601311 -0.58697397 0.46050593 0.19420195 -1.1050571 -0.3293557 0.02689259 -0.3708418 0.4218189 0.3453413 -0.41650304 -0.41379717 0.5148952 0.3515216 -0.6226311 0.0042624567 0.68354195 -0.0630537 -0.88671607 -0.51617765 -0.47020796 -0.814281 -0.74880475 -0.93825674 -1.1495506 0.7630738 -0.8623901 -0.46995762 0.008881833 -0.70373356 -0.024664406 -0.5625853 0.51317346 -0.7833341 0.34902373 -0.012327178 0.39008662 0.30798572 -0.3361431 -0.6592739 0.18536176 0.7099243 1.2852104 0.057845395 0.34144604 -0.43852556
foreach 0.71387666 0.11971295 -0.13205816 -0.18138428 0.49157673 -0.76180196 0.6372801 0.29480222 -0.29824483 -1.9006995 -0.00032539968 0.2906163 0.050423812 -0.8501459 -0.5043179 -0.5144426 0.2778801 0.98539275 -0.36463094 -0.4603956 1.4875749 -0.48161355 0.41734478 -1.1856277 -0.54081875 -0.10992721 -0.9278992 -0.15047744 -1.226137 0.52902144 0.57287973 -0.056333717 -0.3751984 -0.42716196 -1.3663042 -0.23697379 0.06062879 0.2073127 0.19708449 -0.90640676 0.24131408 0.22276011 -0.43571272 -0.24269146 0.13736862 1.1248717 0.12380002 -0.2441746 0.13091679 0.32522288
in 0.962805 0.053818174 -0.13734442 -0.25507697 0.21595682 -0.9114212 0.89410573 0.18066412 0.23190528 -2.3923328 0.46303076 0.052864596 -0.13020734 -0.7249957 -0.007877869 -0.45179576 0.19089028 1.1585554 -0.43199146 -0.45781144 1.6476974 -0.58756894 0.35635918 -1.3149309 -0.20917504 0.120807745 -0.84087485 -0.09623769 -0.94342065 0.36076504 0.39096564 -0.1201868 -0.37586874 -0.49684694 -0.989873 0.018829348 0.1761981 0.06481841 0.19500269 -0.5961674 0.17107691 -0.12796862 0.09735866 -0.26689854 0.04526566 0.7804122 0.16646321 -0.2654151 -0.363931 0.18658127
JsonTextReader.Read() 0.24031861 -0.46553975 -0.020858683 -1.6334493 0.4193634 -1.4219649 0.77946854 -1.0093286 -1.1007816 -0.18175249 1.0215311 -0.78670955 -0.33457023 0.8244925 -0.76063514 -0.6789502 -0.22207063 -0.8547134 0.21697488 -0.3837244 0.45271775 -1.245805 -0.6820667 0.4530159 -1.007918 -1.5782247 -0.74133706 0.635793 0.01818751 0.6578177 -0.72361827 -0.7595252 -0.658876 -0.21981597 -0.103831924 -0.59415245 -0.5587257 -1.2229748 -0.57267445 0.06087055 -0.98154616 -0.25256613 -0.17752291 -1.0798136 0.05623886 -0.5922547 -0.45539725 -0.36184847 0.58754027 -0.29467282
object 0.692881 1.2859195 -0.4992947 0.16417949 -0.17298545 -0.4684748 0.10848804 0.41842887 -1.2473052 -1.1808829 -0.054229278 -0.12922782 0.4723092 -0.08744735 -0.44293723 0.44604284 1.1268547 0.37802866 -0.36429507 -0.3529981 0.8683225 -0.78562623 -0.17691092 -0.24851651 -0.45201334 -1.0125622 0.07189493 -0.5809497 0.043459196 0.007731429 -0.7041995 -0.41917425 -0.36584738 0.3932919 0.03531105 -0.91247565 0.447504 -0.40140927 0.40376556 0.14264657 -0.13990676 -0.5750926 0.70664555 0.11566197 -0.36629274 0.18044737 -1.0585904 0.1284247 1.3338617 -0.24000554
BsonReader.Read() 0.8028365 0.3408687 -0.120086946 -1.3959973 -0.34625107 -0.7814704 0.5694259 -1.298567 -1.1262754 -0.06487373 0.5578406 -0.6040091 -0.5585147 0.64520866 -1.0265287 -0.7373226 0.5840581 0.035039715 -1.0119984 -0.8976122 1.2304052 -0.45935217 -0.6858522 0.477365 -1.0473031 -0.89336044 -1.283382 0.024913214 -0.3046984 0.4695079 -0.66753894 -0.39329395 0.8555337 0.04332541 0.6248615 -0.08717892 0.7798876 -1.6131617 0.10080471 -0.0040647713 -0.5178646 -1.0279685 -0.7942102 -1.1869744 -0.7536131 -0.6670906 -0.4136334 0.38777915 -0.014169816 1.4112606
? 0.01924253 -0.36595398 1.2499233 -0.010072116 0.08484289 -0.23080604 0.55265903 -0.26273394 -0.8289615 -0.583122 0.7476555 -0.944269 -0.6408634 -0.38807482 -0.58040947 -0.5785492 0.058232896 -0.2756325 -0.17998423 0.4882111 0.05792188 -0.6691841 -0.4241391 -1.3711853 -1.5202695 -1.7829396 -0.36314213 0.8730904 1.2270353 -0.61184305 -0.741111 -1.5435702 -0.9187165 -0.23718041 -0.40745243 0.0760473 -0.7611514 0.25716013 -0.94704086 -0.28426823 0.219717 0.025954701 -0.26274702 -0.010156528 -0.025276303 0.48156133 0.16421361 -0.09855793 0.13394645 -0.26400647
endif 0.7553602 -0.6474639 0.17613986 -0.6180355 -0.30103296 0.05350487 -0.015685366 -0.81252 -0.4003665 -0.7608046 0.6162884 -1.153988 0.98807985 -0.010966526 0.4415615 0.31683013 0.33511177 -0.41413406 0.25689003 -0.17078239 0.037350036 -0.020858351 0.08544795 0.17081313 -1.1041391 -1.7879813 -0.6680947 -0.34870473 -0.34408256 0.35808498 -0.21984284 0.029410042 -0.9094125 0.19211245 -1.3446245 -0.3100016 -0.11875997 -0.39566204 -0.23483676 -0.3064669 0.68129885 -0.7462858 0.16328463 0.35552529 -0.2157027 -0.43652746 0.24619903 0.77907413 0.99142313 -0.07110488
byte 0.20234554 -0.2596531 0.5089648 -0.622217 0.20140874 -0.48804167 0.050563388 -0.78774834 -0.7518582 0.08936179 0.29434866 -0.7137897 -0.52125955 0.14901441 0.5436907 -0.10549565 1.1215916 0.51242876 -0.42889282 -0.5468093 1.2578151 -1.1517463 -0.534065 -0.5061139 -0.5726606 -1.1434947 -0.482858 -0.14149772 0.3400856 -0.13163164 -0.7730493 0.030988911 1.1693081 0.2929512 0.13146733 0.79147995 -0.19929266 -1.1755021 0.19232498 -1.2816885 -0.18294472 -0.54183066 -0.35773045 -1.5610168 -1.1442436 0.14611903 0.5527316 0.40175208 0.3710595 -0.24515478
switch 1.262341 -0.011598716 0.71023804 0.5241287 0.10235189 0.42265525 -0.012523484 -0.7632498 -0.39894417 -1.0702299 0.12347979 -0.8218103 -0.16413973 0.31271484 -1.108036 -0.11198347 -0.004262352 0.13385384 0.6604982 0.8961723 -0.30742955 -1.4685041 0.030750457 -0.6907635 -0.75086486 -1.1111339 -0.5778227 0.4803832 -0.65969235 0.48215488 -0.98123896 -0.28252512 0.17195979 0.12345203 -0.5769223 0.6497349 0.44551516 -0.39671642 0.41175738 0.14309466 0.058444884 -0.7734947 -0.15439805 0.21788837 -0.5446222 0.23711169 0.6307361 -0.1254191 0.2920362 0.14034785
JsonReader.Read() 0.3280055 0.29757982 1.0426112 -1.0682777 0.58856 -1.5337079 -0.15372752 -0.7860328 -0.42755762 -1.6400037 -0.19367753 -0.2130936 -0.12653133 0.019503549 -0.92745024 0.28975266 0.16776289 0.37342927 0.26540136 -0.5630014 0.0020343598 -0.16974255 0.33291668 -0.40520978 0.028868258 -1.1143214 0.018312234 0.13842796 -0.389373 0.60970414 -0.8461633 -0.90646684 0.48687774 0.45323738 0.09963511 -0.12851521 0.1531068 0.17044665 -0.16014123 -0.1769427 -0.7569637 -0.48747495 0.3884823 0.12969209 -1.6329875 0.48420054 1.1479731 0.33598033 -0.32928124 0.023448786
<
decl_stmt 0.60623634 0.08769328 0.23011933 -0.7909119 -0.52047974 -1.0146053 0.078684136 -0.1753367 -1.5821109 -1.6171755 0.12508665 -0.6940183 -0.26386347 0.07360482 0.028061878 -0.4570666 -0.2733871 0.5706514 -0.2857059 0.2673245 0.5333401 -0.531362 -0.31056207 0.43050185 -0.4942511 -0.21196069 -0.4490959 0.36157683 0.5090155 0.19966196 -0.66292703 -0.75985414 -0.26137915 -0.37380233 0.12515356 -0.6936107 0.6983617 -0.4222216 0.13605589 -1.2069163 -1.1336886 -0.6522277 -0.1209311 -0.61383754 -0.27272525 0.3334172 -0.8042314 0.018404804 0.83510154 -0.059718546
\ 0.8918974 -0.47610754 0.4241309 0.11831501 -0.39051875 -0.72726816 2.3035097 -1.1284056 -0.80367315 -0.29832622 0.70840716 -0.90921926 0.076378755 0.40916428 -2.4425056 -0.82017803 1.543039 0.23324892 -1.108718 0.08106997 0.81716377 0.07333443 -0.90368307 -0.50771135 -0.95986813 -0.8505528 -1.0459927 -0.32488248 0.09317603 1.7109923 -0.46346256 -0.82982147 -0.067108296 0.020261612 0.34490016 0.3899655 0.44138238 -2.2437668 1.0180948 -0.8597382 -1.4889784 -1.0001105 -1.3997029 -0.58898187 0.882367 -0.85700905 0.17634751 0.7545468 0.37215593 0.9797568
IList 0.7593304 0.39807284 -0.128928 0.23302749 -1.3899794 -0.4566165 0.15234703 0.27671385 -0.97771406 -1.0492988 -0.23511834 -0.09090175 0.09659837 -0.028294595 -1.3032703 0.15453418 0.6547622 0.41285756 -0.7374862 0.26672396 0.7832205 -0.7128638 0.19310452 -0.34453622 -0.36498648 -0.82063055 -0.9908535 -0.31874532 0.332275 -0.30723688 -0.62509656 0.122195266 -0.7943802 0.43480667 -0.41931838 -0.8813565 -0.07722186 -0.14186007 0.42142296 0.58913547 -0.77697086 0.56887764 0.46098506 -0.3607783 0.48695573 -0.008560107 -0.42189962 -0.18596222 0.018968023 -0.4206345
Newtonsoft.Json4.Linq.JObject 0.06696569 0.10405933 0.5598624 -0.16590464 -0.034727033 -0.50523037 0.28434193 0.39734814 -0.5601782 -0.6086797 0.5280722 0.021550661 0.41806966 -0.013001215 -0.21803404 0.24096172 0.14852154 0.5528297 -0.020848911 -0.1375847 0.59960586 -0.2750653 0.15750447 -0.7737956 -0.2796472 -0.19605061 -0.68765277 -0.111686036 -0.3931534 -0.29665428 -0.22275163 -0.11586979 -0.25554264 0.10031569 -0.57080805 0.0056468155 0.46872744 -0.04235118 -0.08979147 -0.5717397 -0.62629 -0.18036182 0.41015208 0.1334285 -0.0015735453 0.45251402 0.4050158 -0.32363346 0.53992957 -0.40837553
default: 1.1033602 -0.8156915 0.6161788 0.28190526 -0.08977733 -0.8623546 -0.35423392 -0.46071956 -0.08235364 -1.2401412 0.086228244 -1.0600168 -0.83812433 0.29350573 -1.539576 -0.8255515 0.4380492 0.52246565 0.33459675 -0.31249765 -0.36476347 -1.1392041 -0.32046613 -0.68036056 -0.4303138 -1.1399279 -0.9752428 -0.8415322 -0.3619403 0.17836626 -0.49208903 0.0887026 0.47775477 0.24724913 -0.27686068 0.1904106 -0.4065 -1.1772586 0.15470956 0.16629532 0.4084233 0.021144908 0.37491068 0.0035221882 -0.5533191 0.43199673 0.8904269 0.026242102 0.34916323 -0.35381117
using 0.30494955 0.22225691 1.015701 -0.44304717 -0.13112544 -0.5537729 0.44102848 -0.39481425 -0.89913005 -0.9404092 1.137571 -1.2378628 0.23291153 0.6949748 -0.2640713 -0.63814396 0.18385966 -0.027995322 -0.36501753 0.15066364 -0.078282915 -0.14291593 0.06601685 0.31245443 -0.3051488 -0.34198678 -0.2844727 0.7773067 -1.0762067 0.21617676 -0.6660015 -0.5378871 0.40852368 0.25566414 -0.66082567 -0.54698116 0.079074994 -0.30933404 -0.8810391 0.20556778 -0.9081854 -1.0022966 -1.1301211 -0.8035132 -0.1753099 0.67144376 0.14616327 -0.7802686 1.5591476 -0.6614928
+= 0.8817055 0.5281147 0.9270148 -0.5461699 -0.5499801 0.37440035 -0.065167256 -1.1063894 -0.5831907 -0.61350465 0.5967612 -0.7108406 0.030919092 -0.01289424 -0.3375412 -0.32159933 0.5680612 -0.26302513 0.5312308 0.5897833 1.0615015 -0.9494357 -0.43665928 -1.7083967 -0.7645667 -0.09567423 -0.2652896 -0.0056804954 -0.65913355 0.47477847 -1.2559983 -0.23071876 1.1542708 -0.28098536 -0.56289726 -0.2728037 0.62569714 -0.64689845 0.05663481 -1.0251168 -1.0304928 1.0524958 -0.49919713 -0.54182905 -0.13878612 -0.2453021 0.08502764 -0.28366736 -0.38304558 -1.2464778
this 1.4684023 -0.07390747 1.195809 0.7909914 -0.8918429 0.15716738 -0.0011339295 0.049469966 0.4138668 -1.4515923 0.42731664 -0.3980549 -0.1281261 0.7465181 -0.54988396 0.055446886 0.25041434 0.6469152 -0.17958239 -0.20840576 0.53499055 -1.4422429 -0.16803227 -0.78904396 1.0032976 -0.75611866 -1.0904375 1.1513655 -0.72777647 0.17111103 -0.9626146 -0.2931485 -0.8471165 -0.6723659 -0.31527302 -0.5189016 -0.27344376 -0.390114 -0.3849815 0.3515474 -0.27555734 0.10935721 -0.650082 0.17759873 0.22274683 -0.34815308 -0.58631927 -0.62705714 1.0132298 -0.6454078
JsonValidatingReader.Read() 1.5863354 0.27701086 -0.23654692 -1.8884803 -0.45976627 -1.4099401 0.33441085 -1.8246168 -0.8521474 -1.5084405 0.76026696 -1.5956626 -0.09002119 0.3487199 -1.469825 0.021126326 0.21323852 -0.15697604 0.46779716 0.074374445 1.707462 -0.8219323 0.07149734 -1.1478549 -0.61291885 -0.7143732 -1.3774012 0.3441982 -0.33809134 -0.31277892 -0.88751006 0.28870267 0.59835315 -0.38885 -0.22541237 -0.20165455 1.3246546 -1.1190082 -0.4009344 -0.4645218 -1.3022484 0.63666475 -1.0454289 0.06644576 0.20735398 -0.34434327 -0.063605495 -0.25778112 -1.2532148 -0.10769546
MemoryStream 0.20783041 -0.21838045 -0.15782042 -0.7426027 -0.32961428 -1.0911816 0.5504116 -0.9362328 -0.91380936 0.055734236 0.7360832 -0.17757826 -0.4606563 0.652431 -0.53997767 -0.22137532 0.47161886 0.15907885 0.2854511 -0.3711631 0.5512578 -0.14381117 -0.11202783 0.20370804 -0.65193456 -0.73751986 -0.24189986 0.5157638 0.054069176 0.15904011 -0.61760443 -0.19216411 0.09749402 -0.029635923 0.23852995 -0.29841927 0.30758402 -1.5294758 -0.50680834 -0.6318619 -0.82448107 -0.61292315 -1.1344144 -1.1101854 -0.38617644 -0.18100867 -0.2954853 -0.18561356 0.112561695 0.51571524
Type 0.39062262 0.055004977 0.5915681 -0.41139957 -0.20814696 -0.5425946 -0.035943184 -0.54887104 -0.6047048 -0.9447739 -0.117254615 -0.7745007 -0.022750799 0.17565353 0.023976043 0.77605736 1.4257218 0.32726297 -0.23149611 -0.24314088 0.92748594 -0.5522401 0.07293299 -0.6086718 -0.31222826 -0.8452603 -1.132506 -0.69704264 -0.15080705 -0.34470817 0.20860033 0.1522884 -1.0381876 -0.18520531 -0.52961236 -0.77194273 -0.58463377 0.4130123 0.009243524 0.6057542 -0.6138981 -0.065566 0.1040869 0.072294675 -1.1814717 0.08834755 0.3658266 -0.1219944 1.1145477 0.41961476
as 0.1618647 0.36039022 1.4899999 0.031923447 0.17402633 -0.5610849 -0.547961 -0.13778883 -1.044201 -0.8481994 0.90417016 -0.15371886 0.63365173 0.3765533 0.18351717 0.8010509 -0.2804831 0.3163359 0.65096205 -0.33836284 0.8270018 -0.54994756 0.09850063 -1.2143413 -0.9223478 -0.85884243 0.15734512 -0.08235773 -0.38611376 -0.2592844 -0.34426177 1.213424 -0.5073475 0.49167842 -0.2412063 -0.18528607 1.1741948 1.0819391 0.24553521 -1.3176628 -0.3290736 -0.43301588 0.04623008 -1.0898777 -0.6669952 0.55109996 -0.11147006 -0.59921193 0.13606597 -0.01151185
long 0.31148684 -0.5508237 -0.00078255776 -0.41540173 -0.5721476 -0.25905162 0.39409363 -1.097476 -1.2450055 -0.46611926 0.38590932 0.44766423 0.8286479 0.85948986 -0.08427788 0.13300645 1.075716 0.13257977 -0.571476 -0.5205129 0.19960704 -1.1184763 -0.54986185 -0.14317118 -0.9874674 -1.5455949 -0.54454905 -0.05964565 -0.6117952 0.59049803 -0.49074218 -0.2591523 0.4185081 0.043844048 -0.3832255 0.75085884 -0.7210843 -0.65655637 0.05983915 -0.099830076 -0.36356342 0.15879375 -0.7203773 -1.0758735 -0.5762345 0.5869968 0.3173647 0.2096032 0.8431593 0.58470505
while 0.26126596 0.31059304 0.38182092 -0.3541922 -0.14902338 0.05465932 0.5791372 -0.5788713 -0.63909405 -1.500268 0.32684335 -0.8275866 0.14605671 0.76517457 -1.0667256 0.4587288 -0.009608091 0.94594204 -0.67473537 -0.17267287 0.2396757 -0.5262317 0.19548544 -0.6197689 0.62507045 -0.9541489 -0.41722935 -0.15542807 -0.084983714 -0.1860179 0.039853502 -1.2012496 0.24611513 0.8717455 0.945189 0.18774073 0.41580635 0.62982965 -0.16849744 -0.44208178 -0.83976257 0.5500504 0.3156065 -0.677536 -0.20269567 0.60806924 0.3535558 0.559253 0.09739359 -0.19401456
for 0.69444126 -0.2193303 0.27904928 0.07885504 -0.8516392 -0.14915337 1.2978774 -0.68313473 -0.81171906 -0.63959646 1.3850818 -0.17827965 -0.6458508 0.9807159 -0.35806274 -0.1487758 0.8750912 0.9093034 -0.9061852 -0.73591995 0.78550786 -0.0861007 0.34673855 -0.04576554 -0.2872247 -0.035215463 -0.49321252 -0.7432149 -0.88873327 -0.62578464 -0.3150272 -1.0393887 0.6924536 -0.027169287 -0.03494482 0.14346398 0.35852265 0.051308546 0.6203643 -0.749073 0.26204377 0.5203749 -0.16783975 -0.038064193 0.14325021 0.35546353 0.25724658 0.08180336 0.32198334 -0.5538512
double 0.28655833 0.14481553 0.24588887 -0.1750734 -0.18149029 -0.33621886 0.8006981 -0.6596946 -0.6218474 -0.92725414 1.0512629 -0.11431648 0.881457 0.7929052 -0.56338114 -0.6423335 1.3900505 0.19342585 -0.16130753 -0.56447345 0.035872433 -1.2148421 -0.90747845 -0.2579853 -1.056936 -0.9703171 -1.3663098 0.71408415 0.16470344 -0.21726063 -1.0871063 -0.058273327 0.415908 0.24594145 -0.36092287 -0.00010899214 -0.1514133 -0.60819167 0.43183064 0.56393194 0.13818215 0.27028924 -0.064811885 -1.545584 -0.11288963 -0.88066447 -0.22020589 -0.0895412 0.06277838 0.5560501
-- 0.8843713 -0.1505979 0.28667098 -0.40082157 -0.6973148 -0.87514824 1.858355 -0.25184768 -0.60293734 -1.0724251 1.1597369 -0.57712615 0.5568628 1.2848458 -1.6924574 -1.1313708 1.9219439 -0.03442241 -0.97714156 0.3892683 0.20124213 -0.62698096 -0.04229838 -1.8888576 -0.78081596 -0.8431313 -0.9616698 0.06723272 -0.33861408 0.15385813 -0.92709774 -1.6095366 0.2538442 0.3404733 -0.043898553 0.6430315 0.95458275 -0.65313774 0.17102861 -1.1841141 -0.036362484 -0.33778423 -1.0619777 -1.0675241 0.47120094 -0.52698267 1.0290933 0.69975036 -0.25332546 0.066821925
JsonTextReader.ReadAsync() -0.00017075527 0.0056849425 -0.0036794916 0.007424384 0.007989618 -0.00051383604 0.0017374047 -0.0008646333 -0.006562027 -0.0078015705 -0.004388627 0.002854462 0.0048562055 -0.009278684 -0.0018013376 -0.005360148 0.0021506406 -0.007702501 -0.008223696 -0.0039079105 0.006185994 0.0013461998 -0.00045102692 -0.0031474505 -0.0091375 -0.0041051907 -0.0067798626 -0.00532136 0.0086811315 -0.0064147026 -0.0018699748 0.009931617 0.007985171 0.006684791 -0.0039989003 -0.005381682 -0.0036616253 0.009202732 0.006255764 -0.0028570157 0.0020062083 0.009065843 -0.00045850652 -0.005831345 -0.0026796567 0.006425418 0.0016491981 -0.0010172949 0.0021084745 -0.002265998
decimal -0.05151115 -0.056375973 0.28400365 -1.0774782 0.2741389 -0.8410574 0.89851236 -0.73094666 -0.60490537 -0.61819017 0.83720374 -0.647339 -0.020706117 0.17383112 -0.046053886 -0.547418 0.45759907 0.21921244 0.4183173 -0.33253682 0.3525747 -1.2740275 -0.65424234 -0.5237855 -1.4144665 -1.3583416 -1.3841599 0.32961097 0.6798641 -0.16432875 -0.767258 -0.3311788 -0.1518552 -0.014392849 -1.1028852 -0.19595885 -0.6882014 -0.78604543 0.059314054 0.0014991947 0.50254333 0.1078782 0.32584152 -1.7056994 -0.38852593 -0.7543998 0.31702575 -0.7140291 0.09621623 -0.4200008
?? 0.6003716 -0.90998304 1.1683909 -0.5160227 0.08446806 -0.4519597 0.9785887 -0.3319092 -0.94590837 -1.1136363 -0.04188078 -0.81918925 0.42260677 0.12350217 -0.48337248 0.5127299 0.2913622 -0.42042696 -0.02482853 0.2286825 0.7766395 0.19003822 -0.43555683 -1.0511497 0.17261119 -0.6666582 -0.30098885 -0.9762469 -0.11828215 -0.22904876 -0.5831706 -0.37368724 -0.0943224 -0.2725768 -1.296732 0.25822663 0.33692408 -1.078966 0.5775934 0.47123986 0.33955067 -0.55610293 0.55168474 -0.24279054 0.677693 1.1913588 -0.4023131 1.1169432 0.4406444 -0.05640087
List 0.77694666 0.21447289 -0.30786657 -0.2816248 0.12951833 -0.7463541 0.34030575 -0.14554131 -1.2335948 -1.0672945 0.44837993 -0.43566778 0.032615226 0.54253125 -0.23239061 -0.69315505 0.31195587 -0.23736092 0.085275464 0.5762831 0.8457134 -1.1823012 0.25373542 0.2847073 0.15009221 -0.6051385 -1.274377 -0.3216342 0.11493794 0.031743772 -0.43164802 0.4343051 -0.511007 0.5728209 -0.7679131 -0.056332648 0.6663707 0.14458118 0.0053704893 -0.83376867 -0.9147576 0.61455953 0.5754266 -0.7115082 0.4360331 -0.4701707 0.601171 0.92229664 0.27693287 -0.8488229
| 0.49204114 -0.33220708 1.1603522 -0.7811821 0.37412626 0.22238317 0.5449043 -0.9774675 0.030621093 -0.6611908 -0.29694963 -0.33513632 -0.5465988 0.12257455 -0.82780206 -0.8896829 1.109791 1.4630079 -0.45580366 0.70285946 1.0888 -0.73885226 -0.6090212 -0.22929801 -1.339676 -1.1799245 -1.4266102 0.4453426 0.13645805 0.7686314 0.12713255 -0.838718 -0.9307241 -1.0620589 -0.17055552 -0.3776407 0.5408517 0.22135903 0.94017607 0.14182317 0.050124414 -0.5304551 0.07877806 -0.64730936 0.06401814 -0.0936528 -0.35908517 2.2615824 1.2018236 0.03620341
endregion
region 0.0049806843 -0.008564449 -0.0066773836 0.007679782 -0.001109374 0.00075920305 0.0011039537 2.6157624e-05 -0.0005678532 0.00092096976 0.008886782 -0.009797095 0.004169146 0.009327922 0.0014807226 0.005336638 -0.0043818615 0.0074828244 0.0029753468 -0.0018132579 -0.008917447 0.0025876432 -0.008667379 -0.0018119247 -0.0018975732 0.0021035066 -0.0086252885 -0.0071305037 0.0044071353 0.009989811 -0.0022554696 0.005737055 -0.0063596815 0.0025974845 -0.00081590604 0.0082329 -0.0020620276 0.0048086667 -0.009994575 0.0001928624 0.006324286 -0.008578115 -0.0011072785 0.0084726345 0.0016053027 0.00017681351 -0.009410684 0.0014797604 -0.005584122 -0.009310607
JsonWriter.WriteValue() -0.8174118 0.40314227 0.63910913 -1.2095498 0.49025172 -0.13983151 0.21317837 -0.986238 -0.44203532 -1.361162 1.3801447 0.1957395 0.15991975 -0.4410191 -1.3116105 -0.7117534 0.45366782 0.52430516 -0.42300427 -0.9453106 0.5193228 -0.40749487 0.02095704 -1.1348746 -0.09782137 -0.8991314 -0.68151915 -0.3057686 -0.4774345 -0.28706267 -1.9411534 0.7000834 -0.3668289 -0.8207118 -1.205783 0.15057935 0.5319967 -0.1799356 0.41886985 -0.05126033 0.78795904 -0.055927914 0.12616624 0.034299932 -0.5357294 -0.56574994 -0.11118641 -0.26793036 0.08132706 0.96074396
JsonWriter.WritePropertyName() -0.18050675 -0.037695058 1.2268395 -1.3367962 -0.07753444 -0.2644237 0.18262224 -0.7159538 -0.79391676 -1.7706524 0.8508828 -0.8922592 0.8300796 -0.66030973 -0.77280426 -0.07086652 1.2960968 0.036313754 -1.0754594 -0.1626923 0.6047783 0.53768337 0.25947487 -1.5876092 -0.38607728 -0.32178843 -0.90402514 -0.35964936 -0.8022505 -0.8762047 -1.2073039 0.71512854 -0.26793486 -0.59573454 -0.43528795 -0.32549933 0.9985701 0.056930862 0.080678165 0.00022666132 0.8613602 -0.612894 -0.16436653 0.60951555 -0.034027997 -0.34051523 0.18486077 -0.4346804 -0.0056850174 0.6500543
default 0.14011073 0.5914459 0.2297812 0.07509908 -0.8589622 0.41141623 0.4119389 -0.5271594 -0.77011454 -1.3292645 0.56803966 -0.17794868 0.4736821 0.98750764 0.18444635 -1.1809615 -0.16521057 -0.16692424 0.5579224 -0.7469913 0.42655158 -0.2518939 0.17186032 -0.24787012 -0.6544632 -0.5126808 -1.0110016 -0.31327033 0.43413812 -0.46558493 -0.5420866 -0.853563 -0.09572385 0.011347028 -0.8209501 0.17951879 0.75893414 -0.34601745 0.25900805 -0.2671458 -0.5128482 0.010047978 -0.18998678 0.19946846 -0.6050118 -0.19702221 0.09285644 0.81965274 0.6838862 0.6033514
char 0.14434963 0.009967394 0.8675546 0.1828693 -0.7451015 0.2795423 0.6110603 -0.2878948 -0.6091878 -0.9259982 0.5952864 -0.7097842 0.12446084 0.5909379 -0.74217325 -0.36168548 0.3805657 0.13994303 -0.67165005 -0.39319324 0.09786623 -0.8374409 0.04479539 -1.3141145 -0.031352863 -1.3303013 -0.3904263 0.5900139 -0.8674186 -0.0011491104 -0.29292825 -0.8843036 -0.4094768 0.21970989 0.42011723 0.33711267 -0.017694777 -0.8294108 -0.2647937 0.04151339 0.2588261 -0.098909445 -1.2265211 -1.3561071 -0.85729074 0.40828454 0.8271139 0.4889049 0.089030035 -0.4987937
StringBuilder.Append() 1.3410702 0.07697233 0.07678965 -0.806279 0.008702327 0.103941694 -0.24689762 -0.41806686 -0.27330562 -1.1732353 0.9483851 -0.23482774 -0.10733538 0.7245613 -0.5664441 -0.7129872 0.55252534 0.43947023 -0.5465591 -0.93439 0.81332475 -1.1448803 0.1502205 -0.090188354 -0.35672516 -0.5316095 -0.55071425 0.00067769 -0.17959297 0.005037386 -1.0097682 -0.6811257 0.052527137 0.34906676 0.7667317 -1.5915225 0.36236537 -0.9777599 -0.3077756 -0.45137408 -0.041817706 -0.68733335 -0.43578693 -1.1884788 0.07977425 -0.13473885 0.8536537 0.15606327 -0.24400054 -0.33773628
Newtonsoft.Json4.Linq.JArray 0.35614735 0.11812078 0.5054002 -0.30659345 -0.09194855 -0.421662 0.079855405 0.059524357 -0.2130093 -0.41309732 0.38658214 -0.19855669 0.49534884 -0.10543969 -0.20343633 0.21514331 -0.10510119 0.12145788 0.41663715 -0.091861404 0.35635695 -0.20267874 0.51037437 -0.63420206 -0.16778214 -0.2777139 -0.3490481 -0.2843969 -0.34452012 0.029396215 -0.45314193 0.07031864 0.13914622 -0.0718234 -0.19760612 -0.12907703 0.47148728 -0.27305248 -0.20042843 -0.5563055 -1.0273596 -0.09831925 0.19014083 -0.14123121 0.09795253 0.3304969 0.30890232 -0.34162205 0.20626849 -0.45936698
, 0.29087344 -1.0599322 0.8280122 -0.80959463 0.124916926 -0.5803512 1.0031631 0.21642499 -1.033457 -1.1997465 0.18708582 -0.37247065 0.32893345 0.5427357 -0.31693834 -1.1543676 0.037609447 0.5642364 -0.26497385 0.1853962 0.22022654 -0.76005125 -0.7588373 0.002944702 -0.58205706 -0.14097266 -1.0202595 0.77990836 0.010455136 0.34995228 -0.96063125 -0.61811465 0.010324856 -0.601636 -0.6435369 -0.9326565 0.45047948 -0.515704 0.100214615 -0.48574355 -0.8298567 -0.45882684 0.049692243 -0.640825 0.3356375 0.34968394 0.25642267 0.34315896 -0.23415484 -0.46594468
JsonReader.Value() 0.43627483 -0.2779057 -0.22748005 -0.5256331 0.97989374 -0.5652945 0.13131571 -1.1204097 -0.7353756 -1.5267255 -0.41294983 -0.70723784 0.48164117 0.46493274 -1.1036799 0.4575547 0.9542717 0.16668545 -0.14655697 -0.43266454 0.6336344 -0.71412563 0.19769713 -0.867674 0.41065407 -1.2635758 -0.74209785 0.103885114 0.34099957 0.39407936 -0.7763087 -0.8966393 -0.23975056 0.42998022 -0.55930614 -0.48534483 -0.103702195 -0.26219696 0.4817114 0.08330703 0.046789307 -0.82847637 0.23629831 -0.0015497232 -0.6412165 0.13426386 0.6473976 -0.09851732 0.23954749 0.229288
static 0.5927627 -0.10677202 1.2069461 -0.66632795 -0.42373472 0.2619162 1.0344082 -0.40241426 0.47557083 -1.152706 0.6153034 0.31471932 1.4241173 0.08900389 -0.4294512 -0.17542191 -0.12348875 0.32572833 0.5660915 1.1929361 0.4575939 -0.70975924 -0.3060814 -0.37949136 -0.6696632 -0.3141381 0.02617568 0.8599992 -1.4344672 -0.037903637 -0.7716429 -0.45993483 -0.22198486 0.37670684 -0.09678781 0.48031983 -0.20710348 -0.7269595 -0.36211702 0.28290364 -0.4854367 -0.34881744 0.31252864 0.28298375 -0.48661992 0.37108538 0.5582476 0.31212124 1.1103477 0.4837811
>= 0.7765997 -0.025737116 0.07748613 0.0142462915 0.4770022 0.29623005 0.21236 0.5042299 -0.73372346 -0.64486825 0.47342163 -0.5391471 0.11778327 1.3689169 -0.538995 0.26967937 0.7122405 0.594563 -0.14947307 0.12824874 0.6078836 -0.42497852 -0.6531653 -1.3533207 -0.48077884 -0.7639449 -0.75073403 -1.1457342 -1.2679279 -0.019970806 -1.1056712 -0.36783683 -0.10005881 0.12008263 0.46471855 0.4328929 0.7382197 0.051867247 -0.27604243 -1.1306127 0.31169188 -0.4621033 -0.41758817 -0.12516554 -0.7921077 0.47997755 0.31953228 0.17819281 0.51126534 -0.058390055
Newtonsoft.Json.Linq.JObject 0.049209528 0.100123234 0.16828434 -0.2993353 -0.26707143 -0.8221484 -0.0015990044 -0.46712077 -0.7426031 0.2583026 0.35375205 -0.21122934 -0.18273278 0.19581316 0.104325905 0.2779644 0.020518607 0.55738676 0.25014266 -0.15601693 0.5533447 -0.12940063 0.033695087 0.22768936 -0.63691705 -0.3599884 -0.4114805 0.28402588 0.26115188 -0.11369313 -0.37482822 -0.08435686 0.5117632 -0.2670713 -0.20078869 -0.042038534 0.6333373 -0.5944208 -0.23508464 -1.126629 -1.2716657 -0.6217767 -0.33304143 -0.58327436 -0.52635026 0.12813286 0.042118654 -0.17068554 0.8910898 -0.18119171
try -0.34322003 -0.3650158 1.1353188 -0.24325234 -0.22500336 -0.79728365 0.47984028 -0.70204216 -1.1795417 -1.2833215 0.17257713 0.33048803 0.5739012 0.22991905 -0.26643094 -0.833879 0.6791362 -0.29738387 -0.031061346 -0.032362793 -0.16877382 -0.48901993 -0.32073465 -0.47156712 -0.4398761 -0.4308951 -0.40700912 -0.52178276 -0.94437486 -0.37637004 -0.95073164 -1.0510588 -0.25794142 -0.35871148 -0.5871539 -1.0475414 1.0219852 -0.46737945 0.6560527 -0.41335773 -0.29856557 -0.36820182 0.48047528 -0.19123253 -0.40644392 0.6219733 -0.38857517 -0.1494386 0.32592282 -0.71071255
Newtonsoft.Json4.Linq.JProperty 0.07007918 -0.056848735 0.8267332 -0.1739252 -0.103809655 -0.6921677 0.107936285 0.5221297 -0.19947973 -0.4552733 0.6816374 0.15674305 0.524692 0.10227995 -0.3083594 0.1975956 0.06958612 0.44409284 0.13675918 -0.33614093 0.2074484 -0.19215532 0.3032352 -0.6534269 -0.3328094 -0.24983828 -0.609649 -0.0675886 -0.5355289 -0.16097066 -0.13715294 -0.064006805 -0.37717536 0.24574544 -0.25625625 0.28853324 0.37035158 -0.013439926 -0.17608035 -0.66375977 -0.5563979 -0.34998912 0.28213426 0.39333114 -0.11550517 0.00642393 0.45236176 -0.19852109 0.85923874 -0.57375926
:: 0.8126212 -0.27513826 1.1268598 -0.17814735 -0.57677495 -1.509878 -0.07749311 -0.11543226 0.059228368 -0.13149753 0.38033926 -0.5393787 -0.46527553 0.49492547 -0.49038878 0.091172196 -0.313422 1.0236906 0.04151332 -0.89279103 0.06588986 -0.605908 0.1284961 0.28288305 -0.645488 -0.20711441 -1.0521829 0.5338536 0.22001791 0.1878001 0.10186221 -0.06401234 -0.5543045 0.3489862 0.14494544 -0.46979055 -0.02006472 -0.7752504 -0.11537997 -0.6771282 -1.6197958 -0.8000353 -0.48662913 -0.2680147 0.16055068 -0.10902394 0.5789809 0.47809467 0.80622345 -0.69944715
catch 0.1308586 -0.1997917 0.6254353 -0.5187327 -0.25378418 -1.0740536 0.22201225 -0.01927046 -0.7915974 -1.3942667 0.44439074 -0.23709436 0.1184291 0.84309316 -1.0268409 -0.8276592 1.08614 -0.04639274 0.2334062 -0.6421124 -0.15684782 -1.0124822 -0.2687039 -0.55343455 -0.7325075 -0.700528 -0.09982343 -1.162327 -0.5467001 0.090508 -1.0570443 0.007634691 0.26647535 -0.32829267 -0.4095933 -0.93468803 0.48920524 -0.012050841 -0.22187446 0.30439657 -0.24239397 -0.9964167 0.79598165 -0.12279685 -0.33903626 0.7009391 -0.47159994 -0.47811767 0.63667357 -0.904377
Mapbox.Json.Linq.JObject 0.37591454 -0.027517661 1.0633826 -0.45643622 -0.024235917 -0.9898198 -0.04068119 0.48667195 -0.4863577 -0.6464589 0.37380487 -0.036600612 0.39672256 -0.017524693 -0.09423313 0.090841435 0.06744974 0.50168425 0.016718488 -0.15944318 0.7192442 -0.25194907 -0.19189775 -0.7908833 -0.32929245 0.00592032 -0.69267637 0.6151984 -0.08381348 -0.14421888 -0.58699876 -0.2722824 -0.024191849 -0.23507412 -0.7072571 -0.27283454 0.9257621 0.13757299 0.017415637 -0.6415803 -1.0974236 -0.25554118 0.19900618 0.0144430855 0.2168803 0.42142949 0.38298678 -0.1981926 0.9448153 -0.6849254
List.Add() 0.47038922 0.15383673 -0.004769701 -0.69346416 0.3833455 -0.32825866 0.21119876 -0.3533519 -0.79432094 -1.3444306 0.19374944 -0.74951816 0.03499917 0.739096 -0.87367684 0.41217938 0.6773597 -0.52356017 -0.3337168 0.07909929 1.0709708 -0.58705467 0.11257361 -0.7076904 0.16710016 -0.55070615 -0.68990296 -0.91061264 -1.0846722 0.22086015 -0.6832413 0.50550926 -0.055679113 0.6590468 -0.76228374 -0.30429634 0.7313025 -0.062214874 0.17240143 -0.24656096 -0.6131032 0.031238876 0.63299054 -0.6795175 0.119761094 -0.024692709 0.1997393 1.2028204 -0.14310661 -0.61143965
Newtonsoft.Json4.JsonTextReader -0.04633438 -0.20450287 0.06978735 -0.5270023 0.13223545 -0.51724 0.5819562 -0.33453542 -0.258521 0.20340325 0.43464544 -0.14103949 -0.09182135 0.22040264 -0.3216973 -0.24876417 0.037446193 -0.2100021 0.022435866 -0.20353657 0.076045245 -0.45066 -0.22819094 0.360184 -0.6213616 -0.6937987 -0.4474583 0.22727208 0.21158957 0.5913977 -0.37409076 -0.26438436 -0.29813287 -0.20385517 -0.064142704 -0.2973403 -0.17691016 -0.5756326 -0.18495671 -0.24281839 -0.5612687 -0.22975887 0.008960924 -0.56689477 0.14882858 -0.28589574 -0.15132616 -0.12617795 0.43187478 0.00871522
async 0.8368069 0.4085 1.0340322 -0.38668305 -0.49684283 -0.4084 1.1066928 0.3064804 -0.60088325 -0.6455607 0.29006153 -0.707742 -0.03267047 -0.046915643 -0.18507051 -0.30556178 0.029109344 -0.45254716 -0.3110588 0.34239358 0.9799171 -0.2585571 -0.109406024 -1.0908524 0.27669892 -0.34832352 -0.40477517 0.3399028 -0.07881513 -0.27817515 -0.337099 -0.71369565 -0.50630915 -0.82104075 -0.49006963 0.07014131 0.5092835 0.12655427 -0.2440735 -0.74604416 -0.4174201 0.4853106 -0.74098665 -0.19094825 0.028351303 0.271128 0.25991344 -0.10054049 0.82158214 -0.17202777
Newtonsoft.Json.JsonTextReader 0.21523254 -0.38722008 -0.09618421 -1.3184961 0.07660249 -1.1211668 0.5204565 -0.7320914 -1.0809351 -0.046183117 0.7425596 -0.6532502 -0.30994633 0.6369722 -0.46364912 -0.43033475 -0.22558679 -0.5898503 0.21086341 -0.5037139 0.4190058 -0.98853844 -0.13194689 0.5347766 -0.6025032 -1.1614848 -0.6173656 0.34918842 -0.07355792 0.60814 -0.7590839 -0.4642251 -0.38221195 -0.043496188 -0.04259319 -0.5113879 -0.31599048 -0.95718056 -0.56838655 -0.22943556 -0.9397112 -0.32141128 -0.19524291 -1.1869627 -0.08732792 -0.29061553 -0.29145598 -0.24433996 0.58335906 -0.3961205
Newtonsoft.Json4.Linq.JValue 0.3212183 0.21767332 0.2656703 -0.39273202 -0.05085622 -0.15510626 0.39713567 -0.019905446 -0.061789256 -0.38714704 0.48611602 -0.2796504 0.34691647 -0.18359213 -0.18655898 0.18702127 -0.122025296 0.053718295 0.2376708 -0.020467428 0.35606253 -0.18604358 0.13651897 -0.5130563 -0.2783852 -0.16260748 -0.33093426 -0.2581739 -0.07819978 -0.095532306 -0.38987848 0.073973596 0.045630038 -0.09471781 -0.32710913 -0.03344192 0.43845844 -0.3459178 -0.09026253 -0.8372448 -0.76918167 0.1840455 0.07329079 -0.1792379 -0.011668282 0.063149996 0.2620647 -0.32716718 0.12081105 -0.31516603
DateTime 0.14645207 -0.093783095 0.39061344 -0.23881009 -0.47809234 -0.5849674 -0.2686139 -1.017845 -0.9011327 -0.70440495 0.3101021 0.5165806 0.4821498 1.1342643 0.38425183 0.0818509 0.7608099 -0.18665966 0.5457721 -1.1560938 0.25817385 -1.0755076 0.026823554 -0.07063415 -0.30190617 -0.9022967 -0.49529126 0.36520115 0.5485332 -0.26934546 -1.1744006 -0.6017452 0.40752968 0.05640646 -0.63478345 -0.12074373 -0.85541934 -1.4876621 -0.49640244 -0.36898667 -0.25496557 -0.25195608 -0.3643555 -0.6522438 -0.5685514 0.3304102 0.53877515 0.80789495 0.7686337 0.56053853
BsonReader.ReadAsync() 0.002314986 0.003921974 0.005229276 -0.0010780317 -0.0003648533 0.0049023875 0.0020494587 0.006029324 -0.0030257462 0.0008215312 0.0019772043 0.0034553965 0.005028051 -0.004560144 -0.0012897775 0.0008557004 0.007857673 -0.009573646 0.0092752725 -0.0054832194 -0.007824449 0.0032077243 -0.001953291 0.008421432 0.0047255307 0.0075509376 -0.0063859127 -0.0041956264 0.0016316811 0.0045872657 -0.009691719 0.009596295 -0.0030717317 0.00871153 -0.007209294 -0.0027647861 -0.0007219583 -0.0079256 0.0062818006 0.0044640247 0.0007879658 0.002557111 -0.0060240203 -0.0036281017 0.0032946256 0.008539041 0.0060256626 0.004066134 0.0015499666 0.006187488
new
static 0.772849 -0.6712998 0.99719906 0.38883743 -0.5672421 0.16598684 0.117540784 -0.8096032 -0.28039643 -0.88486433 0.6516958 -0.5240575 0.0068837977 0.121521875 -0.21404016 0.081180096 -0.31208313 0.4945749 -0.06534568 -0.08490924 -0.01405221 -0.16131029 0.03244115 0.33324707 0.133516 -0.20075926 -0.9645696 0.4831456 -0.7945891 0.3669706 -0.88446057 -0.3249867 -0.67634857 0.104958974 -0.009893576 -0.25259206 -0.54084903 -0.33278695 0.7561447 -0.3900359 -0.28839153 -0.5818439 -0.0114473 -0.56096494 -0.94500077 -0.099613 -0.06574426 0.5221543 1.2544503 -0.957975
FormattingIndented 0.17118365 0.02428607 0.22482221 -0.0562956 -0.11032977 -0.25610217 0.27654025 -0.075560525 0.0054630013 -0.07578303 0.23606952 -0.058618676 -0.04233813 -0.02408581 -0.24862625 0.083566405 0.025926292 0.17591888 -0.09480674 -0.09863057 0.23933102 0.06896079 0.060984112 0.08651991 -0.14641929 -0.110391 -0.33345416 0.10392496 0.06329855 0.052661773 -0.084161535 0.030077124 -0.071275935 -0.17754604 0.014664486 -0.0688343 0.20167026 -0.2370517 -0.15779847 -0.36583084 -0.36750305 -0.066550836 -0.08387755 0.08379444 0.17586012 -0.06563316 0.061091274 0.02435127 0.22694278 0.029660903
Newtonsoft.Json4.Schema.JsonSchema -0.2703708 0.7650168 -0.1836958 -0.31660593 0.029084925 -0.305234 0.60157937 -0.30208874 -0.5690533 -0.46385276 0.21426123 -0.19911985 0.61395955 -0.3635929 -0.29857868 -0.25063547 0.04813859 0.04197031 0.53771025 0.27331138 0.88764817 -0.26714677 0.33137834 -0.6521239 -0.94029814 -0.5147684 -0.7747128 -0.20299679 0.09604598 0.09970205 -0.2203824 -0.38663605 0.26647824 -0.04630214 -0.16324258 0.091534086 0.5683898 -0.5101967 -0.23212384 -0.5090458 -0.86010736 0.6740247 0.35267985 -0.56311715 -0.15623735 0.0608031 0.42566487 -0.6483423 -0.37489152 -0.034032907
new
override -0.025424836 -0.68390155 0.84768414 -0.26968095 0.16960214 -0.68693507 -0.029493125 0.00061127136 -0.69620615 -0.381821 0.6244111 -0.40144166 0.4417852 -0.30293328 -0.6108149 -0.34693226 -0.16748574 1.2016805 -0.7633846 -0.8250714 0.37118506 -0.82559925 0.21725604 -0.023587344 0.10200273 -1.3777227 -0.65599346 -0.29226312 -0.23086475 -0.37083253 -1.0507938 0.16382946 -0.12803331 0.25844148 -0.8211377 0.12964612 -0.12725641 0.72002643 -0.1256046 -0.2557138 -0.19493142 -0.3345097 0.15834548 0.00671989 -0.5012322 -0.10259028 -0.02387448 -0.8341089 0.5731395 -0.63474345
yield 1.2109933 0.27500838 1.1036285 -0.45389944 -0.6567236 -0.50986725 0.48663202 0.057083476 -0.7046435 -0.9393728 0.74306583 -1.1162897 -0.84072214 -0.41083598 -0.4901667 -0.5904763 -0.18886077 1.3313196 -0.263588 -1.3795815 0.78753334 -0.32358438 -0.7173665 -1.1853642 -0.5159761 -0.02708555 -1.6117327 0.5551945 -0.6530901 -0.03921504 -0.20044452 -0.5116877 -0.13632858 0.41756982 -1.678355 0.13055016 0.5540136 -0.051632695 0.024731152 -0.4853746 -0.6024072 -0.5678727 -0.99462765 -0.62762076 -0.15723173 -0.5049593 0.73459506 0.042629477 0.1125514 -1.0955192
Newtonsoft.Json4.Linq.JToken -0.15412493 0.3610201 0.56626153 -0.62407285 0.065982595 -0.38451245 0.043832667 0.044500086 -0.4634962 -0.7303251 0.64572525 -0.16085891 0.6990052 0.07046367 0.06554929 0.20573568 0.018849434 0.35486662 0.19379202 -0.13921559 0.9187747 -0.33661395 -0.06195786 -1.275983 -0.38898373 -0.38372967 -0.75822115 0.46651292 -0.5174721 -0.05402422 -0.1215436 -0.18800719 -0.4552227 0.36947793 -0.8119578 0.07346634 0.6094191 0.10171927 -0.051124826 -0.6464502 -0.70603323 -0.17442988 0.44941264 -0.12613933 -0.44263744 0.49920064 0.6328728 -0.5742732 0.07621023 -0.6086726
BsonWriter.WriteValue() 0.15220194 0.1500482 0.44535288 -1.1559005 -0.329695 -0.28961143 0.4456884 -1.051479 -0.45490825 0.20396984 1.1005112 -0.07654412 -0.48303103 0.57781714 -0.7807795 -0.27997342 0.09858844 0.5545714 0.027035289 -0.98447484 1.1097612 0.03998461 -0.915925 0.2069971 -1.0112815 -0.3147756 -0.810312 0.76564956 0.034674026 0.22090109 -0.5573716 0.24516629 0.48047215 -0.49951237 -0.24180242 0.5130406 0.3137274 -1.6002558 -0.6200807 -0.75219333 -0.38083652 -0.7698547 -1.5751557 -0.72840905 -0.28432512 -0.8227112 0.014598707 -0.115530126 0.3529597 0.5679686
JsonTextReader.Read()
decl_stmt 0.13617046 -0.34077418 -0.006433102 -1.3581488 0.22862582 -1.0359272 0.7139443 -0.91997755 -0.8464913 0.06325816 0.8602699 -0.68628365 -0.28619 0.4936294 -0.59624803 -0.33992755 -0.26390234 -0.63328373 0.18982774 -0.505014 0.39090687 -1.0714325 -0.18334174 0.5970475 -0.76039386 -1.2960094 -0.808634 0.4695506 0.049803182 0.59110075 -0.64471906 -0.3627466 -0.33159283 -0.274885 -0.15822148 -0.4362609 -0.46422586 -0.92746484 -0.5677933 -0.07528601 -0.73337376 -0.38541064 -0.0880849 -1.095997 -0.01615542 -0.41268137 -0.3921443 -0.3687131 0.56238663 -0.25727165
StringWriter 0.30694067 0.19203688 0.43634877 -0.18345843 -0.058867067 -0.44550627 -0.02981339 0.031532906 -0.55475867 0.24746086 0.66171056 -0.16732483 0.10752759 0.20503974 -0.5294859 0.09808284 -0.29876095 0.20122606 -0.12661216 -0.85924107 0.044696312 -0.45566818 0.55719113 0.285881 0.4182713 -0.39613742 -0.43940085 -0.111504845 -0.67250174 -0.015980937 -0.69632983 -0.66714275 -0.6212478 0.46305618 0.4476552 -0.4681067 -0.27857348 -1.13604 -0.25754076 -0.2961333 -0.4569684 -0.9897879 -0.180649 -0.86647236 0.63849396 -0.03618245 0.36411127 0.4088415 0.7285009 -0.072276115
float 0.3537497 0.37948927 0.33412325 -0.88237447 -0.38671932 -0.24656902 0.39004958 -0.9815751 -0.18706453 -0.76083493 1.0831149 -0.31776896 0.52855575 0.059915755 -0.7069971 -0.53352654 1.0418149 0.1853209 0.17769419 -0.8637233 -0.04592776 -1.0673711 -1.1587951 -0.30397034 -1.4992272 -1.3111739 -1.476274 0.10822469 -0.35360852 0.6084807 -0.69674194 -0.23201188 0.053840805 0.25187442 -1.454959 0.30389658 -0.061739814 -1.1178622 -0.0007369895 0.015840484 0.5755136 -0.63763416 -0.18892953 -1.0400981 -0.81148833 -0.17358391 -0.07183747 -0.53905904 0.49615827 0.5201524
object.GetType() 0.32758975 0.04283798 0.17331947 -0.69821775 -0.67682356 0.016830327 -0.09624291 -0.3874345 -0.6906494 -1.0813202 0.21253318 -0.6731872 0.74981487 0.9636134 -0.3578601 1.3424592 0.4708481 0.43229598 0.08547174 -0.5888618 -0.011543258 -1.1548295 0.0019616787 -0.8330497 -0.25064024 -0.0132315 -0.6898649 -1.0269397 -0.49343696 -0.09397148 -1.6742917 0.03549405 -0.8779899 0.038739957 0.022697408 -0.21890502 0.35587204 0.28919178 -0.037402675 -0.4947807 0.15292741 -0.4486937 0.23537533 -0.27635595 -1.0240151 -0.27349573 -0.40612984 -0.32420057 0.27829978 0.10264514
=
static 0.590435 0.2926474 0.6169675 0.6403992 -0.63142765 0.038979705 0.02175404 -0.1383244 -0.15049118 -1.185143 0.73446363 -0.34633437 0.09692651 0.758454 0.05105224 0.028615424 -0.04036903 0.25797075 -0.20188797 -0.2274737 0.7893445 -0.7369819 0.1429092 0.3280319 0.39342907 -0.2112464 -0.5740656 -0.11192281 -0.9078645 -0.06115744 -0.50864935 -0.1730013 -0.5856495 -0.110102706 -0.3038268 -0.61406815 -0.35656956 -0.121328704 -0.57852674 -0.088911004 -0.8262193 -0.35212752 -0.23833816 -0.4896104 -0.5645859 0.37044796 0.01424294 0.37297162 1.3901935 -0.41683707
override 0.433493 0.20377773 1.3690726 -0.61814356 -0.06988693 -0.88942736 0.028044231 0.02881585 -0.31623954 -0.26802972 0.91285115 0.35325965 0.8667388 -0.07561066 -1.2162813 -0.30782786 -0.51760256 1.0703347 0.30907834 -0.17590475 -0.34704733 -0.18533213 -1.2096375 -1.3970417 -1.048209 -0.48007494 -0.24869196 0.51706034 -1.043396 -0.47454 -0.63785946 -0.07879431 -0.25416544 0.64843446 -0.31948194 0.8702274 0.08473161 -0.47460836 0.51202863 -0.6684705 -0.2737507 -0.34661758 -0.02483064 0.37322035 -0.19877134 -0.19813266 0.47028363 -1.1671095 1.3911295 -0.71490294
<= 0.14800853 -0.29732066 0.3460466 0.035263967 0.25731048 0.22502337 0.8175353 0.27248234 -0.5526576 -0.09087187 0.8897508 -0.60378516 0.5690115 1.2980705 -0.5763448 0.04102387 0.73658913 0.9437952 -0.13858819 -0.047037784 0.93889415 0.14959382 -0.65886503 -0.5030438 -0.65552884 -0.84320587 -0.4307761 -0.00818124 -0.60150814 -0.07159708 -0.97874796 -0.048208307 0.30221435 -0.1818567 -0.28858206 0.0069059986 0.53580505 -0.4882196 -0.1230128 -1.0791028 0.5552533 -0.14315777 -0.44006512 -1.0310817 -0.81903905 -0.05242694 0.7227427 0.26427993 -0.03251558 -0.66379225
* 0.7123402 0.72375125 1.157906 -0.086569615 -0.7100521 -0.014424801 1.3760828 -0.6051202 -0.32699457 -0.47788617 0.9336414 -0.16519266 0.108210064 2.144566 0.03070167 -0.7741468 0.52051234 0.52670693 -0.26147163 0.17894956 0.0317819 -0.91623634 -0.70859146 -0.36290872 -0.74100405 -0.7975855 -0.17623025 0.19772266 -0.401654 -0.1450659 -0.6606556 -0.4249362 -0.558693 0.13755257 -0.5624031 -0.62367594 -0.11717473 -0.63009363 -0.36431473 -0.8870868 0.05773143 0.068109736 -0.7890048 -1.1097952 -0.2519137 -0.14515145 0.53032166 0.2502537 0.9722761 0.13297397
TextWriter.Write() -0.13210794 -0.22185506 1.2745855 -0.5720106 -0.45882145 -0.39400592 0.8276663 -0.7259078 -0.077148385 -1.352397 1.2813411 -0.21851026 0.18773519 1.8900437 -1.0435278 0.17474765 0.41793305 0.237442 -0.6552159 -0.16498561 1.3640587 -0.12922615 -0.14269179 -1.0697296 0.1460254 -1.2818177 0.4719456 0.47709563 -0.5008289 -0.21079889 -0.7540376 0.17415403 -0.69962966 0.49389628 -0.2505826 0.49154508 -1.059778 -1.5767242 -0.7399306 0.3220535 0.4699195 0.25101915 -1.2314974 0.0016143284 -0.2760532 -0.05609532 0.84929365 0.7341111 0.2455206 -0.5175482
/ 0.3339306 0.10129423 0.3666127 -0.14418595 -0.3617129 0.0019136472 1.7200211 -1.1664867 -0.43647382 -0.21591932 1.205628 0.08105878 0.14582533 1.1985526 -0.5162879 -0.72062856 0.68343717 0.6719388 -0.42305657 -0.04110086 0.16054414 -0.8423297 -1.1752026 -0.77316296 -0.52198595 -0.37658715 -0.36139593 -0.23166649 -0.18733211 0.6504332 -0.8566577 -0.60874856 -0.60687816 0.07966689 -0.7520112 -0.19001742 -0.35265124 -0.9491183 0.7103179 -1.0810614 -0.10620495 -0.02859272 -0.80845165 -0.98248696 0.51394683 -0.40383232 0.20603515 0.46021837 1.1690131 0.05571932
StringBuilder 1.1242212 0.29431787 -0.04971875 0.1419266 -0.09940652 0.34021938 0.10619193 -0.5709833 -0.53076303 0.02374903 0.60487115 -0.38020408 -0.009304052 0.22749099 -0.49349698 -0.4843562 -0.09122128 -0.009491455 -0.54545677 -0.91682273 0.6053819 -0.80636686 0.08999899 -0.062024817 0.311193 -0.42832428 -0.36032206 -0.113654815 -0.35882038 -0.016521586 -0.736794 -0.9037755 -0.52494556 0.21017846 0.3463379 -1.1995134 -0.12611781 -1.0148326 -0.26709667 -0.5408104 -0.76100564 -0.39371952 -0.62367296 -1.3354694 0.4234009 -0.042861987 0.92053276 0.32899362 0.41541106 0.06633121
ulong 0.30416912 -0.5880168 0.40394366 -0.59621257 -0.53821737 0.7458293 0.5505659 -0.798682 -0.72806865 -0.52113223 1.3286568 -0.52063715 -0.040196322 0.45323735 -0.22057335 0.050114453 0.6136846 0.51837945 -0.0011873088 -0.07380595 1.0080707 -1.2543708 -1.1189982 -0.09200328 -0.99179333 -1.292246 -0.68835574 -0.26820368 -0.65236354 0.6841849 -0.6799756 -0.13503373 0.1551139 -0.58014023 -1.2697824 0.7322236 -0.14346212 -1.1284821 0.28664067 -0.017889246 0.36395475 -0.3677057 -0.87221897 -1.1309652 -0.3903767 -0.09929376 -0.31133056 -0.47565767 0.9889326 -0.6011996
Newtonsoft.Json.Linq.JArray 0.20073223 -0.1188356 0.7468334 -0.21610925 -0.027233582 -0.44276366 0.14628658 0.035351995 -0.10058555 -0.253581 0.34310976 -0.058930803 0.27822432 0.0754193 -0.4217657 0.35515028 0.10709808 0.4799591 0.2122871 -0.3307696 0.045730866 -0.19334233 0.235548 -0.27764368 -0.41836235 -0.3292543 -0.32264626 -0.1972198 -0.21769966 0.094674684 -0.4292092 0.04927891 -0.12832715 0.044794396 0.0012717197 0.27248555 0.05087774 -0.32304984 -0.20762025 -0.5688299 -0.47272328 -0.32186505 0.06382979 0.07077618 -0.15772836 -0.035953775 0.2419911 -0.07175055 0.53926986 -0.33669993
JsonValidatingReader.Value() 1.6041802 0.12560248 -0.0765085 -1.8382815 -0.1937888 -1.3707352 0.7102722 -1.467053 -0.6143784 -1.6227992 1.0896434 -1.427198 -0.19254003 -0.024563434 -1.5516194 -0.18302293 0.1607539 -0.38776556 0.070948005 -0.21755303 1.593723 -0.5839021 0.26794875 -0.7471952 -0.4018878 -0.8347604 -1.565175 0.19674893 -0.2231855 -0.17953277 -0.99121803 0.5463641 0.31137896 -0.6229436 0.061271053 -0.58653474 1.0803721 -0.89675975 -0.6018938 -0.425858 -1.2356108 0.7215531 -0.78848517 0.17165807 0.4092313 -0.26796964 -0.08130595 -0.39780158 -0.9111737 -0.2472544
Mapbox.Json.Linq.JProperty 0.08821809 0.04116898 0.8831937 -0.39422962 -0.048294898 -0.5685 0.021503164 0.5514492 -0.21825482 -0.4190586 0.72417396 0.11616486 0.53008413 -0.079765014 -0.39154527 0.30376855 0.16016538 0.49491343 0.0888294 -0.38880074 0.36114058 -0.16099536 0.2242218 -0.82275933 -0.39213103 -0.23850466 -0.6916569 -0.025937783 -0.49737087 -0.4022976 -0.1982785 -0.08711463 -0.333172 0.17742105 -0.47750828 0.17195064 0.45605204 0.016860347 -0.106409244 -0.7090034 -0.47841364 -0.4076443 0.29081973 0.33615786 -0.2133794 0.04707489 0.52679586 -0.2889091 0.7965221 -0.49802944
IList.Add() 0.9988488 0.53123426 0.20942135 -0.13077752 -1.1237468 -0.7689384 -0.53308755 -0.090393536 0.018613072 -1.5251726 0.33808193 0.042511366 0.2168782 -0.020876482 -1.2351465 0.035112094 0.6070154 0.0011998825 -0.9436997 0.41933623 0.36486825 0.033090804 0.48801076 -0.34892684 -0.36188763 -1.089822 -0.34888107 0.026965132 -0.89252025 0.47117588 -0.4559477 0.22594082 -0.554429 0.49544412 0.30454257 -1.0309356 0.3733841 -0.2430319 -0.5920684 0.023482025 -1.1439023 0.4009778 0.20252284 -0.8714884 0.5910852 -0.046941876 -0.02189464 -0.4503202 0.20587839 0.03609909
Newtonsoft.Json.Linq.JProperty 0.22135033 -0.11531789 0.75625837 -0.3338794 -0.046883855 -0.64975125 -0.06119677 0.13977724 -0.034995098 -0.2728957 0.33479056 -0.054431964 0.49551085 0.019067042 -0.57409763 0.49732777 0.03865993 0.4369779 0.3022822 -0.3324054 0.06956349 -0.0061037336 0.33836436 -0.39898533 -0.32795736 -0.2456748 -0.43641672 -0.017159037 -0.21910085 0.004115036 -0.39442474 -0.09508492 -0.21098539 0.00840797 0.030844733 0.31491306 0.26639265 -0.15337162 -0.17410395 -0.5122516 -0.5555981 -0.34574822 0.11547745 0.23183931 -0.18227276 -0.1302208 0.28897634 -0.3371891 0.5994111 -0.23796484
int
decl_stmt 0.71086997 0.68111134 0.523348 -1.0237164 -0.2917914 -0.9253994 0.80853856 -0.56974256 -1.1330744 -0.673385 0.38385412 -0.63810194 -0.79011667 0.17933385 -0.11542043 -0.2965587 -0.119298264 0.30289337 -0.9021462 0.2782576 1.0223995 -0.82336736 -0.36074215 -0.073015235 -0.35106838 -0.5267458 -1.0508666 0.06422875 -0.030982343 -0.034461148 -0.25626618 -0.38494873 -0.26662037 0.023168476 -0.505704 -0.67644686 0.0063727335 -0.45097 0.13518754 0.010379548 -0.46806914 0.19724143 -0.34066525 -1.1152406 -0.23667136 0.5650092 -0.53372264 0.46636036 0.9772001 -0.01833143
Mapbox.Json.Linq.JArray 0.30115598 -0.07702041 0.9592083 -0.42079684 0.20243895 -0.7436027 0.1731794 0.25224507 -0.50697225 -0.45477486 0.33581734 -0.040058646 0.52984625 0.05517421 -0.17862254 0.14993483 -0.17206828 0.32717264 0.015741829 -0.1120272 0.64685154 -0.19901326 0.09861988 -0.48016718 -0.12352437 -0.19344552 -0.58726364 0.4815279 0.020907545 0.029170606 -0.7974227 -0.21666588 0.13824539 -0.3443403 -0.18266244 -0.43539554 0.5997561 -0.12375001 -0.2657559 -0.619859 -1.147147 -0.31860313 0.09390902 -0.05537791 0.1632483 0.6406827 0.18318297 -0.4920233 0.55829835 -0.27545407
JsonSerializer.Serialize() -0.14606775 0.008417465 -0.17725949 0.05783965 0.020627439 -1.0092605 0.5819073 -0.5102843 -1.1687125 0.18603303 0.97964245 -0.039110426 0.37194163 2.8129069e-05 -0.6498597 0.38051957 0.087496914 -0.4135263 0.27287632 -0.8187473 0.8776762 0.20632012 0.7510357 -0.44941446 0.52736753 -0.2920763 -0.32960337 -0.80918115 -0.58566886 -0.13300642 -1.3711214 -0.2483165 0.16234465 -0.46218097 0.022382868 -0.863187 0.43540716 -0.9551125 -0.18938437 0.09356019 -0.5123123 -0.5695336 -0.025821928 -0.13373454 0.072281316 0.54215914 -0.31446168 -0.84666073 0.7171516 0.521747
Dictionary 0.012160833 -0.15844932 -0.13991015 0.010711814 0.087493815 -0.85450935 0.6024697 -0.30545655 -0.9990617 -1.0333647 0.8315673 -0.24326436 -0.044768162 0.22491597 -0.6930976 -0.7563899 0.34033158 -0.4739935 -0.40269652 -0.5825823 0.34822872 0.0040404783 -0.0040769572 -0.812105 0.5297287 -0.9353673 -0.9606419 -0.5496628 -0.34380156 0.333573 0.37721512 -0.83931255 -0.8084104 0.5379082 -0.20314075 -0.115877084 0.28383595 0.4284942 0.06567324 -0.74590975 -0.14869441 -0.06802074 0.024258072 0.44935974 -0.115306556 -0.507999 0.7538644 1.1780243 0.642504 -0.29217768
pragma 1.0977467 0.5534381 0.1660553 -0.94575477 -0.29621616 0.2630955 -0.06890168 -0.617838 -0.55181646 -0.5633309 0.6955388 -0.8445242 -0.04431312 -0.13505556 0.11384252 0.11224612 0.27524376 0.1122292 -0.42163506 -0.21595797 1.1842178 -0.65828514 0.0560924 -0.2829677 -0.3798232 -0.92210084 -0.7397479 -0.9967782 -0.47308958 0.3300818 0.303234 -0.40455645 -0.8280532 -0.28751317 -0.6540047 0.49093914 0.13149928 -0.06503471 0.66800755 -0.73685044 -0.15372425 -0.50664407 -0.16576006 -0.11782112 0.38333967 -0.21733722 0.2877627 1.6427824 0.83507437 -0.13995385
JsonTextWriter.WriteValue() 0.45849258 -0.012097317 0.96511126 -1.2981222 0.1308076 -0.79752237 0.5334446 -1.4376404 -0.66247386 -0.7922962 1.3043481 -0.62237245 -0.048628353 -0.81234044 -0.8407907 -0.1921912 -0.32221675 0.19059789 -0.07378593 -1.5523206 1.4445527 -0.7463785 -0.2110603 0.13798311 -0.19307935 -1.6858248 -1.5721737 0.3977374 1.0698255 -0.37751254 -1.3276905 0.036256727 -0.70802486 -0.5096005 -0.47356203 0.08318343 -0.7335592 -1.1952355 -0.9910943 0.12139678 0.3426365 -0.1655958 -1.072691 0.245016 0.5791695 -0.5686132 -0.39317715 -0.21245402 0.526016 0.97956675
JsonValidatingReader.Read()
decl_stmt 1.2336777 0.5279382 -0.41287532 -1.4447188 -0.50679296 -0.9957164 0.5584246 -1.3408899 -1.0285864 -1.1717311 0.43158156 -1.3178885 -0.14392664 0.38744673 -0.9128486 -0.12990838 0.016288659 0.050709445 0.44512767 0.33269185 1.6539649 -0.6886959 0.29771477 -0.9480265 -0.5369129 -0.3531593 -1.163541 0.30709472 -0.38390753 -0.33036065 -0.60624737 -0.04765374 0.7305454 -0.43201745 -0.23881418 -0.19711836 1.1723179 -0.71635115 -0.23916773 -0.7281721 -1.1123153 0.30382243 -0.61196655 -0.27897266 -0.0102022635 0.08586788 0.18436785 -0.3092797 -0.9636851 -0.12400975
string
decl_stmt 0.65421176 0.28259587 -0.21298854 -0.6777446 -0.22558028 -0.6045221 0.55589795 -0.45511886 -0.52558017 -0.03986439 0.4752259 -0.48723733 -0.38415542 0.32524922 -0.087241046 -0.15830365 -0.15074073 0.055710267 -0.14105466 -0.28601775 0.67003965 -0.48949534 0.06933043 0.20429926 -0.19420998 -0.2588461 -0.5656263 0.06561755 0.17254344 0.020092791 -0.46281898 -0.22058229 0.36936656 -0.25855523 0.056679714 -0.39743924 0.37772638 -0.7424285 -0.14451423 -0.57453483 -0.5846077 -0.3351552 -0.60091543 -0.85544056 -0.2938391 0.2242491 -0.09351339 -0.08290978 0.4538879 0.22425488
JsonReader.ReadAndAssert() -0.24857341 0.44565102 0.15509076 -0.8447402 0.38086602 -0.7629247 -0.06452819 -0.26375148 -1.1637802 -0.5688051 -0.16853851 -0.9226921 0.18380661 0.5170302 -0.734494 1.2907046 0.7069916 0.122142516 -0.121532544 -0.5144847 0.9177765 -0.32361326 0.12026652 -1.2204239 0.39172927 -0.96609896 -1.2351416 0.20758691 0.08465003 0.098591566 -0.98980206 -0.93227684 -0.49281853 0.5364409 -0.0046034115 -0.7042829 0.5744085 -0.010167179 0.449349 -0.14865823 -0.3996677 -0.6206636 0.5421082 0.08942067 -0.68936247 0.3837263 0.23739403 0.028364744 -0.32671013 0.27725366
& 0.3144181 -0.31934893 1.9839938 -0.19753796 0.008105027 0.18223213 0.18706036 -0.05759082 -1.0762339 -0.16713446 0.6068966 -0.93933463 0.03955012 0.97264826 -0.15104635 -0.35281417 0.7044239 0.6297865 -0.3063479 -0.114339605 1.7271699 -0.90257406 -0.87584513 -0.48514596 -0.48006222 -1.5275893 0.04406534 -0.15420337 -0.05350689 0.010399534 -0.015249526 -1.3631386 -0.21380505 0.07410668 -1.1323098 0.5871512 -0.25652856 -1.3343333 -0.12015252 -0.6956697 -0.47525644 -0.28377134 -1.2295798 -0.7115093 -0.018041313 -0.19251773 0.22168508 1.7922126 1.0499072 -0.15917885
string.Substring() 0.22615735 -0.26701412 0.25588408 -0.88308764 0.37286395 0.0141759915 0.4633399 -1.2654266 -0.47663876 -1.2781132 0.3349871 -0.5699311 0.48716098 0.9676286 -0.5144645 -0.32971302 0.5929835 -0.76551735 -0.005590584 -0.26112533 0.9513723 -0.9025333 0.23466493 -1.3262603 0.067506574 -0.40597874 -0.24834271 -0.31192636 -0.6299901 0.26038653 -0.4790894 -0.23828265 0.33026463 -0.31002328 -0.35590816 -0.9625969 -0.6952049 -0.42463055 -0.62939817 -0.42520902 -0.7474246 -0.18948978 0.3318905 -0.70930845 -0.2084684 0.22992387 1.0825517 0.8944569 0.1796123 0.19362631
JsonWriter.WriteStartObject() 0.5481881 0.17998758 1.2247628 -0.9368678 -0.11424988 -0.32202238 0.095723875 -0.6434628 -0.7256788 -1.2801558 0.5053608 -0.7571066 0.42132613 -0.5985191 -0.63107276 0.16890019 0.41656896 0.017050955 -0.5652338 -0.8829587 0.6249502 0.007554423 -0.09982565 -1.1828436 0.19022536 -0.13037495 -0.5925509 -0.9454283 -0.6356858 -0.8956732 -1.2085454 1.1147957 0.16482519 -0.22492889 -0.75413585 0.055741303 0.9113863 0.08917117 0.19341885 -0.22124659 0.40111896 -0.23438516 -0.12758575 0.46202713 -0.01717864 -0.22067602 -0.032931827 -0.23519443 0.26421586 0.4218003
JArray.Add() 0.22363313 0.13519685 0.32484627 -0.3739914 -0.3202057 -0.5108068 0.48767662 -0.09811219 -0.20960101 -0.18394445 0.33232298 -0.13622744 0.008280077 0.02134397 -0.13188611 0.22548595 -0.10451999 0.21407443 0.23782846 -0.18854481 0.7984848 0.1422403 0.18992734 -0.21403436 -0.117239185 0.088355035 -0.8208219 0.26247862 0.051886342 -0.2903025 -0.26012293 0.31851512 -0.16766024 -0.5243426 -0.24561396 -0.30724275 0.50457954 -0.5331871 -0.32668298 -0.7496883 -0.95366925 -0.11623553 -0.13894266 0.022172067 0.12526359 0.06061492 -0.022633856 -0.47593164 0.4431457 -0.02142583
Newtonsoft.Json.Linq.JValue -0.016234443 0.21167074 0.72707385 -0.2825533 -0.08544238 -0.28758654 0.28127363 0.13228057 -0.009153358 -0.11173392 0.4749334 -0.046575993 0.38640952 -0.090233915 -0.3108015 0.3904866 0.12988286 0.18167287 0.118484624 -0.28923526 0.28135833 -0.05232546 0.03371098 -0.3835196 -0.3203356 -0.39843357 -0.43706036 -0.14532311 -0.07639587 0.04606985 -0.3149251 -0.13830358 -0.31087077 -0.107370555 -0.15140368 0.27046543 0.15833671 -0.2668054 -0.21313256 -0.55418044 -0.4057237 -0.24275382 -0.04764729 0.011217558 -0.0897791 -0.066826425 0.1422216 -0.31364727 0.5309276 -0.090742074
Newtonsoft.Json4.JsonSerializer 0.6145012 -0.026356993 0.67406267 0.23723543 -0.44189012 -0.14837207 0.5274991 0.062229823 -0.102831215 -0.13486478 0.33325937 -0.033931352 0.38440928 0.58706313 -0.37197182 0.05520637 0.046795864 0.43550366 -0.43431586 -0.23924042 0.2605726 -0.19828725 0.16976938 0.111929946 -0.1369465 -0.1087983 -0.55320334 -0.02583791 -0.7049282 0.2525457 -0.31668863 -0.5035448 -0.51824754 -0.0919481 -0.0055198944 -0.19743694 -0.09167775 -0.48482877 -0.1314489 -0.3352582 -0.5065682 -0.10498562 -0.022106385 -0.27720428 0.28284222 0.05091693 0.2859826 0.07476343 0.8870677 -0.13776782
MethodInfo 1.3052716 -0.082486495 0.96570474 0.17006566 -1.4661672 0.27095312 0.014793684 -0.41480714 0.13968593 -0.95950145 -0.066381656 -0.44141766 -0.35073757 0.3951134 -1.3289714 0.46463832 1.1106415 0.4300538 0.3223246 0.43243054 1.6561521 -0.51654 -0.14359261 -0.68089926 0.48541498 -0.58615446 -1.3232822 0.25147203 -0.1989472 -0.5386604 0.50205225 -0.31031793 -1.3305376 -0.3552077 -0.77302676 -0.31002596 0.02426995 -0.12890667 0.5602211 0.123384744 -0.28106302 -0.09810628 -0.2681054 -0.30034745 -0.25673515 -0.46642122 -0.3388143 0.34053382 1.119422 0.08684319
sbyte 0.8955575 0.64174473 0.32158053 -0.61853176 -0.5065725 0.41683397 0.35069495 -1.0283577 -0.297156 -0.8408468 0.67613643 -0.23991556 0.057915792 -0.5185184 -0.12353537 -0.37119013 0.11462392 0.35746112 -0.28440467 -0.32670483 1.4387994 -1.2650416 -0.80569553 -0.021256918 -0.6262966 -1.453316 -0.55806404 -0.35277277 -0.026275616 -0.27516812 -0.20107059 -0.5133937 0.44633275 -0.025927374 -1.360514 0.38851655 0.08867494 -1.2411608 0.15265962 -0.38079777 0.0487464 -0.31979883 -0.5699996 -1.4090298 -0.9268753 0.17076804 -0.008138952 0.0072145164 1.1950252 0.086711325
Mapbox.Json.JsonTextReader -0.006586233 0.006319382 0.0030870824 -0.0051382864 -0.004105997 0.0026845632 -0.003054373 0.0045877104 0.0043458375 0.0036087849 0.0038709603 0.0072659277 -0.0076663177 -0.0065168384 0.00013469759 -0.0099162785 0.0044058263 -0.0018345229 0.0063259657 -0.007614036 -0.007737509 0.006881968 -0.009764026 -0.0016454888 0.0097404085 -0.00650219 -0.009115098 -0.0022798297 -0.0015457332 0.0014571553 0.0008938112 0.0063761147 0.007164858 -0.00849 0.0003237605 -0.00023619067 0.0018827796 -0.009621569 -0.008443573 -0.0057900506 -0.0070979004 0.0045196633 -0.0012839016 0.0062638386 0.009561984 -0.006003066 0.0023905225 0.004993131 -0.0069622127 0.0075193876
JObject.Add() 0.3630451 0.21171986 0.43518472 -0.51866865 -0.49240544 -0.82824814 0.60930973 -0.28434315 -0.22316413 -0.38668168 0.38462967 -0.12920763 0.067750074 0.15660328 -0.2598092 0.33042067 -0.21089144 0.36516288 0.39578047 -0.2773594 1.2304618 0.23170806 0.26156312 -0.27694294 -0.072321616 0.30814403 -1.1578436 0.5089498 0.090532094 -0.4505442 -0.41128573 0.52970093 -0.13672242 -0.796067 -0.30127147 -0.40220398 0.60603774 -0.76142746 -0.553845 -0.9175574 -1.3022904 -0.15133561 -0.31658193 0.090640396 0.18354662 -0.0070288074 -0.11461709 -0.68356013 0.5695583 -0.108243965
do 0.19209602 0.26682657 0.62149787 -0.10709497 0.010323679 -0.059884243 0.36441025 -0.59837383 -1.3585919 -1.5174893 0.080207184 -0.3875836 0.40189955 0.4068585 -0.27603537 -0.49893686 0.13462235 0.081708014 0.038534176 -0.06930951 0.04503383 -1.034081 -0.03789132 -0.8792977 -0.20308791 -0.7293179 -0.3367297 -0.26788732 -0.023491455 0.030295307 -0.4676946 -1.3241929 -0.672539 0.45365173 -0.12951687 0.3414863 0.33518928 -0.53457433 0.4727502 -0.5617061 -0.13131267 0.13204977 0.23566009 -0.2189066 -0.363543 0.57503784 0.32318926 -0.09595651 0.18785198 0.06120194
Type.GetTypeInfo() 1.0443494 0.23182978 0.86221987 0.06738087 -1.2137227 0.27121234 0.12672055 -0.51324236 0.23799177 -1.5924295 0.53463846 -0.3349211 -0.36775887 0.029116832 -1.2770195 -0.14407213 0.14366263 0.73415375 -0.53594214 -0.72996247 0.92478305 -0.5046385 0.22017723 -0.20041193 0.2634834 -1.3042372 -1.2142289 0.2849154 -0.32102653 -0.17911312 -0.84959555 -0.23097862 -1.1889259 -0.33205923 -0.67219985 -0.31503934 -0.32554367 0.10852791 -0.029525517 0.6224156 0.4553908 -0.1886022 -0.43046737 0.40717137 0.19999261 -0.83302057 -0.056562748 0.014621235 0.7719959 -0.40643647
uint 0.24485497 0.29957908 0.81459594 -0.9722508 -0.67668533 0.066606194 0.609732 -0.87105113 -0.578041 -0.019213503 0.72602373 0.09872449 0.0131159695 0.8410348 0.6048304 0.1264043 0.633736 0.6858276 -0.3529922 -0.12526977 1.2170655 -0.8599577 -1.3442743 0.07156569 -1.217921 -1.1749713 -0.8602995 -0.044034917 0.23938687 0.2069336 -0.47335258 -0.8296023 -0.28776118 0.07640535 -1.0835956 0.80307806 -0.007540685 -0.92850494 0.041415185 -0.55495733 0.032622542 -0.43787295 -0.88232523 -1.2505269 -0.9783306 -0.3815638 0.1451546 0.7567647 1.6194881 -0.25088033
Newtonsoft.Json4.Bson.BsonReader 0.0057092253 -0.008736343 0.0018010461 -0.0023121678 -0.009449113 0.00021193863 0.00788379 -0.0021003496 0.0028286474 0.009833942 -0.0011781376 0.004830427 0.008442706 0.008805177 -0.003123778 -0.0075435466 -0.0016931947 0.0068991594 -0.0039587277 0.004038789 -0.006543972 0.008267602 0.0032756233 0.0014585622 0.004457833 0.008663298 -0.0022129316 0.009043328 -0.0008765221 0.003254253 -0.007508234 -0.0019083667 -0.0021554204 -0.007879772 0.006365901 0.009695137 0.009572561 0.004014887 -0.0055146706 -0.005091362 0.0027190957 -0.005853742 0.0045247586 -0.0047096554 0.0018793775 -0.0070190625 0.008698483 0.005193303 -0.0006259935 -0.008831078
Mapbox.Json.Linq.JToken 0.5677576 0.32512963 0.949424 -0.584745 0.049325872 -0.82122904 -0.025783041 0.35651776 -0.68018776 -0.9563785 0.42201644 -0.15846406 0.4077264 0.18432996 0.14497156 -0.1733158 0.29528508 -0.024880435 -0.03803271 -0.13606042 0.243019 -0.3508244 -0.11370428 -1.1424187 -0.11674099 -0.3280383 -0.90054476 0.23552974 -0.51141673 -0.09876659 -0.36782187 -0.4881267 -0.52020967 0.17134903 -0.60021245 -0.49349278 0.6816083 0.5988912 0.2788394 -0.7657673 -1.0344003 0.030092793 0.47028735 -0.120511286 -0.58866596 0.422733 -0.008129609 -0.83186775 0.6576631 -0.68553054
BinaryWriter.Write() 0.5579425 0.092876256 -0.14508969 -0.045090936 -0.006381486 0.5176262 -0.37001008 -1.4662567 -0.75322163 -1.378788 0.71451604 -0.4202698 -0.27851856 0.2604146 -0.8517563 -0.876759 0.3001958 1.040946 -0.03433193 -0.7209765 1.3789244 -0.755788 -0.44132128 -0.427012 -0.85811746 -0.56505954 -0.22305551 -0.36468294 -0.02798483 -0.39848378 0.02008903 0.38325024 0.75554097 -0.7170376 -0.7450993 0.67462826 0.21740246 -1.5920804 0.22390772 -0.9223958 -0.3178901 -0.49419278 -1.0286897 -0.5912193 -0.35068467 -0.42994404 0.54239726 0.72631896 0.30368346 0.5160622
endif
static 0.73962885 0.0932169 0.9732858 -0.43334308 -1.5046147 0.41800335 -0.013723771 -0.7107441 0.3527037 -1.4875058 0.40376815 0.17181982 -0.1623906 0.28816307 -0.35229313 -0.14862645 0.4452682 0.49863377 -0.29268077 -0.6486652 0.34394398 -0.59634787 0.2670744 -0.10661279 -0.21838403 -1.1401584 -1.0491537 0.16103742 -0.86498666 0.051876135 -0.6466243 -0.07715953 -1.0198839 -0.44221446 -0.95328087 -0.14736621 -0.2746112 -0.5014901 -0.3058535 0.13966154 0.28356263 0.07622183 -0.43668002 -0.31689122 -0.49378973 -0.30491978 -0.2828506 0.115760796 0.6837913 -0.5885078
ref -0.29724094 0.14923449 0.6918876 -0.41287884 -0.15229613 0.10731859 0.7797571 0.26169312 -1.368738 -1.0240031 -0.57055736 -0.4936995 0.72179097 1.2199514 -0.19925265 0.81173605 0.3507394 -0.15911527 -0.13567416 0.047909725 1.1684875 -0.57403994 -0.2527916 -0.697167 0.11047613 -0.90027636 -1.3724985 0.57144684 -1.1067865 0.073352 -0.46849024 -0.1775142 -0.49286377 0.4919383 -0.5023316 0.22231328 0.33702716 -0.30437097 0.364813 -0.08924438 -0.13538441 -0.27365398 0.12751336 -0.09475303 -0.5703991 0.43959162 0.1246711 0.73292875 0.4699652 -0.4487494
JsonWriter.WriteValue()
override -0.31189683 -0.14708112 1.0454184 -0.9143423 -0.028231518 -0.54829806 0.30972806 -1.3092134 -1.1959152 -0.9284686 0.61174935 -0.24897653 0.047107194 -0.9294081 -1.1755177 0.12277032 -0.10129939 0.31854185 0.3986895 -1.461884 1.6106285 -0.33727688 -0.16403489 -0.3314631 0.087665 -1.6778183 -1.324835 0.17588805 0.9521616 -0.35544825 -1.0111308 -0.18651487 -0.54040766 -0.7959348 -0.5653652 0.088579476 -0.3946219 -0.47154358 -0.3961939 0.09406448 0.30667153 -0.4038548 -0.7329995 0.529486 -0.26040164 -0.25007743 -0.40105882 0.19893295 0.3587569 0.93966484
MemoryStream.ToArray() -0.01264836 0.065916955 -0.089760706 -0.7453615 -0.32623783 -0.66448003 0.4994281 -0.9455854 -0.6948064 0.10827473 0.5141002 -0.2528633 -0.32214737 0.44441307 -0.24169162 0.04597206 0.13148428 0.26429617 0.03485371 -0.30723983 0.8381128 0.1074282 -0.04683313 0.20763347 -0.56807375 -0.3720845 -0.5287111 0.3255259 0.38159797 -0.13578396 -0.6010876 -0.015391349 0.32261384 -0.3529543 0.08403898 -0.04506188 0.31925994 -1.2544456 -0.48111308 -0.8852487 -0.84600395 -0.5452613 -0.6925103 -0.6674216 -0.32304323 -0.12706573 -0.0077948445 -0.106228255 0.46535036 0.53640443
:
override 1.2080984 0.72999376 1.204035 -1.484085 -1.1068258 -1.4235828 1.1679913 -0.2682314 -0.5070366 -0.15278108 0.25472787 -0.90047115 0.25636926 -0.12987486 -0.96874034 0.7400239 0.09380272 -0.4997375 -0.72607005 -0.058776774 1.4533011 -0.07301339 -0.42176282 -0.57237685 0.39282542 -0.33110353 -0.8541689 0.50526 0.0017790073 0.20639075 -0.45820227 -0.28097805 -0.9724166 -1.4175682 -0.28891146 0.21171705 0.5654101 0.46905538 -0.5282068 -0.5235086 0.22376032 -0.061467506 -0.52236056 0.27352676 0.80583006 -0.6842047 -0.584034 -0.6162927 1.8868412 0.38535124
JObject.SelectToken() -0.00027453995 -0.0016418021 -0.0030617604 -0.0023114944 -0.00025011157 -0.0059839273 -0.004569825 -0.00503999 -0.0053254785 -0.004677243 -0.007014687 0.009798119 -0.006396626 0.007903493 -0.009680431 -0.0009558765 0.0006680307 -0.007902155 0.0037106455 -0.008427277 -0.0023853835 -0.0057520512 0.0049083484 -0.004934833 -0.003651032 0.004908975 0.0051127477 0.004668307 0.0033549739 -0.009759271 0.008256016 -0.0012458194 0.0010380169 0.0032932071 0.00067603844 0.007161136 0.0049610985 0.0027474822 -0.0011739527 -0.009521193 -0.0022308214 -0.009104768 0.008028009 0.006803786 0.0055406145 0.0008794986 -0.0016240932 0.009751236 0.005673246 0.00673209
Newtonsoft.Json4.Linq.JPath 0.0062263412 0.008499941 -0.006651499 0.0023969917 -0.004238265 0.0013473504 -0.009396451 0.00012270384 0.00030969828 0.006563362 0.0038509122 -0.006529374 0.009938801 0.00918402 -0.0016257139 0.004804983 -0.006614356 0.0028339082 0.001238669 0.006828669 -0.009899707 -0.0041363086 -0.0043376912 0.006358718 0.007463338 0.004241881 0.008055171 0.008673057 -0.008100664 -0.004495796 -0.008893235 0.008995209 0.009782349 0.0011891266 -0.008351188 -0.0015287776 -0.0029635243 -0.0035480328 -0.0093535185 0.005654291 -0.0032324262 0.00310082 -0.008698271 -0.009148129 -0.0038696106 0.006689881 0.004461917 -0.00023910463 -0.0050534774 0.0020464456
Mapbox.Json.Linq.JValue 0.12729244 0.2383241 0.56512547 -0.1768809 -0.04497083 -0.20183115 0.32282963 0.14944318 -0.11003984 -0.4269816 0.46262568 -0.12467 0.36088756 -0.13371842 -0.31700158 0.29611427 0.13087256 0.30563867 0.033235487 -0.15643384 0.26431933 -0.1237434 -0.094133735 -0.5366989 -0.30747584 -0.3309742 -0.4088839 -0.090469666 -0.06921262 -0.13584326 -0.2830332 -0.08784494 -0.2680904 -0.021324448 -0.36383528 0.14338194 0.27506784 -0.19916214 -0.025650123 -0.72031134 -0.46769485 -0.16198623 0.1177198 -0.05057247 -0.17373581 0.057912104 0.29690632 -0.33607918 0.47189078 -0.14600797
Newtonsoft.Json.Schema.JSchema 0.0064137722 -0.009163813 0.0024319168 0.0066063227 -0.0005558523 -0.0027930678 -0.009691718 0.0066553615 0.00833496 0.0041215327 0.0017182746 -0.0016920684 0.007406655 -0.006293846 0.0039344872 0.0034722495 0.008960742 0.0019441685 -0.00019952924 -0.00441233 -0.0022383742 0.002252331 -0.009963906 0.008810316 0.0040444597 0.008524209 -0.004233056 -0.0034750917 0.0038491604 -0.0032849635 -0.008397188 -0.00159042 -0.004080714 -0.0044850274 0.005867805 -0.006207334 -0.00036619886 -0.008101697 0.0062977416 -0.0013944431 -0.008165123 0.0062866295 -0.0028461171 0.007181109 0.0055354633 0.00092631363 0.00023231677 -0.0037313364 0.0016309322 0.0008067601
Newtonsoft.Json.Schema.JsonSchema 0.76306623 0.4639335 -0.057776462 -0.5271317 -0.35128063 -0.6358703 0.061595514 -0.37765557 -0.19555894 -0.46194968 0.23859194 -0.5381703 0.441655 -0.02165826 -0.30578566 0.1372638 0.15585577 -0.23735125 0.48082426 -0.07158811 0.44077522 -0.20795463 0.6755974 -0.69454676 -0.095685385 -0.4159267 -0.5290336 -0.14040828 -0.23866785 -0.20568863 -0.5163899 -0.22760707 0.27184325 -0.118982896 0.17316163 0.057459246 0.6210991 -0.43733764 -0.12711231 -0.5202465 -0.9321361 0.33106488 -0.08318773 -0.19218585 0.30852568 0.03113396 0.6511693 -0.34798265 -0.08147657 -0.28740466
DateTimeOffset -0.2916018 -0.3067127 0.21787412 -0.44966343 -0.044011395 -0.42272094 -0.17314301 -0.618739 -0.808853 -0.4918013 0.543863 -0.16987857 -0.22744843 0.30656987 0.036622476 -0.16142164 0.7135 -0.09634397 0.62268966 -0.7383123 0.40548825 -1.1208059 -0.18224683 0.07295165 -0.30257678 -1.4208246 -0.68331283 0.35477975 0.41873264 0.014167256 -1.0585252 0.061085124 -0.6471521 -0.2465814 -1.1632582 -0.3021921 -0.78665143 -1.0816692 -0.32569483 -0.3446638 0.08961214 -0.78447974 -0.2843157 -0.74215716 -0.111209616 -0.15466923 0.49613118 1.009155 0.6791703 -0.16236609
const 0.08997924 0.96307427 0.24883369 -0.3522712 -0.5222093 -1.0215765 0.74532425 -0.619133 -0.99186 -1.0613883 0.9319182 -0.83183384 -0.5778538 1.0031661 -0.35061356 -0.8784076 0.12464115 0.25680533 -0.06697041 0.653185 0.1184466 -1.1282492 -1.2049477 -0.22956146 -0.24820364 -0.5383754 -0.77986234 0.69193745 0.21280576 0.17423311 -0.36329675 -0.45500368 0.09798576 -0.863375 0.28076804 -0.5318311 0.19939028 -0.7049989 -0.29175657 -1.0729694 -0.2697886 -0.5735069 -0.084874295 -0.8729877 0.46754572 0.6766146 0.14316307 0.18853216 1.0435032 0.7561397
JsonTextReader.ReadAsync()
async 0.0032641306 0.004794114 0.0037065307 0.0050597265 0.0032003706 0.00893578 -0.009939381 -0.00407614 -0.0071128802 -0.0049716434 0.0022978215 0.00075990567 0.008406039 0.0024083734 -0.0028935578 -0.007123883 -0.0040779305 -0.0005778898 -0.004124772 -0.004542829 0.0036507673 0.004539409 -0.0027668267 0.0073363334 -0.0066868155 0.0067827967 -0.0060830675 -0.007153247 -0.0020098616 -0.0055122515 -0.008864394 0.008228756 0.0007414128 0.007954588 -0.0066872546 0.0004656421 0.0019464943 -0.0080423355 -0.00818512 -0.009226863 0.009473089 -0.0015434832 -0.0005042734 0.0041551003 -0.009993256 -0.009377601 -0.0036123972 0.0028278306 -0.00033014908 0.0028860366
DataTable.Columns() 0.31347102 0.4152593 0.4351651 -0.16158786 0.019418033 -0.57491225 0.03611371 -0.34319222 -0.5952837 -0.43784028 -0.17112812 -0.2901423 -0.07001267 -0.12836565 -0.57750165 0.6590595 0.4227501 -0.06556739 -0.32836872 -0.0050682863 0.66028816 -0.43580264 0.38859612 -0.48345712 0.29250225 -0.8556528 -0.766387 -0.19952153 0.06077919 -0.09451144 -0.036986265 -0.32740593 -0.2409188 0.42666304 0.050273594 -0.2822505 0.101893105 0.16046129 0.22581391 -0.24958548 -0.9645206 0.007355937 0.42456013 0.039242215 -0.41330191 0.30356118 0.11168071 0.3561208 0.20711224 0.1439026
continue 0.5039759 -0.080065995 0.5622698 -0.11607372 0.48781338 -0.08856439 0.295681 0.34712672 -0.90726465 -1.4961646 0.507608 -0.08889226 0.48991743 0.26962015 -0.40054548 -0.6449687 1.1602952 -0.17613767 -0.31680074 0.34577927 0.3500118 -1.0686308 0.1938768 -1.1570877 0.24542023 -1.0205905 -0.91808236 -0.48040232 -0.1377884 -0.0862939 -0.5104058 -0.445116 -0.24276313 -0.13276657 -0.17784096 0.013352947 0.7490008 -0.5028051 0.72877234 -0.5632437 0.32627574 -0.35902625 0.20716053 0.15684472 0.04647563 0.826232 -0.14908151 0.11259694 0.3050968 -0.042354543
JsonReader.ReadAsync() -0.0060315975 -0.00166852 -0.0065843174 0.004098774 -0.008804062 -0.0024231393 0.007568724 -0.0008926211 0.00993198 -0.009964858 0.0031887852 0.005523984 0.006304802 -0.0043524937 -0.007105536 0.0032552718 -0.009081479 -0.0027164442 -0.00556935 1.4884353e-05 0.007839576 0.005155791 -0.00557158 0.00063457165 -0.009950403 -0.006854342 0.008303512 -0.00041776843 0.007078036 0.008065063 0.00015914903 0.0049684867 -0.008983484 -0.006853508 0.0067023663 0.0037514071 0.0069511565 -0.0006311085 -0.001446503 -0.0039847647 0.006002473 -0.006693473 4.0763898e-05 -0.0047169095 -0.0063343155 -0.0045755133 0.007932834 -0.003270512 0.0043015867 -0.006680612
MemoryStream.Seek() 0.17311142 0.11819725 -0.06368004 -0.6303489 -0.37377864 -0.62065625 0.56805557 -0.9493548 -0.42419404 0.13642019 0.5083701 -0.23024046 -0.231062 0.27398142 -0.55408025 0.23199637 0.22094822 0.09087641 -0.035202473 -0.27399376 0.8688262 0.1119903 0.070490904 0.2756641 -0.32551947 -0.3212147 -0.5904209 0.34006625 0.3596781 -0.04966017 -0.63588417 0.0065924227 0.3161281 -0.5092774 0.2999663 -0.32545716 0.27880797 -1.1589804 -0.45899874 -0.5865307 -0.7919341 -0.3546519 -0.64137435 -0.5099228 -0.04712637 -0.1579122 -0.16893135 -0.3737452 0.36332175 0.59498966
endregion -0.006369062 0.00959477 8.019696e-05 -0.00773056 -0.007830211 -0.0055497494 -0.0013429674 0.0024987312 0.0050079906 -0.0044744094 0.0051092324 -0.0013920978 0.008591989 0.004116987 -0.005816617 0.005104434 0.004595722 0.00854191 -0.0025360386 -4.5021745e-05 -0.007841355 0.002489222 -0.00095296593 -0.006517776 -0.0031479695 -0.0035789104 0.007876864 -0.00975982 0.0037992347 -0.004390887 0.0069605876 -0.009915877 -0.0013857048 -0.0065885163 -0.003285017 0.0075200214 -0.0025900519 -0.008019076 0.009041133 -0.007064106 -0.0052918256 -0.0050038374 0.009091747 -0.0026240959 0.00019162928 -0.008819131 -0.00085512915 -0.0048009213 -0.0049344525 -0.005155325
BsonWriter.WritePropertyName() 0.19883484 0.10797124 0.17153338 -0.68872434 -0.21304668 -0.29642412 0.34898353 -0.7031776 -0.41813746 0.22943756 0.86234754 -0.19658807 -0.4211433 0.5219721 -0.5725895 -0.21694788 0.077652104 0.4227954 -0.09269485 -0.63373303 0.9127442 -0.09883255 -0.2674772 0.20777795 -0.7561689 -0.299038 -0.6239415 0.4635541 0.23485692 0.009395962 -0.6493088 0.15909873 0.54216224 -0.30736214 0.26823652 0.029806612 0.38177788 -1.3537928 -0.5344521 -0.96331877 -0.7147478 -0.36675942 -1.055335 -0.5137989 -0.1942872 -0.6315613 0.036589608 -0.047790676 0.18705146 0.6082642
Newtonsoft.Json4.Bson.BsonWriter -0.0055571585 -0.0052601434 5.4092547e-05 -0.006069773 0.009439559 0.0020948702 -0.0047834157 0.0019139348 0.007803587 0.003456048 0.005224533 -0.004827438 0.0052932687 -0.004361978 -0.003944348 -0.0014012174 -0.0040147607 0.0032335129 0.0040153824 0.0064568 0.0040630773 -0.0042763003 0.0024611896 -0.00010605124 0.0018781734 0.005749928 0.009191665 -0.009352771 8.448663e-05 0.0045513716 0.0047246264 0.004547595 -0.006277188 -0.0070079467 -0.00837137 0.0099421 0.008505921 0.00457504 -0.00044638984 -0.00238831 -0.008629356 -0.00074482645 -0.0062974375 -0.0058497493 -0.0012510731 -0.00042690043 0.004208098 0.007844574 0.0075260205 0.009783987
BsonReader.Read()
decl_stmt 0.42244643 0.064260244 -0.21409681 -0.9727455 -0.2588018 -0.7014963 0.6264232 -1.3935163 -0.805527 0.11743206 0.41031036 -0.4587669 -0.22410499 0.62676626 -0.63871443 -0.30377856 0.4210925 -0.005593165 -0.40207905 -0.2204836 0.9385199 -0.3659311 -0.3463552 0.45409438 -0.76750416 -0.80421 -0.6661037 0.06412058 0.10165082 0.44225976 -0.532731 -0.52182686 0.4538231 -0.24458438 0.19914824 0.07793669 0.32094824 -1.3558885 -0.13866785 -0.556086 -0.6544646 -0.61358315 -0.8081633 -0.9888731 -0.4753016 -0.30289644 -0.24399664 0.31641456 0.42018524 0.7416196
JsonSchemaBuilder.Read() 0.0062242793 0.00443252 -0.005551056 0.00218727 -0.0088837985 0.0008910863 -0.0012013265 -0.009470237 0.0039922376 0.00049953716 0.0052227005 0.006568269 -0.009921516 -0.007691043 0.0014202128 -0.0055352747 -0.009163187 0.006882968 0.0043536923 -0.008401614 0.0017853723 0.0073520485 0.002642017 -0.0005352068 0.0035799728 -0.0013975016 0.009696764 -0.009262318 0.006951187 -0.0038134446 -0.0024774296 0.009262032 -0.009644495 0.0028977708 -0.0004872802 0.0094234515 0.006202461 0.009207786 0.0008815089 -0.0025877417 0.0069142226 0.006012043 -0.0076732812 0.0052466574 0.008726292 0.0047616726 -0.003578973 0.0075296303 0.009277708 0.0010016244
DataColumn 0.19097733 0.48530543 0.205077 -0.26673952 0.06524539 -0.56211454 0.20839782 -0.27628773 -0.5649158 -0.3790411 -0.017966293 -0.38714373 -0.10445853 -0.16238406 -0.55106086 0.4096426 0.26675534 0.22247893 -0.23656105 -0.026818678 0.6014588 -0.4047381 0.35984078 -0.39963543 0.2622099 -0.5627403 -0.8934847 -0.17760687 -0.015069851 -0.23508385 0.21811469 -0.38743287 -0.06158512 0.26003948 0.06291054 -0.29519168 0.23245974 0.16971594 0.092774905 -0.44715494 -0.8211721 -0.15165268 0.42360193 0.12141942 -0.26194152 0.27631593 0.20416197 0.117857076 0.050786074 0.033595625
Newtonsoft.Json4.JsonReader -0.44649723 0.5418783 -0.115782775 -0.55578655 0.22386041 -0.121631764 0.6947036 -0.41756985 -0.9300064 -0.13563275 0.42579266 -0.53191644 0.14876376 0.045643613 -0.08107477 0.21796231 -0.19249707 -0.009463292 0.1557981 0.23974465 0.9469214 -0.478111 -0.25597072 -0.46087912 -0.48731345 -0.50147766 -0.6804559 0.258918 0.1632086 0.12664701 -0.4051717 -0.41972452 0.14580639 0.12946542 -0.54786944 0.085191175 0.3977239 -0.47606683 0.032733526 -0.43884787 -0.93541336 0.22501144 0.034125682 -0.7018418 -0.5332168 0.31618392 0.018772207 -0.26154435 -0.080605246 -0.14344391
Newtonsoft.Json.Linq.JToken 0.31244415 -0.19740912 0.8486761 -0.090209074 -0.042752825 -0.5603149 -0.19046627 0.2661906 -0.33033532 -0.45499843 0.6075464 -0.18500331 0.407618 0.08986842 -0.28115904 -0.07849588 0.18824428 0.25444973 0.09004484 -0.1730966 -0.11280742 -0.5411201 0.10211615 -0.7842208 -0.22538917 -0.6129143 -0.2457218 -0.06509583 -0.3575428 0.14790672 -0.43831193 -0.6245994 -0.5536249 0.42227134 -0.3867075 -0.1853593 0.19560346 -0.39604238 0.15332374 -0.6241376 -0.8429934 -0.48240888 0.1223722 -0.3184126 -0.14588326 0.27048874 0.4205274 -0.45756358 0.56363726 -0.88411725
object.ToString() -0.071392 -0.58169556 0.6944886 -0.6972756 -0.1553846 -0.24918382 -0.14168768 -0.78767556 -0.3388352 -1.606203 0.642743 -0.42281783 0.107613705 0.2063232 -0.6209411 -0.26151866 1.1803045 -0.15017109 0.45882878 -0.89619523 -0.33746374 -0.2963229 -0.4622683 -0.931106 -0.5923534 -1.0075902 -0.20369287 -0.6179979 0.14843301 0.23063618 -1.1750668 -0.11820328 -0.6905923 -0.23680814 -0.5566019 0.48065045 -0.47138196 -1.0814654 0.66485924 -0.056518663 0.452339 -0.6964892 -0.27375615 0.04725693 -0.7166293 -0.35314304 -0.23259199 -0.7574798 0.8069606 0.68671095
Newtonsoft.Json4.JsonValidatingReader 0.9468098 0.36545163 -0.41400364 -1.1713161 -0.49365243 -0.99861354 0.5765538 -0.8583619 -1.2034742 -0.9035583 0.34680492 -1.2064307 -0.3392807 0.323028 -0.5750999 -0.17722918 0.040597294 -0.035867833 0.44574848 0.302018 1.286548 -0.6584723 0.14219794 -0.94566184 -0.4919153 -0.22687566 -1.178741 0.08428442 -0.30949602 -0.22580251 -0.70190984 -0.046427924 0.5553697 -0.30335924 -0.38575587 -0.29515162 1.0321267 -0.7899458 -0.10662488 -0.5487645 -1.2807143 0.4240392 -0.4956244 -0.49580187 -0.0013012203 0.21958719 -0.074128166 -0.306185 -0.56516427 -0.19863306
=
if 0.3025546 0.47699603 1.0635706 -0.097007126 -0.2982548 -0.13303302 0.36615473 0.47372746 -0.70941705 -1.3437834 0.70512104 -0.3724752 0.85711664 0.09939388 0.07761424 -0.6726522 -0.18005766 0.045266762 0.16664407 -0.09800136 0.37586772 -1.0727596 0.34224054 -0.8607241 -0.42712456 0.070852764 -0.61715597 -0.90391064 -0.28108993 0.07664432 0.15280269 -0.15228546 -0.21993561 -0.013070237 0.28895828 0.20990324 0.29724196 -0.26470855 -0.29157445 -0.08133966 -0.43951607 0.4435518 -0.13945988 -0.0052046804 -0.3894176 0.12501863 0.18577234 -0.41900322 0.5603549 -0.33007076
JsonSerializer.Deserialize() 0.08390938 0.20994088 -0.0675391 -0.4982602 0.1704303 -0.6693515 -0.033110097 -0.48393682 -0.7442787 0.011446611 0.10791691 -0.3905697 -0.35991558 0.010508044 -0.7530975 1.1172558 0.5510217 -0.26454723 -0.42951292 -0.3913542 0.48667532 -0.34963378 0.51277655 -0.19548947 0.17682073 -1.1667397 -0.69843924 -0.11490066 0.11544649 0.05651708 -0.68506324 -0.12855366 -0.21504648 0.48293602 0.3950507 -0.846484 0.07543326 -0.70672756 -0.09167698 -0.3345958 -0.8320919 -0.628129 0.36096358 -0.3225048 -0.18381758 0.22961721 -0.013466666 -0.007126967 -0.2398591 0.33989617
JObject.AddAnnotation() -0.001743023 0.006508889 -0.00012657446 0.0033454436 0.0033832304 -0.002220228 0.008507222 -0.00023169695 0.00025936923 -0.0076076365 -0.00085729494 0.005528146 -0.0002561075 -0.009366041 0.005568673 0.008875552 0.0072558722 -0.007954149 -0.0003433396 0.0062162867 -0.0008681743 0.0012694707 -0.001556024 -0.007151963 -0.00047427343 0.0027810668 -0.0025692647 0.005197308 0.004802152 0.005830568 -0.009642157 0.0036850113 6.449555e-05 0.0042015356 0.0047115074 0.006433171 -0.0014332498 -0.003179232 -0.0018177623 0.007820272 -0.0068708817 0.0021989436 -0.0035813602 0.001741028 -0.009438312 0.0068829125 -0.004829373 0.0065093776 -0.009669419 0.001361022
CancellationToken.FromCanceled()
virtual 0.0001975102 0.00736414 -0.0071412744 -0.003339541 -0.008944054 -0.0027069822 0.0012629278 0.0035369592 0.0055375816 0.001081226 0.009263665 0.007915195 0.0074421 0.0005228339 -0.0024288679 0.0016875067 0.007243834 0.0027522722 -0.003718529 -0.006047369 0.0013093658 0.0052753952 0.0006916085 0.003668306 8.6201864e-05 0.00082906656 -0.0035950874 0.0027013186 -0.007857997 0.004909703 0.007246797 0.0048700823 -0.0086615095 0.0037504677 0.0070003117 0.0037281888 -0.0001794186 -0.002257402 -0.0013031987 0.007014433 -0.008119072 0.0059009776 -0.000678972 -0.0012304641 -0.007972658 -0.001881741 3.049317e-05 -0.0023107762 0.008303945 0.005259476
Newtonsoft.Json.Bson.BsonReader 0.1407581 -0.09708846 -0.37267825 -0.79459566 -0.45812938 -0.94192564 0.42152807 -0.95751184 -1.2010492 0.19368476 0.3559162 -0.56263125 -0.41576317 0.63956946 -0.4339267 -0.0029751915 0.5137022 0.29594627 -0.17152134 -0.5127805 0.83495295 -0.2860124 0.07210014 0.25051722 -0.706601 -0.5577425 -0.6349021 0.34465522 0.10280232 -0.12150188 -0.8916165 -0.13174225 0.44913605 0.007658777 0.122340195 -0.12495334 0.36255428 -1.3862418 -0.3660653 -0.45105413 -0.80928874 -0.68140686 -0.84926724 -0.9614319 -0.70525986 -0.2634855 -0.32754296 -0.2441722 0.43023372 0.6338243
DataTable 0.3034287 0.46703324 0.4359091 -0.39287227 0.24962388 -0.9723049 0.09269737 -0.031396873 -0.9430653 -0.29176047 -0.096719675 -0.50460356 0.29470897 -0.42598277 -0.5866573 0.811194 0.43453568 -0.09916077 -0.66969043 -0.34295017 0.84882677 -0.076195896 0.6054398 -0.98660105 0.41625968 -0.7966558 -0.72758293 -0.40641662 0.11013107 -0.762147 -0.27624345 0.0052138395 0.04639043 0.5347025 0.15142861 -0.2450757 0.4401117 -0.08580768 0.12159662 -0.085362114 -0.9452906 -0.51418185 0.28970802 0.25719056 -0.44845086 0.05155239 0.27870756 -0.3598889 -0.15524375 0.10355427
IJsonLineInfo.HasLineInfo() 0.20566964 0.17275523 0.6297395 0.02832288 -0.1922952 -0.30174592 0.272171 -0.20789458 0.035030097 -0.426407 0.2643149 -0.18725981 0.32958212 0.301176 -0.620391 0.1502569 0.1890914 0.0791638 0.17534333 0.20947796 -0.0019398929 0.0005597486 -0.12150532 -0.45182836 -0.28577265 -0.59527105 -0.18464251 -0.16351086 -0.26154032 0.27447492 -0.30783054 -0.30735362 -0.15903781 -0.10511245 0.07350378 0.12191982 -0.12687576 -0.7052977 -0.19909641 -0.4066898 -0.3216126 -0.17491959 0.0127799 -0.036349066 -0.06512527 0.17387296 0.42977148 0.044279937 0.5834039 0.005701531
