newtonsoft.json.linq.jobject 0.049209528 0.100123234 0.16828434 -0.2993353 -0.26707143 -0.8221484 -0.0015990044 -0.46712077 -0.7426031 0.2583026 0.35375205 -0.21122934 -0.18273278 0.19581316 0.104325905 0.2779644 0.020518607 0.55738676 0.25014266 -0.15601693 0.5533447 -0.12940063 0.033695087 0.22768936 -0.63691705 -0.3599884 -0.4114805 0.28402588 0.26115188 -0.11369313 -0.37482822 -0.08435686 0.5117632 -0.2670713 -0.20078869 -0.042038534 0.6333373 -0.5944208 -0.23508464 -1.126629 -1.2716657 -0.6217767 -0.33304143 -0.58327436 -0.52635026 0.12813286 0.042118654 -0.17068554 0.8910898 -0.18119171
newtonsoft.json.jsontextreader 0.21523254 -0.38722008 -0.09618421 -1.3184961 0.07660249 -1.1211668 0.5204565 -0.7320914 -1.0809351 -0.046183117 0.7425596 -0.6532502 -0.30994633 0.6369722 -0.46364912 -0.43033475 -0.22558679 -0.5898503 0.21086341 -0.5037139 0.4190058 -0.98853844 -0.13194689 0.5347766 -0.6025032 -1.1614848 -0.6173656 0.34918842 -0.07355792 0.60814 -0.7590839 -0.4642251 -0.38221195 -0.043496188 -0.04259319 -0.5113879 -0.31599048 -0.95718056 -0.56838655 -0.22943556 -0.9397112 -0.32141128 -0.19524291 -1.1869627 -0.08732792 -0.29061553 -0.29145598 -0.24433996 0.58335906 -0.3961205
newtonsoft.json.linq.jarray 0.20073223 -0.1188356 0.7468334 -0.21610925 -0.027233582 -0.44276366 0.14628658 0.035351995 -0.10058555 -0.253581 0.34310976 -0.058930803 0.27822432 0.0754193 -0.4217657 0.35515028 0.10709808 0.4799591 0.2122871 -0.3307696 0.045730866 -0.19334233 0.235548 -0.27764368 -0.41836235 -0.3292543 -0.32264626 -0.1972198 -0.21769966 0.094674684 -0.4292092 0.04927891 -0.12832715 0.044794396 0.0012717197 0.27248555 0.05087774 -0.32304984 -0.20762025 -0.5688299 -0.47272328 -0.32186505 0.06382979 0.07077618 -0.15772836 -0.035953775 0.2419911 -0.07175055 0.53926986 -0.33669993
newtonsoft.json.linq.jproperty 0.22135033 -0.11531789 0.75625837 -0.3338794 -0.046883855 -0.64975125 -0.06119677 0.13977724 -0.034995098 -0.2728957 0.33479056 -0.054431964 0.49551085 0.019067042 -0.57409763 0.49732777 0.03865993 0.4369779 0.3022822 -0.3324054 0.06956349 -0.0061037336 0.33836436 -0.39898533 -0.32795736 -0.2456748 -0.43641672 -0.017159037 -0.21910085 0.004115036 -0.39442474 -0.09508492 -0.21098539 0.00840797 0.030844733 0.31491306 0.26639265 -0.15337162 -0.17410395 -0.5122516 -0.5555981 -0.34574822 0.11547745 0.23183931 -0.18227276 -0.1302208 0.28897634 -0.3371891 0.5994111 -0.23796484
newtonsoft.json.linq.jvalue -0.016234443 0.21167074 0.72707385 -0.2825533 -0.08544238 -0.28758654 0.28127363 0.13228057 -0.009153358 -0.11173392 0.4749334 -0.046575993 0.38640952 -0.090233915 -0.3108015 0.3904866 0.12988286 0.18167287 0.118484624 -0.28923526 0.28135833 -0.05232546 0.03371098 -0.3835196 -0.3203356 -0.39843357 -0.43706036 -0.14532311 -0.07639587 0.04606985 -0.3149251 -0.13830358 -0.31087077 -0.107370555 -0.15140368 0.27046543 0.15833671 -0.2668054 -0.21313256 -0.55418044 -0.4057237 -0.24275382 -0.04764729 0.011217558 -0.0897791 -0.066826425 0.1422216 -0.31364727 0.5309276 -0.090742074
newtonsoft.json.schema.jschema 0.0064137722 -0.009163813 0.0024319168 0.0066063227 -0.0005558523 -0.0027930678 -0.009691718 0.0066553615 0.00833496 0.0041215327 0.0017182746 -0.0016920684 0.007406655 -0.006293846 0.0039344872 0.0034722495 0.008960742 0.0019441685 -0.00019952924 -0.00441233 -0.0022383742 0.002252331 -0.009963906 0.008810316 0.0040444597 0.008524209 -0.004233056 -0.0034750917 0.0038491604 -0.0032849635 -0.008397188 -0.00159042 -0.004080714 -0.0044850274 0.005867805 -0.006207334 -0.00036619886 -0.008101697 0.0062977416 -0.0013944431 -0.008165123 0.0062866295 -0.0028461171 0.007181109 0.0055354633 0.00092631363 0.00023231677 -0.0037313364 0.0016309322 0.0008067601
newtonsoft.json.schema.jsonschema 0.76306623 0.4639335 -0.057776462 -0.5271317 -0.35128063 -0.6358703 0.061595514 -0.37765557 -0.19555894 -0.46194968 0.23859194 -0.5381703 0.441655 -0.02165826 -0.30578566 0.1372638 0.15585577 -0.23735125 0.48082426 -0.07158811 0.44077522 -0.20795463 0.6755974 -0.69454676 -0.095685385 -0.4159267 -0.5290336 -0.14040828 -0.23866785 -0.20568863 -0.5163899 -0.22760707 0.27184325 -0.118982896 0.17316163 0.057459246 0.6210991 -0.43733764 -0.12711231 -0.5202465 -0.9321361 0.33106488 -0.08318773 -0.19218585 0.30852568 0.03113396 0.6511693 -0.34798265 -0.08147657 -0.28740466
newtonsoft.json.linq.jtoken 0.31244415 -0.19740912 0.8486761 -0.090209074 -0.042752825 -0.5603149 -0.19046627 0.2661906 -0.33033532 -0.45499843 0.6075464 -0.18500331 0.407618 0.08986842 -0.28115904 -0.07849588 0.18824428 0.25444973 0.09004484 -0.1730966 -0.11280742 -0.5411201 0.10211615 -0.7842208 -0.22538917 -0.6129143 -0.2457218 -0.06509583 -0.3575428 0.14790672 -0.43831193 -0.6245994 -0.5536249 0.42227134 -0.3867075 -0.1853593 0.19560346 -0.39604238 0.15332374 -0.6241376 -0.8429934 -0.48240888 0.1223722 -0.3184126 -0.14588326 0.27048874 0.4205274 -0.45756358 0.56363726 -0.88411725
newtonsoft.json.bson.bsonreader 0.1407581 -0.09708846 -0.37267825 -0.79459566 -0.45812938 -0.94192564 0.42152807 -0.95751184 -1.2010492 0.19368476 0.3559162 -0.56263125 -0.41576317 0.63956946 -0.4339267 -0.0029751915 0.5137022 0.29594627 -0.17152134 -0.5127805 0.83495295 -0.2860124 0.07210014 0.25051722 -0.706601 -0.5577425 -0.6349021 0.34465522 0.10280232 -0.12150188 -0.8916165 -0.13174225 0.44913605 0.007658777 0.122340195 -0.12495334 0.36255428 -1.3862418 -0.3660653 -0.45105413 -0.80928874 -0.68140686 -0.84926724 -0.9614319 -0.70525986 -0.2634855 -0.32754296 -0.2441722 0.43023372 0.6338243
newtonsoft.json.bson.bsonwriter -0.1355972 0.09328013 0.23224427 -0.6889276 -0.45135543 -0.7079043 0.3245551 -0.94456065 -0.6503304 0.25842515 0.70707464 -0.24794467 -0.32518727 0.6764126 -0.28258252 0.07319889 0.28122604 0.24853352 0.14819825 -0.41591132 0.6419077 0.04992467 0.05347154 0.1287922 -0.723937 -0.25107038 -0.55955637 0.3731465 0.08083559 -0.13036619 -0.52786094 0.048835635 0.50269264 -0.14285336 0.18655443 0.08263573 0.23092815 -1.4729803 -0.6479138 -0.52942693 -0.88538545 -0.77985746 -0.93960196 -0.67854047 -0.06684587 -0.3942211 -0.108344555 -0.1737755 0.45866758 0.40327024
newtonsoft.json.jsonreader 0.91601646 -0.3833017 0.35409892 -0.43155232 0.25268105 -1.1626046 -0.3515226 -0.6839188 -0.4261065 -0.28413936 0.024833117 -0.61205095 -0.4267604 0.4547459 -0.7675312 0.30415282 -0.21815757 0.34733015 0.44638643 0.02557863 -0.03276059 -0.3482927 0.30204535 0.003629604 -0.35013393 -0.6417574 -0.054452028 0.23444152 0.13760985 0.15555516 -0.4388063 -0.33786738 0.030223485 0.3482999 0.60609365 -0.29614508 0.11534914 -0.68590283 -0.42997456 -1.1771711 -1.7078849 -0.60411125 -0.4733624 -0.45608932 -0.9635806 -0.014679367 0.23774363 -0.073091865 0.46477887 -0.3588155
newtonsoft.json.linq.jsonpath.jpath 1.3013619 -0.000996885 0.4476435 -1.2541008 -0.68978786 -1.5161363 0.3208107 -0.19989578 -1.5231649 -0.6835612 0.7562917 -1.7192389 -0.9606958 1.4130815 0.026919428 -0.38985854 -0.18277478 -0.15691188 -0.66308266 -0.84050554 0.57940614 -1.2911702 0.51726323 -0.11358291 -1.164999 -0.5543349 -1.3133687 0.3858272 -0.0029467535 -0.31527045 -0.53577447 -0.7647233 -0.47538108 0.23681131 0.22825626 -0.0955139 1.1990895 -0.61694825 0.3586729 -0.6823666 -0.84222394 -0.84457105 -0.6041648 -1.7462065 0.494518 -0.4777359 0.05301709 0.5750972 1.2637471 -0.6504527
newtonsoft.json.jsonserializer 0.25372866 -0.14738305 0.121411666 -0.31598076 -0.22209822 -0.46848604 0.29283416 -0.39257407 -0.45846486 0.11817442 0.548025 -0.050605822 -0.14577362 0.27895233 -0.42583174 0.0980654 0.024351243 0.18261105 -0.21908782 -0.3683637 0.27634192 -0.14118764 0.4788096 0.27374333 -0.071486875 -0.034058154 -0.23906423 0.083796255 -0.381472 0.019299086 -0.75456583 -0.10430707 0.021857347 -0.0055596633 0.1787983 -0.5478395 0.16556059 -0.82852435 -0.24965632 -0.42913917 -0.7703894 -0.37426427 -0.3893421 -0.6019624 0.20240475 0.09207997 -0.050645597 -0.09291447 0.5134934 0.07330397
newtonsoft.json.jsonvalidatingreader 1.2759836 0.09511011 -0.41739783 -1.3416746 -0.4101103 -0.9502163 0.42812106 -1.0884838 -1.0686134 -1.0043173 0.44241318 -1.3872814 -0.36268884 0.5330075 -0.71510726 -0.30291954 0.012020026 -0.04471726 0.42852858 0.0652947 1.2297169 -0.5370558 0.3716766 -0.7275742 -0.2981519 -0.3121356 -1.0987141 0.13037829 -0.4042379 -0.4097477 -0.7043263 0.021054624 0.5911552 -0.27771297 -0.28824684 -0.47712132 1.0364265 -0.92266303 -0.28282177 -0.7625653 -1.3024487 0.16746081 -0.79394996 -0.41799134 0.056681074 -0.02286163 0.17986186 0.02533192 -0.5770876 -0.39864773
newtonsoft.json.schema.validationeventargs 1.1696384 0.2931727 -0.39251786 -1.3421545 -0.45423517 -0.970272 0.40087792 -1.1668335 -1.0480099 -1.045977 0.42567128 -1.352102 -0.22530025 0.45025945 -0.6458259 -0.37919694 0.009565572 -0.09491301 0.5127222 0.062523186 1.1404613 -0.47070378 0.3651111 -0.92746323 -0.28919291 -0.36574408 -1.0542061 0.12708259 -0.37304312 -0.5145168 -0.65017134 0.009714524 0.61314803 -0.34572637 -0.29029864 -0.35628188 1.0717638 -0.99311835 -0.19712535 -0.8049571 -1.3407997 0.14405169 -0.7533975 -0.37955096 0.0183162 -0.040082082 0.25495705 -0.07038815 -0.506633 -0.33626732
newtonsoft.json.schema.jsonschemabuilder 0.33309114 -0.0053607416 0.29217902 -0.16833292 -0.17133795 -0.2157192 0.17724001 -0.0049943593 -0.06991225 -0.18958989 0.2678718 -0.22739625 0.005969368 0.035175227 -0.20617008 0.17119054 0.058355696 0.12503517 0.077024475 -0.09093957 0.19396771 -0.07642662 0.107870676 -0.18651871 -0.1533897 -0.10255049 -0.3253332 0.03554494 -0.06794692 0.012941493 -0.24614069 -0.05136025 -0.010456402 -0.12570001 -0.003673292 -0.054338887 0.23047355 -0.31952092 -0.14524071 -0.44965765 -0.5709663 0.004870505 -0.20919815 -0.07269267 -0.03115026 -0.0028769872 0.10987629 -0.15436307 0.2430062 -0.20060027
newtonsoft.json.linq.jtokenreader 0.00071359635 -0.0031867616 0.0039817044 -0.009667689 0.00806931 0.0014496574 -0.00837994 -0.0017523473 -0.0017954033 -0.008557187 -0.0010252376 0.002474454 -0.008489211 -0.0016624017 -0.00029284542 0.0019506173 0.00766056 -0.0005899801 -0.009223841 -0.0055550896 -0.0002545221 0.0058489633 -0.005612249 -0.0058471006 0.006689563 -0.009406957 0.004058971 0.005946139 -0.0026141698 -0.006737203 0.006865499 0.007525434 0.0019995295 -0.0005333775 -0.0064016916 -0.0011160274 -0.007898427 -0.0015118889 0.0010634 0.008714061 -0.0066465875 -0.0017744792 0.008010923 -0.0050529046 0.0092707435 -0.0055999584 0.0010219038 0.0060326485 0.009915604 0.007144894
newtonsoft.json.tests.testobjects.movie -0.003894674 6.3566426e-05 0.0074147615 -0.006430399 -0.007828265 -0.005567486 0.009671265 -0.0099249175 -0.00038924886 0.0059984685 0.0017374434 0.0007399092 -0.006848184 -0.005170571 -0.009778347 0.009920869 -0.004766377 0.0056679384 0.0075489567 0.0022743891 0.0032892977 0.008200275 0.00630016 0.002014439 -0.0032579906 -0.0010642831 -0.00089495187 0.003175652 0.000646359 0.0062183463 -0.0058788415 -0.0058822 -0.0059665744 -0.0009714149 0.0051597776 -0.0016875732 0.0007384994 0.007879092 0.0053345896 -0.0076184706 -0.006416324 -0.003041727 0.007880484 0.008777617 0.007465815 0.007385998 0.008709721 -0.004435637 0.00393134 -0.0049483967
newtonsoft.json.jsontextwriter 0.23960118 -0.030402705 0.107804604 -0.349161 -0.06032116 -0.49082235 0.30626056 -0.29588658 -0.12003577 0.1729617 0.41784602 -0.13497554 -0.13051899 0.022922134 -0.45998472 0.029404173 -0.17585513 0.0444454 0.010014931 -0.3095013 0.18404032 -0.23457208 0.15581948 0.3834105 -0.38082737 -0.35083395 -0.37392658 0.15681517 0.025878387 0.270661 -0.35776752 -0.07359254 -0.024944607 -0.05150745 0.16498208 -0.22986563 -0.009513399 -0.59494406 -0.32422084 -0.23411609 -0.53645444 -0.18903221 -0.20589644 -0.3428495 0.16411296 -0.16305093 -0.11175853 -0.18417463 0.29340348 0.028684745
newtonsoft.json.bson.bsondatareader 0.006077995 -0.004405361 0.0060593206 0.009675285 0.0072191847 -0.0056934454 0.0055389334 -0.009756104 -0.009140617 0.004906717 0.0003222362 0.0046385154 -0.007996055 -0.0044314023 -0.0050504887 -0.004763341 -0.0014520298 0.00734297 -0.009069949 0.0010428953 0.0062041464 -0.006321144 -0.0036984587 0.0047776024 0.0041368417 0.0051356163 0.0017972598 -0.005816589 0.0053457622 -0.0019376575 -0.00040522523 0.003135753 0.0030641365 -0.0067389873 0.0063761813 -0.0012005663 -0.009372478 0.007998825 -0.00027345988 -0.0054947273 -0.005412469 -0.0064452766 -0.0041372315 -0.0040440736 -0.005835101 -0.008914388 1.941008e-05 -0.008116754 0.0018232046 0.007004073
newtonsoft.json.serialization.jsoncontract 0.10916461 0.04351642 0.4707784 -0.31699914 -0.026715178 -0.47058463 0.0024675527 0.049362637 -0.8587305 -0.7562008 0.36703652 -0.20350441 0.32679853 -0.0644234 -0.24441963 0.19020094 0.6192836 -0.14463943 0.054974023 -0.36222428 0.174615 -0.47559792 0.3237235 -0.8038692 -0.07996965 -0.48752242 -0.5829757 -0.65367603 -0.56517655 -0.06136513 -0.45061934 0.08751835 -0.44242752 -0.027519744 -0.23467837 -0.05392532 0.3949071 -0.2633754 0.21179907 -0.2503174 -0.15461522 -0.42835733 0.37029648 0.21002416 0.060699493 0.27943453 0.023374537 -0.24705403 0.29962218 0.10175512
newtonsoft.json.bson.bsondatawriter 0.0009745899 0.0029587988 0.002802637 0.0079788575 0.0007630764 -0.0076184184 0.009112048 0.005997371 0.0065856995 -0.0060079023 -0.005887415 0.00766407 0.00024078836 0.0047536315 0.0035225593 -0.00574415 0.006911275 0.004462989 -0.004113811 0.007313309 0.0071620215 0.002237569 -0.008712056 -0.004901268 0.00867987 0.0035974854 -0.0024948497 -0.0033962855 -0.008671827 0.009547245 -0.0078006345 -0.00804768 0.004519048 0.0062816604 0.0054011648 0.0009381846 0.0062820883 -0.0022897797 -0.0030373295 -0.006521282 -0.008304154 -0.0077536153 0.0016020726 0.0019659007 0.006395395 -0.0011205417 0.0077848616 0.0023218105 0.0015756995 -0.003444827
newtonsoft.json.jsonserializersettings 0.5267842 -0.020611204 0.74962753 -0.05510451 -0.26248407 -0.15399745 0.46975464 -0.0004034614 -0.07187919 -0.09374044 0.27257708 -0.093186215 0.505349 0.38850996 -0.4382279 0.15178075 0.08709232 0.5201302 -0.3793201 -0.36866623 0.24613419 -0.2779628 0.011446714 -0.005808491 -0.2181119 -0.11413372 -0.4758453 -0.11346454 -0.5439778 0.4016141 -0.4955896 -0.3705557 -0.524433 -0.21211529 -0.3286467 0.13891739 -0.035274167 -0.2569863 0.018287843 -0.21804124 -0.29460528 -0.1317134 0.11055635 -0.16477627 0.41217017 -0.27058002 0.14741154 -0.23699813 0.7640864 -0.05096333
newtonsoft.json.serialization.defaultcontractresolver 0.2623295 0.24560913 0.35693038 -0.5662739 -0.083918825 -0.47022748 0.08388426 -0.01848057 -0.44198135 -0.43690994 0.3114757 -0.3960247 0.30766022 -0.46472946 -0.36843356 0.82436377 0.23966661 0.08295304 -0.036870766 -0.44643727 0.5617605 -0.30865088 0.41981342 -0.58378446 0.04922795 -0.52521634 -0.66638577 -0.7793269 -0.19884808 -0.67549264 -0.36963254 0.61915773 -0.09952831 -0.084833965 -0.21464191 -0.0336934 0.5767697 -0.19902399 -0.062877916 -0.3182048 -0.70069224 -0.07531436 0.2237053 0.24277973 -0.40701935 0.21461032 -0.20744395 -0.6961925 0.25037834 0.00947537
newtonsoft.json.serialization.jsonproperty 0.45864236 -0.03833782 0.35668707 -0.24668953 0.050118405 -0.31771287 -0.20102075 -0.16161302 -0.5011684 -0.89010084 -0.13979551 -0.43028757 0.28866178 -0.37905163 -0.49769893 0.24206835 0.375422 0.09326694 0.0043890164 -0.117942914 0.20670168 -0.44807515 0.067366816 -0.46685177 -0.12181888 -0.79086655 -0.6114561 -0.3038353 -0.03154767 0.03858578 -0.10047797 -0.15098687 -0.43333757 0.13222595 -0.42817542 -0.31976914 0.3732529 -0.15302557 0.42320588 -0.33143878 -0.56442875 -0.4805151 0.43676603 0.03164592 -0.31863084 0.3024379 0.23461835 0.17993794 0.32384896 -0.11068423
newtonsoft.json.serialization.memorytracewriter 0.008000549 0.0018807633 -0.007826122 0.0028623675 0.00047726004 0.0075397366 -0.008813825 -0.007453164 -0.009769092 0.002760842 -0.009035694 -0.0041264994 -0.008484722 0.002891286 -0.0073213945 -0.007298015 0.004756856 -0.005743368 0.0036058475 0.0035863079 -0.0063474495 0.0063534384 -0.005843223 -0.001006671 -0.0070442236 0.008183467 0.0064958725 -0.0036675464 -0.003911967 0.0019825052 -0.0053651254 0.0026780418 -0.0078642275 0.00065631006 -0.009746002 0.00024784094 0.0040068775 -0.0073149693 0.000760686 0.0038932296 0.0034767408 0.008323787 -0.0038729997 -0.008944544 -0.009345349 0.00011670767 0.008476304 0.0009841367 0.008535082 0.0036017685
newtonsoft.json.schema.infrastructure.jschemareader -0.0081949895 0.0015915987 0.008064031 -0.008309335 0.0091184545 0.0021664647 -0.0037868612 0.006582579 -0.005970272 -0.007953572 0.007262233 0.00048343316 0.000953996 0.006331947 0.006436255 0.009445689 -0.0011443692 -0.0040577617 -0.00019529986 -0.007999802 0.0027204466 -0.0003655887 0.0045542265 0.0007875831 -0.004313362 -0.008192928 0.006429295 0.007260874 -0.0026469165 -0.0060251933 -0.009516732 -0.00939217 -0.0092781335 0.0027045968 -0.0056180754 0.0037847923 -0.0041994452 0.008350063 -0.0021502 0.0039182045 -0.0012498792 -0.0029894593 -0.0029456203 0.001294195 0.005397919 0.0055795806 -0.0013766683 0.0067159007 0.009242931 -0.004440921
newtonsoft.json.tests.testobjects.product 0.08433113 0.02115872 0.08129537 -0.28316817 -0.09588768 -0.38338616 0.25472894 -0.3626448 -0.21233112 0.09388193 0.30381706 -0.10441199 -0.12987582 0.102053426 -0.23872288 0.07150617 0.0058429856 0.106271446 0.047996454 -0.20893136 0.35552445 -0.07090946 0.052470233 0.15541995 -0.29175875 -0.24014428 -0.37352547 0.06697626 0.15777147 0.048641264 -0.32021913 0.019603016 0.15717112 -0.21494584 0.10389153 -0.112821005 0.16248044 -0.5876584 -0.21609132 -0.42328766 -0.5163916 -0.1762831 -0.28292453 -0.19031447 -0.07490582 -0.050971307 -0.100048944 -0.061306104 0.26829058 0.16133113
newtonsoft.json.linq.jconstructor 0.25260106 -0.034130108 0.6268658 -0.19125643 -0.029618941 -0.42029026 0.15802671 0.09220555 -0.041553315 -0.2826578 0.40607765 -0.06914287 0.3330558 -0.19048855 -0.5054823 0.350368 0.096157245 0.41834894 0.05189764 -0.3032934 0.188033 -0.058465973 0.19899303 -0.35273072 -0.28799513 -0.32080317 -0.42691413 -0.13288331 -0.19251278 -0.06536095 -0.26170936 0.06518123 -0.1387475 -0.08539268 -0.099305116 0.10708444 0.32913837 -0.2674866 -0.088528514 -0.599685 -0.5370693 -0.25383592 0.07277833 0.1940831 -0.1159216 -0.02780178 0.27421853 -0.26363853 0.4547113 -0.1578083
newtonsoft.json.schema.tests.testobjects.product -0.0038621575 0.005331117 -0.0056570186 0.004651572 0.0086829355 0.0052015986 -0.009648032 0.009281819 0.008269614 -0.005100226 0.0010470585 -0.003688768 -0.007986954 -0.00831029 -0.005336068 0.008397949 -0.00042042133 -0.0027949018 0.0042350367 0.003995895 0.008501927 -0.0057770717 0.0062681623 0.0015893499 5.008634e-05 -0.0049112625 -0.0069503468 0.0060804663 0.0013187208 -0.008832128 0.007238742 0.00975166 -0.0029401772 -0.0067866095 -0.008946934 0.005262987 -0.005184826 0.00046323746 0.006300581 0.0005798197 -0.00011566979 0.004008573 0.009516079 0.0030228863 -0.0066756113 -0.007721557 0.00743761 -0.002476751 -0.0031600057 -0.009176886
newtonsoft.json.jsonconverter 0.5071159 0.08839804 0.23314965 -0.5320076 -0.12772804 -0.22737275 -0.20768179 -0.13204116 -0.30400735 -0.395029 0.19430134 -0.37258643 0.39961645 0.13325882 -0.3676046 0.6496437 0.47611794 0.005889964 0.12025228 -0.85027516 -0.03169937 -0.10037248 0.1836296 -0.81826943 -0.2945566 -0.5623391 -0.539923 -0.6312523 -0.29657727 -0.038783107 -0.621523 -0.24388163 -0.44229776 0.07796343 -0.17881972 0.23016126 0.30437505 -0.16012986 0.37058312 -0.37058628 -0.11567983 -0.25402465 0.21444511 0.040822472 -0.16969603 -0.27488735 0.30349588 -0.30935755 0.118325874 0.20999679
newtonsoft.json.linq.jtokenwriter -0.006982904 0.0022463345 0.004362543 -0.0055418713 -0.0034470612 0.0063420683 -0.009773294 -0.009226702 0.009186662 -0.007796478 0.002311549 -0.00143518 0.004922238 -0.0028797067 -0.0026892705 0.0038287675 -0.00039061706 0.009722031 0.00034105667 0.0023302014 -0.0062076864 -0.009072893 -0.009710612 0.0051309788 0.0027195623 -0.0019302986 -0.00044510156 -0.0012722707 -0.0010181736 -0.0058175055 -0.0024909358 0.00049972 0.006165524 0.009705989 -0.005993713 -0.0047035515 0.0017982067 0.0025857508 0.0053811274 0.00061231153 -0.001959104 -0.008724978 0.0023241173 -0.0036715094 0.0067838617 0.0012151427 0.0022020317 -0.00085826474 0.00021390106 0.00075354456
newtonsoft.json.serialization.jsonobjectcontract 0.18581446 0.37846202 0.6444718 -0.18672664 -0.19126984 -0.17042413 0.18235812 0.041199293 -0.33170423 -0.5212804 -0.18305151 -0.26839685 0.35704178 -0.013065934 -0.28410202 0.5367782 0.46786824 0.05131623 0.22303048 -0.22439478 0.49503815 0.010677467 0.11161685 -0.51241034 -0.14483184 -0.52223986 -0.65682167 -0.42044482 0.02981164 -0.047711756 -0.21435675 -0.18108572 -0.46928224 0.12205636 -0.34586298 0.40086046 0.44228896 -0.2746478 0.36293316 -0.39996883 -0.15945178 -0.581232 0.2806287 -0.043765325 -0.25525644 -0.07862438 0.13682942 0.16755903 0.65077114 0.2991951
newtonsoft.json.serialization.itracewriter -0.0025680934 -0.006018324 0.0041354173 -0.0035570175 0.0061184852 -0.006586326 -0.008711529 0.0011492348 -0.00013868298 -0.009228067 -0.0066592456 0.006628338 -0.004726181 7.671451e-05 0.004023673 0.005031282 0.0047454643 0.009671098 0.00061384856 0.0058912374 -0.0039664824 0.0001592942 -0.0017447283 0.0061787674 -0.0026812265 0.002711693 -0.0001689861 -0.008647851 0.0030626873 -0.007323882 0.000585608 0.0076409355 -0.007971532 -0.0023573015 -0.0027248112 0.006329095 0.0011056499 0.00016850771 0.00072397 -0.0062040538 -0.0029624656 -0.009281897 0.00097527466 -0.0032847147 0.0011087825 0.009793611 -0.0014455777 0.006096324 0.0019834358 0.00081508764
newtonsoft.json.converters.jsonvalueconverter 0.009379182 0.005606362 -0.0055011353 -0.004451877 -0.002288823 0.007885214 -0.0051266383 -0.00638539 0.0014378818 -0.002972351 -0.006531524 0.0062411465 0.0051767495 -0.0015911927 -0.009915491 -0.00088179635 -0.008923137 0.009115444 0.0003015864 -0.003728393 0.005220167 0.0046454645 -0.0084708445 -0.008086894 0.0016292977 0.0036948624 -0.0039519737 0.0021158427 -0.002435673 0.0007514122 0.0022167321 0.0008043357 0.009308808 -0.0059917793 0.009341976 0.008735861 -0.006060264 -0.00036701275 -0.004825378 -0.006278211 0.009894533 0.009641824 0.0027883786 -0.0070977435 -0.007877703 0.004380104 0.007281631 -0.006499495 -0.0049359025 -0.0012546135
newtonsoft.json.tests.documentation.file -0.003050291 0.0037173608 -0.00288725 0.006497822 0.00012913282 0.0019348478 -0.004839842 -0.0065873144 0.0021356097 0.002590507 0.007815115 0.0047061536 -0.0058657667 4.734069e-05 7.2963536e-05 0.006421863 0.0046236673 -0.004655929 0.007902496 0.009885574 0.0058814613 0.00031510912 0.005556084 0.00337447 0.0063506695 0.001217325 -0.0030700932 0.0033505228 0.00047131843 -0.006823393 0.009046594 0.009109406 -0.009368576 -0.0013400437 0.009533589 0.00061116717 -0.0049662604 0.0074216197 0.0033274202 0.0055627436 -0.0093178265 0.0057393913 -0.009110196 0.0058337776 -0.0057635605 0.008172628 0.0050086565 -0.0050615086 0.0062995963 0.0076040635
newtonsoft.json.utilities.idictionary 0.37461638 0.02720611 0.11621425 0.21844245 -0.19988757 -0.15783282 0.11707123 0.013420588 -0.6452256 -0.86905587 -0.041279767 -0.29087284 0.15449916 -0.05357869 -0.6008425 0.23907267 0.465399 0.124085166 -0.23076285 -0.33252203 0.3875277 -0.29248205 0.23070428 -0.656503 -0.16345462 -0.5158219 -0.45196012 -0.5386474 -0.17482893 0.09432696 -0.308177 -0.14083162 -0.2780039 0.21595185 -0.254791 -0.116320014 0.30311716 -0.2969499 0.4867206 -0.40609577 -0.477673 -0.28199273 0.313002 0.05139217 -0.14971228 0.017134799 0.40308022 0.008840867 0.1474417 0.13960312
newtonsoft.json.tests.testobjects.customerdataset 0.00548554 0.0023199455 -0.0036545238 0.009069222 0.0067633395 0.0049827313 0.005360415 0.0031305403 0.0071388925 -0.0036639757 -0.009446715 0.008962422 0.007077562 0.008690478 0.0008980656 -0.00040203563 -0.008671169 0.0010343145 0.008276561 -0.002479783 0.0012193549 -0.000270684 -0.008075015 -0.007309119 0.0009875915 -0.0025905939 0.00771287 -0.0051470026 -0.008416079 -0.008196729 0.006272156 0.0010695497 0.0062004398 0.009495019 -0.0061752973 0.009191378 -0.007531986 0.004146851 -0.0060370765 -0.0077690124 -0.0070714867 -0.00046379323 0.0070379847 -0.006267941 -0.0064834156 0.0033272186 -0.0034504777 0.0033859552 0.008048889 -0.0026666755
newtonsoft.json.jsonposition 0.3557294 -0.13748565 0.39175293 -0.24274984 0.08125894 -0.39856008 0.12722763 0.13035057 -0.38771412 -0.88428414 0.28630492 -0.48633996 0.36177278 0.46341813 -0.55849236 -0.021504281 0.4837327 0.12368224 -0.18983756 -0.16171594 -0.02251138 -0.37389264 0.4361055 -0.3704416 -0.58631 -0.46002793 -0.27773115 -0.6020997 -0.53213966 0.20224333 -0.58409774 0.076206475 0.07272298 0.08127589 0.2734758 -0.15218326 0.30650067 -0.49946502 -0.016570024 -0.32429937 -0.30448756 -0.24329494 0.13594364 -0.2074555 0.11033511 -0.021232694 0.27565885 -0.040349655 0.10674522 -0.19260846
newtonsoft.json.ijsonlineinfo 0.28577378 0.038624153 0.26421773 -0.09824527 -0.20108394 -0.24981129 0.15731546 -0.12928794 -0.044946536 -0.30326357 0.13594396 -0.15571639 -0.007461297 -0.005205946 -0.36509973 0.109019116 0.16650158 0.043404125 0.02415736 -0.046615135 0.15270393 -0.060440075 0.049887117 -0.14215364 -0.16103542 -0.26278222 -0.28185257 -0.07248454 -0.020041453 0.06971134 -0.17657614 0.019759813 -0.14528957 -0.09065369 0.13550673 -0.07318006 0.13087107 -0.36055785 0.017085006 -0.316641 -0.37174356 -0.09825218 -0.07553745 -0.0087024355 -0.061056204 -0.031547092 0.034552187 -0.021169497 0.31812024 0.098599516
newtonsoft.json.tests.testobjects.geometricforms.shape -0.0047092787 -0.0015833158 -0.000722973 -0.007414856 -0.0018949455 -0.0011366031 -0.0029704557 0.0025357082 0.0043625073 -0.0014633101 -0.0032383718 0.002532131 0.009340757 -0.004591775 -0.006843787 0.00730478 -0.003299226 0.0009839167 -0.008493701 -0.0052541015 0.0032468124 0.006280829 0.0068376353 0.008637997 -0.0006940984 0.0073255575 0.0015342971 0.009675729 -0.0033893452 0.008345554 0.0052019535 -0.0097362725 0.0019397013 -0.008439501 0.006908035 0.008750777 0.0015499666 0.0057950043 -0.008374484 -0.0026613553 -0.008008392 0.0040222425 -0.0020029251 -0.009366063 -0.003478486 0.0009153006 -0.005838818 -0.006925857 0.009087551 0.008577684
newtonsoft.json.schema.jsonschemanode -0.12607722 -0.26047847 0.2917666 -0.12794375 0.0388004 -0.18588445 0.4583009 0.19698435 -0.58870524 -0.504332 0.41784018 -0.17630857 0.0845964 0.28406897 -0.098038875 -0.37956658 0.2871839 0.26502216 -0.3219991 -0.4222598 0.64009154 0.09152801 0.10436094 -0.42979282 -0.2276725 0.13525182 -0.5975324 -0.25765127 -0.36618185 0.23107809 -0.2807039 0.19561875 -0.3801548 -0.29900593 -0.029246505 -0.18353523 0.4512138 -0.59665835 0.058380365 -0.6121583 -0.5962675 -0.19135576 -0.14580236 0.17308787 0.5061532 -0.24813348 0.29452586 0.20038117 0.41003546 0.00068179436
newtonsoft.json.converters.isodatetimeconverter 0.0038583563 -0.0099609345 -0.0011440195 0.0062465756 0.004665106 -0.008130152 -0.008403608 -0.0007166463 -0.0027355063 0.004942443 -0.00908422 -0.0048771915 -0.000366343 -0.008735002 0.0045695943 0.00013713918 -0.0067085666 0.0047233747 0.008830084 -5.656484e-05 -0.004565175 -0.0035323815 0.0042162216 -0.009740674 0.00012735644 -0.009682984 -0.0017545802 -0.007323407 0.0048914603 0.004885004 -0.0014992894 0.007475709 0.006232597 -0.0031387012 0.0068681445 0.008300619 -0.0026067367 0.009868074 0.007022595 -0.004648711 0.001722772 0.0056060627 -0.001391319 -0.00046606065 0.00760093 -0.006187689 -0.008747421 0.00059911364 0.0019442894 -0.0018085925
newtonsoft.json.serialization.jsondynamiccontract 0.21672492 0.10502029 0.42003945 -0.26411146 -0.09795543 -0.1602423 0.1687143 -0.084261335 -0.052752916 -0.36994365 0.29007834 -0.046440404 0.20524721 0.0022105274 -0.29104978 0.16550134 0.14426127 0.18430477 0.19665949 -0.404728 0.2435289 -0.25593692 0.1042184 -0.12769216 -0.24935666 -0.46684834 -0.4243544 -0.33197358 -0.09570935 0.10422579 -0.24331953 -0.0043733506 -0.28998503 -0.08260099 -0.10834736 0.26353738 0.031024508 -0.30266124 -0.028596006 -0.3077102 -0.1776795 -0.21919885 0.016341656 -0.028820017 0.008674115 -0.12782657 0.14310017 0.13052277 0.50697225 -0.07769322
newtonsoft.json.schema.jsonschemamodelbuilder 0.48075435 0.1543122 0.08287023 -0.2669876 -0.13039449 -0.41458586 0.19217645 -0.3394971 -0.2043085 -0.4131955 0.15126662 -0.33418062 0.062502086 -0.019122288 -0.3805307 0.087341696 -0.03649125 0.028345967 0.079508424 0.015651524 0.28185353 -0.24432892 0.26173696 -0.23578909 -0.120671526 -0.33348078 -0.32747993 0.027571265 0.043421168 -0.106769264 -0.3326379 -0.06262847 0.13368604 -0.016973587 -0.0020603065 -0.116761714 0.273685 -0.33747584 -0.06274263 -0.4292898 -0.60258746 0.2165014 -0.0813914 -0.0006520766 -0.051739935 0.054224737 0.17364852 0.01813253 -0.12344548 -0.07533756
newtonsoft.json.schema.jsonschemamodel 0.12924309 -0.28938106 0.45511457 -0.065108754 -0.05980055 -0.16830862 0.21065462 0.1249515 -0.2999518 -0.50936633 0.26085004 -0.19935422 -0.023758056 0.0895742 -0.10830625 -0.24726838 0.26334926 0.34930617 -0.112487085 -0.18282893 0.54458123 -0.1250022 0.004405417 -0.27862197 -0.29153514 -0.23759586 -0.5119156 -0.14818859 -0.14994347 0.1695372 -0.065576784 0.048701677 -0.34974524 -0.10957484 -0.29528975 -0.29180327 0.3294526 -0.44046497 0.23990634 -0.41548425 -0.5445275 -0.26635474 -0.011529484 -0.042472046 0.2793904 0.0048704413 0.18554719 0.5972551 0.4863996 -0.3035205
newtonsoft.json.jsoncontainerattribute 0.5723945 0.30346897 0.55189836 -0.30318397 -0.30279782 -0.22793311 0.07019855 -0.08729384 0.09777861 -0.35209686 -0.009929276 -0.2940495 0.37145162 -0.053944092 -0.5153946 0.48546925 0.38938525 -0.069708176 0.068412565 -0.11864335 0.11451091 -0.02036328 0.17448609 -0.36912432 -0.23606211 -0.5276816 -0.15127908 -0.27483547 -0.012948079 0.14328936 -0.45053247 -0.34202185 -0.27734077 -0.065340266 0.06795109 0.43197525 0.382389 -0.2898841 0.11225225 -0.52945155 -0.31179395 0.017683197 -0.021809377 0.025527317 0.007271718 -0.24200983 0.30990824 -0.06566259 0.42778307 0.07945153
newtonsoft.json.tests.testobjects.dictionarykey 0.0021345892 -0.009694663 -0.009144113 0.0069601513 -0.0094128 -0.0017551217 0.008180613 -0.005837202 0.009128348 0.0018103545 0.0014818737 0.0060091917 -0.00023085685 0.0068399264 0.0012651052 0.00023531154 0.0034404206 -0.0060577746 -0.0006876788 -0.0037680797 -0.0059261066 -0.00029987894 -0.0020421746 -0.006978325 -0.007861559 0.0049052895 0.002065197 0.0027334949 0.0015392283 -0.0044926624 -0.005961539 -0.0055834055 -0.0020679275 -0.008490464 -0.0043403218 -0.00926127 -0.0052278517 -0.0014055747 -0.009772729 -0.0006382867 -0.0018159064 0.005012555 -0.004271 -0.003271915 -0.008206894 -0.0047910837 -0.0036217866 0.0018064893 -0.0032194091 -0.007252184
newtonsoft.json.schema.generation.jschemagenerator -0.0053921565 -0.0063518034 0.009954577 -0.004711674 -0.0022586386 0.0008167127 0.004245858 0.008248798 -0.008317829 -0.0066415956 0.0028556364 -0.009339462 0.0034990546 -0.0009033479 -0.0013661473 -0.0028212667 0.0017289952 0.0018627809 -0.006534143 -0.005665398 0.009543434 0.009252403 0.008978315 0.008831555 0.007910822 -0.0040433886 -0.009892068 0.0031748344 0.0022928242 0.007874404 -0.0053679585 -0.0028332572 -0.0045330916 -0.0044956715 0.00898338 -0.0013580454 0.0076441388 -0.009854061 0.0027711226 0.003637553 0.0059342314 -0.007130173 0.0066332547 -0.0034132057 0.004801267 -0.0045595644 -0.0018867039 -0.009605446 0.0011349217 -0.0072130007
newtonsoft.json.linq.jpropertydescriptor -0.0011317506 -0.003174913 -0.0038810708 0.003050681 0.0052639684 0.008198015 -0.009556219 -0.0032966384 0.009732093 -0.007871327 -0.0035591961 -0.0038743294 0.0013895531 -0.0055100136 0.0043378137 -0.0074858274 -0.009389822 -0.0010846008 -0.0064278585 -0.0046828897 -0.0072721792 -0.005986635 -0.0075465785 -0.0073950137 -0.006662296 0.0031477665 0.005833456 -0.00480164 -0.0058561973 0.009716249 -0.0037681356 0.005922855 -0.0071949004 -0.007109921 0.00374605 -0.0020548971 0.0048194467 0.003811108 -0.002129901 -0.0019469006 0.0031284625 -0.001951753 0.009086025 -0.0009129389 -0.008384987 -0.0073479926 -0.0049105436 0.003717153 -0.008818457 -0.008009451
newtonsoft.json.schema.jschemapreloadedresolver -0.009618476 -0.0071602818 -0.0026159282 -0.0017723835 0.00394627 -0.002977457 -0.0041045872 0.0043678037 0.00094415835 0.007709652 0.0018030953 -0.0033512975 -0.006637492 0.006833922 0.00048109682 0.003914751 -0.004135088 0.0027255374 0.0066138445 0.0038017542 0.002373016 -0.008807526 0.0044930535 0.0043311706 -0.004603348 0.0043639373 0.0021633017 -0.0097103 0.008129326 0.0029991134 0.0057484363 0.006658654 -0.0020997664 0.0047906344 0.008017111 0.0028980547 -0.0073226206 -0.0006574079 0.00012241829 -0.0010020848 -0.0038500621 -0.0014926967 -0.001462547 -0.007490172 -0.0003240227 -0.0060935547 0.007999025 0.0004977209 0.005676757 -0.008292035
newtonsoft.json.serialization.jsonarraycontract 0.27044174 0.09585107 0.36653596 -0.4328702 -0.06889728 -0.38464 -0.11323408 0.053697534 -0.3698789 -0.4467282 0.24567534 -0.13022095 0.10153135 -0.068831675 -0.3188258 0.5809288 0.40653163 0.2930652 0.07452185 -0.7363428 0.112315856 -0.595567 0.117603034 -0.40205196 -0.38082817 -0.5936859 -0.58461505 -0.45764244 -0.11504483 0.11293691 -0.26661533 0.03822528 -0.45906112 0.2794815 -0.43612513 0.16852069 0.1425654 -0.25657815 0.16163169 -0.39470273 -0.27329195 -0.59310794 0.3107495 -0.13441607 -0.21240532 -0.11731916 0.22587872 0.0034317458 0.48341906 -0.07775196
newtonsoft.json.schema.jsonschemaresolver 0.4833213 0.20851585 -0.09096131 -0.540514 -0.17409053 -0.37428778 0.32642785 -0.38035667 -0.37182558 -0.39472643 0.2677413 -0.5805857 0.00795831 0.090484954 -0.28008872 -0.021923602 -0.066749856 -0.1830414 0.17359221 -0.07224017 0.5052365 -0.14091833 0.28910357 -0.36290687 -0.12797184 -0.19128802 -0.48517704 -0.10897588 -0.14558847 -0.13926299 -0.31459284 0.053636245 0.19122234 -0.13809822 0.028572591 -0.15236427 0.5189947 -0.5373388 -0.0934949 -0.57222426 -0.7944429 0.14862919 -0.20734432 -0.107373305 0.07122843 0.016440814 0.14136168 -0.1373168 -0.13549101 -0.00979262
newtonsoft.json.serialization.namingstrategy -0.0022874647 0.0053644893 0.0010412581 -0.007114395 -0.00019293735 0.00053083757 -0.00049140037 0.00749514 0.007075921 -0.009344661 -0.0058543743 0.0050188364 0.007579298 -0.003637272 -0.006927026 -0.006880624 0.00018289352 0.002590649 -0.0068785315 0.008601668 -0.009583564 0.009391563 0.0048531173 0.0020742626 0.006523406 -0.0016290008 -0.0004151616 -0.005485353 0.00628668 -0.009499685 -0.0044611366 0.0036636803 0.0076648286 -0.008666607 -0.006229835 -0.0071823313 0.0032556579 0.009373737 -0.0021434021 0.0042756563 -0.007447857 -0.0070937583 -0.001323099 -0.005561386 0.005395873 -0.00017636122 0.0061945035 0.003069942 0.0037073449 0.0019540666
newtonsoft.json.tests.testobjects.sqltypesdataset 0.0022713584 0.0017479497 0.008510184 -0.006583386 -0.0012940299 0.0032105034 -0.00981567 0.007040809 0.007904607 -0.0037968645 -0.0032401213 -0.0073540825 0.008284202 -0.0050821044 -0.00095339614 0.00064101664 0.007376745 -0.004739163 -0.007462251 0.0072303885 0.0065627266 0.008328023 0.008074391 0.008326227 -0.0076864874 0.0007713782 -0.0006634006 0.006921618 -0.0032300344 0.0062496234 0.0016452096 -0.0044240355 0.008950055 -0.002069158 -0.0071620476 -0.0069949646 -0.007192922 0.0040266765 -0.006695063 -0.0059621097 -0.0029388806 -0.00033569403 0.008918784 -0.0025803754 0.008660176 0.002888605 0.0018788193 0.0026560754 -0.0051093507 -0.0055517517
newtonsoft.json.tests.testobjects.idreferenceresolver 0.0017362233 0.005024158 -0.005803444 0.00612329 0.0015066159 0.00023114265 0.0078595895 -0.004002281 0.0049852803 0.0007452802 -0.00076005846 -0.0070465547 0.001580781 -0.004189072 -0.005018674 -0.0066800225 0.006102604 -0.005265262 0.0048792628 0.002607448 0.008876328 -0.0045120446 -0.0043034647 -0.009444507 -0.008077413 0.0059895017 -0.0035664255 -0.009561384 -0.0010153838 -0.008326424 -0.0011443264 -0.004487933 -0.007345686 0.0049254 0.005354031 0.0053848424 -0.008434814 0.0037310363 0.0048217624 0.007918766 0.009368515 -0.00533634 0.00015527406 0.007528373 0.0040233745 0.0090149185 -0.0013637275 -0.0075500333 0.008639517 -0.007527156
newtonsoft.json.serialization.reflectionattributeprovider -0.004936556 -0.008268344 0.0076654307 -0.009838794 -0.005174866 -0.008915457 0.005304083 0.009897548 -0.007885397 -0.0005084403 0.006090067 0.003918663 0.0018589862 0.0017552412 0.0085511515 -0.007159528 0.005917869 -0.0070360014 0.004525705 0.009892202 -0.005686163 -0.00700347 -0.0043606427 -0.0032314558 0.0039988244 -0.0015571342 0.008892205 -0.005532794 -0.0067642545 0.0031917666 -0.0043249642 -0.005511669 -0.0035284646 0.0020533002 -0.009964826 -0.005624953 0.0025275494 -0.00845731 0.009061672 -0.008067965 -0.0041342047 -0.0015520519 -0.008819031 0.009111694 -0.007706803 0.0011809703 0.0031957591 -0.0034877267 -0.0064439215 0.0068087266
newtonsoft.json.linq.jcontainer 0.004006651 0.22419569 0.6586097 -0.36684355 0.024141217 -0.21348353 0.15687463 0.26010936 -0.16891873 -0.27168554 0.5899506 -0.074137144 0.32367802 -0.05701558 -0.31954896 0.15284483 0.15684985 0.30351284 0.025882361 -0.5440038 0.2632746 -0.09567247 0.046107877 -0.5233274 -0.26246282 -0.3839418 -0.6320602 -0.19880901 -0.22233576 0.017516192 -0.32045233 -0.28898308 -0.24141286 0.045627005 -0.30840185 0.26190543 0.25356397 -0.18646456 -0.07605639 -0.476534 -0.27388006 -0.3333204 0.07195141 -0.06569654 0.028362652 -0.1305712 0.32504463 -0.19140399 0.38384297 -0.26999
newtonsoft.json.tests.testobjects.datacontractprivatemembers -0.00013488521 0.0038192228 0.005230481 -0.00017907112 0.008649041 -0.0007038837 -0.000309983 -0.0063895653 0.00123002 0.004797841 -0.0026844598 -0.0020341428 -0.0022657323 -0.0029196197 0.004327428 -0.009003419 -0.0051206504 -0.0073150154 0.0065079383 0.0012180364 -0.009483396 -0.0071398765 0.002725305 0.002852814 -0.00985095 0.00093542004 -0.007816603 -0.0012808878 0.002004969 0.008485766 -0.007185613 0.003986165 0.0050533027 0.005438103 0.007425422 -0.008646576 -0.009306092 -0.0044926624 0.0029897937 0.0045609255 -0.005740499 -0.008623065 0.0068638 0.0070959856 -0.0017969036 -0.0027301677 0.008707244 -0.00712045 0.009154958 0.008855911
newtonsoft.json.tests.utilities.mystruct -0.0031166635 -0.0013024217 0.0021463046 -0.0015035764 7.184783e-05 0.0019771077 -0.0063961963 -0.00444809 0.0052304384 0.005693502 0.004503316 0.0029564532 0.0012270731 0.0057683843 -0.0076602623 0.0051993676 0.0025907042 0.0049444055 0.009723069 -0.0040488765 0.0069288393 -0.00083355414 0.00687472 0.0058817207 -0.00090044 -0.008897362 0.005890995 -3.9289152e-05 -0.009950896 -0.0040588346 0.0025809575 0.0017022481 0.0045931735 -0.009972876 -0.0021527894 0.0035000357 0.004549439 -0.0060595414 -0.0064823586 -0.008667652 0.0062373956 0.008863048 -0.004378994 0.0045534037 -0.0024602448 0.009201594 0.0032660223 -0.00023861162 0.008317565 -0.0033457584
newtonsoft.json.serialization.jsondictionarycontract 0.08395316 0.24916969 0.44531307 -0.31086856 -0.023161529 -0.069123745 0.018136684 0.085349575 -0.31332356 -0.28902245 0.33293256 -0.13068931 0.14439404 -0.19878478 -0.28066072 0.60488796 0.4393653 0.31552055 0.054350436 -0.7425562 0.27353215 -0.41127554 -0.05094481 -0.44005218 -0.3987159 -0.49862385 -0.6486783 -0.36961645 -0.08439867 0.12147586 -0.32196626 0.026314953 -0.4498716 0.19382782 -0.67093 0.19617873 0.21742216 -0.44966182 0.12512045 -0.52103585 -0.21184114 -0.6543426 0.3042371 -0.18064447 -0.16016087 -0.17941815 0.133443 -0.17439269 0.39014852 0.24010687
newtonsoft.json.linq.jraw -0.005102088 0.0056009116 -0.0033365285 -0.0020094183 0.0010027167 0.0026453873 -0.0010641158 -0.001901533 0.0043312437 0.006012162 -0.0016663901 0.0052719265 0.005350766 -0.008257821 -0.006630315 -0.0028802555 0.002608597 0.005000652 0.0060488367 -0.0032575428 -0.0015207095 -0.004259267 0.0096436795 -0.009449482 0.0059759053 -0.005056115 -0.0071145273 0.008084452 0.0022248444 0.002403866 0.0022241601 2.7681885e-05 -0.0025288323 0.0020948108 0.0064785643 0.0033257564 3.7468508e-05 -0.0055869673 0.0028451139 0.009359512 0.008709851 -0.0016518867 0.0066345236 0.005043645 -0.0007077841 0.005234491 0.008600046 -0.0052268654 -0.0023422702 0.005689469
newtonsoft.json.schema.jschemareadersettings -0.0021029445 -0.0042096814 -0.007996094 -0.0071825064 -0.002020733 -0.0032272614 0.0052004475 0.0070340396 -0.007788011 0.0015692615 -0.009855507 0.001893484 0.0065510357 0.0043217055 0.0029118122 -0.0010033625 0.0046223165 -0.009923258 0.004528603 -0.00037554116 -0.0022560225 -0.008689901 -0.009345966 -0.000230639 -0.0041738083 0.0023194985 0.0074165585 0.0006824178 0.005732929 -0.008895056 -0.0002697375 -0.0018397145 0.002977055 0.0050909757 0.0004807751 0.005372351 0.001748108 0.00384225 0.0022663185 -0.006893344 0.008105771 -0.00241034 -0.008443219 0.0042620306 -0.0091184275 -0.0002391786 -0.0041650822 0.0018966685 -0.006481719 0.0018410095
newtonsoft.json.tests.testobjects.personraw 0.008073057 -0.009371167 0.009245125 -0.008509558 -0.0024409138 0.00065393007 0.00022520084 0.007389305 0.0015957783 -0.009436267 -0.0069501763 -0.0010300615 0.0056527792 0.003106918 -0.007950635 0.0048201852 -0.007600964 0.0053315344 0.0024843828 0.004924969 0.0049799792 -0.009064736 0.0068949433 0.008478914 -6.428622e-05 -0.0010472068 -0.009433502 0.0029403367 -0.008616379 0.00051098334 0.0036201808 -0.009910108 0.00018532001 -0.0013177665 -0.0011462424 0.0035023312 -0.0056728357 0.008254983 0.005595102 -0.008402006 0.0044839596 0.0097327065 -0.008559452 0.002648102 0.0045675463 0.009345052 -0.0041374406 -0.0050417506 0.0039144177 0.0006534289
newtonsoft.json.jsonwriter.writepropertyname() 0.7683623 0.11433492 0.56543136 -0.8689637 0.1240378 -0.3424767 0.5514418 -0.029425323 -0.36511847 -0.6934348 0.67335314 -0.55363196 0.039623395 -0.09146698 -1.1429344 0.29905397 0.172692 0.54465824 -0.6903292 -0.61160594 1.6610202 0.08019893 0.21584001 -0.6673368 -0.16400081 -0.24128164 -1.193973 -0.15651494 -0.34829828 -0.31727046 -0.41893148 0.58712155 -0.1286062 -0.50227123 -0.15834546 -0.23732936 0.98630506 -0.6054847 -0.32012358 -0.8716281 -0.92918557 -0.11368038 -0.26177323 0.32065248 0.6551165 -0.36102325 0.22452487 -0.58138293 0.03960693 0.23149112
newtonsoft.json.jsonwriter.writevalue() 0.7346997 0.10407744 0.63210154 -0.8174877 0.09289935 -0.19073738 0.7984754 0.05196365 -0.36221194 -0.74088866 0.7146176 -0.6081645 0.017788481 0.041680556 -0.908445 0.059223827 0.071724124 0.33575046 -0.6688139 -0.4301529 1.66196 0.11558681 0.25401413 -0.85951185 -0.035686824 -0.1549006 -1.1122351 -0.087960325 -0.39792383 -0.33391947 -0.41329893 0.37524614 -0.27503803 -0.65429956 -0.18850149 -0.22799577 0.93223566 -0.38722488 -0.39476162 -0.9167614 -0.76128614 0.14810485 -0.35985586 0.1895396 0.7038974 -0.3481778 0.17988025 -0.6506857 0.07374819 0.21317874
newtonsoft.json.schema.tests.testobjects.personraw 0.0028662675 -0.005221794 0.0038932404 0.008004472 -0.007277708 0.00782718 0.005784254 -0.007845936 0.004512867 -0.005950528 -0.0012808832 0.006883805 -0.0020924977 0.001822612 0.004944244 -0.0073234243 0.0008715358 -0.0019250154 0.004907656 4.6208224e-05 0.0058344984 0.0070154737 0.008862877 -0.0037120588 0.0022933665 -0.002545568 -0.0047176704 0.0076600113 -0.0073906058 -0.0033685025 0.0018991535 -0.0040796697 4.2575797e-05 -0.004556174 0.008096953 0.0026467848 -9.116866e-05 -0.006108066 0.009656522 -0.009481726 0.0056855823 -0.006873193 -0.0019066927 0.009180632 -0.0036321105 -0.008850154 0.0049603344 -0.00939717 -0.0011684773 0.0057899673
newtonsoft.json.serialization.tracejsonwriter -0.001675891 -0.0041311304 0.009648838 -0.0075069973 0.0026443526 -0.0061206967 0.009448712 0.005504956 0.008833207 0.009540849 -0.0086386865 0.0052528204 -0.0057971943 0.0060217436 -0.0037511822 -0.0090646 0.0064911162 -0.006906911 -0.00090748735 0.009239261 -0.0011817975 -0.007005732 0.0028053005 0.007196516 -0.0020937994 -0.0066088494 -0.0028330698 -0.0013414253 0.008165098 0.007050499 -0.0060514025 0.006220425 -0.006610112 -0.007984221 0.0022456727 -0.008719405 -0.0045223134 -0.0060953624 0.0098209465 -0.0040023113 -0.00035113643 -0.0019109903 -0.0016463938 0.004571928 -0.0015175092 -1.4282302e-05 0.0074702343 -0.00020529333 0.008604521 -0.003013923
newtonsoft.json.jsonpropertyattribute 0.12990631 -0.073412344 0.43049544 -0.35728908 -0.23886855 -0.826107 0.17149265 0.118680194 -0.4160491 0.06806444 0.4288828 -0.37132105 -0.4233511 0.40947536 -0.01715835 -0.17754178 -0.056119878 0.5115507 0.104666434 -0.6176875 0.32307774 -0.07460155 0.04978474 -0.016172186 -0.5813309 -6.0084378e-05 -0.72301936 0.2818873 0.15364839 0.16881011 -0.05219857 -0.15736061 -0.30458602 0.054523606 0.17229225 -0.30838513 0.5107049 -0.95291436 -0.063283056 -0.93387294 -1.2173072 -0.54986584 -0.50113076 -0.27052602 0.3777223 -0.28555137 0.2679699 0.27763528 0.56868255 -0.19680314
newtonsoft.json.jsonserializationexception 0.6335163 -0.19199786 0.31349972 -0.3956143 -0.2184908 -0.6051899 -0.019953553 -0.08483162 -0.1868148 -0.23666738 0.14493902 -0.52190405 -0.25778863 0.14756294 -0.26931772 0.055484533 -0.030948047 0.33151346 0.19314806 -0.4514757 -0.07978625 -0.3079319 0.09186203 -0.05603922 -0.32285884 -0.2357533 -0.4942487 -0.034737393 -0.05447662 0.06250996 -0.26002318 -0.15968318 -0.18270044 0.098514035 -0.121317156 -0.2711755 0.17993641 -0.2833419 0.019301342 -0.2884024 -0.44149682 -0.36267585 -0.227842 -0.2892656 -0.21442075 -0.16224177 0.16344771 0.24346243 0.51938725 -0.49501488
newtonsoft.json.converters.datatableconverter 0.24611658 0.11393672 0.29729503 -0.114340715 0.04676957 -0.39126608 0.2709684 -0.019208012 -0.19798984 -0.22488043 0.27446046 -0.13497032 0.21269944 -0.2896769 -0.51107603 0.40679204 0.0911249 0.126894 -0.1619705 -0.24927501 0.4144098 0.013793309 0.3480386 -0.36262685 0.039510056 -0.32215643 -0.46266457 -0.31926265 -0.051706035 -0.31977087 -0.28662187 0.30743507 -0.13696581 -0.10059244 -0.09007053 -0.10381654 0.3776103 -0.26991 -0.08790367 -0.4476305 -0.6625412 -0.12212415 0.10877497 0.32524735 -0.05487128 0.016096396 0.14599213 -0.36766052 0.22078094 0.120702974
newtonsoft.json.schema.infrastructure.validation.schemascope 0.009548364 -0.0051826974 0.009325209 -0.0033283394 -0.004060022 -0.006161404 -0.0055810027 -0.004402505 -0.0075308643 -0.005217249 -0.0044234665 0.0071628187 0.005816821 -0.00048438561 0.00060499593 0.0031446419 -0.0034453275 -0.00921259 0.009152436 0.00029222123 -0.008053533 -0.0044671367 -0.009305483 -0.0084930165 -0.009599403 -0.0046322355 -0.002609662 0.00030789967 0.0030950205 0.0071749142 0.004116965 -0.009886603 0.00265233 -0.00819358 -0.00565802 0.0005593623 -0.0010462727 -0.00029924753 -0.0070929015 0.008978313 -0.001707643 -0.00051562453 0.008702645 0.0052330433 -0.0016510807 0.00028182805 -0.0053301766 -0.002747506 0.0035138591 0.0021991374
newtonsoft.json.utilities.datetimeparser 0.0004969912 0.0026823636 0.27424994 0.0021074535 -0.13999684 -0.19716129 0.25263062 -0.2765456 -0.10306456 -0.3241853 0.2610819 0.029980537 0.19919856 0.18807206 -0.2825782 0.015523454 0.08231243 0.13707094 0.17993042 -0.11731828 0.11579017 -0.22276649 -0.03546235 0.0111174835 -0.28569448 -0.4198228 -0.32799426 0.07901585 0.042015277 -0.022096897 -0.2864834 -0.04493106 -0.12877801 -0.17820424 -0.08823376 0.07771327 -0.08851177 -0.5171703 -0.22541195 -0.27411526 -0.22452931 -0.12237362 -0.09125617 0.045092642 -0.20115402 -0.018913623 0.17904349 0.19613726 0.4627973 0.17724676
newtonsoft.json.linq.jsonpath.pathfilter 0.3711077 -0.081450805 0.1311683 -0.33599684 0.16076453 -0.1964786 0.5328978 -0.29549813 -0.49205664 -0.7051888 0.36073208 -0.56978005 0.18996592 0.45858845 -0.4658086 -0.15880242 0.35669044 -0.27210975 -0.152291 -0.11844348 0.45293733 -0.34671843 0.08560156 -0.51668775 -0.20401044 -0.47609827 -0.24289177 -0.3774758 -0.58474535 0.20960315 -0.4135802 -0.114045925 0.10336657 -0.00371292 0.052546583 -0.17243022 0.12684564 -0.5200618 0.1166961 -0.23417234 -0.29690975 -0.049369812 -0.18279235 -0.29072985 -0.010787698 -0.013844287 0.3528148 0.23156837 -0.0002219388 -0.076216556
newtonsoft.json.tests.testobjects.jsontextreadertests.fakearraypool -0.009066641 -0.008279749 -0.003575569 -0.006827976 -0.007448099 0.00978914 0.002315802 0.0013737495 -0.008448395 -0.00011126077 -0.008045917 -0.00060847 -0.006979686 -0.001985876 -0.00034212344 -0.0063022207 0.0002649502 0.009480785 0.0012566661 -0.0042656558 0.0038644536 -0.004051459 -0.0013183721 0.0035300963 0.0034898538 -0.0043315706 -0.005301333 0.009446867 0.004231412 0.0050270054 0.009490839 -0.0032795982 -0.0064533264 0.0008675901 -0.0025192106 -0.0060052485 -0.008708381 0.0052452623 0.0049556694 -0.0020715373 0.0063230745 -0.006418275 -0.006377178 0.00750582 -0.0055173044 0.00043731357 -0.004865635 -0.0068146447 -0.008143147 -0.008760602
newtonsoft.json.tests.testobjects.ratio -0.0004531515 0.005741733 -0.00866554 -0.009784735 0.0012292565 0.0044421363 -0.008341774 0.0031538373 -0.009442033 -0.00549826 0.008081996 0.0061008455 0.0074345595 -0.006186898 0.006326045 0.0032211645 -0.009346145 0.0024359187 0.004036826 -0.008227251 0.005849603 0.00225888 0.007951842 -0.008076129 -0.0031936544 -0.00013676296 -0.00063106033 0.009110671 -0.0056774765 -0.0048336103 -0.006444829 -0.000109542925 0.0026059754 -0.001099584 0.009685854 -0.0060948106 -0.00029122893 0.0053886017 -0.0067232135 0.0038629794 -0.005453329 0.004481703 0.0030101177 -0.005300428 -0.002908087 0.0046002907 -0.009484499 -0.00869243 0.009662169 0.0033046089
newtonsoft.json.jsonconvert.serializeobject() 1.04689 0.05217474 0.2095945 -0.7470157 -0.6778672 -1.2744739 0.29027402 -0.13279776 -1.1044625 -0.77812356 0.24840222 -1.00996 -0.65891397 0.22498995 -0.102254 -0.35042882 0.004681005 0.2986555 -0.26136485 -0.12325952 0.9068415 -0.60933965 -0.09199978 -0.16521078 -0.16510278 -0.41526514 -1.041462 0.23778418 0.29564056 -0.124919325 -0.6637953 -0.21932815 -0.12391472 -0.24576694 -0.58603346 -0.54064506 0.73033464 0.019386955 0.10428027 -0.59513664 -0.6012377 -0.34313238 -0.46669906 -0.5069344 -0.5111998 0.2246563 -0.21410696 0.18650922 1.0585345 -0.3523776
newtonsoft.json.jsonreaderexception 0.68891925 -0.190351 0.2587927 -0.34885532 -0.34130698 -0.63435465 0.03344808 -0.08948444 -0.19474801 -0.19468264 0.113013536 -0.5519007 -0.35644332 0.23509625 -0.19405398 -0.031017281 -0.13805181 0.3453649 0.17378686 -0.31890032 -0.032747053 -0.28294224 0.12733157 0.033260267 -0.35162267 -0.15220188 -0.48508275 0.10237123 0.031155473 -0.015510244 -0.121808395 -0.10005928 -0.16516848 0.10684595 -0.09469183 -0.33244175 0.19552563 -0.4512684 0.01367504 -0.376271 -0.6469167 -0.34345102 -0.31485626 -0.36727858 -0.11668281 -0.19747834 0.14580582 0.24842851 0.48471534 -0.4340619
newtonsoft.json.tests.schema.performancetests -0.007048839 -4.428546e-05 0.008465632 -0.0049358816 0.0007331304 -0.004337802 -0.007025895 0.00713033 -0.0004857799 -0.003783646 -0.0043574297 -0.0011844148 0.009152184 0.004587415 0.0013607469 -0.009337837 0.008441162 0.004489907 -0.0054891827 0.0050446945 0.008665225 0.0009824615 -0.0011951332 -0.0048623853 0.0014191882 0.005415734 -0.0034827786 -3.328699e-05 0.007130607 0.00075984304 0.008796237 0.0026108674 0.007979952 -0.0022907557 0.0009061523 -0.0069715925 -0.0012774452 0.0021720452 0.008689252 -0.0048856293 -0.002707714 0.008706511 -0.009289872 -0.0029270945 -0.0044437903 0.00849047 -0.0027460414 -0.009705739 0.009117746 0.00049595465
newtonsoft.json.converters.ientitykeymember 0.21991123 -0.117275745 0.37269014 -0.28025246 -0.044468787 -0.39581802 0.16220732 -0.2791061 -0.14881416 -0.33483446 0.13492948 -0.18208908 0.22344677 -0.16315684 -0.45499685 0.42887133 0.22352852 0.10948208 -0.08097623 -0.29212415 0.22711508 -0.31378844 0.17266203 -0.14447314 -0.038014013 -0.7359244 -0.5213104 -0.2228854 -0.028201653 0.028040508 -0.30588612 -0.1254402 -0.41243574 0.0012637281 -0.1169789 0.0041073584 -0.029871173 -0.1984001 0.0142927095 -0.14710784 -0.15398881 -0.14079021 0.23162572 0.03126976 -0.40017694 0.08977651 0.05338212 -0.053517956 0.32901335 0.07231102
newtonsoft.json.tests.testobjects.directoryaccount 0.003982974 -0.00315172 0.00522965 0.0029198262 0.005022144 -0.0037607655 0.007412224 -0.001475194 -0.0063477415 -0.0040135896 0.0046832855 -0.0014554766 -0.004806248 0.0015292829 0.0066141044 -0.003028781 -0.006331912 0.0020197937 -0.00032290074 0.009590112 -0.0073512285 0.006729282 -0.0061086263 -0.0023410895 0.0018408399 -0.003824513 -0.0070678703 0.0063051134 -0.003616806 -0.007314347 0.007166816 0.0049368376 0.0022292999 -0.003934759 -0.0020384418 -0.009113418 -0.0064748405 0.0018185369 -0.0009044006 -0.0071120863 -0.0075334096 -0.0075887535 -0.002623352 0.0061818697 0.0007529128 0.005128296 -0.0018550043 0.0017139292 0.0005593515 0.00032154116
newtonsoft.json.jsonwriter -0.0037907055 -0.00588841 0.008100302 -0.002217021 -0.0038253784 -0.0070773484 0.008852461 -0.005220051 0.0018112416 -0.008511409 0.0065247538 -0.0029655404 -0.0023223504 -0.0048086676 -0.0034824617 0.003077039 -0.0056238566 0.009934178 -0.005073481 0.0047019296 0.0057221996 0.0033938456 0.004240324 0.0027729054 -0.0057057138 0.0026851988 0.0023212393 -0.009754496 0.0032302004 -0.0045434893 0.00343301 -0.0081416825 -0.008238954 0.00942341 0.0034533888 0.0042001493 0.0034369822 0.005920197 -0.009826246 0.0041374555 -0.008807389 -0.00993672 0.002838941 0.0021093034 0.009293393 0.0053887726 0.0008194947 0.006215174 -0.001880232 0.009136646
newtonsoft.json.serialization.jsonserializerproxy 0.0070681334 0.004741398 -0.001847897 0.006813583 0.006113543 -0.006423476 0.009498607 0.008932209 -0.00033490692 0.008920215 -0.006198837 -0.0026474688 0.0094691375 -0.0032532897 0.005880643 -0.008498773 -0.006302569 -0.0056872326 0.003226399 0.00039054867 -0.007878757 -0.0026552735 0.004440182 0.0015910913 0.0086320825 0.0075857285 -0.0051826704 4.8920912e-05 0.0021807114 -0.0063453084 0.00032156476 -0.007241336 -0.0010265467 0.009468665 -0.008535221 0.00021489144 -0.0010161772 0.009040982 -0.009414427 0.000100740195 0.002284913 -0.009295242 -0.0057623163 0.0018118274 -0.00080161693 0.003080893 -0.0011502195 0.003952155 -0.005158546 -0.0026619355
newtonsoft.json.jsonwriterexception 0.68895173 -0.16063614 0.27480745 -0.42420712 -0.2840814 -0.56461954 0.020515656 -0.062253904 -0.23714449 -0.20937227 0.14429542 -0.58155257 -0.3656193 0.24137212 -0.14493525 -0.0140652135 -0.11958873 0.29879433 0.14289382 -0.36760166 0.035855155 -0.31133276 0.06755944 -0.028660776 -0.28918207 -0.15916315 -0.5191664 0.060632028 -0.047800813 0.009978772 -0.16223593 -0.17704612 -0.17007777 0.09448533 -0.14858763 -0.28648818 0.23516943 -0.32562712 0.031076446 -0.31340268 -0.5321774 -0.35327184 -0.30001003 -0.37456524 -0.18370408 -0.21678454 0.12167127 0.25344592 0.49861416 -0.5099924
newtonsoft.json.glimpse.tests.mocks.mockexecutiontimer 0.009443667 0.0077804904 -0.0059484513 -0.004978444 0.001649906 -0.007546587 -0.008062629 -0.007219177 0.003202854 0.007990545 0.0061946562 -0.0012850249 0.0060328445 0.0016760539 0.00017591089 -0.0008054934 -0.0058998815 0.0006695075 -0.00306675 0.009811923 -0.0007598873 1.8444439e-06 0.0014658679 0.003437903 -0.0018770207 0.0025821202 0.006226891 0.008712945 0.00086111744 0.00046103584 -0.0031839649 0.002631401 -0.008299507 -0.0044278614 0.0072600455 0.008190535 0.0049057864 -0.009321244 -0.0054146755 5.0228045e-05 -0.00872585 0.0014230195 0.008308897 0.004206325 -0.0030565844 0.005553368 -0.0014433705 -0.0064440747 -0.001898757 -0.00912518
newtonsoft.json.schema.infrastructure.discovery.jschemadiscovery 0.007916282 0.003087839 0.00872165 -0.003634784 -0.009902632 0.006831989 0.009937604 -0.0097962115 -0.0014285777 0.004866983 0.0016389139 -0.0056635644 0.0048306994 -0.0037781252 0.0064682304 0.00294284 0.0039386097 0.009784871 -0.008642789 -0.006862735 -0.007830297 -0.0061612143 -0.0021833915 -0.007287322 0.00035085515 -0.0020182098 -0.00097092043 -0.006705106 -0.0077739065 0.003670037 0.009288871 -0.008880883 0.0012505456 0.0026340156 0.0025730699 0.005360618 0.0022715866 -0.003908105 -0.00833697 -0.009319691 0.009091091 -0.0013952515 -0.00012957877 -0.005977459 0.001352973 0.0079182545 -0.006004619 -0.0029120853 -0.0033113728 0.0053084726
newtonsoft.json.converters.javascriptdatetimeconverter 0.0069857226 0.0066346377 0.008254707 -0.009202853 0.0084020905 0.000121944104 -0.009016771 0.0056862463 0.0077356813 -0.0018694855 -0.005844793 -0.009133832 0.0022135836 -0.0023245707 -0.0080876555 0.002009856 0.0050604865 0.0084805405 0.0003186345 -0.0068382565 -0.008161561 0.0092125945 -0.0079571875 -0.0029543578 -0.0029553971 -0.009132211 0.0066922577 0.0049778614 0.00876176 -0.0070117083 -0.005315978 -0.003946668 0.004131419 0.0070126927 -0.005240914 -0.009934176 0.007734711 0.00563065 0.0012157635 0.009050672 0.0013124873 0.008366554 0.0077187903 0.008065926 0.0013893554 0.0021123637 -0.0056276484 -0.00469138 0.004067418 0.009204514
newtonsoft.json.tests.testobjects.jsonignoreattributeonclasstestclass 0.00784573 0.004045704 0.007731199 0.0041975495 0.009680958 -0.00951873 0.0052265855 0.0017815189 -0.0001814435 0.0051689073 -0.004763907 0.007106081 0.0035440708 -0.009599417 0.00086060126 -0.0010989875 0.0052315434 -0.0022513757 0.0019980941 -0.0026665977 0.005540497 0.00734844 -0.007328546 0.0065608756 -0.006391818 -0.0006999368 -0.009616895 0.00379593 -0.007349326 0.008156029 -0.00091616076 -0.003968755 0.003648222 0.0065412954 -0.0022770837 -0.00041303108 -0.00035559223 -0.009923174 0.0015275946 0.007006471 -0.0051999693 0.007590712 0.005228389 0.009689688 0.0018934443 0.008598415 -0.0046863104 -5.2507152e-05 -0.00016296194 -0.0001856739
newtonsoft.json.serialization.camelcasepropertynamescontractresolver -0.0037140227 -0.009838997 0.0057954923 -0.008208011 -0.007927207 -0.0063617686 0.009175276 0.005327227 0.0036682654 -0.0021926954 0.0063538803 -0.008629061 -0.0065847365 0.0006556292 0.00705804 0.006152824 0.0058280933 0.0015728115 -0.0068355976 -0.009197894 0.0007356393 -0.009646686 0.0048309807 -0.008840975 0.0006348956 -0.008982094 0.0062623066 -0.00450041 0.0044171284 -0.0025281233 -0.0020362625 -0.008694431 -0.0062900125 0.00018588935 -0.009600314 0.002310877 -0.002314739 -0.0032787009 0.008268565 0.0017149444 0.0022531159 0.0034972776 0.006705283 -0.004242884 -0.0010475896 0.0036145952 -0.008591697 0.00804313 -0.0029107656 -0.004532134
newtonsoft.json.tests.testobjects.preservereferencescallbacktestobject -0.007223684 0.007456613 0.009999515 -0.0071030823 0.004670245 0.0039062886 -0.0044553056 -0.0056949435 -0.009862074 0.0031141187 0.0017479444 -0.0013818833 -0.0020994155 -0.00048215562 0.00096774613 -0.0090299 0.0021482818 -0.0042769625 0.009895651 -0.00022613356 0.008571691 -0.008808403 0.008910398 0.007896638 0.0014696714 -0.002720515 -0.003752385 0.0011163037 0.0023507164 0.0075463424 0.004274985 0.008683494 0.0031073978 -0.0063772574 0.00037374307 0.0013910023 0.0062406473 -0.009757023 -0.0044546523 0.001987281 0.0051603024 0.003776251 0.009134579 -0.004933047 0.0054193777 0.0030148288 0.008371659 -0.0001474288 -0.0045345626 -0.0047333343
newtonsoft.json.tests.testobjects.sqltypesdataset.initvars() 0.0044834767 0.0021554772 -0.004010684 -0.0028979264 -0.00042498944 -0.008251235 -0.002889085 -0.0058909934 -0.002264648 -0.0075583938 0.00766045 4.4946904e-05 -0.006288348 0.0029527098 0.0035668286 -0.0040047853 0.0018133533 0.0070944615 -2.2121667e-05 0.0038909158 -0.008627542 0.0064335573 0.0040279417 0.00909578 -0.0051625213 -0.004811089 -0.0044018934 0.006313995 0.008983905 -0.009733322 -0.00805651 0.0035095883 0.0064754332 0.0037153878 0.0055389493 0.008346657 0.003697429 0.0051997993 0.006696904 0.0058756666 -0.009430199 -0.00021462636 -0.00573216 0.0029695083 0.004027165 0.0097893905 0.0031149683 0.00460904 0.0024896355 -0.009924637
newtonsoft.json.tests.testobjects.sqltypesdataset.getschemaserializable() 0.0021377688 -0.007507717 -0.0063894684 -0.0012308621 -0.0042565353 -5.7523775e-05 0.0052905926 0.0058541587 0.0064691864 -0.0033039574 -0.0026366832 0.008672733 0.004718552 0.009155934 -0.0032461355 -0.0027014876 -0.0057538464 -0.0047561694 0.0025287431 0.0055469936 -0.0062381653 0.007254394 0.0098998435 -0.00563135 -0.0041693375 -0.0017196034 0.00512222 -0.009155431 0.009433532 -0.006449924 -0.0020575789 -0.0071924366 0.0029885466 -0.009100777 -0.0039878287 -0.009980995 0.007812365 0.0060594054 -0.0068850927 0.0039749234 -0.0018448823 0.0095337825 -0.0042858883 -0.0051456806 -0.0012699217 0.008421425 0.009661265 -0.00720062 0.0059161535 0.0035442743
newtonsoft.json.tests.schema.jsonschemaspectest -0.008096747 0.00030981514 -0.0042216377 -0.005736204 0.0028603093 -0.003032989 0.008547085 -0.00021968994 -0.0022462886 -0.0052022664 -0.004755799 0.004161243 0.002790042 -0.0044646338 -0.0067356145 0.005033766 0.0020613896 -0.00031816267 -0.0070762495 -0.007604165 0.006276798 -0.007925435 0.0069152494 -0.009064613 -0.002442009 -0.00046230663 0.009822747 -0.00906892 -0.0035599645 -0.004262088 -0.0015185664 -0.00904346 0.009325919 0.0066018603 0.004968421 -0.008526742 0.002374 0.009236847 -0.0034801504 0.008617607 0.0074789217 0.0037657733 0.0066662896 -0.005989668 0.0018640101 -0.009620264 0.0064400155 0.0061197984 5.221875e-05 -0.0089805415
newtonsoft.json.schema.jschemaurlresolver -0.008365392 -0.0030236521 0.00972564 0.0018985088 0.004923118 -0.00037411976 0.00081723684 0.0013397544 -0.0023535332 0.0065220445 0.0032761951 0.00346179 0.007785273 0.006666879 0.0047108084 -0.004556667 0.003262229 0.006501578 -0.0042613554 -0.004956597 0.0061538457 0.0074052084 0.0026529224 0.0005720169 0.0032780764 -0.0034100031 -0.0032177698 0.002828064 0.0067246105 0.00860972 0.00069388194 -0.0011225902 0.0053906688 -0.008581475 -0.0075122053 -0.0025548069 -0.0017951544 0.007254759 0.00321688 -0.0052131247 0.008566006 0.009845689 -0.009932158 0.008867469 0.0047731115 -0.00049505365 -0.00019534578 0.009828395 0.0021620572 0.0003211157
newtonsoft.json.utilities.bidirectionaldictionary -0.07243955 -0.09157354 0.3149858 -0.12597367 -0.1039401 -0.26538283 0.4237779 -0.07630652 -0.40941882 -0.4618073 0.36573574 -0.04453418 0.120135225 -0.026701711 -0.27080283 0.022715341 0.28715503 0.08418894 -0.09139769 -0.29416898 0.4227761 -0.15243751 0.023090398 -0.22688419 -0.077247694 -0.46248478 -0.6771667 -0.148016 -0.028945383 -0.061495233 -0.22303891 0.07033967 -0.36712185 -0.10444829 -0.26422352 -0.13312992 0.074291065 -0.117222555 -0.04388312 -0.21415001 -0.011537051 -0.10309962 0.13855423 0.2574102 -0.058924478 -0.04237761 0.083459266 0.18872058 0.33959833 0.03552876
newtonsoft.json.utilities.iwrappeddictionary 0.19329366 0.21845387 0.28573066 -0.16663574 0.010948359 -0.029097399 -0.031015337 -0.04104307 -0.1985797 -0.39972576 0.20100723 -0.16480622 0.16340949 -0.37042102 -0.62854046 0.51988524 0.30280823 0.2932543 0.01766448 -0.5522655 0.3938195 -0.097504 0.079453 -0.4278753 -0.25353202 -0.4710246 -0.5582233 -0.39438218 -0.11544492 -0.0070646927 -0.15986684 0.10214577 -0.32840085 0.030388515 -0.26373717 0.18859734 0.38131016 -0.4348102 0.1485658 -0.54224867 -0.25902465 -0.46712396 0.2500161 0.2390145 -0.0123219155 -0.16562656 0.18800698 -0.19695564 0.25506765 0.38026157
newtonsoft.json.bson.utilities.datetimeparser -0.065328754 0.05218695 0.31182796 0.108926564 -0.3361985 -0.10663624 0.33443955 -0.37744743 -0.21928717 -0.49634272 0.19242422 0.0871092 0.3286904 0.37070516 -0.18464074 -0.11103894 0.11729178 0.045480415 0.35251734 -0.12357611 0.1159829 -0.20352921 -0.02125002 -0.006834424 -0.34265792 -0.5620509 -0.41380933 0.05304924 0.045494925 -0.15864094 -0.3606805 -0.10511284 -0.12730312 -0.21214518 -0.20456898 0.17628947 -0.071391664 -0.7296054 -0.20280439 -0.32915854 -0.263621 -0.08995368 -0.11127087 0.1028222 -0.3682601 0.0577081 0.28231892 0.38215137 0.55265415 0.2770016
newtonsoft.json.serialization.diagnosticstracewriter -0.0054940796 -0.005641992 0.0025933678 -0.0030841304 0.0068279435 0.009590685 -0.0080339955 -0.006444245 -0.0020260809 0.0021765458 0.008079776 0.006141702 0.003988493 0.00064309005 0.00831194 -0.0070723807 0.0030766844 0.007917554 0.0091349995 -0.0053670397 -0.0056583816 -0.0038421813 0.00702358 -0.0020008488 0.002462072 -0.003971887 0.006972963 -0.0027841816 0.0055900794 0.0023886717 -0.0008925612 -0.0037421226 -0.0050123604 0.008341107 0.006765708 0.0049254936 -0.006103203 -0.0011912232 0.0034030299 0.007846346 0.0044582477 -0.009265823 -0.00915686 0.0055789053 0.0013923533 0.00058231066 0.009477698 -0.008467262 0.0011389719 0.0015776688
newtonsoft.json.tests.testobjects.jsontextreadertests.togglereadererror 0.0035542636 0.004014663 -0.00061503897 0.00017891279 0.003213406 0.0010716389 0.008922012 0.0012593592 -0.0056015975 0.003765449 0.002596329 0.005918024 -0.002023198 -0.0012517767 0.00046074076 0.0071371873 -0.0011460118 0.002185862 -0.009817543 -0.009954692 -0.0006893873 -9.358322e-05 0.0039053075 -0.0064765792 0.005580723 -0.00080744363 -0.0072464286 -0.0037635851 -0.008025573 -0.0051734513 0.00040529456 0.0021068067 0.0015356261 0.0048121097 0.007739979 0.009829849 -0.0050736237 0.0057859165 -0.0018849376 0.0070407433 -0.0037459745 0.0027999592 0.00051982317 0.0033131237 -0.0051592947 0.007674267 -0.0053273384 0.0019176377 0.009836064 0.00010235878
newtonsoft.json.tests.testobjects.privatemembersclass -0.0018387096 -0.009737665 0.004445492 0.005966779 0.005486796 -0.0003353759 -0.0039184256 0.0023663968 -0.0074265813 0.009380526 -0.0034118327 0.005831703 0.007923282 0.009459609 -0.004818738 -0.0020785062 -0.0054882485 0.009582975 0.0064476845 -0.0018572018 0.0064409203 0.0037779312 -0.0035696647 0.00612297 -0.0025795565 -0.008544809 0.001040552 0.0065522813 0.009199994 -0.007785559 -0.0015338096 -0.007164553 0.008374978 -0.0064623957 -0.0014324662 0.0003472462 -0.00017254402 -0.007927893 0.0019452656 0.008007063 -0.0046116877 0.0033012305 0.00832558 0.0016567688 -0.0044269497 0.0078882715 -0.007876053 -0.00334569 0.0077852434 -0.00835859
newtonsoft.json.tests.testobjects.serializationeventtestobject -0.0036753959 0.0035731131 0.00748869 -0.001861925 -0.00680297 -0.000166946 0.0059834425 -0.004183951 -0.0044945944 0.009110897 0.0035281098 0.0077727367 -0.0034202356 -0.00087898393 0.008503603 -0.0030398984 0.002308921 0.00263648 0.0011586746 -0.0018363732 -0.0029472231 -0.0060442747 0.00064541906 0.0036367408 0.0021340298 -0.006307097 -0.0045244964 0.008355592 0.005149335 -0.0026046417 -0.00028853738 0.006176583 0.009111081 0.004330156 0.0030881206 0.0066590975 -0.0031928613 -0.0017455212 -0.009827683 -0.0062051974 -0.009144636 0.0074705873 -0.008837028 0.007900117 -0.0074811256 0.0031490733 -0.005557061 0.009511554 0.0010798711 -0.009936177
newtonsoft.json.linq.jenumerable 0.008020935 -0.001732864 -0.00247958 0.0030232714 -0.004215376 -0.0036217254 -0.001057071 -0.0032523624 -0.0064236918 0.006469939 0.0022803803 0.008008637 0.005444461 0.0071620806 -0.00022549187 0.0066832923 -0.002840548 -0.00414769 0.0076392367 -0.0038715715 -0.002702018 0.005839157 0.003087671 0.004755433 -0.0034690625 -0.006356296 -0.0034608564 -0.0057197716 0.0030546982 0.00029582033 0.00957218 0.000225799 0.0014180943 0.0082121035 0.0046350774 0.004728343 -0.0071963742 -0.003179759 0.0018297911 0.0019161217 0.006032396 -0.008393807 -0.0018302285 0.008299941 0.008492249 -0.008468977 0.006435352 0.006652353 0.009154786 -0.0023182477
newtonsoft.json.schema.tests.documentation.samples.file 0.00014274445 -0.0008341279 0.008873184 0.0053636706 -0.0047081793 0.00013026653 -0.00040269707 -0.009605068 -0.00018474132 0.0007002705 -0.0068678167 -0.009241282 0.00982112 0.008778663 -0.0038710737 0.0038220785 -0.0051624584 -0.006113429 0.0055368664 -0.0006592768 -0.00903575 0.004900997 0.0035273198 0.0026105393 0.009157591 -0.00968496 0.004972451 -0.0052639227 0.00097645127 0.0026285516 0.006638943 -0.0023078388 -0.0069354554 -0.0041933977 0.0016233111 0.009582191 0.008218818 0.006053662 -0.0033645353 0.0025219119 -0.006692382 -0.0027818212 -0.0007533282 0.008762024 0.0062287757 0.0046788603 -0.0085610915 0.003047949 -0.0018881 0.002494011
newtonsoft.json.serialization.tracejsonreader 0.005250506 0.00073607086 0.007070423 0.008675094 0.002481104 0.0095642535 -0.002920451 0.008847786 0.003002444 0.0003884687 0.006771443 -0.0097623775 -0.0037625025 -0.0027790305 0.009302409 -0.00080438633 0.0037451594 -0.007880552 0.0068736617 0.0004940528 -0.0063764127 0.009873622 0.008190286 0.008219226 -0.0037315362 -0.0019871893 0.0044355355 -0.00019884114 -0.00436922 -0.0013995717 -0.002263797 -0.0026562833 -0.0051819114 0.0044799116 -0.0016162492 -0.00058316696 0.0042641005 -0.0073952214 0.0010037797 -0.004204947 -0.004362601 0.0057410793 0.0071951235 0.0057657133 0.0048126434 0.0067802994 0.0011346919 0.009693128 -0.0032389145 -0.006617368
newtonsoft.json.utilities.fsharpfunction -0.008274913 -0.006479618 -0.0017838702 -0.009618418 -0.005529382 0.0009768141 -0.0013419124 -0.0050955447 -0.0043864823 -0.00562823 0.0058414317 -0.005324836 0.0097865965 0.0073377774 0.0059658154 0.0029391723 0.006532289 -0.0074817603 -0.004167324 -4.3935375e-05 0.007934136 -0.007759516 -0.0049928157 -0.0070554106 0.0041715144 -0.008445788 -0.009170587 0.006299561 -0.0019878447 0.005373754 0.001616811 -0.0066074845 0.009525486 -0.0060157105 0.0012492188 0.0059317364 -0.003072466 0.006436459 -0.0069157006 -0.004248235 0.0009336533 -0.00013025494 0.000619299 0.007978123 -0.004027882 0.008569544 -0.0036613862 0.005913884 0.007865413 0.0071691824
newtonsoft.json.tests.testobjects.money.currency -0.0068368004 -0.0040795845 -0.0064354273 -0.00786878 -0.007141698 -0.0068614143 0.00915266 0.0054774177 0.00911701 -0.009991506 0.007852315 -0.008531241 0.0031853064 -0.009466541 0.003497032 0.008933073 -0.0046973294 0.0036409914 0.0038494114 0.007028558 -0.0005406147 0.0049212393 -0.009409339 -0.00023016486 0.008211692 -0.0064444044 0.009133043 -0.0049662977 -0.0036794147 -0.0031937135 -0.0012795815 -0.0007932728 0.0054511707 0.0058932104 0.0037372708 0.008044326 0.008323055 0.003687127 0.001280246 -0.0073041986 0.0011262323 -0.007538671 -0.00439615 -0.0034274124 0.00835417 0.006510505 -0.0012810935 0.00097194826 -0.0040694545 -0.0017443623
newtonsoft.json.utilities.dictionaryentry 0.080667906 0.026514096 0.3322716 0.20811139 -0.03758714 -0.27945194 0.3145392 0.034203555 -0.40810055 -0.4850287 0.14818242 -0.11805383 0.2001653 0.09830547 -0.45161813 0.100214906 0.34970406 0.06397854 -0.053129304 -0.03867016 0.21604802 0.0021210045 0.20320709 -0.35877764 -0.15574034 -0.31598532 -0.51060355 -0.15249522 -0.045682125 -0.059957072 -0.19263904 -0.15124872 -0.09753119 0.025169514 0.08409727 -0.12039697 0.36159068 -0.41383526 0.07793765 -0.43423173 -0.6296784 -0.21539505 0.082510576 0.20010175 -0.09378335 0.040986404 0.32069042 -0.07368404 0.20991983 0.09700875
newtonsoft.json.converters.ibinary 0.18884127 0.11574045 0.30460912 -0.2821795 -0.059313294 -0.068724684 0.06589171 -0.2005344 -0.044991508 -0.28735802 0.2111246 -0.18012825 0.23615634 0.028520742 -0.2734236 0.3364037 0.22072694 0.09521642 0.14790718 -0.43533078 0.1775478 -0.24836352 0.008382896 -0.06203596 -0.17447871 -0.4423429 -0.42500582 -0.24729753 -0.083778754 0.041827172 -0.44177243 0.097052105 -0.2949019 -0.13034973 -0.1950209 0.15124145 0.077275924 -0.26103607 -0.05417141 -0.24261074 -0.017516416 -0.14061876 0.097962156 0.009858915 -0.16028471 -0.20299542 0.07567123 0.0013263536 0.3895987 0.062377125
newtonsoft.json.utilities.enumvalues 0.2724281 0.011811478 0.220366 -0.14385286 -0.11171544 -0.15968715 0.24393392 -0.026591578 -0.17711459 -0.32164982 0.27056676 -0.19643955 0.029192243 -0.11530037 -0.29503962 0.030105418 0.12677106 0.14427608 -0.19287415 -0.12372632 0.31870496 -0.18647632 -0.10184747 -0.10388006 -0.15627247 -0.3011611 -0.4570303 -0.11017319 -0.2124291 0.06025806 -0.061092407 0.047507364 -0.18021122 -0.035026576 -0.23438075 -0.074396305 0.2814211 -0.16266668 0.040364996 -0.29244098 -0.32891604 -0.12968653 0.055020858 -0.024408346 0.032498267 -0.038818434 0.09425954 0.014683309 0.2504536 -0.13071561
newtonsoft.json.serialization.imetadatatypeattribute 0.16118763 0.010961041 0.42814955 -0.10516198 -0.1904748 -0.26250684 0.18971689 -0.13442262 -0.11175356 -0.29389474 0.25891098 -0.11239497 0.013215237 0.019397266 -0.30961606 0.16965547 0.18295808 0.12589449 -0.024134818 -0.26894003 0.3086443 -0.1583274 0.11530263 -0.17438622 -0.05219775 -0.3051508 -0.46751535 -0.15559149 -0.09824743 0.08946893 -0.25359932 -0.06323119 -0.36452034 -0.098404914 -0.11069762 -0.14339314 0.005150262 -0.18984528 -0.0020558275 -0.23321237 -0.28678012 -0.17688473 0.06467703 0.03649964 -0.103566594 -0.0027260124 -0.02683897 0.026209034 0.44888172 -0.016973637
newtonsoft.json.schema.tests.documentation.performancetests -0.004206689 -0.0023950543 0.0025072224 -0.0007986807 0.007726805 0.00452215 -0.0019521805 -0.004819347 0.003885732 -0.008244273 0.0032190934 0.0063923835 0.0030139675 0.009429459 -0.0038178724 0.0019573034 0.0071207737 0.0064115166 -0.0043685166 0.007389741 0.0006853603 0.0026381274 -0.00063663267 -0.0060317097 0.003703053 0.003247432 -0.008176107 -0.009406163 -0.009491508 0.007943548 -0.0016727109 -0.005954384 0.002437299 -0.0073679397 0.0027218664 0.004128981 0.0036768045 -0.0081422515 -0.00010452747 0.0022392038 -0.00021211439 0.003186171 -0.0029057849 0.006809191 0.00019462698 -0.002689503 -0.0074031367 -0.004474616 0.008379578 -0.0070254286
newtonsoft.json.glimpse.glimpsetracewriter -0.0078013316 -0.0051323385 0.003965165 0.0071640806 -0.0061256415 -0.0020798228 0.002232885 -0.006265578 -0.0023145396 0.0036944186 0.0031859358 0.005120141 0.00812434 0.007757622 0.003511907 0.008955176 0.0059193484 -0.007147683 0.008004905 -0.009237255 -0.003029208 -0.001022549 0.004212542 0.00920922 0.0014153133 0.007513194 -0.0016827681 -0.0043431637 -0.00913059 -0.004628417 -0.004667598 0.0049434127 0.0048010177 0.0007087858 0.0033241918 0.0080534015 -0.009184683 -0.00357326 0.0058000856 0.0015776544 -0.0022204046 0.009193959 0.0042827125 0.009579431 -0.0019330174 0.0033972394 0.0035349526 0.009122829 -0.0004682042 -0.005338218
newtonsoft.json.schema.validationerror -0.0009913493 0.0071120723 0.004499226 0.0066411337 -0.008117796 0.0032851798 0.0025553063 -0.0022354638 -0.008613425 0.00072377094 0.002506652 0.0066640186 -0.00022037758 -0.003678126 -0.004319197 0.002916236 -0.0029192872 -0.0075613363 -0.006138343 -0.0038554023 -0.0021784347 -0.008233103 -0.008338274 -0.005587936 -0.004016567 -0.0025440156 -0.00648543 0.0025416412 -0.00027086894 -0.0036043013 0.0041475194 -0.009096321 0.0070387544 0.0030992199 0.009100841 -0.002804137 0.003730327 -0.0062336624 -0.009811389 -0.008812095 -0.005848231 -0.002590232 0.008271572 0.002215782 -0.00041733237 0.009580985 0.0059413016 -0.009752065 0.0085485745 0.009711604
newtonsoft.json.tests.testobjects.publicparameterizedconstructorwithnonpropertyparametertestclass 0.001853728 0.00862214 0.005153915 -0.0005877599 0.0033659006 -0.00241633 -0.0033973826 0.005668415 0.0052757724 -0.0015517033 -0.0013419156 0.007829434 -0.009057356 -0.0043511516 -0.008432286 0.0008732526 0.0056689656 -0.0014680356 -0.0022897848 -0.0060190763 0.001231655 -0.0026695435 0.004171098 -0.002216542 0.005219493 0.00956235 0.0009673064 -0.001810297 -0.0022606945 0.0018942435 0.0038339263 -0.007716751 -0.0014135832 0.0018443521 -0.007412369 -0.0005020594 -0.0063108546 0.0030892696 0.007559795 0.007919404 0.0058570695 -0.0002704056 -0.0037828407 0.007037308 0.009808967 -0.006734155 0.0044438713 0.0096141035 0.0059456336 0.009847132
newtonsoft.json.tests.testobjects.publicparameterizedconstructorrequiringconvertertestclass 0.00731536 0.008460807 -0.005658768 -0.00013881722 0.0042203595 0.009863806 -0.009318004 0.0026711277 0.006115253 -0.0095092915 0.0070973625 -0.00900615 -0.0046410356 -0.0026117328 -0.0043441835 -0.0067668324 0.0013844671 -0.00014572332 -0.007953733 0.003667057 0.001026557 0.00072076457 0.008285096 0.0076931952 -0.002015956 -8.386499e-05 0.0004890721 0.0039818315 0.00977081 0.00011045081 0.0053820955 -0.0074040913 -0.00357164 0.006784394 0.009070609 0.002058801 -0.0022081987 -0.0008341317 -0.003787519 0.0013310137 0.002682373 -0.0041012517 4.9886432e-05 0.0018247315 -0.009859329 0.0009272043 -0.007508438 0.00047212632 0.0011568428 -0.003791172
newtonsoft.json.tests.testobjects.publicparameterizedconstructorrequiringconverterwithparameterattributetestclass -0.0077307825 -0.003479377 -0.0060740598 -0.009818795 0.0009420507 0.00841468 -0.0093938075 -0.009218041 -0.009773498 0.0047764005 -0.008748775 0.0079644 0.001434991 0.0032046393 -0.0062248777 0.00047997318 0.0064355703 -0.008674307 0.0038694723 0.0070417295 0.006654208 0.0016536362 0.0072875046 0.0067659267 0.0016946227 -1.2193694e-05 -0.008137062 0.0032166692 -0.0069633047 -0.00959601 0.004490808 0.009724451 0.009517673 -0.0058679725 0.00057504285 0.0054118345 -0.006409414 -0.0049514496 -0.0030841667 0.009215716 -0.008552709 -0.003283946 0.00020405003 -0.008337366 0.0070577017 0.0071708695 0.0048209685 0.0011071708 0.007770931 0.00013158406
newtonsoft.json.tests.testobjects.publicparameterizedconstructorrequiringconverterwithpropertyattributetestclass -0.0027608315 -0.002575273 0.0021205458 -0.0028831244 0.004615795 0.0076875277 -0.009637393 0.0064365272 0.0039151185 -0.0033625746 0.0036291173 -0.0013226321 0.003909512 -0.006851788 0.002366749 -0.0054787816 -0.009528615 0.0074861883 -0.008456352 0.0014027534 -0.008638007 0.0018508254 -0.0043078735 -0.00381889 -0.0050068493 0.0010552852 0.0037356473 -0.008386068 -0.007219345 0.0077791763 -0.004774054 -0.003929749 0.005394584 0.008693573 -0.009869363 0.0071912566 -0.000872252 0.0061549954 -0.00264831 -0.0003323424 0.006328801 -0.0067369016 -0.007081379 -0.009476241 0.0013950539 0.0034690176 -0.0036379553 -0.006718889 0.00022529966 0.0076934746
newtonsoft.json.tests.testobjects.publicparameterizedconstructorwithpropertynameconflict 0.00415709 -0.0069431313 -0.0036167575 0.00637341 -0.007332617 0.004190233 -0.007086576 -0.009573741 -0.006303948 -0.0004560506 0.0022234856 0.00023592354 0.00095740944 -0.009685296 -0.002794076 -0.0022865108 -0.0051596123 -0.005557982 0.006909577 -0.0067888997 0.009556112 0.009145998 -0.007492418 -0.0046377867 0.0060211727 -0.0060083126 0.0025915015 -0.002801174 -0.008551416 0.0023869148 0.006706249 -0.0072829016 0.003921511 0.0020053012 -0.008031779 -0.008798678 -0.0077760112 -0.0064699533 0.001452937 0.004022835 0.006917531 -0.004226584 0.0048272507 -0.0059175715 -0.002881229 0.007467103 0.002545138 0.009684594 -0.007504682 0.0033258116
newtonsoft.json.tests.testobjects.publicparameterizedconstructorwithpropertynameconflictwithattribute -0.00032396638 -0.0019574312 0.0059980764 0.009218747 0.0071562044 0.0039976127 -0.0048291082 -0.009822698 -0.007081049 0.008793244 0.0072059007 -0.004289098 -0.0005168788 -0.009945132 -0.009526082 -0.007587173 0.008449569 0.0028829842 -0.0066617387 0.0019335771 -0.0025815954 -0.008675891 -0.00077820756 -9.719364e-05 -0.007386747 -0.009686089 -0.0036906048 0.0037418446 0.006817521 0.0068554417 -0.0045722257 0.007423377 0.0012872356 -0.005613086 0.00040946127 4.661905e-05 -0.002515242 0.0073370007 -0.002095976 -0.0030876969 -0.0014414589 0.001694245 0.0019332619 -0.0038558042 -0.0056442916 -0.008448034 -0.0072840047 0.009689752 -0.0030476353 0.004212489
newtonsoft.json.utilities.iwrappedcollection 0.30268744 0.22816393 0.357347 -0.18093945 -0.09897353 -0.2263258 0.051584877 0.08349225 -0.10206844 -0.40188813 0.24800122 -0.09067081 0.007590478 -0.36499512 -0.56461287 0.48494118 0.2646878 0.4151736 -0.115463525 -0.49875265 0.4792335 -0.07546283 0.10290511 -0.25002095 -0.269719 -0.40093693 -0.69728994 -0.3052222 -0.10084821 -0.02665412 -0.057165984 0.14665844 -0.39186603 0.027632259 -0.2507605 0.07856516 0.42312792 -0.33175293 0.08305852 -0.50825596 -0.42203218 -0.4404875 0.34834543 0.16625382 0.051666617 -0.072308674 0.06535609 -0.22379653 0.3255946 0.27937806
newtonsoft.json.jsonobjectattribute 0.28122294 0.07246215 0.40807822 -0.06276498 -0.23362139 -0.14699298 0.16867849 -0.043124754 -0.07390644 -0.3002882 0.18753739 -0.14774808 0.13094714 0.079285376 -0.23573974 0.23014401 0.2222382 0.1971697 -0.005226749 -0.2102015 0.3005581 -0.14041708 0.10279254 -0.09587917 -0.12001152 -0.29731455 -0.4755726 -0.12161932 -0.10090415 0.027448513 -0.20559841 -0.1266809 -0.2982892 -0.11116459 -0.175509 0.04733144 0.09824429 -0.18573825 -0.0316021 -0.28848013 -0.17777152 -0.108047195 0.06290447 0.009060795 -0.06610616 -0.040662933 0.111758634 0.03603381 0.5091976 -0.01064177
newtonsoft.json.tests.testobjects.organization.iperson -0.0066126846 0.004999499 0.012919088 -0.0035762512 0.00073527684 -0.019583289 0.01986461 -0.0010658647 -0.017254677 -0.0141643565 0.01106452 -0.0117188785 -0.0009354806 -0.0017109597 -0.022859134 0.0054847267 0.00019793864 0.0028010686 -0.011036552 -0.0063666617 0.01520226 -0.0045601986 0.011194183 -0.0013445077 -0.0130773615 -0.018435623 -0.029367147 -0.004572404 0.00747777 0.002210638 -0.01685434 0.01033274 0.00017703278 -0.022511348 -0.013843438 0.010055704 0.013270008 -0.01069091 -0.0061227977 -0.02617786 -0.01398084 0.0034385421 0.013733538 0.014957218 -0.0032157588 0.001782496 0.013429501 -0.0052819992 0.006650268 -0.0002578136
newtonsoft.json.serialization.jsonpropertycollection -0.005542845 0.0082343025 0.004841955 0.008831341 -0.0006961412 0.008395011 -0.0010588135 -0.0021458298 -0.009869854 -0.0055292738 0.009327828 0.00019331441 0.0052072112 0.007545983 0.009154007 -0.00684114 0.0012942922 -0.0004117945 -0.00012786339 -0.0015318111 -0.008124947 -0.009467707 0.0022334366 -0.0017807651 0.0035811965 0.0001942783 0.0062996754 -0.0007140063 -0.009314961 0.004975082 -0.00046335 -0.0038815276 -0.0056799487 -0.008896985 -0.008027189 0.0006105177 0.008055581 -0.0033711586 -8.541224e-06 -0.0076596844 0.0072635445 -0.0013587753 -0.0014453984 -0.0016703251 -0.009888986 0.002643133 0.005180155 0.008349223 -2.1502854e-05 0.0027044755
newtonsoft.json.ninject.tests.ifoo -0.009504035 0.004140965 0.008898199 0.0093588475 0.004264523 0.0022988664 -0.004648278 -0.0042512426 -0.0035481527 0.004386029 0.0071239774 0.0043941448 -0.004721977 -0.0057806596 -0.006675182 -0.008768013 0.003615082 -0.0009720868 -0.0012540058 -0.0033015413 0.005647057 -0.007666277 0.009989888 -0.004220711 -0.0010837994 -0.007797374 -0.00532752 -0.0079165585 -0.0015355492 -0.008243221 -0.0021677883 0.0051242197 0.0017319969 0.004191606 -0.0021119537 0.006276846 0.005861015 -0.0074173934 0.0063718604 0.008131172 -0.005495775 0.008943231 0.002663255 -0.0019422591 0.009265797 0.002637538 0.0035941796 -0.00593407 0.0011414483 0.0051742992
newtonsoft.json.serialization.defaultserializationbinder 0.007454012 0.0057122665 -0.005407576 -0.007161196 0.008318511 0.0034879467 0.0051519466 -0.0016578551 0.003753665 0.004199615 -0.00835766 -0.0012812503 -0.00072331436 0.00031558253 0.0035206561 -0.0012927606 0.0012425235 0.004774778 0.009857714 -0.0023670138 -0.008621294 -0.008921232 0.009296417 -0.002180644 0.009531958 -0.008306435 -0.003048115 0.0016184881 -0.0049846983 0.008331349 2.5418162e-06 -0.0064637796 0.0064498223 0.0019748912 -0.0068152323 0.0063334475 -0.005005819 -0.006011555 0.009891019 0.0072548385 0.0063036853 -0.0060759243 -0.009838766 0.0069933147 0.009723231 -0.005126316 0.0049637454 0.0062740655 0.008629471 -0.0070040575
newtonsoft.json.schema.tests.testobjects.iperson 0.0028446903 -0.0011213509 -0.00584567 -0.0060048867 0.0065720715 -0.002196947 -0.009511977 0.0012271022 -0.007064937 -0.0062342407 0.0017863035 -0.007813403 -0.007047977 0.004735871 -0.004647642 0.004727591 -2.3536117e-05 0.008436885 -0.0033026233 -0.00092705124 -0.007488973 -0.0038752186 -0.0038602417 0.00131775 0.008174318 -0.0066301585 -0.0056203487 -0.0019897255 -0.0024640646 -0.009679318 -0.0023458342 -0.0070193238 0.0033004219 0.0017117035 0.00038869368 -0.008258361 -0.0068411315 0.008268852 0.0036317601 0.009585036 -0.0053587994 -0.009523505 0.0050769118 0.005591736 -0.007923182 0.00026459256 -0.0013448133 -0.005421003 -0.0008334462 -0.002166978
newtonsoft.json.schema.jschemavalidatingreader 0.009355597 -0.003965648 -0.0063107815 -0.002907174 -0.00572441 -0.008511916 0.0063438592 -0.009679849 -0.0022771698 0.00922043 0.0055164457 0.001350247 -0.008518667 -0.005334748 0.008039055 0.002981581 -0.0021404787 -0.005465839 -0.00093933294 -0.0013807509 -0.0032113483 -0.0061381976 0.0016629484 0.0007436384 -0.0068226787 -0.0023375726 -0.007199689 0.009236682 0.0003086586 -0.009204424 -0.005933161 -0.004842294 0.002668439 -0.003378172 -0.006792875 0.00048240132 -0.0098899305 -0.008940717 -0.005984928 -0.0061435015 -0.0063403016 0.008594894 -0.004629089 0.0054724016 0.0018425003 0.003644892 0.0049053445 -0.0056439373 0.006388222 -0.0014880482
newtonsoft.json.serialization.jsonserializerinternalreader 0.061924417 0.05430742 0.3869945 -0.122412026 -0.13354905 -0.14238808 0.19931525 -0.11957777 -0.13887809 -0.162044 0.24968067 -0.085712925 0.15158588 0.09365819 -0.3090646 0.10671035 0.18435556 0.13964269 0.14267816 -0.15724224 0.25077626 0.0033320175 0.10151186 -0.1750769 -0.30452892 -0.3588743 -0.3297012 -0.10173208 0.00088996097 0.03785742 -0.23250109 -0.17154652 -0.13929805 -0.10878988 -0.04910665 0.18341434 0.15741354 -0.34984365 -0.11067455 -0.4101687 -0.39215052 -0.06733594 -0.10179833 -0.055207115 -0.11839424 -0.13737461 0.097958095 -0.068812616 0.29556638 0.107336454
newtonsoft.json.converters.ixmldocument 0.266926 -0.04517365 0.27177173 -0.2969546 -0.05643315 -0.34988523 0.16640146 -0.29099375 -0.063241296 -0.35845107 0.29642355 -0.20173986 0.055112187 -0.09708101 -0.3745929 0.042869184 0.23007028 0.0128231365 -0.05504156 -0.23739795 0.17183298 -0.11762266 0.17795686 -0.14324532 -0.17803204 -0.50131553 -0.30308932 -0.2235284 -0.00038235888 -0.010788515 -0.28299448 0.07293105 -0.14255957 -0.05525571 -0.05231565 -0.014555809 0.030009808 -0.23604035 -0.0133202905 -0.1436241 -0.15632036 -0.026159108 -0.077052 0.07376332 -0.04906193 -0.14987375 0.025432218 0.1214499 0.24769855 0.02882999
newtonsoft.json.schema.jsonschemawriter 0.32578793 -0.08314948 0.2467408 -0.1329414 -0.12835257 -0.33622566 0.13053259 -0.091085404 -0.013049955 -0.016995907 0.27693576 -0.17154768 -0.07193209 0.04728775 -0.3089744 0.20206341 -0.033070736 0.16481638 0.0059302887 -0.23008844 0.14022304 -0.0015768907 0.19284847 0.08519638 -0.17914614 -0.17326146 -0.2637681 0.081580564 0.055708256 0.047679327 -0.25080687 -0.015172588 -0.0631456 -0.061336186 0.15311901 -0.14678131 0.13960871 -0.438895 -0.19380894 -0.40464857 -0.5217644 -0.19500455 -0.20126858 -0.09005824 0.07287423 -0.08516061 0.09796028 -0.04247153 0.33105725 -0.04278535
newtonsoft.json.jsonarrayattribute 0.09651106 0.11377496 0.3576357 -0.16362974 -0.18371919 -0.14767553 0.21205233 -0.10899645 -0.19307172 -0.24224305 0.22546086 -0.07473358 0.11286794 -0.00041794687 -0.16412784 0.2348575 0.25337794 0.05983251 -0.05722258 -0.27021673 0.30970752 -0.17390743 -0.04574965 -0.21983595 -0.19357005 -0.37454695 -0.5065245 -0.13544707 -0.060372375 0.019041559 -0.18799934 -0.029537637 -0.27647442 -0.053806655 -0.19138812 0.070110284 0.05989695 -0.30435517 0.025403783 -0.2365842 -0.23061211 -0.21112178 0.058391593 -0.07631515 -0.14604864 -0.059969347 -0.038873073 -0.047179688 0.3695266 0.118936084
newtonsoft.json.serialization.resolvercontractkey -0.054131478 0.051763505 0.38341108 -0.16543761 -0.03412597 -0.27144778 0.29980054 -0.0051856013 -0.23803961 -0.29087222 0.35705674 -0.02318328 0.14186338 -0.022647189 -0.17319696 0.0108374 0.23680757 0.04017843 0.036543682 -0.2684084 0.2365046 -0.03186475 0.05010682 -0.22315931 -0.15820314 -0.27038693 -0.5367213 -0.20415658 -0.10269251 0.07640513 -0.062163856 -0.07406566 -0.24576148 -0.09118268 -0.10345567 0.010340964 0.14065921 -0.13380261 -0.06895384 -0.26253936 -0.2168502 -0.16312708 0.06764108 0.14367792 0.05154958 -0.09489203 0.15805368 0.12056522 0.3570269 -0.116607584
