115 50
com.google.gson.gson 0.6123603 1.2901995 -0.68815285 -0.18932949 -0.28532496 0.12860093 -0.49890935 -0.36227584 0.19822249 0.97819483 -0.010793593 -0.59092814 -0.6001749 0.5177438 -0.42623287 -0.48064524 0.5839685 0.28145763 -0.3141885 -0.1007229 -0.3685219 0.5422683 -0.19922252 -0.51478004 0.08074155 -0.06379654 -0.0974549 -0.2032076 0.047573306 -0.06392701 0.33302438 -0.22639383 -0.64104956 -0.35362375 0.12853786 0.65210634 -0.5222025 -0.05239035 0.6356035 0.89110464 0.33498836 0.41038826 0.041804295 -0.18568887 -0.5989134 1.1436299 -0.1866714 0.79460406 0.8929728 0.87278
com.google.gson.gson.fromjson() -0.08606449 1.2708396 -0.26098567 -0.51370007 -1.2264146 0.17418382 0.13484968 -1.0672113 0.15199567 0.8461472 0.2199938 -0.70064145 -0.37028435 -0.011621619 0.073566325 -0.67893636 0.14270197 -0.46066898 -0.50630695 -0.09401327 0.56875986 0.24572858 -0.39877236 -0.012012816 -0.3924275 0.10540159 0.581396 0.08722358 0.028155347 -0.060679983 -0.0795711 -0.11740448 -0.61835515 0.1401076 0.01686538 0.9948515 -1.2006236 0.47240454 -0.10030161 0.696033 0.40969655 -0.16855435 -0.14758857 0.11774038 -0.5834438 1.2107408 -0.0911208 0.42149535 1.4215972 0.16881019
com.google.gson.gson.tojson() -0.19296278 1.3590043 -0.32533514 -0.27843216 -1.162706 0.4267466 0.25866747 -0.47641996 -0.4621622 0.9951491 0.9936935 -0.6730532 -1.4051199 0.830393 0.579384 -0.16848424 0.3006691 -0.04170988 -1.1055435 -0.1635793 0.31480712 -0.14271474 -0.7444294 -0.39397168 -0.24604973 0.398708 0.3934938 -0.3481908 0.19904347 0.0023128574 0.3108184 -0.4911211 -0.6745 0.5268639 0.453931 1.568839 -0.4648068 0.78877825 0.44327506 1.1482207 0.14141688 -0.13372043 -0.41847426 -0.56854665 0.24469614 0.8643842 0.29111546 0.16015205 1.1944212 -0.018661099
com.google.gson.jsonobject.get() 0.28791815 0.51408345 -0.18724857 -0.11340624 0.4166563 0.6578964 0.00733312 -0.76163185 -0.6510469 0.29999122 0.70657444 -0.01406285 -0.10621481 -0.04809915 0.36565962 -0.5301163 -0.087904684 0.90917754 0.027501548 -0.4804175 -0.13843642 0.09122269 0.39929122 -1.0085918 -0.73469776 -0.39002353 0.6975947 -0.08826888 -0.34277272 0.111756936 0.2281096 0.6260698 -1.5197737 -0.54472536 -0.64745784 0.8921817 0.3436654 0.5717489 1.3529167 0.6375285 0.4594032 -0.83078736 0.42370135 -0.087130144 -0.11689648 1.2192034 -0.73840714 -0.89006793 1.9086525 0.3882072
com.google.gson.jsonelement -0.03725731 0.40922403 -0.87004703 -0.50654906 0.33360687 -0.05364446 -0.50688875 0.36192054 -0.13097233 -0.14943749 0.24130897 0.89768696 -0.3409058 0.117849045 -0.024751399 0.13560794 -0.36008376 0.45189902 -1.5413852 -0.20237862 0.27396908 -0.5487199 -0.6769115 -0.34462205 -1.2010425 0.1430082 0.4242554 -0.19945368 0.19441175 -0.36621907 0.048994835 0.7765998 -1.1624832 -0.83493626 0.3809202 0.1006703 -0.38477665 0.49365363 1.1885598 0.023562815 0.2615928 -0.5978685 0.79046327 -0.75540257 -0.95917803 0.61616606 0.14156803 -0.48757917 0.53436553 0.05855391
com.google.gson.stream.jsonwriter.value() 0.57666844 0.7379773 -1.8530747 -0.5028389 0.04514186 1.0111563 0.104571484 0.7578014 -1.0084105 -0.07620485 0.15782668 0.51588625 -0.12901522 -0.60097426 0.18492931 0.6895103 0.10813601 -1.3906052 0.1240646 1.1239899 -0.046311356 -1.3576503 -1.1269001 0.023565056 -0.50012267 0.1208436 1.1960634 -0.76545775 0.32381046 0.07495749 0.21305813 -0.84710664 -1.3860089 0.6624114 -0.34861273 1.3505005 0.010409354 0.23123191 0.77990365 0.5108716 0.40076613 -0.5043628 -0.009428557 -0.5123194 -0.36478326 1.3304522 -1.0340354 -0.31192648 1.1705565 -0.30003572
com.google.gson.jsonobject 0.09247846 0.40195456 -0.7363669 -0.5135213 0.8447128 -0.6871656 -0.51497334 0.4452941 0.2175491 0.18407086 0.07837406 0.89130473 -0.05949396 0.22385292 -0.36379805 0.11559962 -0.24509868 0.4945394 -1.0041997 -0.30588052 0.15481229 -0.056073878 -0.4237148 -0.39683342 -1.0202886 0.14040022 0.23225491 -0.40272126 0.453368 -0.1697548 0.7674533 0.2966611 -0.70739436 -0.48444164 0.26719067 0.24026732 0.6974927 -0.40034017 1.4186584 0.017122148 0.4010835 -0.8649092 0.42631152 -0.7297073 -0.81012464 1.1216235 -0.8027757 -0.44910982 0.95804584 0.5923575
com.google.gson.jsonobject.add() 0.07432391 0.3353609 -0.42998493 -0.34150955 1.2203686 -1.5844299 -0.7029021 -0.66639847 -0.65457165 0.13140947 0.5678085 0.9897972 0.36318764 -0.34966883 -0.66011703 -0.034087997 -0.73053426 0.5540629 -0.94960904 -0.5549324 -0.5420351 -0.009698073 -0.8695651 -0.7037525 -0.2636295 0.49140933 1.2973863 -0.5038502 0.8171942 0.2869309 1.0988266 -0.5394339 -1.4929229 -0.18007414 -0.6417573 0.27905637 0.5069101 -0.5921086 1.2660639 0.68770176 0.9567226 -0.77041453 -0.44873282 0.09004669 -0.68022394 1.3375496 -0.7336674 -0.7196704 1.7096939 0.5414575
com.google.gson.stream.jsonreader.peek() 0.31227824 0.2881018 -2.100822 -1.1592705 0.85611445 0.58156335 -0.047571402 -0.27557576 -0.23672472 0.18658204 0.101336986 0.9493826 0.37879342 0.45835233 -0.35800385 0.775717 1.2347205 0.22968729 -0.15128629 0.31743124 0.49308202 -0.15203351 -0.90622425 0.44257253 -0.6458637 -0.12775289 1.3594693 -0.13374642 0.4135443 0.31622034 -0.19092396 0.23599134 -1.1747392 0.059308134 0.6490082 0.6021338 -0.63530916 -0.3488449 0.05816669 0.4091563 -0.49275437 0.1332683 -0.23384039 0.12998427 -0.6828684 1.4871789 -0.22386123 -0.6810727 0.8515493 -0.33613306
com.google.gson.stream.jsonreader 0.31326482 0.7482784 -1.6278309 -0.31661695 0.10114712 1.0661644 -0.27284938 -0.263009 -0.5791023 0.5568791 0.76967657 0.56784827 -0.18097775 0.41045663 -0.15467107 1.7927318 0.5920117 -0.23813702 -1.0234735 -0.10103173 0.892316 -0.007911787 -0.2757244 0.51057804 -1.2035029 -0.13028482 0.9595547 -0.7373538 1.0809509 0.036892295 -0.069027215 0.3813098 -1.6653452 -0.4130095 0.59805965 1.5504855 -0.97075033 0.2955353 0.4465746 0.31629497 0.58944184 0.976293 0.35515308 0.1206028 -0.18309759 1.1834432 0.06972948 -0.69962275 0.38091946 0.11567472
com.google.gson.jsonarray.add() -0.40201646 1.1370337 -0.94903624 -0.44305056 0.77921706 -1.000628 0.69949377 -0.7773051 -0.012848928 -0.14756912 0.36503312 1.0941812 0.5872891 -0.3516106 0.010694282 -0.34445867 -0.6544944 -0.0016315453 -0.7048721 -0.090569876 0.64070815 0.060631774 -0.34252158 -0.8345675 -0.47557032 0.6287802 0.73343647 0.22853915 -0.40532398 -0.40828547 1.0346683 -1.4151782 -1.6605563 -0.6182541 -0.8562155 0.911071 0.16304022 0.33242944 0.2227734 1.3047624 0.28978896 -1.2680687 -0.11025284 -0.9208032 -0.70955366 1.7456803 -0.6739172 -0.7371059 2.266398 0.7169523
com.google.gson.stream.jsonreader.nextstring() -0.2717405 0.99886096 -2.0373425 -0.71063554 0.57677484 0.91316885 -0.13386564 -0.4651107 -0.30056834 0.054560937 -0.053974107 1.1267922 0.61035746 0.37275302 0.4318823 0.8164658 0.66885215 -0.24643098 -0.17705904 1.0095131 0.4284117 -0.22892924 -0.004537295 0.68909115 -0.54746515 -0.26293793 0.8048269 -0.45702603 -0.404808 0.051512107 -0.0018762486 -0.30417648 -0.97912633 -0.07875921 0.63068336 0.88203406 -0.3344509 -0.34487814 0.02346285 0.57419336 0.140836 -0.16074574 0.13479933 -0.6056288 0.00094641926 1.537083 0.08464841 -0.7769597 1.2389961 0.07035736
com.google.gson.reflect.typetoken.get() 0.1712816 0.4594462 -1.3515657 -0.64105684 0.57365024 -0.04490543 -0.19788244 -0.8395035 -0.3906715 -0.058119256 0.1667292 0.61005384 -0.5156138 0.9647677 -0.41156045 -1.3619576 0.10969972 0.2316347 -0.98426276 -0.05351666 0.6064661 -0.6056545 -1.0498852 -0.07617611 -0.40217516 -0.21411845 0.678015 -0.8043547 0.8064779 0.048018195 -0.21795297 0.1838932 -1.2591761 0.70627373 0.18879408 0.3356232 -0.7421398 -0.9712076 1.3212103 0.39918497 -0.8316156 0.25575933 0.27472723 -0.48592377 -0.29864246 0.16190574 0.5748113 -1.0534347 0.9032572 -1.0270039
com.google.gson.metrics.bagofprimitives 0.051086478 0.92335296 -0.8622506 0.49830124 -0.7344816 0.6170707 -0.26354748 -0.6575158 -0.15521024 -0.06269648 0.69846284 0.44565773 -0.26956728 0.7194787 -0.016008036 0.12117005 0.31651458 -0.5141367 -1.7354916 -0.5536156 0.6075317 0.3030609 -0.40778136 -0.724891 -0.44568384 0.49387276 0.8658038 -1.0316094 0.66128224 0.72379 0.37362167 0.028715393 -0.74613386 -0.6280465 0.41266984 0.38543475 -0.67823523 0.3954331 0.5780727 1.3142505 -0.29221562 -0.5159079 -0.082384504 -0.08993877 -0.5559367 1.3059858 -0.10212401 0.2879266 1.0611019 0.1428528
com.google.gson.stream.jsonreader.beginarray() 0.4930832 0.7277386 -1.7166181 -0.9839498 0.35460716 1.0527952 -0.10193048 -0.7195452 -0.7020452 0.19180398 0.3565626 1.1232406 0.80059254 1.1449795 -0.049676295 1.5838021 0.46493736 -0.1770956 -0.41401833 -0.1489614 0.87719065 0.27594814 -0.6698727 0.5520428 0.049451508 -0.103359684 1.2553868 -0.75482047 0.35776263 0.05814398 -0.1269351 -0.57768315 -0.6149395 -0.3426386 0.41866022 1.014573 -1.2079419 0.08416785 0.349794 0.74965835 0.03772354 0.40354937 -0.05328587 -0.2183939 -0.23198654 1.4438299 -0.27318308 -0.4763523 1.2744036 0.41994196
com.google.gson.typeadapter 0.29511473 0.04356801 -1.4313246 0.132839 0.7266304 0.5369869 -0.13644901 -0.5095724 0.13186191 -0.21038239 -0.31988358 -0.11875151 -0.27426064 -0.2002912 -0.29500553 -1.021109 0.53299904 -0.31600377 -0.9129249 0.18797871 0.23506066 -0.75028306 -1.1655234 -0.7039308 -0.64630014 -0.5208139 1.0626689 -0.62457806 0.7491818 -1.2841065 -0.15490681 0.10017375 -1.5271702 0.45270136 -0.20908566 0.5367547 -0.92500603 -0.09714972 1.4604621 0.5328554 -0.012263353 0.099474326 0.27838933 -0.6897863 -0.52103454 -0.16386928 -0.23450302 -0.1994853 0.51556313 -0.312545
com.google.gson.jsonelement.getasjsonobject() 0.1205219 0.31824237 -0.41712463 -0.6348647 0.24871433 0.7218713 -0.36166435 -0.5091359 -0.11617233 -0.124278836 0.31745508 0.49501428 -0.6229284 0.2782594 0.7579346 -0.21342619 -0.19180012 0.8213003 -0.18202837 -0.5029887 0.025227306 -0.18858136 -0.2924262 -0.5926629 -0.59549356 0.21742444 1.0847425 -0.18215129 0.17636715 0.16392224 0.44739044 0.5989194 -0.5914951 -0.69877553 -0.048173532 0.75584763 0.36243534 -0.005346161 1.1057599 0.7325531 0.44528922 -0.77868676 0.731614 -0.3447039 -0.4011283 0.9940883 -0.9445626 -0.66341996 1.29644 0.40836087
com.google.gson.stream.jsonwriter.name() 0.77513874 0.6997251 -1.7468402 -0.5750501 0.55406487 0.38633654 -1.0689512 0.62849534 -1.1086296 -0.07537321 0.13390444 0.890874 0.1687926 -0.32826567 -0.36479372 0.5234624 0.033754736 -1.1782799 -0.20713927 0.11462568 0.3880174 -1.5019327 -0.439489 -0.7406217 -0.2898054 -0.30198142 0.96942997 -1.0551434 0.28478807 0.21402313 0.69765085 0.0007302447 -1.00803 0.8723985 -0.50019175 0.8738832 -0.34802377 -0.20507525 1.398135 -0.11938833 -0.55416965 0.109745316 0.35597536 -0.35436508 -0.39821753 1.5256191 -1.0216429 -0.60448986 1.2547965 0.11203199
com.google.gson.jsonprimitive -0.54761493 0.9738371 -0.4870837 0.17859 0.74543315 -0.054669805 -0.6134065 -0.14343703 -0.46466696 0.27885628 -0.40066966 0.65612763 0.108389586 -0.08619106 0.5365202 -0.3434031 -0.0055386918 -0.4255233 -1.2434685 0.53879404 -0.15056892 0.60423505 -0.60840523 0.035974715 -0.5069244 0.7660015 0.44543362 -0.1256775 0.84370685 0.35802642 0.3289736 0.29459497 -1.5741953 -1.5528373 -0.2985397 0.26859617 0.3346575 0.39745703 0.2557463 0.96507996 1.0253736 -1.6733817 -0.10094747 -0.53938633 -0.46979067 0.512977 -0.248733 -1.0913485 0.866912 0.24743433
com.google.gson.jsonarray 0.1579648 0.6750732 -0.86338747 -0.11061917 0.6027487 -0.3833397 0.34149683 -0.17636524 -0.1429576 -0.12770712 0.13238476 0.93857586 0.26093277 -0.012270624 0.058379076 0.39234984 -0.91368175 0.6508202 -0.5136743 -0.8047716 0.3954456 0.23467736 -0.4236791 -0.14114079 -0.8460723 0.21501744 0.06710923 -0.3499045 0.6097654 -0.43999678 0.4381339 0.18389757 -1.0676125 -0.71245825 0.28256696 0.40735337 0.42156982 -0.0478656 1.1098835 0.3203038 0.0154308565 -0.7063716 0.7064697 -0.75764704 -0.9241216 0.7562165 -1.283931 -0.65013057 1.599784 -0.13779867
com.google.gson.stream.jsonwriter.beginarray() 0.6207905 0.6571004 -1.404512 -0.4310044 -0.055497523 0.24206325 -0.9176285 0.4820697 -0.8839598 0.14115423 0.6121617 0.8027868 0.5162434 -0.17210577 -0.050518855 0.78451014 -0.4347143 -1.0726388 -0.78278494 -0.16530149 0.22427872 -0.85723794 -1.6966755 -0.16047883 0.38774952 0.059616454 1.1002811 -0.69265795 0.06298079 -0.65870595 0.4339311 -0.06257762 -0.5264393 0.39982677 -0.77071947 0.7803629 -1.1100078 -0.0403134 1.1472867 -0.2639071 0.22423314 0.3175672 0.3597213 -0.48143336 -0.28494582 1.1540054 -0.6873606 -0.18441187 1.2133081 -0.6024114
com.google.gson.jsonobject.addproperty() 0.17180309 0.65703315 -0.8147116 -0.07051138 1.0961334 -0.30787235 -0.022775147 -0.8993241 -0.4340122 0.3600706 1.2218206 0.68386316 -0.23573257 0.24202587 0.5995208 -0.8764916 -0.6503356 -0.47679386 -0.5735536 0.050156083 0.5103464 -0.1883664 -0.46715885 -0.46404812 -0.71323603 0.2566633 0.2972414 -0.66191703 0.6797916 0.8947269 1.7348026 -0.43566972 -1.3289149 -0.90623564 0.08079863 0.98080313 0.51861763 0.6508415 0.6916718 1.3469307 -0.16287334 -0.64478713 0.016174404 0.11977033 -0.852359 1.5978864 -0.89114773 -0.4018896 1.4979079 0.41169685
com.google.gson.stream.jsonreader.beginobject() -0.32330486 1.0166676 -1.7810634 -0.5175665 0.61345917 1.3346455 -0.285472 -0.29786122 -0.5741186 0.092832066 0.62213695 0.7888944 0.26360938 1.0727321 -0.21370032 1.1107335 0.7520432 -0.19514562 -0.41863245 -0.2900153 0.85622513 -0.030539736 -0.42379227 0.019807544 -0.41090232 -0.08767476 1.029999 -0.26313373 -0.035471737 0.06326505 -0.08736633 0.14719152 -0.5812899 0.120776 0.23101322 0.5423664 -0.75504273 -0.2054082 0.48359695 0.81836444 -0.21033886 0.31421444 -0.25673974 0.23935784 -0.63918746 1.2566407 -0.14487636 -0.5460993 1.1368011 0.5309758
com.google.gson.stream.jsonreader.nextname() -0.2715442 0.9711708 -1.8519924 -0.3540294 0.7162087 1.7911041 -0.559135 -0.47701418 -0.7840739 0.07772858 0.51850575 1.2119211 0.29964045 0.74480855 -0.18087968 1.0742757 0.98836917 -0.038300835 -0.6257804 0.09497268 0.6545119 -0.151225 0.1781177 0.27588835 -0.5872199 -0.34933516 0.81301373 -0.13552007 -0.33117747 0.30473706 -0.04395041 0.13167976 -0.5369214 0.21688388 0.4804792 0.2243463 -0.44663322 -0.5750097 0.8826769 0.541926 0.22613053 0.28428295 -0.001998886 -0.12992445 -0.7118067 1.0889415 0.07484814 -1.0266598 1.549459 0.46476972
com.google.gson.stream.jsonwriter.endarray() 0.872662 0.7717224 -1.3016381 -0.576868 -0.16040523 0.23567711 -0.94922733 0.46732804 -0.7758072 0.47739577 0.48845997 0.6204116 0.2426204 0.076114304 -0.28242868 0.919296 -0.11935446 -0.81643623 -0.16011338 0.3787974 -0.11658904 -0.59297395 -1.1241347 -0.1988895 -0.05144699 0.09340464 1.026659 -0.78112227 0.23952292 -0.0056323567 0.50443375 0.12387249 -0.4885805 0.82238686 -0.6254257 1.0153502 -0.60950416 -0.06742745 1.2729338 0.19495627 0.4890171 0.17145623 0.44267762 -0.5686344 -0.061159737 0.9293687 -0.601945 -0.07538561 1.1662922 -0.14873084
com.google.gson.stream.jsonwriter.beginobject() 0.7595904 0.7845584 -1.54009 -0.43882173 0.44856173 0.3924487 -0.8996678 0.35104808 -0.9670459 0.23057689 0.27120566 0.7381694 0.25746563 -0.18466404 0.010131744 0.35443953 -0.06179075 -1.4537369 -0.33769178 0.17141463 0.65282655 -1.2923118 -0.81783676 -0.48587376 0.15389362 -0.13961852 0.6145265 -1.0672843 0.37135068 -0.27865645 0.3275939 0.30814186 -0.7550167 0.47711912 -0.1439409 0.9197309 -0.5453857 0.23412259 1.1817284 -0.13215819 -0.8685625 -0.11716827 -0.0339296 -0.573176 -0.9024311 1.3196726 -0.41796654 -0.6678399 1.0741053 -0.18457714
com.google.gson.reflect.typetoken.getrawtype() 0.36187223 -0.03263357 -1.5495149 -0.3226467 1.0156654 0.7053856 0.036775727 -0.28279692 0.29978576 -0.22026102 0.70552784 0.8011221 -0.59868246 0.15611231 -0.30951127 -1.1147629 0.87214136 0.56994176 -0.91205555 -0.0918114 0.09330716 -0.8981568 -0.6770104 -0.5030179 0.33959767 0.08018632 1.1749061 -0.72648865 0.31393102 -0.8038653 0.16407251 -0.032363974 -0.6460189 0.40335533 -0.75733 0.2272046 -0.4327318 0.81497097 1.4168293 0.32663 -0.52139133 0.07324943 -0.3061203 -0.9583601 -0.49123865 0.55916214 -0.31897756 -0.3533602 0.7348869 -0.55753094
com.google.gson.reflect.typetoken.gettype() 0.99024886 0.2876164 -1.9027342 0.119127795 0.86280674 0.992863 -0.4046451 -0.10386308 0.1943189 -0.62900513 0.4053517 0.4406737 -0.07634735 0.08297344 -0.10983402 -0.7976084 0.80288965 1.1553649 -0.9138437 -0.5262854 0.5113733 -0.20501454 -0.94113076 -0.057372704 0.005326377 0.2655001 1.6209167 -0.7511114 0.848014 -0.12552379 -0.16180295 -0.09164209 -0.90503913 0.71001923 -0.069702104 0.7640036 -0.25832307 0.005733516 0.9395888 0.17243484 -0.50466156 0.17082994 0.67265856 -0.46434942 -0.6709856 0.39079654 -0.01862829 -0.4458878 0.34491244 -0.6351845
com.google.gson.gsonbuilder 0.35988876 1.06563 -1.2388675 -0.2874853 0.4532437 -0.059014253 -0.09611684 -0.68954223 0.57787055 1.0629174 0.34877336 0.007514268 -0.015722848 0.4106953 -0.63503796 -0.535929 0.49996 0.21599406 -0.02254498 -0.31581393 -0.20914342 0.018578794 -0.13305576 -0.62697226 -0.15888926 0.19076239 -0.26417714 -0.41063768 -0.09699394 0.47343925 0.6390344 -0.04682024 -1.08985 -0.9522082 -0.4573629 0.84397185 0.23942244 0.71619976 0.02535542 0.69961977 0.23079976 -0.04925235 0.008913845 0.16747242 -0.48797196 0.43733677 0.08828163 -0.04619925 0.5373284 0.14612447
com.google.gson.stream.jsonreader.nextnull() 0.41576573 0.4919138 -2.0652313 -1.0459899 1.3998055 0.91629463 -0.062888086 -0.35919076 0.1814262 0.17622367 -0.17776778 1.2603966 0.56186455 0.5501349 0.039624505 0.5333829 0.8437334 0.15822601 -0.054541685 0.5425975 0.2578507 -0.28042662 -1.3594013 0.8070827 -0.03796918 -0.014691341 1.6959219 -0.23323974 0.2552913 0.20302913 -0.05531497 -0.43269864 -0.9009267 -0.32049626 0.1657433 0.718317 -0.6384059 -0.45678774 5.861242e-05 0.3352595 0.012966893 -0.015787203 -0.5582056 -0.27262396 -0.35430124 0.88140756 -0.3138188 -0.19228712 1.2658973 -0.17547613
com.google.gson.stream.jsonreader.setlenient() 0.6962313 0.552083 -1.784762 -0.8013333 0.26946416 1.1449682 -0.27120987 -0.8652913 -0.310797 0.9991385 0.7461176 0.47712073 0.100795925 0.68053305 -0.062519394 1.231261 0.38061443 -0.24908048 -1.0034959 0.3276949 0.55259746 -0.08942415 -0.88434625 0.46900788 -1.4191281 -0.01949877 1.0600756 -0.7067214 0.67666024 -0.3314082 -0.74808276 -0.5112458 -1.3340522 0.4416515 0.5791896 0.8496521 -0.85061616 -0.060316302 0.84185386 0.8678239 0.26488283 0.54526407 -0.06284052 -0.09576243 -0.14783834 1.803475 0.058411088 -0.4091988 0.9075022 -0.12860487
com.google.gson.stream.jsonreader.hasnext() -0.16228423 0.8718025 -1.5761461 0.17294377 0.6074214 1.4020523 -0.2149141 -0.43581983 -0.43738 -0.042830188 0.5711132 0.5721434 0.7388089 1.1033015 -0.33463025 0.85678667 0.8839673 0.38165057 -0.3970779 -0.21659625 0.98450816 -0.17506786 -0.12620893 0.13057938 -0.07793483 -0.292364 1.2147102 -0.7596129 -0.16248663 0.34997472 -0.46802932 0.10768758 -0.32504618 0.16154782 0.47524002 0.20095699 -0.6769451 -0.32654756 0.56428766 0.8212398 -0.4834834 -0.22017817 0.052588556 0.048318367 -0.6893849 1.0178523 -0.47184563 -0.5996231 1.3321713 0.67995214
com.google.gson.jsonarray.get() 0.12304682 1.1473615 -0.9792307 -0.6788953 -0.21136548 0.32071996 0.41891706 -0.35463637 -0.044506673 -0.64193314 0.85638684 1.4565309 0.07359178 0.16404803 -0.42205936 -0.856082 -0.40109748 0.63880914 0.036993172 -0.36248666 0.27039537 0.15358688 -0.49570644 -0.43020582 -0.24811776 0.31060818 1.1832969 -0.6612915 0.10655421 -0.71241826 0.5238445 0.13860166 -1.0676489 -1.3510524 -0.4979701 0.9074367 -0.19927914 0.58888996 -0.36664107 0.43465042 0.3364735 -1.2936819 1.0755506 0.20396458 0.21813095 1.2212636 0.13235219 -0.8502187 2.1620173 0.1963599
com.google.gson.gsonbuilder.create() 0.28762466 1.2251163 -1.0813173 -0.05424402 -0.23453806 -0.35669467 -0.12287988 -1.4129213 0.2844465 0.7846329 0.9223655 -0.611867 -0.33149353 0.9781142 -0.51117957 -0.99258643 0.26156232 -0.05585033 -0.6148454 -0.5691908 -0.06667327 0.005782153 -0.05588208 -0.7681938 -0.58409786 0.21851778 -0.052109994 -0.85607153 0.07290905 0.615717 0.78566915 -0.033015873 -0.98578596 -0.8000273 -0.5545565 1.2517066 -0.38071465 0.24849223 0.12794945 0.66162056 0.38357425 0.12763189 -0.76088125 0.31819448 -0.4097343 0.76442033 -0.06276837 0.19376174 0.9476471 -0.04463359
com.google.gson.stream.jsonwriter 0.52048004 0.7520296 -1.654914 -0.86752313 0.27874964 0.41324762 -1.2497048 -0.11849184 -0.6954538 0.5204938 0.45317808 0.07845646 0.013564697 0.36561462 0.0572888 0.78600836 -0.36872163 -0.9191741 -1.4618015 0.13048674 -0.13129972 -1.204524 -1.1861222 0.24735391 -0.06510056 0.2948282 0.62258446 -0.861291 0.22881588 -0.5206168 0.2853662 0.44154716 -1.2840077 0.75198567 -0.18791968 1.5987879 -0.26343495 0.3600196 1.0252461 0.69842243 -0.32867077 0.12308433 0.282483 -0.6103645 0.56564605 0.6186819 -0.05245358 -0.4310762 0.3051694 -0.4458358
com.google.gson.gsonbuilder.registertypeadapter() 0.45980078 0.8755284 -0.9317227 -0.12670605 0.65871197 -0.11003615 0.26643404 -0.5598809 -0.06225414 1.1177394 0.67467695 0.12233794 -0.51895654 0.5022569 -0.29753047 -0.15402083 0.23445387 -0.025328023 0.0489815 -0.27426323 -0.07401951 -0.44940546 -0.3662007 -0.53608793 -0.60576445 0.25455546 -0.040687304 -0.30683038 0.20048974 0.4257384 1.4174936 -0.09916209 -1.2169018 -1.0413961 -0.38494882 1.4634244 -0.03311986 0.58652157 0.14873436 0.4853448 0.3185286 0.090568356 -0.24623832 0.18509065 -0.56599027 0.6006494 -0.49615535 -0.14753495 0.62798256 0.19681346
com.google.gson.stream.jsonwriter.endobject() 1.1382114 1.037419 -1.6028033 -0.48816955 0.6616431 0.42842603 -0.79790133 0.38109016 -1.1393949 0.26436454 0.017633311 0.54988873 0.229775 0.08286651 -0.24143559 0.44332552 0.044302806 -1.081385 0.12559919 0.53415376 0.38429263 -0.9072298 -0.5220751 -0.50761884 0.15260549 -0.05701898 0.67960757 -1.1094203 0.52974224 0.48371014 0.39952314 0.5992708 -0.8434045 0.9859717 -0.3138712 0.84062535 -0.47023073 0.29407415 1.3209451 -0.06890782 -0.42992094 -0.024922136 0.2765889 -0.36707056 -0.7916588 1.2887067 -0.1641257 -0.64747274 0.9867931 -0.21336737
com.google.gson.stream.jsonreader.nextboolean() 0.407342 1.094375 -2.1265879 -1.0217422 0.73442703 1.0757717 -0.404044 -0.6905303 -0.44724855 -0.3924022 0.1180353 1.4749691 0.5569721 0.88160634 0.08144037 0.87327254 0.24525096 -0.38652045 -0.7231825 0.47910404 0.2872232 -0.21032982 -0.60034966 0.82347107 -0.47480598 -0.040035542 0.5130598 -0.84583724 -0.04745419 -0.43143925 -0.29452488 -0.4097272 -0.6008863 -0.18742171 0.36589113 0.3237149 -0.33510253 -0.47750622 0.45012644 0.557036 0.3916714 0.023665052 -0.101267956 -0.4169207 -0.17416729 1.424041 0.25532344 -0.67601323 2.0445 -0.045367826
com.google.gson.common.moreasserts.assertequalsandhashcode() 0.09978648 0.9521181 -0.16004503 -0.7081538 0.91505986 -0.6931033 -0.4968405 -0.84785146 -0.11557846 0.14869884 0.15901731 1.0083513 0.021270074 0.51741034 -0.15940934 0.166916 -0.92473304 0.15928996 -0.81533283 0.13698049 0.19685762 0.54352665 -0.16669445 -0.5387743 -0.62862015 0.7524708 -0.051691506 -0.4074104 0.5952625 -0.15666232 0.61702985 -0.8376506 -1.6800885 -0.667575 -0.70385444 0.55798864 0.76534986 0.3209031 -0.10142213 0.46658796 0.38794118 -0.8109902 0.2881291 0.13277514 -0.40265495 1.2125053 -0.88849515 -0.44415444 1.3046616 0.092609815
com.google.gson.stream.jsonreader.getpath() 0.28160274 1.2142894 -1.8765657 -0.51937705 0.48633823 1.8565049 -0.1432372 -0.7075994 -0.64959526 -0.001727104 0.2596475 1.8925123 0.26400346 1.2539768 -0.7382095 1.1898098 0.28840244 -0.87002367 -1.1830069 0.07789026 1.3109573 -0.3604251 -0.6326504 0.24675398 -0.7078828 0.22666216 0.3354864 -1.3795266 0.39904016 -0.36063382 -0.7400194 -0.6828638 -0.7445178 0.04344651 0.3165275 0.85155207 -0.7983922 -0.7276601 0.54260284 0.08549533 0.387243 0.14281027 0.8188789 0.6749139 -0.49356067 1.697884 -0.015314421 -0.31507465 1.560109 -0.19294272
com.google.gson.stream.jsonreader.endarray() -0.0004365446 0.87140363 -1.4479911 -0.29604247 0.09769369 0.60932314 -0.43503729 0.06737842 -0.53084457 -0.24229036 0.9345059 1.3664966 0.814681 1.082695 -0.068161376 1.264715 0.04595421 0.1995608 -0.40598902 0.3409769 1.2865697 -0.07591523 -0.36857533 0.87145346 -0.28440127 -0.3047368 0.6322428 -1.1019846 0.3040717 -0.7295347 -0.30651388 -0.6850636 -0.7414889 0.17630178 0.25952032 0.43744394 -0.740256 -0.6043622 0.55972856 0.53763926 0.45345575 0.4603157 0.5915565 -0.31111434 -0.51798624 0.7330059 -0.2599165 -0.43786138 1.3744206 0.75251657
com.google.gson.stream.jsonwriter.nullvalue() 0.7562902 1.0869669 -1.1306255 -0.43215683 0.43144503 0.3378139 -0.38449502 0.4825772 -0.3047283 -0.045007627 0.029045144 0.9765193 0.13465069 -0.5682275 0.311384 -0.21473399 -0.025565954 -0.29316875 -0.57723397 0.22074358 0.19734192 -0.8738536 -1.4750395 0.84759927 0.19828801 -0.31348503 1.2939142 -0.9972244 -0.062041447 -0.2864209 -0.012258354 0.16734874 -1.0040935 -0.065877855 -0.2621359 0.9416462 -0.2909569 0.06637178 0.6883562 0.12913044 0.2061901 -0.58969843 0.080421716 -0.23964748 -0.121066354 0.52063054 -0.48663417 -0.22498845 0.7814458 -0.33441216
com.google.gson.stream.jsonreader.endobject() -0.06399713 1.5228996 -1.3104554 -0.75417507 0.34649858 0.8405783 -0.622232 -0.16082558 -0.25752178 0.21396501 0.3894766 1.293654 0.24669208 0.63593334 -0.575135 0.87031984 0.63527197 -0.10006141 0.1475457 0.26527122 0.61712414 -0.6423354 0.2563169 0.3620495 -0.6411794 -0.142664 0.47322524 -0.32279003 -0.06750743 -0.1486894 -0.074011825 0.01958358 -0.8180211 -0.110971935 0.77819204 0.49014091 -0.38405475 -0.71174514 0.26263246 0.31597537 0.064206734 0.050721824 0.20579115 -0.16883563 -0.71146 0.7085251 -0.04098839 -1.0183539 1.1805261 0.29748333
com.google.gson.stream.jsonreader.skipvalue() 0.023766479 1.4947199 -1.7418164 -0.98994887 0.2127538 1.0037297 -0.71364945 -0.61894053 -0.54514754 0.2124417 0.2771285 1.0280027 0.4165029 0.5266844 -0.3447679 1.3557099 0.4667703 -0.5015926 -0.6493186 0.57277364 0.45022807 -0.1577513 -0.071947746 0.33689842 -0.6909758 -0.38364422 0.531236 -0.83631635 0.630305 -0.14783008 -0.087019935 0.041606423 -0.699588 -0.1340494 0.39003107 0.24907058 -0.53563446 -0.2905783 0.5578342 0.5113007 0.49077144 0.40481636 -0.019961186 -0.07620879 -0.3352177 1.2319887 0.066220164 -0.5984548 1.224774 0.4923159
com.google.gson.gson.tojsontree() 0.2733727 0.797801 -0.31993935 -0.5001492 0.065098055 0.563199 -0.3212365 -0.46936384 -0.111218594 0.25780323 0.95700926 0.52064204 -0.5503318 0.58353704 0.40627715 -0.5485484 -0.3408213 0.10159177 -1.0183953 -0.31777757 -0.16507684 0.10615122 -0.17660753 -0.96430916 -0.47031572 -0.17489314 0.23742063 -0.27641964 0.47857967 0.01769586 0.41769043 0.20590934 -1.5679426 -0.6747849 0.049112763 0.35731128 0.033408124 0.56629604 0.8732122 0.8280841 0.1818984 -0.575019 0.55029994 -0.17005616 -0.93950033 1.430118 -0.7182862 -0.44582984 0.9908318 0.2670077
com.google.gson.jsonobject.has() 1.1204139 -0.35489336 -0.81067526 -0.4316066 0.24208012 0.29772472 -0.14006168 -0.72315156 -1.0230834 0.21177456 0.63970625 0.32615373 -0.29725665 0.0023526815 0.75750595 -0.5880362 0.1984178 0.8807807 -0.09409602 -0.3420968 0.015933113 -0.4731145 0.47661477 -0.9020592 -0.112476565 0.12386015 0.29589772 -0.50021327 0.037355054 0.19323176 0.40829432 0.51825005 -1.3007973 -0.60898864 0.015772073 0.91876864 0.8032096 0.37151954 0.735008 0.97533524 0.82254255 -1.4743592 0.1905049 -0.006949317 -0.35273576 1.3765051 -0.40276337 -1.588663 1.4055315 -0.2711288
com.google.gson.jsonelement.isjsonobject() -0.26153398 0.21368001 -0.1760308 -0.23237239 0.3275439 0.44017753 -0.18789017 -0.23826307 -0.6844681 -0.3801445 0.40787303 0.70008314 -0.34212795 0.24541454 0.5729799 -0.052817512 -0.106693834 0.5507029 -0.28903773 -0.20684175 -0.13867351 -0.3105227 -0.27589247 -0.57049334 -0.3934198 -0.22415055 0.8418933 -0.393583 0.41612107 -0.20664082 0.038853552 0.55846316 -0.8427727 -0.9439943 -0.14985871 0.48479033 0.17008176 0.20989962 0.9061974 0.6980919 0.58842456 -0.90912974 0.64216787 -0.031102834 -0.58411956 0.86051285 -0.91277504 -0.796497 1.07783 0.09357176
com.google.gson.jsonarray.size() 0.41093728 1.0613415 -0.33568597 -0.23515615 0.1255193 0.46886772 0.67323554 -0.38613975 -0.44732708 -0.041921202 0.5331708 0.84701836 0.11125415 0.2549528 0.10501101 -0.3506075 -0.50549245 0.6749649 -0.40112552 -0.74713314 0.16172917 0.10016607 -0.5672519 -0.14095151 -0.14063784 -0.025851758 0.69882995 -0.36737782 0.0145718055 -0.47404048 0.7953225 0.36297464 -1.2715782 -1.0641485 -0.42525613 0.8968878 -0.103398256 0.021921434 0.1730774 0.04008953 -0.036224186 -1.3070409 0.91738313 0.20891552 -0.20787744 0.41107783 -0.50081736 -0.92321676 2.126321 -0.04551101
com.google.gson.stream.jsonwriter.setlenient() 1.0998089 -0.012651524 -1.3505485 -0.51624507 0.15212691 0.35833558 -1.0754061 -0.6803409 -0.8812173 0.47992745 0.5612698 -0.037567332 -0.19304466 0.9744424 0.20602465 0.12819855 -0.23734999 0.027420765 -1.2804413 0.15721856 -0.39208242 -0.64932203 -1.3358067 0.28032696 -1.1174369 0.5042647 0.37118596 -0.84730923 0.77264714 -0.5323429 -0.032497007 -0.0432068 -1.3720121 1.2087221 -0.537914 1.009631 -0.6173249 0.08724644 0.9869149 0.7498918 0.018114025 0.7024173 0.18363136 0.64748037 -0.12138766 0.6194242 -0.62528205 0.018984152 0.21577461 -0.60802215
com.google.gson.stream.jsonreader.nextint() 0.16515014 1.1934129 -1.7770128 -0.82782346 0.55265874 0.9027005 -0.04333978 -0.4813869 -0.55253994 -0.34552112 0.5941525 1.3111022 0.1344902 0.8644329 -0.4110955 1.11444 0.23071425 -0.24998237 0.097265735 0.9505058 0.69090736 -0.5740887 -0.1715035 0.33118466 -0.28784156 0.040051125 0.60662484 -0.9389052 -0.40986374 0.19962807 -0.05575565 -0.45599714 -0.1118306 -0.080277495 0.51048064 0.32589507 -0.02397843 -0.26096413 0.5454489 0.62501985 0.5359768 -0.24619453 0.046551466 -0.37691987 -0.4791565 1.4518404 0.1710505 -0.253009 1.6876863 0.027522895
com.google.gson.jsonelement.getasstring() 0.16431086 0.33161953 -1.129713 -0.75187933 0.4026403 0.46948582 -0.30309922 -0.6485286 -0.61424595 0.65764517 0.6007258 0.45079675 -0.038432475 -0.03473698 0.5556409 -0.6055641 -0.5415366 0.76348007 0.09566521 0.7901664 -0.021668812 -0.078533985 -0.6025174 0.008450842 -0.64082974 0.41598642 0.48974687 0.23575902 -0.7491607 0.45343176 0.51958567 0.6347179 -1.339185 -0.10603491 -0.20234498 0.67945594 0.538618 0.22099835 0.017061492 0.2430127 0.69536376 -0.92403346 0.4672907 0.13704754 -0.06061391 0.8322716 -0.35033107 -0.26096773 0.8824485 0.07189834
com.google.gson.jsonobject.getasjsonarray() 0.20153348 0.22305222 -0.42484435 -0.23479034 0.5447676 0.3391353 -0.059847385 -0.09207128 -0.28156307 -0.15078029 0.48407352 0.36569318 -0.17278673 0.35898966 0.08456413 -0.114216134 -0.30934587 0.72877717 -0.1972938 -0.63757616 0.8485274 0.28927037 -0.29432496 -0.7335228 -0.04997076 0.1330572 0.6465475 -0.35491398 0.008052724 -0.16958436 0.2314223 0.32404384 -0.22690634 -0.24048816 -0.49317202 0.4240941 0.28922 0.35772198 0.68573564 0.05371688 -0.16498998 -0.73011905 0.8441766 0.11500339 -0.9097001 0.813157 -1.1064643 -0.20147806 1.1520252 0.1109647
com.google.gson.stream.jsonreader.nextdouble() 0.16993213 1.0197166 -1.160555 -0.39174536 0.025575547 1.1132069 -0.12077964 -0.5089711 -0.3561696 0.27408114 0.21031795 0.82535225 0.414519 1.145366 -0.2813957 1.4519913 -0.26100063 0.04802272 -0.2629668 0.8450722 0.8124417 -0.5684463 -0.61694133 0.68962896 -0.93542117 -0.2514229 0.21297017 -0.7656066 0.15423107 -0.86221266 -0.45765692 -0.9872577 -0.5888931 0.12994674 0.731591 0.80087376 -0.79993683 -0.4630621 0.29337692 0.3322051 0.21955024 -0.39567894 -0.24333502 -0.42221865 0.3106663 1.2318704 -0.5089466 -0.46580017 1.7664225 0.7405693
com.google.gson.jsonelement.getasjsonarray() -0.10550607 0.57302487 -0.3965829 -0.34794876 0.032846287 0.3734782 0.38720584 -0.5486684 -0.35000005 -0.26209113 0.30167827 0.5448965 -0.17771243 0.013620484 0.7357283 -0.040528566 -0.5202038 0.5326889 -0.47628465 -0.5231661 0.054960113 0.10225923 -0.12053414 0.16473232 -0.27504665 -0.029034272 0.5121149 -0.035052903 0.7084816 -0.4120821 0.31843898 0.44624418 -1.441596 -1.1247193 -0.22847614 0.704738 0.29565975 -0.024937326 0.408004 0.4009125 0.5498019 -0.88686764 0.63926643 -0.19319493 -0.58409035 0.8060558 -1.4168317 -0.73187053 1.4333125 -0.30884996
com.google.gson.reflect.typetoken 0.11292405 0.35126963 -1.0778157 -0.40412137 0.35142872 0.14301199 0.010533179 -0.8007138 -0.058375016 0.48860458 0.22670282 0.3456983 -0.14327991 0.71838444 0.15812588 -0.17484851 -0.058118153 0.026764533 -0.5359335 0.38563433 0.8936037 -0.1944053 -0.7908237 0.008983433 -0.077292055 -0.3960284 0.44272032 -0.7518145 0.49189645 -0.3961261 -0.82479084 -0.09995092 -1.3544317 0.36208346 0.6848645 0.16353324 -1.0458906 -0.04927055 0.8043924 0.018419448 -0.54702663 -0.23950537 0.21834786 -0.1220883 -0.54362035 0.4929915 0.026120398 -0.5623201 0.057821073 -0.39805096
com.google.gson.stream.jsonwriter.close() 0.59242505 0.74980885 -1.3109728 -0.45454794 0.20114796 0.19847575 -0.8689774 0.18198198 -0.2967796 0.7929811 0.44217962 -0.014916728 -0.055901702 0.41561693 -0.358427 0.8706063 -0.046633746 -0.6075409 -0.2815169 0.60290444 0.04218328 -0.22059032 -0.8771615 -0.26254326 -0.5131059 0.20942682 0.6428066 -0.5933393 -0.2124001 0.41307858 0.28378484 0.08427574 -0.45761248 0.67021924 -0.7467176 0.96583533 -0.55696476 0.02138203 0.6805057 0.256205 0.3144417 0.014001922 0.34903774 -0.4097979 0.09800004 0.78102905 -0.3076444 0.36122125 1.0133702 0.06642107
com.google.gson.stream.jsonwriter.sethtmlsafe() 1.2598114 -0.15986373 -1.6877053 -0.16345865 0.06939606 0.60987496 -1.0704024 -0.7694552 -1.0448607 0.2690607 0.7600458 -0.28460768 -0.38022584 0.70265174 0.6263656 0.25086352 0.09819076 0.20068046 -1.1693636 0.33018303 -0.43937442 -0.6098394 -0.9940753 0.01509122 -1.0684886 0.38470188 0.579744 -0.68350136 0.6623229 -0.34157097 -0.18663765 0.11535282 -1.1771364 1.0045322 -0.79267436 1.0632848 -0.70952284 0.16199826 0.99016166 0.37481275 0.18204883 0.64281976 0.17917739 0.3141104 -0.20661846 0.68506676 -0.7832323 0.28145075 0.072606504 -0.45227414
com.google.gson.jsonelement.isjsonarray() -0.30408704 0.6640327 -0.51858836 -0.28737986 0.16211729 0.035387173 0.14600816 -0.3411009 -0.3397214 -0.16353399 0.48416948 0.6018715 -0.23495488 0.21231106 0.36572042 -0.031640448 -0.18968049 0.84639835 -0.50835097 -0.23873554 -0.0109740775 -0.13123868 -0.26561603 -0.07864448 -0.051773712 -0.32170334 0.6792586 -0.39064857 0.35854483 -0.33216506 -0.24088688 0.24001294 -0.893564 -0.9600622 0.045739584 0.30547693 0.2880629 -0.042566154 0.6480277 0.65473807 0.6484325 -0.88957775 0.4016907 -0.094470024 -0.58026326 0.52516544 -0.90280825 -0.48220792 0.96855015 0.044698585
com.google.gson.jsonparser.parse() 0.099158116 0.5276835 -0.47067004 -0.5536681 0.07636816 0.3949413 -0.32286888 0.3102577 -0.25811172 0.30277008 0.4537157 0.3937917 -0.23003875 0.30318186 0.49476784 0.31441826 -0.26811194 0.10914217 -0.2848107 0.008328734 0.23841397 0.12674427 -0.035829186 -0.28637317 -0.7349338 -0.24407202 0.53175133 -0.29079095 0.09038586 0.2964286 0.16950798 0.17012219 -0.84384453 -1.0682806 -0.22904688 0.62945527 0.08958447 0.67038536 0.3853785 0.6952654 0.89466417 -0.7816547 0.72371656 -0.34053636 -0.39137277 1.2079972 -1.3647954 -0.14082146 1.2273703 0.20843454
com.google.gson.jsonstreamparser.next() 0.09001016 0.6061095 -0.6311869 -0.085274525 -0.45570138 0.22405319 -0.627602 -0.07784313 0.012925662 0.053676877 0.13997336 0.43324053 -0.44503093 0.7462608 0.5179655 -0.14762045 -0.4378816 -0.06664513 -1.579135 0.7780941 0.46301284 0.15625641 -0.2023975 -1.0331585 -0.54069316 0.108457245 0.20779686 -0.37051663 0.14849126 0.6449902 -0.22793716 -0.016109575 -0.8384543 -0.48986545 -0.7406102 0.6617386 -0.6195512 0.6934942 0.04274841 0.37131435 0.87864685 -0.52018386 -0.13735992 0.0001414688 -0.5973062 1.213576 -0.6315261 0.21796598 0.9123025 -0.0144684175
com.google.gson.jsonstreamparser.hasnext() 0.14002909 0.37830898 -0.6445743 0.1034943 -0.28020513 0.45368892 -0.4073864 0.0023608392 -0.16573007 -0.1502391 -0.19736284 0.6419059 -0.45528376 0.91619056 0.3045462 -0.15073574 -0.35403624 0.130718 -1.2989393 1.0342652 0.2056928 0.13592649 -0.0909447 -1.1338722 -0.3144552 0.40581405 -0.16593552 -0.34865242 0.1226173 0.67096597 -0.2734942 -0.22918244 -0.6794756 -0.28994927 -1.069557 0.7967699 -0.671414 0.6232502 0.061955795 -0.18673141 0.8497694 -0.531509 0.18830697 0.1475316 -0.53963244 0.83800024 -0.68938977 0.1717855 0.91803765 -0.2581087
com.google.gson.jsonelement.isjsonnull() -0.0635237 0.34739977 -0.64676315 -0.5907733 0.33184987 -0.00513962 0.0053332536 -0.4305685 -0.8139636 -0.4537106 0.21464553 0.8585555 -0.44452533 -0.48139384 0.36747846 0.04387755 -0.35454533 0.7450057 -0.45769244 -0.29205298 -0.26651436 -0.59017056 -0.7128968 0.3600474 -0.47640145 -0.18485732 0.4629728 -0.55717355 0.63509697 -0.44391662 -0.23050033 0.44548127 -1.7369717 -0.3848651 0.3110695 0.22552367 -0.25912297 0.17221768 0.8076524 0.45859426 0.87056506 -0.9344049 0.4812281 -0.31074372 -0.8484887 1.0579388 -0.75227654 -0.6175286 0.46247193 -0.08877536
com.google.gson.jsonelement.isjsonprimitive() -0.09637326 0.32177326 -0.27213997 -0.40331694 0.13591541 0.39436856 -0.47639784 -0.6739217 -0.6287658 -0.13226739 0.18915425 0.25599295 -0.3952873 0.051559273 0.4545126 -0.17143972 -0.037410393 0.677894 -0.45571437 -0.14298509 -0.4633092 -0.22034198 -0.22781348 0.003728544 -0.4275661 -0.09224989 0.7698848 -0.50028884 0.64503556 0.18513513 -0.34028244 0.49431828 -1.2320979 -0.99367326 -0.10870029 0.43136305 0.00028425423 0.24046399 0.62028134 0.85125786 1.0180799 -1.065423 0.2001229 0.39691758 -0.63180375 0.64205337 -0.5978592 -0.5326815 0.47698045 -0.45976555
com.google.gson.jsonelement.getasjsonprimitive() -0.0011503862 0.20557779 -0.54298353 -0.35571578 0.28378093 0.4870288 -0.4155501 -0.8805121 -0.9307541 -0.051697534 -0.027158814 0.19644651 -0.61835146 -0.10353236 0.32487506 -0.0364898 -0.043980658 0.6680926 -0.32258835 0.122545 -0.62795085 -0.2597294 -0.5316809 0.28842503 -0.4639653 0.42939124 0.609347 -0.38557902 0.36011356 0.096577175 -0.08251417 0.6849284 -1.1189773 -0.91737455 -0.0031832736 0.74030143 -0.07491744 0.17169346 0.29954246 0.851102 0.8969901 -1.169248 -0.065855585 0.066925965 -0.29473877 0.5362004 -0.5836194 -0.61943984 0.44682166 -0.35595292
com.google.gson.stream.jsonreader.nextlong() 0.14619105 0.8755267 -1.8022649 -0.44809785 0.3731655 0.7281385 -0.088067554 -0.6000279 -0.6183673 -0.43266776 0.38140896 0.9782548 -0.04376484 0.6158821 0.09836642 0.98429906 0.4109945 -0.19939247 -0.4635784 0.8355878 0.869155 -0.27504852 -0.20650986 0.45851952 -0.40383106 0.3194904 0.5815999 -0.6883879 -0.5604724 -0.20240833 -0.14193073 -0.393221 -0.113463506 0.023114322 0.50658923 0.16134994 -0.20868425 -0.4504831 0.22982176 0.42926192 0.25651923 -0.23015301 -0.01238916 -0.35441765 -0.74265206 1.2625921 0.39815515 -0.30018556 1.3748273 0.14848089
com.google.gson.jsondeserializationcontext.deserialize() 0.345646 0.01941185 -0.76184225 -0.31273544 0.27787292 0.5501155 -0.06519001 -0.44080243 -0.22880648 0.31775534 0.71429414 0.37530965 -0.2834897 0.53502125 0.16928522 -0.43168384 -0.39712334 0.88397014 -0.112068325 0.22871265 0.61187726 0.046875924 -0.67332673 -0.42878917 -0.2919898 0.16657755 0.50352556 -0.12489539 -0.1659279 -0.17470485 0.49782747 0.46021596 -0.74490315 -0.15318052 -0.04002991 0.5364526 0.23454802 0.4407472 0.05507149 0.27917212 -0.18123671 -0.53103364 0.91917896 0.20144111 -0.51118463 0.5815336 -0.79969656 -0.11030014 0.9645356 0.1790835
com.google.gson.jsonobject.entryset() 0.46551374 0.12728982 -0.5121533 -0.21140301 0.10344787 0.053944103 -0.19478373 -0.34386283 -0.17294419 -0.13223583 0.63851327 0.7161751 -0.24295828 0.06921016 0.50402915 -0.81868416 -0.21348664 0.4393955 -0.36276695 -0.6830587 0.182102 0.016922228 -0.22517008 -0.65149784 -0.17046224 -0.06815019 0.7107457 -0.1950607 0.09047155 -0.34733602 0.5554613 0.19141832 -1.2153692 -0.10556894 -0.13848197 0.5921379 0.3320673 0.60916597 1.2834601 0.48337787 0.13724142 -0.76643294 0.6489608 -0.16766281 -0.7902707 0.7778533 -0.7876268 -0.3194613 1.1616565 0.13634133
com.google.gson.gson.getadapter() 0.11574764 0.39500195 -0.81786126 -0.12402995 0.39115682 0.45870066 -0.28059188 -0.33208534 0.07703272 0.39831847 -0.14873643 -0.08558209 -0.55736566 0.14521915 -0.0014575614 -0.4521782 0.6710506 -0.52730757 -0.5443975 0.12324515 0.5094066 -0.08552826 -1.057862 -0.18993829 -0.018473973 -0.27103162 0.5808185 -0.8266659 0.7828454 -0.3795964 0.04826981 0.16269065 -1.1163639 0.20958027 0.08530501 0.47880837 -0.58463985 0.1668926 1.3381939 0.88904315 -0.5233165 -0.4779279 -0.40412596 -0.2616128 -0.49991328 0.31611958 -0.17476708 -0.2423304 0.7505321 -0.57623327
com.google.gson.codegen.functional.order -0.17682187 0.27052176 -0.25731874 -0.07246103 -0.11842277 -0.13979627 -0.2661616 -0.23994188 0.11639799 0.22488287 0.096962914 0.19136049 0.047983773 0.10597212 -0.16108745 -0.03993739 -0.07240303 0.47181928 -0.23381849 -0.034376286 0.20067419 -0.095362894 -0.060158476 0.12452222 0.05969066 0.084849656 -0.17448658 -0.20522848 0.22746544 -0.14532886 0.08149835 -0.28884822 -0.23435701 0.12344777 -0.13302913 0.44467792 -0.27648836 0.10644059 0.083636604 0.050246634 0.2961544 -0.43769872 0.32668626 0.07180121 -0.09337252 0.15137795 -0.21005853 0.051804036 0.50786006 -0.22553162
com.google.gson.stream.jsonwriter.ishtmlsafe() 0.97617877 -0.07514371 -1.4437695 -0.073348016 0.14699678 0.82387686 -0.5082421 -0.9463495 -0.70605373 0.26547265 0.48028204 0.32389247 -0.37196952 0.8530007 0.40376854 0.31250504 0.26690802 0.3863023 -1.594446 0.13270317 -0.058804147 -0.3701554 -0.72714037 -0.25305608 -0.45326734 0.093359016 0.37190494 -0.54092073 0.4846691 -0.39414686 -0.38809076 0.17905764 -0.6451876 0.8918061 -0.69473255 0.4654997 -0.6190492 0.27767584 1.0656093 0.47350943 0.35257968 0.5247874 -0.06787797 0.26899397 -0.14718646 1.1412998 -0.7996289 0.33462697 0.50906783 -0.74701756
com.google.gson.instancecreator -0.28076792 -0.17414923 -1.1158419 -0.16920374 0.3822778 0.52840865 -0.54748595 -0.57329047 0.29988855 0.46357808 0.44815636 0.08966154 -0.29806557 -0.15082547 -0.64222914 -1.101104 0.6548285 -0.18004964 -0.9177782 -0.05517217 0.6021483 -0.30255467 -0.81639004 -0.9215367 0.08221017 0.004024304 1.0490496 -0.2560721 0.1008869 0.0036223927 0.9334647 -0.079017125 -0.55194175 0.5183434 -0.67206424 0.22944506 -0.116886884 0.6381079 0.92313147 -0.14756991 -0.52080256 -0.71566033 -0.3225751 0.19566311 -0.47843894 -0.04588021 -0.47164324 -0.61533034 0.6052319 -0.2613905
com.google.gson.stream.jsonwriter.setindent() 0.5866055 0.2926335 -1.4031687 -0.27050203 0.05347915 0.5554768 -0.86354166 -0.30315024 -0.7895063 0.2448321 0.35294756 0.38122365 -0.32016262 0.708379 -0.09754569 0.7386663 0.18099934 -0.36998257 -0.9662534 0.28526416 -0.060489304 -0.96871305 -1.0111687 0.21239972 -0.19572455 0.27479547 0.14265056 -0.67943007 0.20225038 -0.5540945 -0.40675253 0.346879 -0.67304605 0.50343823 -0.3461515 0.77285254 -0.24814844 0.26294994 0.76579815 0.74147445 -0.051121958 0.058121685 -0.27382043 -0.21695223 0.29948288 0.47613707 -0.48960498 0.28080025 0.32439187 -0.7426317
com.google.gson.stream.jsonreader.islenient() 0.7389363 0.14985953 -1.5245645 -0.7898728 0.25558296 0.30727854 -0.5262862 -1.1537557 -0.27845618 0.7289735 0.21452568 0.078463316 -0.28919318 0.5271636 0.22534938 0.45588407 0.21645544 0.3732209 -0.7044054 0.464996 0.2900667 -0.21464503 -0.7120592 0.3711039 -0.794704 0.059999917 0.84834737 -0.48994842 0.39553326 -0.3612684 -0.6851822 -0.23452395 -1.1676853 0.5147072 0.169011 0.5427923 -0.68691796 0.34255382 0.8512394 0.71701086 0.11969478 0.49196014 -0.31491318 -0.13154408 -0.46558627 1.024286 -0.39772364 0.14421475 0.50472504 -0.7819119
com.google.gson.stream.jsonwriter.islenient() 0.6993422 0.07593342 -1.346856 -0.11536186 0.12890993 0.88892275 -0.4407723 -0.8237119 -0.5737182 0.25109786 0.3217223 0.3977341 -0.43089396 0.85698587 0.19613445 0.021430576 0.21723226 0.20336513 -1.5227672 0.075234056 0.021031242 -0.6039273 -0.9642819 0.052376952 -0.3500428 0.3306504 0.39327842 -0.7266684 0.6498484 -0.6463565 -0.664448 0.36524957 -0.6528895 0.90471405 -0.32753718 0.5524957 -0.556938 0.121009745 1.1970559 0.5694798 -0.03476666 0.17270733 -0.27854934 0.4027424 -0.010697424 0.72962296 -0.5325058 0.2319911 0.46126688 -1.0429217
com.google.gson.defaultdatetypeadapter 0.1558377 0.53932196 -1.236002 -0.35471597 -0.16436653 -0.9008111 0.16690771 -1.4286606 0.6045534 -0.085772455 -0.5661442 0.4116043 -0.31918997 0.35197124 -0.33315113 0.33654067 0.4020654 -0.24615216 -0.4469861 -0.124746576 0.26273632 -0.44345087 -0.16355851 -0.14194092 0.21098188 -0.20593323 0.59423006 -0.4393851 0.39616105 0.15346228 -0.07280805 0.15571345 -1.0108265 0.11995859 -0.17730653 0.10906891 -0.6865845 0.23902987 0.3443594 0.4542812 0.08346217 -0.0712825 -0.33613956 -0.00932014 -0.60217583 0.5205908 -0.46086213 -0.35782945 -0.25851667 -0.63332677
com.google.gson.reflect.typetoken.getparameterized() -0.78521186 -0.12841435 -0.86781573 -0.14265251 0.56614953 0.3781366 0.015278615 -0.13492568 -0.076107465 0.322214 0.46694508 0.423792 -0.18547146 0.44520956 -0.82657593 -0.9007494 0.31180587 -0.20474695 -0.66425383 0.14708425 0.6835063 -0.67947394 -0.8696514 -0.5157755 0.0061135953 -0.2497852 0.32357606 -1.0416546 1.082486 0.5529975 0.20160662 -0.47201857 -0.46459574 0.62885946 -0.53332716 1.286285 -0.37791583 0.38936266 1.1217037 -0.07234392 -0.47450113 0.41383195 -0.34151354 0.44638628 -1.0228417 0.38234916 -1.3892493 -0.5961114 1.3535507 -0.4109465
com.google.gson.jsonprimitive.isnumber() 0.06336758 0.66298693 -0.6350001 -0.17309718 0.332084 -0.036596242 -0.33389375 -0.59647334 -0.44917694 0.15559486 0.27004075 0.30840433 -0.38498864 0.30246386 0.30772766 -0.026493704 0.09690923 0.13536388 0.055851888 0.42574105 -0.5690349 0.058705967 -0.3127592 -0.013404638 -0.59505624 0.57002234 0.20831849 -0.5356348 0.5017137 -0.051847856 -0.086597055 0.21572548 -0.72067076 -1.107342 -0.20968556 0.3080559 0.15996705 0.34477773 0.47907728 0.8703434 0.64683855 -1.1505771 0.080126815 -0.05996559 -0.30147374 0.6097691 0.033970766 -0.20113483 0.5982224 -0.53555113
com.google.gson.jsonprimitive.isstring() 0.17870179 0.5455483 -0.68569916 -0.13039972 0.39595038 0.15938644 -0.2819204 -0.5731932 -0.6433516 -0.020084467 0.1973334 0.22468372 -0.50707424 0.2821852 0.4522358 -0.08373657 0.22968446 0.076251455 -0.17859133 0.51631355 -0.54270285 0.18998177 -0.12248076 -0.13117175 -0.40320024 0.49911392 0.05211166 -0.5576862 0.37651324 -0.23789567 -0.21557656 0.12138558 -0.72808504 -1.0702547 -0.34281746 0.16268785 0.21985012 0.53370714 0.41351053 0.7417038 0.7425042 -1.0035781 -0.084534176 -0.2713751 -0.49122784 0.66930187 0.020562684 -0.1923941 0.445329 -0.38043454
com.google.gson.jsonserializationcontext.serialize() 0.1324088 0.12236756 -0.35599118 -0.36062685 0.4093992 -0.20560405 -0.31236634 -0.049802713 0.054875214 -0.10224885 0.016093837 0.43666077 -0.24920134 0.14171 0.03785606 -0.3008125 -0.27335182 0.057757456 -0.2117533 0.20886318 0.13941237 -0.06313494 -0.3897205 -0.18805215 -0.3495996 0.2645488 0.22526716 -0.22128789 -0.00025092403 0.15638788 0.089295626 -0.10279866 -0.8651297 -0.23001836 -0.3251851 0.44942197 0.16985185 0.36345354 0.26909053 0.296691 0.26287514 -0.65632105 0.16677226 0.052317556 -0.5206804 0.4479996 -0.57911396 -0.024503062 0.64492357 -0.3285639
com.google.gson.parameterizedtypehandlermap -0.052953497 0.9936217 -1.1857991 -0.15766549 0.054220382 0.014795161 -0.09060853 -0.32198358 0.19450825 0.59292614 0.17328878 0.06329597 -0.14293952 1.0931787 -0.5088731 -0.45662934 0.3925366 0.1176043 -0.71444017 -0.02929914 0.63061327 0.64611465 -0.49675974 -0.24854933 0.5694456 0.630174 0.08285316 -0.94054157 0.15317734 -0.07841667 -0.14799587 -0.533689 -0.42353213 0.3423036 -0.88338673 0.37296653 -0.29478496 0.19355252 -0.059864257 -1.1381782 -0.27590966 -0.22376513 0.58570117 -0.19417292 -0.31866524 -0.83401585 -0.4055872 -0.41523504 0.4856212 -0.05001709
com.google.gson.gsonbuilder.setfieldnamingpolicy() -0.1405256 0.83295685 -0.7639164 0.023724418 0.07900319 0.087498866 -0.17079514 -0.54699427 0.060131572 0.9163266 0.6676397 -0.16197118 -0.38713202 1.0430074 -0.22777458 -0.5981496 0.09594693 0.06830367 -1.0486419 -0.204514 0.023815442 -0.006407937 -0.17935477 -1.0493876 -0.6164734 0.2791254 -0.073249966 -0.55024564 0.45378706 0.91954756 1.0738097 -0.110783525 -0.8019304 -0.65785325 -0.6013056 1.0791197 -0.21575925 0.5357097 0.47355676 0.85479546 0.670854 -0.01812787 -0.094224066 0.3610689 -0.20945385 1.0238922 -0.7624051 0.39300606 0.9892125 0.19412242
com.google.gson.gsonbuilder.setversion() -0.11943346 0.83801585 -0.6392664 -0.083261825 -0.6289071 0.40680334 -0.4151487 -0.99654454 0.15898597 0.6134669 0.9733873 -0.14351942 -0.2764148 0.75953776 -0.005153022 -0.85908157 0.15643395 0.06597138 -1.5152196 0.027982794 0.115635894 -0.18670093 0.0012819163 -1.0377073 -0.5091306 0.27243453 0.17353226 -0.17903697 0.61407816 0.47474763 1.0023373 -0.17341071 -0.27819684 -0.098452866 -0.16474131 0.6726718 -0.46155822 0.63101834 0.6180591 0.9034909 0.40752873 -0.37624347 0.044154953 -0.040075574 -0.30850172 1.2269583 -0.2735 0.41205502 1.0011625 0.21471581
com.google.gson.stream.jsonwriter.getserializenulls() 1.1727009 -0.16779928 -1.6948382 -0.4216492 0.08488672 0.44706574 -1.0413404 -1.1162424 -0.83368516 0.36499983 0.2140441 0.1877285 -0.37865332 0.5012485 0.47779492 0.33428842 0.041592296 0.664326 -1.0377513 0.37060907 -0.306239 -0.2765438 -0.63690096 0.23195343 -0.7230173 0.37621287 0.29318133 -0.024484837 0.37429738 -0.39138183 -0.37131006 -0.040082276 -1.0634141 0.9805884 -0.70070887 0.39635482 -0.2831453 0.35958874 0.8009543 0.21086119 0.25405675 0.30002892 -0.07922395 0.22182249 -0.3925899 0.78534317 -0.57618153 0.20775431 0.32562658 -0.49121714
com.google.gson.stream.jsonwriter.setserializenulls() 1.1471666 -0.14390208 -1.7192587 -0.52385217 0.10009111 0.33421355 -1.115931 -1.0550582 -0.8296058 0.4870912 0.24316664 0.15023024 -0.39491233 0.49055526 0.29964668 0.33652684 0.011275307 0.5792933 -1.0036867 0.36283052 -0.24684523 -0.244093 -0.74607 0.24094102 -0.7523859 0.3971799 0.213855 0.033720177 0.28723633 -0.3547688 -0.24314736 -0.108953044 -1.1517966 1.0301834 -0.6707288 0.44365582 -0.26269656 0.33378816 0.76657856 0.22365889 0.18723802 0.27986416 -0.07822179 0.195263 -0.4481144 0.7584419 -0.5143654 0.23160957 0.29874304 -0.3578694
com.google.gson.typeadapters.runtimetypeadapterfactory.of() 0.3029185 0.8409807 -0.80059 -0.54858303 -0.63575816 0.18553248 -0.6853128 -0.46441945 0.05411347 0.96765685 0.5826695 -0.49436653 -0.2657891 0.57838964 0.16217335 0.39774987 0.09353508 -0.31788066 -1.5049397 0.38488632 0.20984468 0.62971777 -0.38163456 -0.8609923 -0.41768402 0.08707913 0.2782547 0.0762811 0.5614036 0.17027591 0.46090823 -0.5439337 -0.78952605 -0.050845355 -0.99516654 0.5444018 -0.9664622 0.9862835 0.30510134 0.30570072 0.3722013 -0.15736125 -0.16926758 -0.43178338 -0.45477664 0.868481 -0.28998008 0.4917799 0.67607737 0.5782574
com.google.gson.jsondeserializer -0.10441759 0.8495658 -1.2002937 -0.33263397 0.30575547 -0.2534738 -0.047271572 -0.33535334 0.15886238 0.80068296 0.27858576 -0.3618704 -0.049402926 0.19704263 0.12831119 -0.1557772 0.30440828 -0.2548031 0.086252324 0.5528606 0.014636433 0.09002787 -0.5929366 -0.23139574 -0.39378527 0.15616636 0.4874188 0.047860872 0.6990095 0.0683385 0.6573033 0.09594532 -0.793103 -0.64529663 0.10921551 0.43979892 0.017872617 0.5769326 0.6409249 0.5090864 0.0033926526 -0.2602997 0.3346972 -0.14775318 -1.1833662 0.36474538 -0.15144692 -0.23161049 0.42943117 -0.041110914
com.google.gson.jsonprimitive.hashcode() 0.054611385 0.6199321 -1.0988226 0.22779547 0.5909686 0.0062006544 -0.33029175 -0.6128365 -0.34956002 -0.0454489 0.25284398 0.17378567 -0.39705533 0.70109445 0.5311999 0.070031635 0.11063279 -0.2687891 -1.3466179 0.2266658 -0.011546692 0.9253974 -0.40544167 -0.0615993 -0.45256135 1.0843698 0.05110699 -0.41341877 0.83332604 -0.015740084 0.20714848 -0.50973916 -1.397609 -1.1392559 -0.9319138 0.5757563 0.2087953 0.28556055 -0.38945276 0.33170474 0.5539104 -1.0510283 -0.0044604577 -0.23546076 -0.14665626 0.5852818 -0.54605013 -0.3919964 0.6215241 0.41462284
com.google.gson.stream.jsonreader.close() 0.05098909 0.73428184 -1.4789324 -0.58104867 0.39064723 0.6727376 -0.49929583 -0.28731197 -0.40420306 0.31676775 0.3272173 0.5073631 0.17203145 0.67808527 -0.13790677 0.7765133 0.33791405 -0.18309122 -0.43187636 0.33139354 0.7952574 -0.057603907 -0.5544671 0.08718419 -0.37157956 0.19239312 0.5716672 -0.4212699 -0.03264349 -0.373311 -0.16067784 0.030774973 -0.31136766 -0.052980024 0.18141954 0.52728504 -0.58772135 -0.17417069 0.22962339 0.26965407 0.022189533 0.42132893 0.13893314 0.014786255 -0.3591575 0.69470114 -0.28473255 0.093715735 0.77893656 -0.0402273
com.google.gson.jsonserializer -0.023064587 0.73071325 -0.9048862 -0.08455241 0.23595649 -0.16912545 0.10770233 -0.39877236 0.5725579 0.8012237 0.43503824 0.2808971 -0.4747432 0.52631307 0.1256343 -0.7816055 0.37108395 -0.13792768 -0.08315954 0.41385582 -0.015445519 0.06878222 -0.51406723 -0.18604626 -0.2940055 0.13290186 0.2251578 -0.3036093 0.7471612 0.056720704 0.43213347 -0.061672315 -0.976868 -0.6445601 -0.01326375 0.13922712 0.087587945 0.60308284 0.5282956 0.37839374 0.25132746 -0.4085873 0.2145537 -0.1734083 -1.0001851 0.2576854 -0.05605523 -0.40601704 0.30439666 -0.18583189
com.google.gson.jsonparser -0.034110185 0.5029616 -0.41240814 -0.18045977 0.00656639 0.14080936 -0.12789151 -0.009148215 0.111710794 0.09129512 0.50308305 0.40766084 -0.23999795 0.68752795 0.32641655 0.09637292 -0.22528413 0.18687998 -0.6774932 0.10678592 0.26767752 0.18690638 -0.4187511 -0.46550512 -0.37736973 -0.15653677 0.2372954 -0.22904904 0.10325133 0.21815594 0.43472272 0.10807226 -0.93620193 -0.93694097 -0.0483724 0.54657614 0.34161186 0.34949327 0.27216583 0.3546885 0.42512926 -0.5396106 0.38349465 -0.030969217 -0.7074498 0.8193334 -1.0637813 -0.048075296 0.8038701 0.254151
com.google.gson.fieldattributes 0.72110754 0.20837107 -0.54293936 -0.068427995 0.39442718 -0.30024615 -0.3114415 -0.42045087 -0.3461572 -0.12261864 -0.2111749 0.655737 0.23006983 -0.07271837 -0.29539958 0.06426541 0.0025193538 0.52441275 -0.30140287 -0.6352138 0.4319983 -0.3123043 0.16864707 -0.36503688 0.5138713 -0.33669063 0.0595319 -0.40971282 0.7175329 -0.07949808 0.14883307 -0.27875045 -0.6097396 0.52277035 -0.35987607 0.45656615 -0.5133643 0.5702783 0.6835522 0.007822039 -0.14205727 -1.0675508 0.5885817 -0.31312394 -1.1836674 0.47944155 -0.52536094 -0.4538063 0.3644753 -0.30723307
com.google.gson.jsonelement.tostring() 0.0013552391 -0.0056994325 -0.002189122 -0.0068588424 -0.0064158565 -0.0059106583 -0.0047308686 0.009536154 -0.0025171193 0.0027493937 0.006412383 0.0008286983 -0.00901286 -0.005287414 -0.008474972 0.008956063 0.0044877524 -0.0016769698 -0.008287187 -0.009336208 -0.008741685 0.0015760385 -9.768735e-05 -0.005278124 -0.0046305424 0.009139212 -0.0016063241 -0.004603275 -0.004674582 0.0007258184 0.0029999479 -0.0053523253 0.0015150984 -0.004513963 -0.009495287 0.00068767404 0.0002342659 -0.009484402 -0.00013777029 -0.00053214456 0.001300125 -6.188199e-05 -0.0002399822 0.00545517 0.009428523 0.0028658013 0.004165343 -0.0032729213 -0.006557438 -0.0021536278
com.google.gson.pair 0.4735611 0.07699159 -0.6344942 -0.58816636 -0.025500964 0.28629267 -0.4632086 -0.51905257 -0.42885554 0.15071127 0.403724 0.07857463 -0.25995368 -0.202674 0.041824244 -0.28673476 0.019786522 0.23833527 -0.0676626 -0.3074012 -0.032960974 -0.1525521 -0.32499978 0.6249411 0.5364932 0.19218677 0.16498469 -0.37105128 0.3335939 -0.5822399 0.32081148 -0.23282218 -0.77958935 0.15025209 -0.0097918585 0.360555 0.048529226 0.32087427 0.19889203 -0.4506026 0.18834867 -1.0914376 0.34446335 -0.07301338 -0.62802935 -0.51492494 -0.64886785 -0.7432161 0.3051327 0.0540444
com.google.gson.jsonobject.getasjsonobject() 0.15621945 0.058580622 -0.63731104 -0.29749697 0.31762192 0.7162559 -0.27863297 -0.20737888 -0.26359805 0.04504713 -0.07068763 0.5245114 -0.5916761 0.37381896 0.47165835 -0.3069419 -0.3757825 0.63678724 -0.32958335 -0.011903099 0.47405684 0.21357378 -0.3653796 -0.20576946 -0.46069854 0.15151931 0.50276417 -0.116548754 0.33840576 0.20077051 0.5991048 0.3650965 -0.96458733 -0.4857892 -0.22218882 0.4518498 0.45013955 0.20520894 0.25686735 0.7238019 -0.048731193 -0.79813373 0.73126906 -0.48032826 -0.39400506 1.1589819 -0.9093263 -0.14216518 0.96359503 -0.047335207
com.google.gson.metrics.bagofprimitives.getexpectedjson() -0.05991792 0.9831864 -0.7671422 -0.0059652915 -0.58673406 0.47186363 -0.29256433 -0.59590226 0.17863034 0.15520346 0.70844996 0.131634 -0.37615627 0.54903996 -0.069098406 -0.4207346 -0.046380334 -0.38234088 -1.2790936 -0.026830282 0.46191785 -0.30934146 -0.41749173 -0.96401674 -0.28427184 0.22959267 0.56048137 -0.44159198 0.26485956 0.46379462 0.72990197 -0.09554841 -0.12818758 -0.243916 -0.12554045 0.49067906 -0.38483864 0.51550573 0.5760955 0.67832273 0.07595222 -0.3890177 0.0070050014 0.12532264 -0.47996825 1.0759071 -0.2300298 0.38875023 1.0477598 -0.063636
com.google.gson.typeadapterfactory 0.043133084 0.78767276 -1.0045269 -0.28738144 -0.48455194 0.060101762 -0.68859166 -0.55611587 0.15263629 0.7590625 0.609196 -0.17936075 -0.0645469 0.54784554 0.11508068 0.42964283 0.23973747 0.03414553 -1.2106726 0.27979642 0.18801303 0.31818455 -0.23025936 -0.8148408 -0.40592384 0.04992599 0.05476785 0.04730619 0.3537164 -0.073150694 0.40790716 -0.21514288 -0.47846282 -0.27985528 -0.6524684 0.4407489 -0.6069509 0.6711877 0.15541671 0.42127228 0.43448418 -0.029730843 -0.074708134 -0.060296826 -0.27867058 0.88145477 -0.37309623 0.438584 0.52989805 0.38440073
com.google.gson.jsonprimitive.getasnumber() -0.09901552 0.3616789 -0.7322712 0.045387693 0.57927704 0.3659656 0.18612124 -0.7195381 -0.3470389 0.13372658 -0.3683783 0.032182503 -0.3074662 -0.11314505 0.28131238 -0.19310844 0.69427073 0.18142517 0.09777815 0.4866259 -0.113624096 -0.047735393 -0.37772194 0.25459892 0.07397895 0.04105179 -0.043957103 -0.4658054 0.27175137 -0.021982064 0.015658159 0.103357166 -0.72693014 -0.6089158 0.25744528 0.09081873 -0.32441184 0.055654373 0.5986056 0.5659164 0.26158273 -1.7488515 -0.18825571 -0.17745206 -0.67898995 0.29530403 0.07681312 -0.45410752 0.8252136 -0.2442332
com.google.gson.gsonbuilder.serializenulls() -0.19173148 0.91794974 -0.8535493 0.040952407 -0.18064779 0.06087947 -0.13026144 -0.87341577 0.25832605 0.9462051 0.68380624 -0.036540926 -0.42669156 0.8818844 -0.3075164 -0.5692371 0.28359962 0.019464673 -1.0979747 -0.058604516 0.17133474 -0.106904864 -0.33131877 -0.88449 -0.30240777 0.3255781 -0.06907418 -0.48162687 0.3746662 0.26725927 0.87238514 -0.115909755 -0.9345031 -0.7048184 -0.2874728 0.9068069 -0.22862937 0.55935526 0.18386786 0.6221241 0.18017916 0.2666164 -0.3091324 0.13557202 -0.36087978 0.64152294 -0.35579702 0.34223408 0.5474948 0.03931839
com.google.gson.gsonbuilder.setprettyprinting() -0.075579636 1.1259985 -0.647803 -0.07368234 0.15423824 -0.0028763036 -0.05182075 -0.5645743 0.19679977 1.049239 0.4853405 -0.06360973 -0.044417668 0.998677 -0.55442154 -0.17292964 0.42013556 0.07479016 -0.03792124 0.14553265 0.063048005 -0.29670146 -0.46243247 -0.7893445 -0.22202747 -0.15048218 -0.06519286 -0.41211268 0.093251556 0.007816975 0.55326414 -0.21083832 -0.5540573 -0.7426347 -0.30055687 0.86927325 -0.3178362 0.45066795 0.32353294 0.4662348 0.19073977 0.090206265 -0.4085156 0.21996552 -0.27350846 0.41558656 -0.40556842 0.25750086 0.70363224 0.13588765
com.google.gson.jsonprimitive.getasboolean() 0.116674736 0.5473007 -0.70377296 -0.005369703 0.29919866 0.27050266 -0.3801681 -0.5171191 -0.17131762 -0.021735279 -0.13054048 0.44911948 -0.54248524 0.5289999 0.10643961 0.07452134 -0.058803685 -0.35799003 -0.81681293 0.24663341 -0.09286916 0.24228849 -0.37218508 -0.17834641 -0.42693973 0.7296633 0.048147347 -0.54181904 0.44631186 0.23485197 -0.03493672 -0.26182193 -1.1170362 -0.88191247 -0.39938194 0.30803284 0.37937945 0.37646756 0.038091857 0.5535297 0.44740388 -0.7549083 0.06494089 -0.16405497 -0.40494958 0.6009172 -0.33363694 -0.2645993 0.5410001 -0.3234485
com.google.gson.jsonprimitive.getasstring() 0.036493093 0.3023433 -0.4797405 -0.0052565276 0.19616722 0.05141155 -0.21556567 -0.2566179 -0.1908562 0.01937025 -0.0083625 0.13939022 -0.30330652 0.2382866 0.15511328 0.09051063 0.092928454 -0.0034994876 -0.42498028 0.2544651 -0.012731647 0.21518902 -0.20109351 -0.039100103 -0.135503 0.31695178 -0.056421988 -0.21184042 0.2355812 0.03319514 -0.06778972 -0.14088444 -0.56112605 -0.3144149 -0.25383702 0.23642373 0.115610816 0.1333613 -0.057854038 0.15929173 0.30012292 -0.528568 0.03888583 -0.09302359 -0.2560375 0.28136027 -0.2086173 -0.11936163 0.34559032 -0.018678816
com.google.gson.jsonprimitive.isboolean() -0.16473015 0.57687515 -0.65416676 0.008181632 0.146397 0.067343995 -0.26341164 -0.4297078 -0.35869524 -0.24652109 -0.10951883 0.69306415 -0.49460563 0.45055836 0.27869922 0.09007531 -0.039191466 -0.023958443 -0.35072523 0.46971226 -0.21871679 0.32308254 -0.13507643 -0.1413997 -0.29994404 0.45362535 0.03571974 -0.6040532 0.4305809 -0.025258662 -0.3264901 0.03789141 -0.78382987 -0.96651 -0.27419212 -0.057610963 0.20137107 0.3285058 0.23041198 0.46325603 0.724475 -0.9758633 0.040613856 -0.19314384 -0.58553296 0.56323975 -0.17396781 -0.20406748 0.5789439 -0.3749929
com.google.gson.gsonbuilder.registertypeadapterfactory() 0.034185443 0.14391693 -0.46509823 -0.075879395 0.15179092 0.1353949 -0.27182725 -0.12795128 -0.007883388 0.17543729 0.09401263 0.19847195 -0.09408658 0.0706407 -0.08933191 -0.15502831 0.1189838 0.14422712 -0.12749626 0.023251858 0.17635146 -0.20775071 -0.19068645 -0.06273291 0.10838444 -0.010317634 0.14183423 -0.2030996 0.1396804 -0.15498585 0.09981805 -0.12144273 -0.3823614 0.21975674 -0.11700596 0.27327338 -0.09422426 0.19221167 0.38789475 -0.18536279 -0.14323868 -0.23399934 0.20310384 0.010532949 -0.41778862 0.029720861 -0.35832807 -0.105722606 0.34600586 -0.08247312
com.google.gson.gson.getdelegateadapter() -0.03950348 0.3597978 -0.755737 -0.14739795 0.21260062 0.29953462 -0.27071998 -0.14583759 0.17117721 0.29061607 0.16425677 0.18298724 -0.34694314 0.23676452 -0.15203847 -0.5696499 0.44883397 0.10366902 -0.23574525 0.055898372 0.44672567 -0.10344062 -0.31105128 -0.26564556 0.21257693 -0.039607026 0.43602684 -0.2623879 0.0674119 -0.29898798 -0.018273178 -0.04312708 -0.50909734 0.31862882 -0.020329189 0.20752154 -0.09083173 0.20155573 0.5357875 -0.14818533 -0.33131316 -0.31731632 0.20683886 0.087881066 -0.7036174 -0.051684763 -0.2979433 -0.108890146 0.38868636 -0.20454204
com.google.gson.typeadapter.read() 0.18360966 0.32366532 -1.1631393 -0.015623313 0.24405485 0.15834533 -0.4307853 -0.33186236 -0.35791153 -0.1173831 0.5616499 0.5611727 0.10557316 0.37483206 -0.1537999 0.3490691 0.10542551 0.5673169 -0.3204912 0.24232553 0.7600844 -0.254738 -0.85578686 0.35268295 -0.18297611 -0.15596795 0.67505676 -0.70848554 0.1349082 -0.24277452 -0.27040777 0.22642583 -0.55448806 0.326132 0.20447943 0.49515697 -0.5441315 -0.08619331 0.37785715 0.1641284 -0.52692455 -0.09026011 0.34945425 0.07102858 -0.791139 0.07608616 -0.33430266 -0.33231685 0.352161 0.12163886
com.google.gson.typeadapter.write() 0.47280073 0.44843304 -1.1253711 -0.012059669 0.33274236 0.38983482 -0.3271027 -0.039152604 -0.29271868 0.049461767 0.27338785 0.22646949 -0.23108177 0.50715154 0.2761216 -0.16258262 0.13092856 -0.10263143 -0.5942562 0.13635647 0.62782615 -0.19154355 -0.8712971 0.09701376 0.03087271 0.08607289 0.93342316 -0.930214 0.13342594 -0.4632971 -0.016049491 0.42542017 -0.538376 0.1991625 -0.22907612 0.5728828 -0.3540114 0.20379624 0.39194354 -0.09280762 -0.258849 0.076487936 0.39941165 0.0994712 -0.6054214 0.008932614 -0.5698105 0.010745345 0.46209496 -0.37188986
com.google.gson.common.moreasserts.assertcontains() 0.031378705 0.6430531 -0.6824869 -0.12142364 -0.33112678 0.10366799 -0.21700354 -0.26668313 0.2650057 0.38181967 0.36097634 0.11199872 -0.16780765 0.5114211 -0.052664552 -0.21532944 0.00602834 0.0396892 -0.5286334 0.040696133 0.3690602 0.0058454387 -0.3287595 -0.582324 -0.043785505 -0.016041609 0.41388804 -0.32875016 0.082296684 0.106116235 0.19466065 -0.12976582 -0.2797536 -0.1305749 -0.22316396 0.3739074 -0.39109835 0.3591665 0.2372079 0.15981309 0.026510749 -0.11514117 0.122928195 0.07798771 -0.3569095 0.48384485 -0.20208748 0.19988191 0.65031224 -0.012886453
com.google.gson.fieldattributes.getname() 0.21911936 0.29670158 -0.51466495 0.19990188 0.20612578 -0.45404297 -0.16109653 -0.20777345 -0.054527633 0.46003875 0.43946147 -0.002562806 -0.0018868736 0.14887665 -0.23293574 -0.37038708 0.15337859 0.5524694 -0.03851545 -0.36234227 0.31295073 -0.09001105 -0.4412453 -0.14846061 0.12481041 0.18441522 0.21925603 -0.3659495 0.033310264 0.13856407 0.19350083 -0.091680475 -0.45106158 0.18879952 -0.34636214 0.40268192 -0.14542784 -0.065702125 0.45656562 -0.1663132 -0.033242874 -0.67484874 0.43230152 -0.03170083 -0.55883163 -0.0052794563 -0.10811225 -0.1650548 0.40062603 0.07451858
com.google.gson.jsonobject.getasjsonprimitive() 0.36337036 -0.071195595 -0.34312472 0.055176165 0.008556828 0.26586816 -0.6670377 -0.7109894 -0.65900254 -0.24781922 0.5649346 0.11211596 -0.66911465 0.3104419 0.30196035 -0.18858361 0.022327574 0.4876441 -0.3297096 -0.45261604 0.6525448 -0.35842848 -0.31639963 -0.42440414 -0.07615558 0.10168837 0.14923742 -0.65595394 0.19989151 0.13513511 0.16889238 0.59071916 -0.079317875 0.032153934 -0.10040413 -0.044623245 0.38593134 -0.024894383 0.52378887 0.022923466 0.6793299 -0.71930295 0.28273407 0.3152586 -0.5203362 0.7935519 -0.7882513 -0.2057256 0.17787881 0.46734098
com.google.gson.objecttypepair 0.070876785 0.0443897 -0.97545964 -0.08003025 0.22606619 -0.0015634898 -0.37664187 -0.38691697 -0.41007483 -0.15252793 0.09378546 0.2951218 -0.33694887 -0.17181428 0.28295904 -0.27595356 0.3687678 0.09898525 -0.23866366 0.17375925 -0.023443365 -0.19342719 -0.55218905 0.18185544 0.14949153 0.08677633 0.3147121 -0.3817287 0.48064303 -0.13639508 -0.02481482 0.084649466 -0.80504674 -0.09585773 -0.03935276 0.057067215 0.045399223 0.27183834 0.46456078 0.05098841 0.14624573 -0.7459289 0.300126 -0.26913017 -0.8663713 -0.06617802 -0.180691 -0.6264741 0.025494587 -0.019196948
com.google.gson.jsonstreamparser -0.096890524 0.40199554 -0.46827564 0.028164074 -0.32116306 0.20167887 -0.30468717 -0.23136312 0.056847937 0.14599305 0.21042477 0.25195435 -0.2759756 0.6748251 0.0001865342 -0.08724748 -0.12588014 0.008874513 -0.87232196 0.33829823 0.33184162 -0.019012308 -0.23870192 -0.71758574 -0.3291728 0.055299133 0.08984541 -0.2655016 0.22511366 0.2701329 0.10112398 -0.07702155 -0.45247188 -0.26895204 -0.28644213 0.3905895 -0.38324672 0.38329232 0.12879004 0.2891566 0.2658794 -0.15087782 -0.13944946 0.07164373 -0.28044412 0.6836239 -0.24894978 0.20182154 0.5338754 -0.04659753
com.google.gson.typeadapters.runtimetypeadapterfactory.registersubtype() 0.22025812 0.72912014 -1.0495545 -0.40667203 -0.45495695 0.103476115 -0.8958892 -0.37486446 0.001762 0.63157994 0.350728 -0.3651446 -0.16427657 0.4907191 0.16726772 0.72799814 0.15208296 0.014286714 -1.1934087 0.44379413 0.26594624 0.5603359 0.02401954 -0.6465848 -0.18985678 0.051292896 0.05843037 0.24070385 0.23693025 -0.04164807 0.34392598 -0.42892262 -0.6999385 -0.06368571 -0.95710826 0.45401996 -0.88542706 0.88817644 0.025321394 0.0034007754 0.30009842 -0.013215032 0.014283257 -0.33675638 -0.45831028 0.5803217 -0.56400937 0.5067025 0.5606643 0.58640677
com.google.gson.gsonbuilder.registertypehierarchyadapter() -0.0023964308 0.4800186 -0.576023 -0.028723449 0.0668377 -0.06258476 -0.19754317 -0.31143647 0.098819375 0.39535138 0.2155179 0.056450725 -0.12449778 0.36962897 -0.08590667 -0.038179316 0.19560552 0.1311988 -0.20240968 0.08349972 0.1429997 -0.055498347 -0.22933136 -0.30373478 -0.12197179 0.08138919 0.06829826 -0.17528026 0.08173008 0.06865317 0.23882566 -0.0516926 -0.39679107 -0.27539903 -0.21637823 0.3869174 -0.026122397 0.28363684 0.14093587 0.19863695 0.13042215 -0.1135258 0.0636404 0.094883636 -0.26781273 0.24222107 -0.25812197 0.14522785 0.26804063 -0.09590688
com.google.gson.gsonbuilder.setdateformat() -0.107459635 0.70536804 -0.7401721 0.1691717 0.25613433 -0.3175766 0.11804378 -0.87930477 -0.0034117422 1.0098135 0.26628426 0.037748326 -0.49257898 0.99562424 -0.76274115 -0.52559525 0.51525086 0.20355378 -0.57380503 -0.2430809 0.45282102 -0.05520618 -0.41517383 -0.7212707 -0.041603323 0.4212821 -0.48056546 -0.5888647 0.4145238 0.4440419 0.7375272 -0.23289552 -0.8556091 -0.5613903 -0.42982233 0.84357864 0.16234674 0.33683097 0.11876584 0.0057405336 0.06654044 0.003083724 -0.48847982 0.42797044 -0.66073996 0.25241938 -0.48456967 -0.18260163 0.6272644 -0.113920994
com.google.gson.fieldattributes.hasmodifier() 0.6534489 0.6838195 -1.3883331 -0.26827288 0.035353456 0.27383617 -0.78392196 -0.2939663 -0.026035462 0.21413429 0.15647423 0.28738645 -0.5020589 0.69797647 0.44959837 -0.09009662 0.0205868 -0.3839962 -1.1196624 0.5309428 0.7243579 0.22805065 -0.5075782 -0.9527368 -0.1409636 0.36434186 0.55923736 -0.5574678 0.033825107 0.27696496 -0.21831608 0.04088274 -0.47881037 0.1250478 -0.8011759 0.13394049 -0.34653333 0.43231943 0.14496359 -0.1654242 0.08504342 0.0073687118 0.10454509 -0.13415307 -0.7419754 0.5812059 -0.3148468 -0.008889548 0.51219624 -0.03607429
com.google.gson.jsonprimitive.getasint() 0.29337808 0.57844007 -0.1754772 -0.023561167 0.20118463 0.23398948 -0.3905147 0.020499486 -0.225307 0.478912 0.12336929 0.03202588 -0.22351657 0.39370853 0.122673355 -0.3025412 -0.097418524 -0.15082546 -0.072234444 0.42477468 0.2485659 0.28647247 -0.42921603 -0.04651623 -0.44485933 0.56346095 0.046724714 -0.27794924 0.41457456 0.27106482 0.2669363 -0.10277462 -0.6304743 -0.63292545 -0.21063887 0.60270375 0.38412666 0.42321435 -0.16839974 0.68751466 0.47327554 -1.0098475 0.32114944 -0.2555684 -0.18583229 0.431927 -0.36282703 -0.18506831 0.9548078 0.045504633
com.google.gson.typeadapter.fromjson() 0.02068092 0.34027335 -0.45274007 -0.120300256 0.020920597 0.2866163 -0.48218316 -0.12964043 0.05815661 0.24898794 0.2369192 0.16565457 -0.16008429 0.18051226 -0.08184889 -0.1579154 0.09794737 0.051861074 -0.28334522 0.21108882 0.41335896 -0.099420555 -0.17584236 -0.17735434 -0.026209543 -0.05687518 0.23173499 -0.032501828 0.066138744 -0.19011866 0.13223036 -0.085790865 -0.4339328 0.23136432 -0.2632631 0.13528454 -0.24897304 0.1842853 0.25590774 -0.052057803 0.06457761 -0.20314369 0.22272646 0.020200895 -0.5562172 0.031676147 -0.18453537 -0.07136506 0.36346823 0.15996303
com.google.gson.jsonobject.size() -0.61240834 0.35271063 -0.25377315 -0.36864695 0.50297433 0.7103474 -0.5361676 -0.38830048 -0.13910432 0.3697541 0.5083663 0.4887261 -0.29962832 0.28334147 -0.15147467 -0.7992406 -0.15899944 0.6362472 -0.37916726 0.05209536 0.43512923 -0.13820624 -0.22158465 -1.157354 -0.37921754 -0.25876918 0.27078378 0.04436813 -0.3572348 -0.10051089 0.41842657 0.33240885 -1.2044393 0.021920761 -0.1422493 0.6659488 0.24712382 0.38410383 0.85586584 0.38021418 -0.19206122 -0.41038182 0.45119786 0.38840234 -0.77850324 0.9464716 -0.96784943 -0.104331024 1.1119064 0.23918986
com.google.gson.objectconstructor -0.06737439 -0.21953094 -1.1664987 -0.20685507 0.6608491 0.47267318 -0.3867078 -0.44878763 0.076779805 0.19950801 0.15532002 0.33992484 -0.5729193 0.04844778 -0.4687227 -0.99604964 0.72945917 -0.049230494 -0.9634771 -0.022110147 0.5874446 -0.26339796 -0.83756477 -0.27554137 0.36552283 0.13412364 0.64798635 -0.67879355 0.56122035 -0.24041927 0.13229653 -0.0075682774 -0.7408727 0.6093607 -0.48838854 0.3710703 -0.050744683 0.50731313 1.1834675 -0.036304716 -0.4789703 -0.3300051 -0.43118715 -0.036008414 -0.71181375 0.017265428 -0.6138298 -0.47326744 0.5039543 -0.62911093
com.google.gson.jsonobject.equals() 0.29124656 0.5281806 -0.36101988 -0.71386796 0.51740104 -0.46864456 -0.59123254 -0.4472127 0.13967516 -0.126879 0.12455619 0.729352 -0.19595173 0.23562965 -0.20401405 -0.33760363 -0.52024215 0.19898275 -0.7706621 -0.0225923 0.18797342 0.10759155 -0.2530969 -0.44566315 -0.65716946 0.20208463 0.05878467 -0.24295412 0.31109518 0.10730874 0.2758873 -0.5255424 -1.3551755 -0.3438252 -0.40343407 0.5065066 0.46370435 0.43751913 0.43865567 0.60729295 0.45324504 -0.7232078 0.14148557 0.29554006 -0.6153685 1.0806526 -0.5277942 -0.24758503 1.037882 -0.22410236
com.google.gson.defaultdatetypeadapter.serialize() 0.22343376 0.6430234 -1.2230908 -0.20296519 0.32855633 0.022886079 -0.11791199 -0.69231075 0.4270525 0.10212678 -0.29196215 0.27117282 -0.36645797 0.27006185 0.3841581 0.18050408 0.16338898 -0.3393481 -0.6321905 0.4049358 -0.0009506604 -0.28666788 -0.5278331 -0.06300324 -0.2014547 0.05579231 0.20332476 -0.41819635 0.110377386 0.12823057 0.057250608 -0.013624488 -0.6593031 0.023949346 -0.18343781 0.26996285 -0.09619417 0.26109096 0.11642517 0.47740185 0.40050137 -0.11514124 -0.17473684 0.00066203286 -0.17937149 0.62821746 -0.24982926 0.11984021 -0.006945208 -0.2215256
com.google.gson.defaultdatetypeadapter.deserialize() 0.36813498 0.42201045 -0.7181718 -0.09235952 0.07894703 0.25146374 -0.56139237 -0.50333244 -0.012291008 0.3717334 -0.016661394 0.18811333 -0.5637921 0.41555136 0.23423378 0.08380967 -0.010667939 -0.098047525 -0.72320676 0.6302667 -0.05704615 -0.31208548 -0.5220063 -0.25420818 -0.30226845 0.24767713 0.13615017 -0.33791128 0.26786 -0.0067289295 -0.0015404491 0.15958999 -0.8045577 -0.26058087 -0.10463139 0.36916402 -0.33133617 0.51492614 0.09803324 0.70151126 0.45370287 -0.23724352 -0.3717721 -0.19671988 -0.15493865 0.49790472 -0.21159631 0.2445078 0.31684068 -0.39430693
com.google.gson.jsonarray.equals() 0.1701194 0.6214074 -0.50547546 -0.6718237 0.46280044 -0.4953713 -0.31788704 -0.23735791 0.061776433 -0.15201442 0.06371526 0.6541112 0.0016361265 0.46737495 -0.16829115 0.10152211 -0.6828574 -0.08914167 -0.56087965 0.369 0.27204594 0.2798836 -0.32545438 -0.30873019 -0.36658 0.4773587 0.033246126 -0.18789063 -0.08430362 0.032869972 0.2632649 -0.58650976 -1.2643651 -0.56842554 -0.59507495 0.53334624 0.32970735 0.299975 -0.17562836 0.2197985 0.3923493 -0.873848 0.080949455 0.044107188 -0.50409454 0.9323518 -0.69489723 -0.1600761 1.2435484 -0.13482496
com.google.gson.jsonobject.remove() 0.25778764 0.33033654 -0.5022834 -0.14618422 0.07931415 -0.08402112 -0.41662675 -0.3152108 0.007676937 0.037389547 0.39193684 0.2312139 -0.3511328 0.26012903 0.26432243 -0.19760776 -0.19717295 0.24971052 -0.5392592 0.0007252101 0.3701881 0.034031186 -0.4225801 -0.40286776 -0.4095249 -0.026847081 0.2592308 -0.25237104 -0.00076000084 0.048932318 0.1264939 0.354371 -0.88974386 -0.36321846 -0.11759853 0.36261314 0.12589869 0.3489796 0.37604073 0.605396 0.19649863 -0.58704823 0.30830756 0.08566719 -0.56236506 0.7432477 -0.5462875 0.027552506 0.79267985 -0.036047656
com.google.gson.stream.jsonwriter.flush() 0.42036238 0.36693653 -0.8344825 -0.3115395 0.22770801 0.089827545 -0.7485255 0.18991481 -0.31811976 0.4082537 -0.022171145 0.1922295 -0.13671817 0.46497166 -0.3057683 0.47150862 0.048911456 -0.3949251 -0.223923 0.5294795 0.20114243 -0.22640143 -0.5210443 -0.31258026 -0.2909761 0.20749587 0.22874689 -0.49742147 -0.14612862 0.31887934 0.13821848 -0.06420878 -0.41432622 0.5116594 -0.52234876 0.57101756 -0.2688708 0.21358214 0.36834908 0.23895335 0.126744 0.02264891 0.29407975 -0.08605739 -0.017308455 0.49311146 -0.25483355 0.04881105 0.7296435 -0.16052797
com.google.gson.jsonarray.iterator() -0.11094314 0.5262572 -0.06880462 -0.23559631 0.31162027 0.0072318544 -0.26658005 -0.110446416 -0.24946222 0.33487698 0.0369764 0.4304825 0.12855634 0.33595967 -0.24537602 -0.01625451 -0.03707485 0.38681808 0.13225372 0.04343736 0.18817908 -0.12573425 -0.18374087 -0.27071273 -0.09897672 -0.22185047 -0.22887044 -0.2677344 -0.071072966 -0.21693762 -0.023173535 0.21732685 -0.5071781 -0.25268203 -0.14944753 0.4652849 -0.029803736 0.1765033 0.54206026 0.19103266 0.16275069 -0.5547336 0.32766846 0.13909724 -0.37350422 0.28755113 -0.6755796 -0.18597227 1.1666442 -0.21816353
