643 50
com.fasterxml.jackson.databind.objectmapper 0.100099765 -0.22266375 0.085294 -0.22317465 -0.7027789 -1.205059 -0.557945 0.11606023 -0.021547677 1.1217489 -0.16035575 1.2023076 -0.49577332 -0.40066913 -0.26562706 0.60513 0.5496807 0.4980858 1.104168 -0.39201537 -0.09238358 -1.1329451 0.112391606 -0.9670684 -0.7237484 -0.4385864 -0.6949451 -0.056261454 0.33182997 0.48716417 0.15027386 0.6526249 -0.33199975 -0.26220632 -0.8030322 0.4355581 -0.6162101 0.26632333 -0.21250664 1.1897595 0.46669218 -0.23339005 -0.5333953 -0.4914361 0.71431714 0.09823248 -0.18173003 0.15303896 0.07694598 0.3923974
com.fasterxml.jackson.databind.objectmapper.readvalue() 0.24258696 -0.32898325 -0.1529644 0.7200018 -0.53573203 -0.5638147 -0.5674903 -0.26856333 0.24005179 1.1091938 -0.20959473 1.0141704 -0.21671548 -0.05171078 -0.2210257 0.2968028 -0.2727276 1.1093732 0.5261617 0.25336334 0.027626824 -1.3481853 -0.015777234 -0.240463 -0.59139353 -0.4874097 -0.5006482 0.009033662 -0.05384286 0.2181282 -0.4805998 0.46002987 -0.38424593 0.26316187 -0.7582434 0.31425768 -1.1172811 -0.022654336 -0.45507377 1.1659758 0.47969344 0.20222501 -0.61560893 -0.9152258 0.42045793 0.5166497 -0.79688895 0.071092986 0.3604529 1.2044764
com.fasterxml.jackson.core.jsonparser.gettext() -0.47507772 -0.2576722 -0.21213071 0.49841756 -0.40700784 -1.2788101 -0.41168132 -0.22686309 0.10058947 0.5466385 -0.71939456 0.44543493 -0.49702066 -0.8199871 0.8137228 -0.2673887 0.27924195 0.9458592 -0.22421086 0.17233029 0.43850112 -0.8766432 -0.6304462 0.26394337 -2.0516956 0.3887034 -0.69287807 -0.5222952 0.35717902 0.2309491 0.37643215 -0.8984767 -0.09130796 0.7834121 -0.14096716 0.6967094 -0.37507924 0.7753506 0.021646326 1.171086 -0.024426872 -0.61142695 0.08204489 0.5056618 0.2544469 -0.05554213 -0.3289832 0.752368 -0.48998868 -0.1859971
com.fasterxml.jackson.databind.objectmapper.writevalueasstring() 0.4041089 -0.45498005 -0.32945585 0.3085572 -0.9861991 -1.2380526 -0.4651547 -0.42900887 0.32675955 1.488949 -0.36987102 0.7248447 0.05479079 -0.3977668 0.061097044 0.4754593 -0.17797168 0.87248534 0.5490098 0.15991727 0.017924143 -1.2123867 0.24221721 -0.4872156 -0.5078249 -0.4814953 -0.70688945 0.008624844 -0.006924971 0.21888478 0.12794603 0.14743538 -0.69022876 0.012152309 -0.67130363 0.56031567 -0.6915656 0.24356897 -0.14597996 0.6749314 0.60552704 -0.107974604 -0.7070922 -0.5853693 0.5762686 0.7818584 0.050235096 0.09422806 0.04878968 0.57943326
com.fasterxml.jackson.databind.jsonnode 0.87892586 -0.35182372 0.25417763 0.3620421 -1.3989542 -1.0714253 -0.04992139 -0.36691007 -0.63780266 0.6172074 -0.31207114 1.7764854 -1.029237 0.0091496855 0.43481734 0.30631423 0.63198787 -0.25190488 -0.4628955 -0.6505528 0.16899188 -0.5236401 -0.32557428 -0.5461543 -0.70459 -0.0862061 -0.25886238 0.66682523 -0.077227205 -0.22984627 0.56525284 0.9724899 -0.033264987 0.1463699 0.086045094 -0.40535048 -1.1388047 -0.16754793 -0.32956922 1.4470818 0.62842435 -0.39137217 -0.6687995 -1.0477298 0.17250635 0.54238224 -0.2525434 -0.09874368 -0.08466727 -1.4122798
com.fasterxml.jackson.core.jsongenerator.writestringfield() -0.5460107 0.33090413 0.38595125 0.1720127 -0.7332225 -0.6897039 -1.4303838 0.035486694 -0.8079191 -0.007289245 -1.5493565 0.90829915 -0.13683377 -0.637308 0.4477976 0.06322762 0.83288044 0.33168256 0.77008474 -0.034526292 0.72598314 -0.63187945 -0.7807129 -0.1649264 -1.1209326 0.55298704 -0.31867802 0.8889289 0.6854151 0.17438461 -0.29121014 0.49437675 0.66006136 0.60874844 0.34938434 -0.46615398 -1.0983869 0.014482651 -0.1720336 1.1262728 0.19364895 -0.84793484 -0.43111482 -0.9398026 0.60943276 0.4974536 0.41457343 -0.0053740907 -0.91862357 0.12314208
com.fasterxml.jackson.core.jsonparser.getcurrenttoken() 0.363517 0.23241852 -0.38972482 0.57928765 -0.92085934 -0.86127216 -0.44920474 -0.49397117 -0.23420009 0.91913164 -0.28553706 0.4064181 -0.02281446 -0.4491807 0.5061174 -0.45293704 0.6577571 0.008282528 -0.09755206 -0.03978353 0.2318126 -0.6023241 -0.12737095 0.0009723936 -1.4780289 0.5387494 0.009569921 -0.82653326 0.3832508 -0.6717499 0.7807628 -1.1873916 -0.16809794 0.5974461 -0.27408248 0.36854175 -0.90253913 -0.054125376 -0.009139874 1.4509797 -0.24634804 -0.37124372 -0.1384014 0.15979145 -0.10806708 0.76699877 -0.2968549 0.66602266 -0.95480597 -0.04800241
com.fasterxml.jackson.core.jsonparser.getcurrentname() 0.37244046 0.690349 -0.15688382 0.5778215 -1.1032745 -0.791213 -0.9576048 -0.8259802 0.03847489 0.98932195 -0.21105711 0.8108457 0.2032932 -0.54178417 0.74230516 -0.016536694 0.30616683 0.45838973 0.37738037 0.6931168 0.3372399 -0.48196578 -0.22722523 -0.32482728 -1.9242123 0.79580045 -0.5378499 -0.42357746 0.8086867 -0.62324655 0.608911 -1.3332735 0.5604864 0.14435126 0.4724377 -0.12610029 -0.86939114 0.15997705 -0.38234508 1.1655667 -0.37701905 -0.5177037 -0.04246313 -0.004934174 0.23376025 0.16103716 -0.24286179 0.5204889 -0.6414562 -0.41042212
com.fasterxml.jackson.databind.javatype 0.45894706 0.051186986 -1.21028 0.063331954 -0.23085308 -0.82412845 -0.21836893 0.30300185 -0.0820855 0.70300114 -0.16747631 -0.7705975 -0.7996517 0.35824126 0.07432574 0.08925417 0.90917516 -0.25914 0.1753356 -0.25956148 0.61001086 0.10625401 0.008612182 -0.7870214 -0.9694695 0.55168283 0.21517004 -0.15678723 0.61841685 -1.4846644 -0.30916378 0.4649665 0.029587884 0.47292635 -0.17841795 0.14986265 -0.377499 -0.8063272 -0.5681622 0.95213795 -0.2958102 -0.48453864 0.03093896 -0.495511 -0.63266593 0.5248738 -0.39966944 1.7149268 -0.9625912 0.8503566
com.fasterxml.jackson.core.jsongenerator.writestring() -0.8997706 0.03490251 -0.4691906 0.0829754 0.0003473935 -1.1565022 -1.093472 -0.07824217 -0.46882996 0.72188526 -1.1250676 -0.45213497 -0.26980084 -0.72627825 0.5137741 0.117654935 0.56635135 0.31465286 0.38339692 0.2028957 0.39192247 -1.3539581 -0.6114295 -0.061955605 -0.6100501 0.27447397 0.047622472 0.05605077 0.69435835 0.0646472 0.1361898 0.1856435 0.02888142 0.2324903 0.008523186 0.43222955 -1.1180149 0.35597235 0.40826997 0.33343565 0.4484187 -0.07441179 -0.30725402 -0.7637052 0.63449687 0.19864957 0.7375357 0.76917416 -0.6478762 0.5706563
com.fasterxml.jackson.databind.jsonnode.get() 0.072292246 -0.13214734 0.61269397 1.0977952 -1.0186759 -1.584787 -0.80992764 -0.49565685 -0.78463775 1.0050634 -0.7372361 0.9514349 -0.4397748 -0.57669294 0.03277101 -0.747779 0.2213884 0.0982931 -0.11721673 -0.14794666 -0.120482564 -0.971819 -0.24710295 -0.43076867 -0.2846235 -0.05063494 -0.36977762 0.31581098 0.3558775 0.095736526 -0.14374785 1.2010581 -0.45182464 0.46241435 0.15422565 -0.14049461 -0.8889359 0.7102047 -1.156061 1.4490296 0.66690004 -0.0028700086 -0.36974692 -0.7467505 -0.88676846 0.38858208 -0.6444926 -0.37682134 -0.6276105 -1.0752585
com.fasterxml.jackson.databind.javatype.getrawclass() 0.53988993 0.4111469 -1.0408297 0.40400425 -0.23931801 -0.18550289 -0.6285171 0.11915475 0.459414 1.6992404 -0.75929666 -0.7492688 -0.50733733 -0.25632298 -0.16732852 -0.34479806 0.6842477 0.1387014 0.4852423 -0.4473905 0.58426106 -0.39275706 -0.34088317 -0.64019454 -0.37586176 0.34947556 0.63790786 -0.016981581 1.0941958 -0.7537074 0.14384256 -0.04541399 -0.16697189 0.8484666 -0.04409912 -0.008538984 -0.3467057 -0.2951226 -0.38524687 0.7665729 0.24307902 -1.0634 0.033587676 -0.7413804 0.14157377 -0.18235308 -0.9588172 0.8045953 -0.62411565 0.15054284
com.fasterxml.jackson.databind.node.objectnode 0.64679605 -0.038630605 0.58294225 0.67402476 -1.2965466 -0.9915829 -0.94677716 0.45401686 -0.22705084 0.16016755 -0.07685507 1.0611688 -1.1486398 -0.113308795 0.089417614 0.5944685 0.3170863 0.12999658 -0.1449849 -0.012915672 0.25672117 -0.87160355 0.00026829884 -0.73345774 -1.1575284 0.13258815 -0.20757404 0.37892082 -0.5452639 0.20302877 -0.0077285306 0.4289466 -0.7359713 0.6440176 -0.026538635 0.1722078 -1.480296 -0.390066 -0.15465833 1.617928 0.2159844 -0.53408486 -0.35804313 -0.31508225 -0.51635283 -0.10513161 0.13831812 0.48010954 -0.580718 -0.9451039
com.fasterxml.jackson.databind.node.objectnode.put() 0.33065635 0.039127383 0.20026976 0.8252256 -1.3118603 -0.7857997 -1.058611 0.84363914 -0.51875657 -0.2496259 -0.22342741 1.1524206 -1.1286885 -0.3017561 0.28597635 0.35030925 0.13326325 0.42329785 0.02290773 0.029239137 0.5135724 -1.0241543 0.5599677 -1.0267636 -0.85687464 0.41141298 -0.1995017 0.47368652 -0.22184592 0.5931951 0.18421179 0.6185018 -0.7292588 0.6364787 0.030480588 0.4733729 -1.6486044 -0.41895655 -0.8221607 1.5775844 0.42194545 -0.3943412 -0.60342366 0.051624935 -0.43811405 0.11793397 0.07910706 0.45171204 -0.5953598 -0.84184855
com.fasterxml.jackson.core.jsongenerator.writenumber() -0.37359583 -0.47204491 -1.0008206 -0.2620014 -0.05206422 -0.7722057 -1.252673 -0.41334906 -0.8837052 0.54214215 -1.2418733 -0.35642445 0.43007717 -0.5689036 0.38579544 -0.6308624 1.3269222 0.26145947 0.7011843 0.5218351 0.4277589 -1.2201557 -0.71313405 -0.26891637 -0.90607595 0.35734755 0.5902948 0.6663266 0.5953537 -0.0039183805 0.12574087 0.15649667 0.7231975 0.39162153 0.44938603 0.80229825 -0.5086431 0.5222977 0.076480545 0.58589846 0.27550733 -0.511202 0.1461913 -0.54188424 0.36618593 0.5970444 0.36194646 0.45328134 -1.1081064 0.010868215
com.fasterxml.jackson.core.jsonparser.getvalueasstring() -0.35126135 -0.07392991 -0.28809223 0.8046111 -0.92700946 -0.6244679 -0.5357849 -0.21944971 -0.6777974 0.6781031 -0.52297366 0.0864808 0.30188105 -0.31501323 0.19935772 -0.28815615 0.1965069 0.698398 0.06861236 0.0041189785 -0.06257505 -1.2620878 -0.38736042 -0.43151054 -1.0691508 0.7327407 -0.6981205 -0.32142112 0.7990152 -0.13246961 0.65581304 -0.4922298 -0.1027046 0.58063865 0.26265666 0.41782695 -0.7650415 0.21736509 0.09633513 0.39117995 -0.07982894 -0.09104172 0.014622553 -0.21487798 0.5183421 0.15676469 -0.12191514 0.42186815 -0.5511317 -0.08734632
com.fasterxml.jackson.core.jsongenerator.writenumberfield() -0.6417826 -0.23865889 0.0708881 -0.049621888 -0.87067646 -0.6440915 -1.7640716 0.28453496 -0.741594 -0.07056796 -1.2203486 0.33845407 0.10954061 -0.6992875 0.37031445 0.28667262 0.83360565 0.16648892 1.0523337 0.3086357 0.553454 -0.7620022 -0.8085266 0.084000304 -1.2412033 0.21088316 0.10700441 1.0699095 0.554677 0.1048681 -0.2426563 0.36642802 0.70217764 0.6818053 0.4542255 -0.115572296 -0.77045953 -0.17828754 -0.16099712 0.6753291 0.39252856 -0.95096296 -0.4302586 -0.88421273 0.7377826 0.36646053 0.46607372 0.26761162 -0.8740713 0.3622025
com.fasterxml.jackson.databind.objectmapper.createobjectnode() 1.0294192 -1.2338086 0.5089929 0.60445446 -0.9645607 -0.57028913 -0.62481296 -0.37898943 -0.15671648 0.12837215 -0.38101718 1.679506 -0.7912615 -0.33829165 0.75136894 0.9872799 0.70493674 -0.0065374924 -0.11481646 0.4829 1.3250484 -1.4094001 0.43653885 -0.6838101 -0.97424823 -0.120387115 0.028294018 0.4149389 -0.24352501 0.42698342 -0.0087448945 0.73226595 0.067487665 0.48576155 -0.36242148 -0.30942354 -1.3391484 -0.3371416 -0.92558575 2.03092 -0.23433079 -0.13350439 -0.55059713 -1.2931052 -0.42138174 0.484719 -0.2593675 0.89885604 0.020629164 -1.0018404
com.fasterxml.jackson.core.jsongenerator.writenull() -0.082238376 0.016873764 -0.65084153 0.5798236 -0.2640571 -1.160756 -0.8592871 -0.052600086 -0.78413975 0.9159715 -0.8638955 -0.2222735 0.16038272 -0.67007273 0.4453977 -0.5731184 1.5190674 -0.044483773 0.25329253 0.5553352 -0.16164547 -0.6657274 -0.3596742 -0.24527924 -0.50493985 -0.2022392 0.49075043 0.090816505 0.5966761 -0.10307672 -0.15847988 0.23681012 -0.09346705 0.14925313 0.43915763 0.81170535 -0.92532516 0.3327791 0.030204779 -0.0043076947 0.45123234 -0.6341253 -0.20282799 -0.4786797 0.27060738 0.2695906 0.6915744 0.76402485 -0.7627625 0.28096268
com.fasterxml.jackson.core.jsongenerator -0.08985214 0.1833253 0.23544769 0.0063009295 -0.9981615 -0.85650605 -1.236266 0.123076014 -0.60526186 0.11657288 -0.22157183 0.7576437 -0.53406656 -1.0539988 0.41575167 0.527452 0.50753266 0.13535067 0.81371194 0.08309869 0.1802386 -0.45676482 0.3071334 -0.4297155 -0.83015776 0.4361353 0.15888359 -0.100747705 -0.37528402 -0.36812177 -0.07629739 0.099164136 -0.06430857 0.8283293 -0.1671943 0.25410882 -1.3525342 0.31804317 -0.20882128 0.36628756 0.9853975 -1.2883999 -1.2258738 -0.85511047 1.0487597 0.15782814 0.48779383 0.33765942 -0.6745491 0.2491239
com.fasterxml.jackson.databind.type.typefactory.constructtype() 0.3505461 -0.31666225 -0.9477934 -0.053841114 -0.016304841 0.3381411 -0.076231614 0.28277063 -0.28571054 0.14092012 -0.3200672 0.15892132 0.034410246 0.048546426 -0.11668496 -0.08703253 0.3540142 -0.39888018 0.36064956 -0.5796199 0.31240016 -0.2306513 0.014708924 -0.60113907 -0.69567776 0.3006945 0.7844328 0.15780587 0.6549366 -0.41369355 -0.096547455 0.12801227 -0.0744046 1.3507227 0.23412603 0.47600266 -0.3207165 -0.27801403 0.01913204 0.38695133 0.15147719 -0.3312278 -0.31870818 -0.77525043 -0.5135306 0.08388175 -0.44381398 1.1814047 -0.5190255 0.26305956
com.fasterxml.jackson.databind.objectmapper.readtree() 0.5446757 0.17698522 0.6465329 0.5426363 -1.323106 -0.99233246 -0.68594456 -0.2998706 -0.42943072 0.8828466 -0.28405583 1.7846189 -0.009150655 -0.43433097 0.0643803 0.17699243 0.3072502 0.37412977 0.3098946 0.29683444 0.25908697 -0.6238078 -0.13313946 -0.44458678 -0.855301 -0.27852324 -0.4602524 0.15801899 -0.088849515 0.08625579 -0.1450546 1.2272449 -0.49101827 0.38924795 -0.43492073 -0.3042044 -1.3023512 -0.08214119 -0.23406605 1.2261086 0.16636147 0.10733235 -0.36160648 -0.3584152 -0.010022376 0.13918543 -0.052805033 -0.13082264 -0.04078711 -0.51822144
com.fasterxml.jackson.databind.objectmapper.writevalue() 0.20171088 0.2725031 0.3362297 0.18385613 -0.87486005 -1.12065 -0.922438 0.12401283 0.1798951 0.76894593 -0.20149364 1.3409318 -0.26199624 -0.531337 0.10595958 0.14845346 -0.17360058 0.5362174 0.5516856 0.5788864 0.54189587 -0.72023934 0.76164246 0.026966365 -0.83696693 0.2695678 -0.046755146 0.46159956 -0.09003339 0.26830354 -0.22452033 -0.15611231 -0.1090216 0.26068708 -0.3741071 0.4375403 -0.91953117 0.75339735 -0.7080848 0.6249941 0.49495423 -0.10386487 -1.1491721 -1.3310173 1.2481707 -0.19309078 0.18865426 0.30701026 0.06551329 0.44942874
com.fasterxml.jackson.databind.deser.settablebeanproperty 1.1916829 0.41830364 0.05251281 -0.25546542 -0.78006595 0.061850943 -0.98888016 0.13143803 0.44891983 0.8379163 -0.044352133 -0.41231662 -0.5744994 0.04367686 0.0262913 -0.081950046 0.060564317 0.71369636 0.21216731 1.1772254 0.6012933 0.28884387 -0.11801306 -0.7088409 -1.3466457 0.3338255 -0.11138319 0.46723145 0.29941207 -0.80201083 -0.1773207 -0.84998655 -0.5246166 0.7127632 0.2889675 -0.15339512 -0.6460635 -0.46163923 -0.62908685 0.9381656 -0.4367221 0.09252216 0.13813275 -0.35518184 0.7416598 0.07806539 -0.70855904 1.4495096 -0.23113485 -0.42256224
com.fasterxml.jackson.databind.jsondeserializer.deserialize() 0.04059375 -0.47199762 -0.6026312 -0.20779511 -0.7974756 -0.8450718 -1.0635337 -0.14805174 0.18066561 1.086023 -0.1508098 0.4715227 0.03642802 -0.2740041 1.07356 -0.9756151 1.3446715 -1.0139939 -0.12612633 0.33039883 0.04451701 -0.6065926 -0.38588357 -0.2076516 -1.4119374 0.04853168 -0.33534783 -0.68786067 0.12408625 -0.570113 0.35164303 -0.9419785 -0.43119758 0.718263 -0.17069578 0.7124849 -0.38826114 1.0028975 -0.6296894 -0.039294336 0.7350653 -0.25245348 -0.69121313 0.2036028 0.20896457 0.9082272 -1.1649735 0.5883873 -0.4466283 -1.172162
com.fasterxml.jackson.databind.node.arraynode.add() 0.002545984 -0.060471345 0.39488122 0.7847223 -1.149492 -0.97350484 -1.2160811 0.54893404 -0.6460416 0.2986442 -0.52367795 0.8384395 -0.5277034 -0.48758897 0.9785297 -0.09016196 0.37156513 0.14318916 -0.072405905 0.40055847 0.113091946 -1.3199457 -0.21799625 -0.9960257 -1.3330727 1.0001342 -0.45120993 0.53855 -0.5551816 1.0199788 0.86178446 0.30610248 -0.32784262 0.53429633 0.8437663 0.3873013 -1.2050179 0.08550567 -0.38630265 1.6805683 0.2405211 0.115079835 -0.004601885 -0.005799491 -0.32244462 0.339583 -0.10953168 0.4393319 -0.5419074 -1.3183681
com.fasterxml.jackson.databind.node.arraynode 0.5566592 0.18706848 0.70086664 0.5648709 -0.878288 -0.92948025 -0.5049501 0.16508748 -0.43857118 0.43936595 -0.38387397 0.8989857 -0.7627387 -0.15324107 0.54472125 0.16210599 0.011706909 -0.15648669 -0.034330454 0.19414432 0.11243902 -0.8568923 -0.22160187 -0.85297936 -0.875253 0.23733158 -0.21754624 0.2489159 -0.31458673 0.28380963 0.09704023 0.91666234 -0.59140486 0.45130476 0.3281694 0.011384869 -1.184955 -0.31469378 -0.31487104 1.3115671 0.114194065 0.17101079 -0.16452391 -0.09724872 -0.483347 0.13722165 0.0390014 0.45930523 -0.38146564 -1.1619458
com.fasterxml.jackson.databind.deserializationcontext.isenabled() -0.0637512 -0.562249 -0.8985597 0.26489356 -0.5224834 -0.36418736 -0.2580929 -0.5967459 -0.2586362 0.57608426 -0.21870902 -0.73061913 -0.7434017 -0.22295201 1.0384902 -0.96610713 0.33296704 -0.31090736 -0.036615957 0.16054106 0.310388 -0.79164106 -0.96482056 -0.3315009 -0.7873402 -0.171741 -0.17534402 -0.8481903 -0.036580067 0.32314873 0.18729961 -0.3775361 -0.68603164 1.0209367 0.6968848 1.0107812 -1.0750008 -0.5185313 -0.6947231 0.9984474 -0.2537458 -0.8341265 0.2498914 0.027345404 -0.06462352 0.65682733 -0.062620506 0.37444475 -1.0383924 -0.2408268
com.fasterxml.jackson.databind.type.typefactory.defaultinstance() 0.32715636 -0.40906784 -0.43630603 -0.011877885 -0.1357382 -0.57212603 -0.23281166 0.35562688 -0.10952837 0.67343575 0.17041887 0.28584296 -0.6316957 0.10512556 -0.14891806 0.11052449 0.10774913 -0.4452386 0.32731774 0.04347623 0.0864205 -0.509029 0.2860812 -0.77028626 -0.2371875 0.37138832 0.6878891 -0.68421936 -0.20748614 -0.30680925 -0.06694916 0.39372766 -0.4361183 0.7380616 -0.16101693 0.45563582 -1.1549075 -0.6263903 -0.027990043 1.0333824 0.24542262 -0.017849373 -0.31067455 -0.7650901 -0.6685071 0.20503354 -0.24354559 1.671364 -0.9758616 -0.093122765
com.fasterxml.jackson.databind.jsonserializer 0.31820446 -0.48363844 -1.5969996 0.10288641 -0.61919606 0.14027683 -0.59841216 0.015598017 0.07191219 1.3913172 -0.789785 0.33932602 -0.5718501 -0.20126927 -0.16443093 -0.17151038 0.7189127 -0.20368835 0.45201507 0.494145 0.55310005 -0.36687952 -0.23555762 -0.59081227 -1.0726339 -0.12727895 0.6496109 -0.047087852 0.45223656 -1.2670758 -0.5900267 -0.15947519 0.2770611 0.4690008 -0.18570288 0.053828776 -0.81522584 -0.02942285 -0.5935926 -0.0033949076 0.85804015 -0.6458125 -0.5139413 -0.90575445 0.24263729 0.5536638 -0.017622728 0.43531927 -0.77062714 0.8847457
com.fasterxml.jackson.databind.jsondeserializer 0.6824588 0.48777762 -0.8796579 0.15576416 -0.3956744 -0.3400206 -0.53101444 -0.2898912 0.05526825 0.9930511 0.6040807 -0.061600365 -0.31210053 -0.1796048 0.11710645 -0.5149931 0.75070655 -0.6985187 0.48329014 0.40136957 0.32540697 0.13768294 -0.36446756 -1.1266248 -1.2523566 -0.41232935 0.49956477 -0.313546 0.59150076 -1.4125879 -0.1556763 -0.62569326 -0.18454331 0.7895555 -0.15509948 0.2294731 -0.6398214 -0.40062252 -0.30242693 0.8376926 0.19265498 -0.4954367 -0.25945222 -0.41837963 -0.06850678 0.0056103324 -0.53869003 1.3167484 -1.0687582 0.17149666
com.fasterxml.jackson.databind.jsonnode.size() 0.2568373 -0.19342978 0.5191081 0.84949493 -0.9927436 -1.1964687 -1.4286858 -0.064553164 -1.1380516 0.7344349 -0.625843 1.0164831 -0.9859148 0.0321305 0.027990341 -0.7360488 0.07563427 -0.26783818 0.0755374 0.5605238 0.23439978 -1.1018281 -0.5648539 -0.058200445 -0.5424486 -0.5174243 0.20623516 0.76822877 -0.08740503 0.25908133 -0.22004569 0.77935034 -0.51749784 0.35102177 0.15665495 0.55626255 -1.0733806 0.24552919 -0.947211 1.1586155 0.3205165 -0.26898843 -0.28939265 -0.8097066 -0.49289277 0.7268003 -0.48211965 -0.21938054 -0.5866103 -0.95990384
com.fasterxml.jackson.databind.module.simplemodule -0.273435 -0.47811192 0.52078396 -0.14906429 -0.52800417 -0.7391506 -0.36119643 -0.28960815 -0.104215376 0.520033 -0.22296938 0.70153344 -0.23633458 -0.29914665 -0.09058838 0.36791155 0.06814048 0.090636544 0.68566775 -0.29793933 -0.11517273 -0.7845389 0.48177436 -0.4811646 -0.49985301 -0.1547453 0.08368364 -0.20255482 0.17118043 0.0072077224 -0.11563503 0.5250017 -0.13081293 0.3085089 -0.019252501 0.31681114 -0.70708346 0.047475535 0.38488278 0.5333229 0.6279257 -0.24726316 -0.73994106 -0.8745843 0.12011751 0.15247132 0.17948179 0.8341235 0.03337129 0.34726986
com.fasterxml.jackson.databind.jsonserializer.serialize() 0.5086163 1.1237884 -1.1342943 0.5282979 -0.87379235 -0.13408129 -0.74359703 0.12945208 -0.56444496 0.4126961 -1.0208814 -0.0090650525 0.09726094 -0.75655943 0.6303417 -0.190185 1.552526 -0.07805963 0.5310064 0.49869698 0.08016361 -0.27316797 -0.50645673 0.014556654 -0.96070886 -0.06103419 0.5579489 0.51046085 0.7362404 -0.4477349 -0.7387671 0.2948662 -0.28678596 0.6845337 0.599453 0.21420637 -0.44232208 0.28942746 -0.6246765 -0.56403506 0.6013582 -0.31994027 -0.6870668 -0.74346507 0.49150878 0.6110518 0.17659114 0.28742 -0.33407858 0.21907705
com.fasterxml.jackson.core.jsongenerator.writenullfield() -0.013022736 -0.24964328 0.040611263 0.06858126 -0.134709 0.033281818 -0.47543675 -0.043276243 -0.1917995 -0.06736297 -0.30333656 0.24266465 -0.14594679 -0.2735507 0.2746848 0.17154446 0.40859264 0.039201535 0.19377472 0.16912895 0.21232069 -0.18476361 -0.2524105 -0.019574543 -0.33974037 0.08974014 -0.07915306 0.20995437 0.2559428 0.06430109 -0.053321 0.23027821 0.11457406 0.41833556 0.31255972 0.017089441 -0.18951274 -0.04030967 -0.029484589 0.20397268 -0.0649474 -0.21785945 -0.22849338 -0.38540274 0.13456346 0.24885066 0.024896255 0.3347392 -0.12939575 -0.22616623
com.fasterxml.jackson.databind.jsonnode.astext() 0.17963195 0.2554628 0.18153612 0.89244795 -1.4714553 -1.1604764 -0.24989817 -0.16020943 -0.9398675 0.84078646 -0.3797613 1.1789806 -0.45297876 -0.6079579 0.17380662 -0.15405561 0.019566465 0.5888893 0.14314933 -0.052760225 0.42530018 -1.2065133 0.087212026 -0.21068391 -0.49001467 -0.051243376 -0.3703731 0.19848341 0.13718837 0.5240667 0.19922614 0.5958026 -0.5727821 0.049507488 0.27073982 -0.0677389 -1.0620108 0.267861 -0.73283386 1.3609502 0.43849722 0.005681067 -0.22721829 -0.60330105 -0.18759504 0.3668754 -0.46621394 -0.076268 -0.38186574 -0.25842357
com.fasterxml.jackson.databind.util.tokenbuffer.asparser() 0.51965195 -0.026735138 0.16370466 -0.17615157 -1.3845375 -0.019478818 -0.39871126 -0.36565685 -0.25861216 0.5333932 -0.035008583 0.62172806 -0.52909917 -0.6339317 0.41768193 -0.32845098 0.5891364 -0.10783666 0.15353493 0.4079248 0.30303803 -0.14543335 -0.05944144 0.23594975 -1.1268235 0.08963357 -0.33348244 -0.800629 0.026584277 -0.677117 0.061509017 -0.35931456 -0.42885798 0.9526933 0.08689764 0.38758007 -0.72736365 0.05243777 -0.15201183 1.162254 0.4019269 -0.6347795 -1.0039976 -0.28972924 0.10519445 0.14548731 -0.8195437 0.7656838 -0.49534783 -0.69254947
com.fasterxml.jackson.databind.annotationintrospector 0.741279 0.0053080143 -0.29259178 0.3658442 -0.15368405 -0.45567667 -0.5136636 -0.10506202 0.41688484 1.2644923 -0.3820223 -0.45700705 -0.11265285 0.5353824 -0.23086838 0.072129965 0.59521234 -0.10607482 -0.17284657 0.07907736 0.44030264 -0.26216653 -0.78059065 -0.34074375 -1.0673046 -0.016126143 0.17240188 -0.56103843 0.90012974 -0.41189104 -0.6130319 0.26090556 -0.6289121 0.51845014 -0.33753535 0.045436572 -0.45181024 -0.7896317 -0.07468642 0.3700981 -0.44013676 -0.39400205 -0.5765413 -0.47959355 -0.93178076 0.29656604 -0.16281836 1.2806976 -0.4095467 -0.002902411
com.fasterxml.jackson.core.jsonparser -0.0077912505 0.26658696 0.542879 -0.1427464 -1.2612048 -0.18334474 -0.4030398 -0.22843236 0.076719925 0.51355314 -0.1974571 1.2399117 -0.93837327 -0.14562514 0.67215455 -0.399105 0.6393387 -0.060368538 0.6451626 0.039610885 -0.08794249 0.016779158 -0.015601878 -0.63915676 -1.3062872 0.4995223 -0.25816613 -0.85192126 -0.47716206 -0.22842024 0.44929323 0.051659565 -0.13790867 0.6486548 -0.09534789 0.094236135 -0.5071322 0.54734844 -0.1885679 1.0271988 0.39334583 -0.81139123 -1.0808015 -0.70526713 0.5371724 -0.24981049 0.15719227 0.28312507 -0.37538508 -0.5957695
com.fasterxml.jackson.databind.type.typefactory 0.39228976 -0.32731482 -0.74260783 0.17685708 0.07971305 0.34711117 -0.49262783 0.30031678 0.23179992 0.22371875 -0.487329 0.2216511 -0.23885757 0.20301792 0.24430063 0.34959245 0.631835 -0.08264636 0.01007167 -0.0939751 0.1382688 0.060950138 -0.14464077 -0.70029175 -0.32183376 0.42029318 0.30821356 -0.064083576 0.685865 -0.4546037 -0.13201281 0.2410694 -0.4067331 1.3783654 0.35786957 -0.09640176 -0.48593405 -0.775057 -0.3505103 0.14444008 0.24892502 -0.41307494 -0.19150043 -0.39601088 -0.5071267 -0.07956073 -0.025465038 1.1044785 -0.3988296 0.11580721
com.fasterxml.jackson.databind.node.objectnode.set() 0.51311415 -0.035409935 0.28109983 0.5289601 -0.74996054 -0.6722749 -0.77655697 0.6166522 -0.13652295 -0.055828143 -0.29331475 1.04288 -0.99555665 -0.383895 0.19609421 0.60363233 0.36978218 -0.052815486 0.16412048 0.4012535 0.23944342 -0.63086396 0.0061351173 -0.656615 -0.6234679 0.30826864 -0.1379981 0.21182433 -0.046495948 0.4412291 -0.0686746 0.9847888 -0.4499738 0.6381301 0.18381041 0.1437761 -1.2130169 -0.31388804 0.07607441 1.1388068 0.06728678 -0.38240722 -0.4691884 -0.20296 -0.47109124 0.109810024 0.37376577 0.42532083 -0.47114274 -0.8116265
com.fasterxml.jackson.databind.propertyname 1.2958237 -0.13605113 -0.37734663 -0.31589875 -0.9671106 -0.47610182 -0.22400647 -0.25548846 -0.5769965 0.8469805 -0.11740648 -0.67137116 0.09264479 0.9005574 0.026446974 0.35438445 0.53260016 -0.17694168 0.24018012 -0.25879914 1.0620424 -0.20527062 -0.3663882 0.08271731 -1.1127679 -0.72528166 -0.14650227 0.101867855 0.83753204 -0.18007047 -0.25315446 -0.44446358 -0.06996276 1.6029314 0.6206909 -0.40786168 -0.31601122 -0.36924332 -0.003738599 0.97989404 -1.1166067 -0.27640608 -0.18591852 -0.06635378 0.3529306 0.45679003 -0.17774148 0.7170495 -0.52647585 -0.13190882
com.fasterxml.jackson.databind.serializationconfig 0.93670285 -0.5536421 -1.0097916 0.17819183 -0.13319537 -0.2237321 -0.06352081 0.042838566 -1.8603476 -0.23689927 -0.5580009 0.37940446 -0.33417603 -0.3997833 -0.45431283 -0.029704098 0.25220713 0.2963681 1.0377566 -0.08638634 0.8384136 -0.4665673 0.7724894 -0.4596244 -1.0927608 0.29505575 0.0426615 0.058551945 0.74234736 -0.27116528 0.24179506 0.5583186 0.20444484 1.8462292 -0.66308856 0.90117085 -0.8356556 -0.78746647 0.18852916 1.2990943 0.24011661 -0.9797572 -0.9956894 -0.5000049 -0.7214755 0.7125539 -0.48785946 0.36654752 -1.1885742 -0.48882824
com.fasterxml.jackson.core.json.jsonfactory.createparser() 0.60165864 -0.1053405 -0.42584464 0.2255753 -1.7248836 -0.8593326 -0.8059831 0.026346738 -0.2647509 0.43089297 -0.084609345 1.5435408 -0.75065017 -0.87638354 0.08923946 -0.39846644 0.10940556 -0.7572618 0.4473036 0.1527118 0.6169268 0.04235275 0.0944524 -0.107661426 -1.5037135 0.49798027 0.064668536 -0.66402465 -0.26561368 -0.1901767 0.31702438 0.3453239 -0.40591386 0.9359632 -0.23132102 0.63753617 -0.8799542 0.60805476 -0.25654265 1.4365473 0.3229401 -1.0884382 -0.8330251 -0.7551665 -0.21199991 -0.025229942 -0.101534896 0.10079683 -1.2663394 -0.10765513
com.fasterxml.jackson.databind.jsonnode.isarray() 0.26439792 0.2914776 0.46006435 0.46001598 -0.6814681 -0.77496123 -0.52744997 -0.31872493 -0.7345853 0.81282187 -0.5428868 0.5653909 -0.5342666 -0.179574 0.38207605 -0.07708315 -0.07357178 -0.023688098 0.31090328 0.16980553 0.259955 -0.7041241 -0.23139682 0.03150183 -0.49513873 -0.2538824 -0.16715398 0.011731979 0.2079393 0.44575804 -0.018313037 0.8127116 -0.4831308 0.40636596 0.6609912 0.14403601 -0.794419 0.15961687 -0.21419804 1.1080912 0.36540225 -0.00031288678 -0.19890757 -0.38993075 -0.16043426 0.3060025 -0.17508845 0.27840656 -0.08880965 -0.99648106
com.fasterxml.jackson.databind.objectwriter -0.023837445 -0.17701449 0.31958762 0.118080795 -0.5977326 -0.43713993 -0.008977387 0.09838884 -0.2101087 0.36051324 0.08394373 1.0158186 0.13893642 -0.5599687 0.10864616 0.2808085 -0.25501868 0.2663103 0.55540824 -0.24805236 0.23640357 -0.697255 0.68550384 -0.35791764 -0.25538367 0.15671486 -0.4084836 0.16487445 0.06968198 0.038759954 0.35602093 0.9280272 -0.33844164 0.7603957 -0.5135337 0.22427471 -0.41391107 0.0971418 0.010060813 0.39412814 0.42939523 -0.026359882 -0.5060774 -0.8388075 0.23407924 0.37276247 0.2615338 0.43573675 0.06647882 0.39430675
com.fasterxml.jackson.databind.deserializationcontext.getconfig() 0.4408003 0.029241186 -0.78125876 0.08429561 0.012577371 -0.28581956 -0.98180455 -0.10345414 0.5149142 1.1142513 -0.46995834 0.06544944 -0.3110534 1.2101474 0.35571864 -0.18886314 0.68599135 0.058901533 -0.19327962 -0.06929745 0.68864614 -0.5045464 -0.22743665 -0.9320338 -0.82494503 -0.11574093 0.6399798 -0.40285802 0.5970519 -0.88384694 0.12711823 -0.36336967 -0.42221946 0.3488082 -0.021925665 0.046736848 -0.893508 -0.82905424 -0.13077292 0.9517958 -0.44851923 -0.57687074 -0.4264704 -0.54603213 -0.25388393 0.24299422 -0.5548177 1.0882344 -1.0598925 0.27694976
com.fasterxml.jackson.databind.objectreader 0.6252548 0.37396896 0.11378255 -0.002293939 -0.75275993 -0.61904275 0.30021 0.5881636 -0.17003965 0.30050948 0.18317024 0.3145214 -0.20132037 0.40258834 -0.21005009 -0.07023853 -0.13201801 -0.2895527 0.35554606 -0.3156678 0.07435457 -0.17028418 0.11983797 -0.9469063 -0.6233589 0.25662792 0.42551306 0.54627293 0.1534583 -0.14599702 -0.16052638 0.41506463 -0.059604995 0.4129691 0.19027427 0.058996476 -0.44495142 -0.49137408 -0.40347636 0.6815048 0.070808426 0.118695796 -0.22820446 -0.45796737 0.018014882 0.2738489 -0.29995552 0.9967154 -0.30167922 0.41213262
com.fasterxml.jackson.databind.node.objectnode.get() 0.41733253 -0.034263335 0.34380123 0.32938623 -0.73663443 -0.43396354 -0.22532672 0.1651912 0.025848676 0.24381578 0.023035994 0.6882585 -0.5178251 -0.26454836 0.0020512887 0.43807945 0.20686929 0.17066601 0.09352559 0.22704312 0.05518739 -0.337807 -0.13834685 -0.14291663 -0.3939641 -0.1824099 -0.2029652 -0.055831254 0.14579462 0.2363721 -0.094739705 0.73603743 -0.391301 0.49482584 0.25121114 0.17843175 -0.62189764 -0.1891076 -0.18014437 0.66941464 -0.10466408 -0.005234062 -0.2323963 -0.3741767 -0.13368052 0.009073091 0.06953927 0.2552555 -0.08682161 -0.36290076
com.fasterxml.jackson.databind.jsonmappingexception.from() -0.3555774 -0.16626066 -1.190461 -0.16106075 -1.2440547 -0.96981204 -0.740002 -0.63036025 -0.04852673 0.27690628 0.25875857 0.47628963 -0.3288906 0.12126626 0.7471592 -0.5078439 0.5784402 -0.74805295 -0.03503871 -0.018946957 0.66355896 -0.6644152 -0.48800224 -0.06872198 -0.17776471 0.19255087 -0.17703016 -0.8418381 0.6900737 -0.632833 0.43613377 -0.5960024 -0.6620614 0.922078 0.13845888 0.06009429 -0.6235133 0.27160093 -0.9162426 0.8013104 -0.48479328 -0.53107846 0.42278925 -0.5637745 0.7750263 0.41355622 0.35226715 0.99811697 -1.5863086 0.06461615
com.fasterxml.jackson.core.version.unknownversion() 0.011161765 0.0012598519 -0.23421666 0.12568235 -0.22581945 -0.114457145 -0.035108663 -0.0032064205 -0.110109165 0.32599914 -0.026476942 0.19196129 -0.16124229 -0.13186716 0.13687702 -0.1289747 0.068431124 0.09334194 0.15270409 -0.034527123 0.17310871 -0.3205589 -0.05366149 -0.28064224 -0.32663193 0.13304512 -0.10048801 -0.051063687 0.26064372 -0.05796887 0.020021254 0.21701865 -0.32303494 0.61276597 0.12340861 0.38646486 -0.13632481 0.009754582 -0.12687893 -0.04783945 0.16162112 -0.07360633 -0.20252003 -0.2437143 0.13420692 0.27246442 0.054833606 0.36955604 -0.17774278 0.11455629
com.fasterxml.jackson.databind.util.tokenbuffer 0.91943985 0.07662587 0.32230943 0.18449408 -0.8484799 -0.0031044877 -0.7754234 0.03295521 -0.3983444 0.7558669 -0.34770286 0.22697863 -0.16109276 -0.31558144 0.3604934 -0.587637 0.6007625 0.6653594 0.11262843 0.30402157 0.37238795 -0.14935423 0.25866446 -0.34005937 -1.2401083 0.19914746 -0.19015047 -0.6730932 0.087882094 -0.43063956 0.46510625 -0.7775611 -0.17889787 0.5284014 0.054783694 0.14671011 -0.9756228 -0.93816996 -0.33411232 1.0651972 0.38816187 -0.8052568 -0.49421346 -0.5488045 0.48550913 -0.04055205 -0.63572645 0.9715483 -0.9067408 -0.37460175
com.fasterxml.jackson.databind.jsonnode.has() 0.2739627 -0.21648736 0.11061546 0.710004 -0.80408025 -1.2742939 -0.86440223 0.013093289 -0.75260395 0.6780587 -0.6697839 1.1642629 -1.2235907 -0.24016663 0.08486577 -0.23093535 0.10051478 -0.19100723 0.2986291 0.26980472 0.58548373 -0.92381334 -0.45539403 -0.19059965 -0.4025142 -0.111997865 -0.19299178 0.22110517 -0.1145703 0.18694213 0.02567438 0.9073137 -0.52005035 0.7369272 0.4693564 0.20656344 -1.3638506 0.28757343 -0.5925529 1.6683058 0.46125942 -0.22106183 -0.28745544 -0.46201295 -0.37158492 0.51627046 -0.2531382 0.4503115 -0.576846 -0.9794775
com.fasterxml.jackson.databind.objectwriter.writevalueasstring() -0.19567116 -0.04053197 -0.004625076 0.13171558 -0.6878187 -0.3935348 -0.25677702 0.050487217 0.08839984 0.4282156 0.050712265 0.8099756 0.04100716 -0.45633012 0.11923401 0.29173934 -0.2006385 0.49680275 0.3259267 -0.17575443 0.3182538 -0.51249754 0.27385047 -0.2231842 -0.2846948 0.0822576 -0.5953226 0.085504316 0.26181006 0.09533767 0.3419978 0.6396172 -0.34869537 0.6881055 -0.42131123 0.12527148 -0.26448363 -0.035243902 -0.081153326 0.042449977 0.22404079 -0.042956505 -0.33055377 -0.48453826 0.3370496 0.5384002 0.08404619 0.24518093 0.069126986 0.37939155
com.fasterxml.jackson.databind.jsonnode.isobject() 0.5594959 0.19972222 0.47236794 0.82015055 -0.9912658 -0.8959924 -0.7030279 -0.264053 -0.9376424 0.4128272 -0.5051362 1.0096478 -1.4945403 0.051689383 0.20265344 -0.086638235 0.050912797 -0.108356394 0.22052047 0.2591081 0.44091162 -0.8682019 -0.28668523 -0.27992195 -0.5804116 -0.3801314 -0.033689287 0.3009603 0.14500451 0.07259139 -0.30474663 0.9150134 -0.68993187 0.5497666 0.7075467 0.060836636 -1.3224859 0.22765417 -0.71088016 1.4367919 0.3066704 -0.41295436 -0.35739553 -0.35745394 -0.35443524 0.5024622 -0.30015668 0.39738426 -0.21570145 -1.0556906
com.fasterxml.jackson.databind.jsontype.typedeserializer 0.72675204 -0.04676624 -0.45908937 -0.16524449 -0.6687183 -0.51917887 -1.1705667 0.18576814 0.41375613 0.71921027 -0.047173023 -0.168546 -0.40584514 -0.26038632 0.3498183 -0.7021077 0.8129255 -0.25295258 -0.051379602 0.6292039 0.26208776 -0.17254192 0.046625387 -1.4756036 -1.3935128 -0.1794172 0.59382063 -0.83339536 0.38064495 -1.3487397 -0.08846039 -0.9058533 -0.043349814 0.95737225 -0.19270755 0.29036054 -0.56007844 -0.89834285 0.17705554 0.5842458 -0.14689684 -0.58554196 -0.15858212 -0.28473362 -0.36258623 0.1975406 -0.76304185 1.210756 -1.0994807 -0.21963766
com.fasterxml.jackson.databind.node.objectnode.size() -0.005063999 -0.00021903488 0.007816843 -0.0024225423 0.0049563074 0.009845302 -0.009943365 0.0019085704 0.005205798 -0.0013618163 -0.004147432 0.0046798713 0.0098740095 -0.004217559 -0.00095104973 0.0044664117 0.0074960003 -0.006476745 0.00750704 0.0064955223 -0.006554622 0.0028040702 0.0029681916 -0.007171948 -0.000500067 0.0032659362 0.00837129 -0.0053192177 0.0072075594 0.009695791 -0.00418314 -0.0057496196 -0.002139203 -0.004506776 0.0029070338 0.0019087238 -0.0053599454 -0.009372755 -0.007336151 0.0036368934 -0.00036873933 0.0011874046 0.0014580527 0.008055803 0.0027550014 -0.009451907 -0.007831879 -0.0060012517 -0.0067674634 0.00455029
com.fasterxml.jackson.databind.node.arraynode.size() 0.11902144 -0.28206155 0.2638879 0.27646616 -0.28018057 -0.239237 -0.513971 -0.17574309 -0.41853234 0.2234924 -0.41508278 0.74857247 -0.4464865 -0.14945926 0.14460436 0.092440255 0.19541197 -0.087225914 0.12807518 0.013320582 0.22218314 -0.3513798 -0.21546397 -0.1642164 -0.13762009 0.14764221 -0.22954665 0.079392105 0.11097542 0.3058172 0.044362687 0.78244835 -0.37340844 0.57696646 0.25133651 0.021651674 -0.71178013 -0.06435118 -0.1928684 0.7993352 0.06933742 -0.11541687 -0.17826313 -0.3486579 -0.30754483 0.28364405 -0.18652248 0.3586456 -0.24853937 -0.683403
com.fasterxml.jackson.databind.objectmapper.writevalueasbytes() 0.55357885 -0.892252 0.5008345 0.50185585 -0.1177796 -0.6945192 -0.48097765 0.45352742 0.928333 0.6610599 -0.2662173 2.1890154 -0.6704931 -0.3684029 0.039013814 0.39148843 0.7368162 0.245246 0.41278282 0.33874342 0.2862707 -0.68357915 -0.017813524 -0.92082864 -1.2423128 -0.72528166 0.22592418 0.7313668 -0.1793487 -0.07499843 -0.21884276 0.4884997 0.35439655 0.059564427 0.1595156 0.46690428 -0.7505732 -0.29177505 -0.42442676 0.9519539 0.058751296 0.1002948 -0.7616596 -1.28851 -0.26285177 0.09945147 -0.2446507 0.20117418 0.0814525 0.089025244
com.fasterxml.jackson.annotation.value 0.31416306 -1.1779113 -0.42394477 0.29475808 -0.14441587 -0.2056846 -0.51855564 -0.4934469 0.1437067 1.8365369 -0.8217687 -0.16160956 -0.074716456 0.3479151 -0.21008119 -0.12263105 0.759657 0.43691048 -0.21893406 0.12806505 0.10738512 -0.08866608 -0.4283361 -0.322888 -1.45901 0.20769574 -0.056025177 -0.058883186 0.56928444 0.29635847 0.06085184 0.41163886 -0.0958387 0.37790576 0.13433848 -0.22462691 0.21511038 -1.467336 -0.0069930777 0.3984763 -0.7703547 -0.007925462 -0.2956577 -0.1575682 -0.61180913 0.7992621 -0.4093055 0.397188 -0.6129614 -1.1256706
com.fasterxml.jackson.core.json.jsonfactory -0.19973002 0.11350646 0.3450124 0.36422148 -1.1323341 -0.78872555 -0.96029013 -0.08860431 -0.47558165 0.32827407 -0.2764744 1.3276248 -0.6527337 -0.88173723 0.21808313 0.12733504 0.20845768 0.3215993 0.64956546 0.031464335 0.31038988 -0.06722188 0.37585402 -0.7622507 -0.9857052 0.69204265 -0.30447486 -0.22130516 -0.32162285 -0.0577026 0.42819104 0.46277854 -0.1279638 0.66656893 -0.3311649 0.5014931 -0.9182086 0.49397808 -0.20403974 0.6689845 0.5601381 -0.6855111 -0.8852961 -0.5842617 0.92681384 -0.120560795 0.22782841 0.078455105 -0.8816494 -0.07049239
com.fasterxml.jackson.databind.serializerprovider.findvalueserializer() 0.10825405 -0.16600372 -0.2566508 -0.093610585 -0.03318187 -0.08249569 -0.08711944 0.025382815 0.13991816 0.41334453 -0.50096554 0.25442472 -0.25434723 -0.38630465 0.18893696 -0.39183912 0.86407405 -0.0147583205 0.30794552 0.21519895 0.23069194 -0.020988371 -0.13901272 -0.1668077 -0.6295547 -0.12975292 0.03279271 0.15939099 0.46161208 -0.42429247 -0.09146387 -0.10358615 0.22815786 0.08667717 0.18458581 0.1578723 -0.21898788 -0.060300846 -0.103841215 0.19492844 0.19812657 0.100189224 -0.661219 -0.9101031 0.5907431 0.41610605 0.07425221 0.5945032 -0.2847758 0.14592522
com.fasterxml.jackson.databind.objectmapper.isenabled() -0.06723803 -0.045391835 0.03136066 0.4708873 -0.15826805 0.3734234 -0.42557994 0.3230613 0.41761616 0.085286096 -0.7300261 1.0854468 -0.095088154 0.09386821 0.22414947 0.7950492 0.16408274 0.028242704 0.27123177 -0.60782975 -0.02063823 -0.5248636 0.17704171 -0.7164243 -0.8589428 0.40049586 -0.25316915 -0.015489231 0.5094155 0.078333475 0.41395554 0.55445975 -0.70127046 1.2772083 0.13922282 -0.056806363 -0.9187838 -0.55530703 -0.18749951 0.5778325 1.0135026 -0.3912475 -0.72623146 -0.9348407 -0.7494116 -0.10672267 -0.07024545 0.9837582 0.023820402 0.4643215
com.fasterxml.jackson.databind.objectmapper.writerwithdefaultprettyprinter() 0.15226467 0.40377498 -0.25078908 0.624808 -1.5307062 -0.56582785 -0.45861536 0.15146352 -0.36784783 0.78841335 0.10856118 0.9453733 -0.40527833 -0.44113693 0.25684336 0.82057035 -0.44067714 0.27961108 0.32346922 -0.1967364 0.47595784 -1.2316376 0.434153 -0.14091566 -0.45276752 0.0465627 -0.5093415 0.034804773 -0.0577552 0.74354833 0.23188737 1.0182254 -0.6251426 0.5053558 -0.6362368 0.08195718 -0.9012548 0.08029472 -0.5077818 0.7127374 0.7775054 -0.07984559 -0.31374052 -0.51374614 0.27432394 0.2560037 0.055539466 0.36813092 -0.31323916 -0.10456018
com.fasterxml.jackson.databind.jsonnode.istextual() 0.29128522 -0.10727511 -0.15118885 0.14533556 -0.43664348 -0.32765552 -0.17754707 -0.18782589 -0.2189824 0.34116766 -0.15983757 0.40264148 -0.6322711 0.1476844 0.2581104 -0.00830962 0.08622558 0.024431445 0.00998877 -0.09078227 0.067409486 -0.5004199 -0.02343975 -0.35345885 -0.20100895 0.08549807 -0.061472904 -0.13436659 -0.089622155 0.19017926 0.037983898 0.25842384 -0.4262097 0.47940975 0.3609562 0.18961293 -0.71013814 0.021613475 -0.17564045 0.42147455 0.15153967 -0.009079617 -0.093447946 -0.29340884 -0.09630021 0.08611059 0.05732341 0.5158048 -0.15055248 -0.064631365
com.fasterxml.jackson.databind.objectmapper.writer() -0.12790155 -0.10060865 0.12541646 0.23043855 -0.5014127 -0.42258975 -0.17727067 0.0951298 -0.14538983 0.18451676 -0.1593603 0.950495 0.014948365 -0.4509491 -0.040795613 0.32870606 -0.14534049 0.41515714 0.34068906 -0.005552162 0.07570091 -0.578025 0.3031392 -0.252372 -0.39644605 0.015920822 -0.1872125 0.10542476 0.118112355 0.010924207 0.17220777 0.87620753 -0.31588754 0.5543134 -0.29175964 0.4849967 -0.46862665 0.2789863 -0.010216479 0.13043779 0.5816226 -0.005456395 -0.6929877 -0.7606814 0.1374696 0.25576562 0.04975916 0.2943995 0.08589219 0.39138836
com.fasterxml.jackson.databind.javatype.getcontenttype() 0.5194584 0.001975806 -0.9804524 0.15030079 -0.28963193 -0.32657966 -0.44726333 0.310674 0.114233464 0.83117545 -0.30175585 -0.12088154 0.02048992 -0.18344809 0.58692884 -0.31428176 0.5298762 -0.49961263 -0.1844149 0.25684398 0.49249968 -0.08852894 0.08104585 -0.83248556 -0.6450431 0.47548208 0.2627658 -0.74573356 0.90103257 -0.85470563 -0.19648865 -0.18412632 -0.60524106 0.8916039 -0.03217306 -0.29092637 -0.543626 -0.6934203 -0.6272287 0.1679193 0.030482551 -0.43023485 0.09573881 -0.4390905 -0.37173334 0.59086823 -0.4700185 1.1924177 -0.9632971 -0.17821978
com.fasterxml.jackson.databind.objectmapper.createarraynode() 0.8126477 -0.76932764 0.32469025 0.77134913 -0.76039314 -0.5617078 -1.1285027 0.18425734 0.006504415 0.31784332 -0.51834375 1.6117548 -0.7368208 -0.12974502 0.6237352 0.8667036 0.43170565 -0.08673787 0.20118965 0.3342657 1.0625932 -0.8616818 0.11266725 -0.41301757 -0.9825889 -0.0051656165 -0.07268425 0.34344524 -0.29354486 0.45455223 0.046849497 1.0829306 -0.11440389 0.5771694 0.20704333 -0.1387711 -1.0981101 -0.47064248 -0.73104006 1.7514261 -0.13357653 -0.18321963 -0.5168047 -0.7547655 -0.7326477 0.33969346 -0.17696953 0.7250535 -0.23455556 -1.0389326
com.fasterxml.jackson.databind.introspect.annotatedmember 0.9126288 -0.30811456 0.15489875 0.04773852 -0.34764042 -0.15459478 -0.21138485 -0.54139173 -0.15556434 1.1413412 -0.4069589 -0.71479565 0.20276615 0.5823512 -0.1758527 0.029398797 0.70489967 0.04238475 0.40289322 0.15779833 0.25544697 -0.5571207 -0.13298346 -0.36012813 -0.6017377 -0.6885535 0.11872518 0.012917589 0.76760423 -0.40835908 -0.2384911 -0.07918359 -0.35324678 1.0575079 0.22275762 0.026623523 -0.23848931 -1.0063651 -0.15373985 0.18593656 -1.0935469 0.072023034 -0.7190023 -0.5106221 -0.28759915 0.48457292 -0.7108543 1.0914224 -0.29937038 -0.4281052
com.fasterxml.jackson.databind.serializerprovider.isenabled() 0.016596163 -0.019992897 -0.14284281 0.17789832 -0.011195123 -0.33579427 -0.5515332 -0.12599249 -0.27725777 0.39343956 -0.37500754 -0.21498655 -0.21814953 -0.35022748 0.20813294 -0.008834734 0.6746063 -0.026201345 0.14003135 0.11038625 0.06248661 -0.37456718 -0.21201067 -0.19074757 -0.17422225 0.15121555 0.10670441 -0.21058728 0.36887717 0.06700862 -0.24125703 0.19891767 0.10423378 0.40556213 0.24395138 0.30302122 -0.38290107 -0.019715782 0.15732984 0.1576104 -0.039433546 -0.43500876 -0.26622215 -0.18895608 0.24616876 0.2124472 0.1286793 0.55388314 -0.59157515 -0.12860194
com.fasterxml.jackson.databind.serializationconfig.isenabled() 0.5526973 -0.012185008 -0.5700424 0.13604489 -0.12826914 -0.06892364 -1.3061211 -0.007374836 -1.3809536 0.060280725 -0.124601446 0.34747717 -1.1765 0.05492035 0.07206002 -0.8008519 0.6933729 0.52980524 0.926424 0.32314178 1.123559 -0.93324196 0.031210616 -0.21847194 -0.5412206 0.030270474 0.32846656 -0.298536 0.7726973 -0.5379861 -0.2963734 0.5631668 -0.05123858 1.1986896 -0.20945504 0.7689062 -0.57285905 -0.17766692 -0.21293828 0.4319484 0.8733768 -1.8294239 -1.3620701 -0.14679192 0.2843126 0.38676658 -0.19088002 0.49683827 -1.115826 0.10830134
com.fasterxml.jackson.databind.objectmapper.gettypefactory() 0.099970564 -0.14914973 -0.35955247 0.32631132 -0.80441296 -0.3000022 0.07073431 -0.1716016 0.35377052 1.0368932 0.099339515 0.5235999 0.076066576 -0.537112 -0.41697565 0.028256843 0.13546248 0.776394 0.41411862 -0.17096688 0.49450144 -1.1414802 0.10662382 -0.12487729 -0.22603105 -0.47760874 0.027175723 -0.33969548 0.96088433 -0.088326186 -0.33643773 0.88776004 -0.73998684 0.37312752 -0.32722932 0.24490295 -0.20556518 -0.207816 -0.21548289 -0.0031620567 0.35940835 0.026600609 -0.07147134 -0.84248674 -0.039869104 0.49309963 -0.080247745 0.41679996 0.011469204 0.6832097
com.fasterxml.jackson.databind.serializerprovider.defaultserializenull() -0.28451478 -0.9128151 -0.3591505 -0.15722711 -0.2693145 -0.41136736 -0.96854466 0.106470995 -0.57846683 -0.040263258 -0.67435277 0.2730218 -0.18178448 -0.27762672 0.3570509 -0.00045182186 1.180745 0.124376394 0.53444046 0.5960454 0.073287755 -0.47235206 -0.52552587 -0.053680807 -0.8553729 0.14464115 0.14744905 0.69601876 0.5052582 -0.09631773 -0.23317137 -0.0072438545 0.45803747 0.7517046 0.6407809 0.5252805 -0.2819758 -0.06700459 0.0201495 0.17512622 -0.26208514 -0.71182007 -0.28323287 -0.55559856 0.9572189 0.59164304 0.2583336 0.094186835 -0.620921 -0.0744478
com.fasterxml.jackson.databind.objectmapper.reader() 0.99718785 -0.3621494 0.2903365 0.4204923 -0.57518417 -0.60826224 -0.24388213 0.17051853 0.238698 0.41898525 -0.35815138 1.712153 -0.6033346 -0.08360251 0.47642595 0.745856 0.6215719 -0.121648245 0.4129576 0.33846962 0.8587454 -0.85190123 0.114791326 -0.61344427 -0.7759168 -0.20371644 -0.20407656 0.25979537 0.052405994 -0.054538302 0.01775296 1.095227 0.03351916 0.4413596 -0.018315002 -0.29140505 -1.149423 -0.75093794 -0.10439293 1.2988081 -0.24242945 0.0722224 -0.60437304 -1.0193795 -0.5461169 0.08041657 -0.20909335 0.76435065 -0.13899566 -0.527874
com.fasterxml.jackson.databind.module.simplemodule.adddeserializer() -0.35553518 -0.6697668 0.51450914 -0.12801974 -0.20984851 -0.47020537 -0.5310125 -0.20332268 0.031647265 0.30246967 -0.28995663 0.6438358 -0.11412598 -0.33362022 -0.049980614 0.4061614 0.3197409 -0.18526289 0.45398423 -0.34692004 -0.122754924 -0.5254986 0.26723334 -0.42011446 -0.25493252 -0.17725962 -0.0052942475 -0.17806743 0.32148147 0.06765161 -0.07164128 0.5373381 -0.051368795 0.65215826 -0.17679304 0.20897943 -0.61673075 -0.12498992 0.4924298 0.67176217 0.5955976 -0.29746482 -0.73253465 -0.87537366 -0.07738452 -0.01656696 0.15507232 0.8348663 -0.014072253 0.19076157
com.fasterxml.jackson.databind.jsonnode.isnumber() 0.41904423 -0.50116616 0.32459882 0.69091195 -0.93519306 -0.7574504 -0.8440943 0.12444951 -0.39504695 0.13368943 -0.41619527 1.0567682 -0.8855654 -0.16538468 0.35077843 0.37670273 0.40887693 -0.023388077 0.105904825 0.20920013 0.37504932 -0.6656628 -0.028672453 -0.7223419 -0.88500917 0.20091994 -0.26874787 0.093746126 -0.08421196 0.3472929 0.14572634 0.679181 -0.4957612 0.85678583 0.3389979 0.058699228 -1.4091547 -0.11016733 -0.28603208 1.5097326 -0.124407366 -0.2651191 -0.29354656 -0.005392436 -0.7059186 0.13217452 -0.20633858 0.54396045 -0.5468909 -0.83415014
com.fasterxml.jackson.databind.javatype.containedtype() 0.1628567 -0.87562495 -1.0570079 -0.05432592 0.26528302 -0.61697954 -0.27821305 0.45202467 -0.39562258 0.39995897 -0.29689705 0.15658934 0.051177632 -0.042395122 0.041184846 -0.14687403 0.8501416 -0.38436744 0.25650907 0.13941395 0.16212125 0.10473589 0.29672796 -0.5833907 -0.83625203 0.011656656 0.7209712 -0.07401289 0.5157023 -0.76413524 -0.34265304 -0.37564826 0.071357176 0.9203602 0.31383646 0.6244401 -0.08715882 -0.31094298 0.22759327 0.537282 -0.06476575 -0.7874025 -0.5996939 -1.0193921 -0.28979677 0.19968103 -0.41390413 1.1636719 -0.6599034 0.6092826
com.fasterxml.jackson.databind.deserializationconfig 0.5693127 -0.12673168 -1.0367801 0.5420097 -0.13369423 -0.3739384 -0.27072564 0.32369766 0.008017933 1.2330817 -0.334283 -0.07610505 -0.50122976 0.44473338 -0.22125064 0.03630479 0.7782789 -0.068095565 0.33687806 -0.13513882 0.43558612 -0.3165686 -0.28949225 -0.7190969 -1.2676584 -0.40207207 0.3144367 -0.95697373 0.38994187 -0.6973608 0.13069603 -0.012895092 -0.28660434 0.9177355 -0.2583614 0.4342345 -0.796069 -0.69778246 0.6144559 1.2595071 0.10810809 -0.70003974 -0.90824443 -0.767661 -0.7182567 -0.09179508 -0.7117466 0.93386924 -1.1011158 -0.07795392
com.fasterxml.jackson.core.jsongenerator.writeobject() -0.5926385 0.2508346 -0.48655427 0.50511783 -0.58772916 -1.4052254 -0.7814564 0.3073955 -0.33773085 0.68468976 -0.49853024 -0.3619472 0.355491 -0.81082565 0.28313836 -0.052124806 0.62629765 -0.714788 0.4834517 0.7401156 0.1305037 -0.01928532 -0.3483127 -0.17670432 -0.60343516 0.41369036 0.1311248 -0.12355013 0.5906463 -0.13648456 0.04234087 0.030143017 -0.20818974 0.23050731 0.16104528 0.18519868 -1.0284368 0.11182228 0.70867634 0.9520636 0.54840875 -0.17484313 -0.45314065 -0.674702 0.26937577 0.51955444 1.1461434 1.3091972 -0.8284548 0.26033178
com.fasterxml.jackson.databind.jsonnode.isnull() 0.30268952 -0.063531116 0.17277695 0.21491887 -0.42923072 -0.22564727 -0.096551314 -0.16847198 -0.14666422 0.091402985 -0.14573233 0.4941038 -0.32219186 0.057971306 0.021146113 0.17155254 0.1858981 -0.11494896 0.033226978 -0.11220116 0.14536673 -0.35484037 -0.44809386 0.057215154 -0.3229388 -0.22003385 0.02318291 0.14560977 0.3544386 0.006893442 -0.20236492 0.6020736 -0.45347375 0.64835477 0.5959169 0.026342954 -0.36671698 -0.03331995 -0.2514739 0.4044298 -0.14897493 -0.023569122 -0.09553986 -0.3326101 -0.27715406 0.15562071 0.0013934873 0.31038484 0.11592104 -0.2629597
com.fasterxml.jackson.databind.deser.settablebeanproperty.getname() 0.7324744 0.8468475 -0.20264444 0.13892698 -0.96615887 -0.766025 -0.590412 0.41108936 -0.22911969 0.7255912 0.32029948 -0.23664914 -0.48996276 -0.2519127 0.12160702 -0.70291126 0.32937378 0.036760736 0.35392755 0.60214907 0.8865064 0.22716564 0.10691537 -0.7573388 -1.0883584 0.36035526 -0.34036636 0.5960413 0.07618968 -0.3912605 -0.57234526 -1.2451766 0.17153482 0.49127293 0.875173 -0.46471325 -0.4043423 -0.3339918 -1.3987855 1.0558683 0.19533472 0.08053767 0.0998716 -0.5298751 0.9528348 0.6628564 -0.70516956 1.4571797 -0.38469437 0.49483824
com.fasterxml.jackson.core.jsongenerator.canwritetypeid() -0.0097981505 -0.0055043385 0.009812863 -0.0034895828 -0.003328279 0.00019253882 0.006295641 -0.0012072852 -0.0011395451 -0.0056100315 0.0013741322 -0.002963117 8.565001e-05 -0.008737492 0.0070881615 -0.0037620042 -0.009866008 0.002558108 -0.0062867193 0.008688971 0.009025584 -0.006759584 -0.0029970503 0.009803831 -0.0002021432 -0.004688518 0.0043189963 -0.009592197 0.00830213 -0.0065975334 -0.0018378324 0.0003986283 -0.0042252713 0.008846969 -0.0014083785 -0.009625932 -0.006644312 0.00064700464 0.0046398174 0.002661634 0.007541073 -0.009091091 0.00058302557 0.0077558393 -0.0005652853 -0.003888527 0.0056310617 -0.002268852 0.0008191823 0.008728988
com.fasterxml.jackson.core.jsongenerator.writeobjectfield() -0.43723193 -0.09460608 -0.16024646 -0.077060215 -0.66723317 -0.031044114 -0.9962349 0.04501534 -0.35140446 0.100130096 -0.7283168 -0.1623422 -0.3149145 -0.6785594 0.5466411 -0.030122133 0.82918054 0.11708772 0.64408535 0.2009974 0.007166108 -0.6402166 -0.48870948 0.05329681 -0.678884 0.36326918 -0.1463033 0.21608774 0.31311968 -0.037960954 -0.03331394 0.0696499 0.23516737 0.6192961 0.13066816 0.054615185 -0.6315487 -0.023777891 0.2606499 0.3503565 0.46691087 -0.5600635 -0.5668313 -0.63552344 0.5212289 0.19594611 0.30943865 0.6342661 -0.6146192 -0.07938211
com.fasterxml.jackson.databind.node.arraynode.get() 0.14659755 -0.34788677 0.33510414 0.3255069 -0.2160178 -0.24643737 -0.50294936 -0.22492316 -0.42374474 0.2344182 -0.5025661 0.93530893 -0.49272346 -0.09628039 0.18009974 0.060718924 0.21322332 -0.113062486 0.09305309 0.01588096 0.25058898 -0.3998681 -0.28834704 -0.14045984 -0.14949653 0.08753244 -0.20242769 0.19501062 0.09212167 0.2776152 0.03811615 0.81504357 -0.41766185 0.59384835 0.30887076 -0.04679477 -0.69692254 -0.026734963 -0.25032783 0.8757292 0.08962391 -0.097700804 -0.18341772 -0.40933955 -0.46177748 0.34590268 -0.24112958 0.31953427 -0.20584972 -0.7373141
com.fasterxml.jackson.databind.deserializationcontext.weirdstringexception() -0.44896975 -0.25371706 -0.9002865 0.4656349 -0.8106559 -0.44048065 0.030844195 -0.15035446 -0.14407375 0.67432755 0.19651815 0.07839067 -0.7331873 -0.32556072 0.685855 -0.77297497 0.30348206 0.30791986 0.048681576 -0.18953961 0.5692318 -0.94209504 -0.73335797 -0.5316589 -0.8786656 0.37827542 -0.46317738 -0.29055765 0.3035019 0.013506779 0.60446703 -0.64055586 -0.55805844 1.0039916 0.35412562 1.0375025 -0.6827066 0.23239237 -0.57098186 0.35646835 -0.23492198 -0.24003026 0.31801888 0.0009918 0.007116672 0.26755625 -0.25200868 0.4308253 -0.9510902 -0.2711264
com.fasterxml.jackson.databind.ser.beanpropertywriter 0.74843866 -0.33125162 -0.20608696 -0.13360846 -0.5581216 -0.078058526 -0.1372085 -0.30617917 0.13655505 0.621234 -0.016968941 -0.05330269 -0.26698786 0.32330325 -0.11942235 -0.082119435 0.47089514 -0.16774032 0.32961684 0.41248187 0.1419319 -0.38123074 -0.42814857 -0.08203574 -0.69985443 -0.21316451 0.34638777 -0.21004938 0.6660262 -0.244588 -0.58861566 0.23737013 -0.30398512 0.4686144 0.3210354 0.33259046 0.189072 -0.33499637 -0.37931857 0.067194805 -0.23399965 -0.25799844 -0.28629163 -0.5179432 -0.104853675 0.33426735 -0.4211677 0.4741375 -0.043067202 -0.2959261
com.fasterxml.jackson.databind.introspect.annotatedclass 0.8825761 -0.26843354 -0.403675 0.44532916 0.1332118 -0.083062515 -0.70029116 -0.39205703 -0.08008138 1.0533004 -0.30859306 -0.16302022 0.23943992 0.33671236 -0.33624008 -0.019695856 0.6244603 -0.17938085 0.25527745 -0.13525733 0.8157579 -0.14969476 -0.13822742 -0.5378127 -0.6283543 -0.17450297 0.3018793 -0.40807536 1.1907531 -0.53746223 -0.66625404 0.12560658 0.120945714 1.1129186 0.17446716 -0.09885723 -0.27175286 -0.93682015 -0.06948168 0.6482355 -0.6445023 -0.62284803 -0.35625824 -0.3150973 -0.41109097 0.16294879 -0.14640708 0.93307364 -0.58668107 -0.2271119
com.fasterxml.jackson.core.jsonparser.next() -0.002832757 -0.008070583 -0.005296844 -0.0038034157 -0.0060305404 -0.0010450684 0.0076223407 0.009486588 -0.0033730336 -0.0005721199 0.0088659795 0.0027674092 -0.0045564873 0.0014028674 -0.007997359 0.009192123 -0.0010093406 0.0054239063 -0.0033414564 -0.009672963 0.009753127 -0.0052908426 0.0040248665 -0.009030439 0.007894496 0.0067751887 -0.009466418 -0.0076200664 -0.0014462644 0.0048516137 -0.007907332 -0.00052119826 0.009999333 0.008799296 -0.008473526 0.0072241575 -0.0046749334 0.0023253318 -0.0022849967 -0.0007445953 0.000833224 -0.0027360832 0.0093268035 -0.0077624824 -0.001125572 0.0033614633 0.009031837 0.0060098977 -0.0047124373 -0.004824429
com.fasterxml.jackson.databind.objectreader.readvalue() 0.13742055 -0.018099554 -0.14461264 0.041859478 -0.48015463 -0.29033154 -0.27272233 0.0752406 0.2008639 0.4424517 -0.04607709 0.34132558 -0.21230587 -0.018904924 0.13140856 0.049035273 0.16864 0.01838218 0.28106746 -0.08571007 0.09887465 -0.45950687 -0.084531255 -0.3704808 -0.2966191 0.15001443 0.017484583 -0.16064706 -0.071043864 0.15005995 0.0807526 0.37690368 -0.3145376 0.5281416 0.05048659 0.2763105 -0.38487762 -0.10593305 -0.026418557 0.17772089 0.413018 -0.013669116 -0.29986694 -0.30829832 0.14215086 0.04648995 0.28361088 0.5261571 -0.11932445 0.32235363
com.fasterxml.jackson.databind.module.simplemodule.addserializer() -0.29435864 -0.53418547 0.36813605 -0.23588277 -0.3254875 -0.564593 -0.2904192 -0.19851655 -0.09704036 0.44764638 -0.12115288 0.6793694 0.0123372255 -0.26459706 -0.14602584 0.41059414 0.0048047276 -0.056475498 0.68581146 -0.2965638 -0.1896525 -0.70847917 0.44668716 -0.31314594 -0.46897805 -0.16868997 -0.09629791 -0.09619134 0.29425445 0.0023499934 0.08883097 0.7069148 -0.19266514 0.6366145 -0.13387705 0.35869622 -0.5737524 -0.07953734 0.55794704 0.47767556 0.5449778 -0.37317845 -0.64987785 -0.8792851 -0.07627491 0.17781934 0.25388733 0.79584295 -0.0920962 0.4283533
com.fasterxml.jackson.databind.node.textnode.valueof() 0.0005389419 -0.008687667 0.0068499725 -0.003562209 0.0075550145 0.0017332209 -0.00913179 0.0019102426 0.0038519576 0.006695042 -0.0076516615 -0.0036548502 -0.005402501 0.007236027 0.0028564488 -0.0023995715 0.0049095764 0.009131116 -0.009807332 0.0025057388 0.0032367967 -0.0040928978 -0.009567949 -0.0015145957 0.0038207523 -0.0098508885 -0.0032549412 0.0049952106 -0.006142874 -0.0016637306 -0.007605982 -0.0027206107 -0.004502106 -0.0028222974 -0.0048868125 0.0067631532 -0.005603713 0.006316205 0.00858199 -0.007986733 -0.0065746703 -0.0082481 0.004194664 0.004440942 0.007041806 0.0014048589 -0.0012013331 0.0037342226 0.003154901 0.0027384835
com.fasterxml.jackson.databind.jsonnode.ismissingnode() 0.27305755 -0.21680877 0.113678314 0.20059218 -0.53849435 -0.22104801 -0.20236494 0.007641583 -0.01993513 0.30535325 0.0011720085 0.386838 -0.30420086 -0.045075174 0.020808052 0.21727374 0.19637232 -0.02061362 0.12264705 0.1553972 0.09569906 -0.3901407 -0.41051027 -0.033537373 -0.45700976 -0.072421804 0.10861679 0.08072672 0.17241809 0.24799253 -0.111863166 0.66067994 -0.28048837 0.5056753 0.5061428 0.28907686 -0.22256625 -0.058658488 -0.21700303 0.32073745 -0.25469956 0.062931836 -0.13107534 -0.37876832 -0.28768337 0.17709859 -0.12557574 0.2470166 0.019435374 -0.32893044
com.fasterxml.jackson.core.jsongenerator.writetypeid() -0.007949581 -0.0006858544 -0.0050741625 0.0029883815 0.0040232986 -0.007257576 0.004665686 -0.007957215 0.0043180953 -0.003965411 -0.00020825893 0.0005058087 0.0059772166 0.0022173596 0.0039262506 0.0036995644 0.0035181618 0.009617301 -0.007153707 -0.0077370694 -0.008208095 0.0012937039 -0.0031300655 -0.0045687575 -0.0047124145 -0.00030378607 -0.0057070334 0.003910981 0.0004947517 -0.007140925 -0.00946126 -0.006357771 -0.0026443158 0.0022275734 0.007508332 -0.0051698145 -0.009587864 0.006742026 0.008743272 6.2823965e-05 0.00630504 0.007839387 -0.0035313033 -0.005450695 -0.0009598747 -0.004763051 0.009890357 -0.0057953894 -0.0030092292 0.0068477946
com.fasterxml.jackson.databind.deserializationcontext.wrongtokenexception() 0.061640386 -0.32534343 -0.23351236 -0.08285717 -1.2212727 -0.887951 -0.3969394 -0.47169504 -0.21335329 0.6060515 -0.053542204 -0.07074671 -0.34476715 0.10425141 0.45892072 -0.21273194 0.009725481 -0.13132232 0.023727847 -0.10152535 0.2490776 -1.1212906 -0.24055924 -0.6814129 -1.0725678 0.5512256 -0.45485723 -0.7767431 0.25549215 -0.06578184 0.55878854 -0.74004066 -0.53261524 0.86416614 0.3854498 0.36547756 -1.3503536 0.18055934 -0.2629266 0.83808213 -0.26971728 -0.02137067 0.2523311 0.25574479 -0.034153387 0.5593791 -0.30868155 0.7269719 -1.1180058 -0.1996885
com.fasterxml.jackson.databind.objectmapper.convertvalue() -0.015736692 -0.03264531 0.50528973 0.17135015 -0.41324732 -0.85254896 -0.20455126 -0.039562166 0.06820524 1.0674714 -0.49919757 1.0064063 0.1872822 -0.0060884226 0.33406568 0.008958512 0.2071846 0.061436493 0.39162433 0.20541333 0.37465054 -0.62948895 -0.0680716 0.17309044 -0.21773247 -0.7657056 -0.07696102 -0.3276352 0.17899378 0.11667725 -0.2108063 1.0312618 -0.3501074 0.46383378 0.103646204 -0.15921764 -0.64991766 0.049764894 -0.5164261 0.6442615 0.22117835 0.27827454 -0.47766554 -0.7785036 -0.19633028 0.35800335 0.056203153 0.20149569 0.19737634 -0.16425945
com.fasterxml.jackson.databind.deserializationcontext.findcontextualvaluedeserializer() 0.54345846 -0.10357929 -0.24026547 -0.21389489 -0.8566615 -1.0851703 -0.47713983 0.4389669 -0.12798078 0.81376517 -0.13245341 -0.33574775 0.54286045 -0.044076372 0.56991845 0.2521606 0.8427806 -0.7840028 0.05175564 0.5864342 -0.14091077 0.37517083 -0.3977131 -0.27225533 -1.7779613 -0.11599368 0.41709766 -0.518649 0.22719108 -1.0686836 -0.5943194 -0.596399 -0.4703951 0.81010056 0.14208926 0.060745534 -1.1578442 -0.3675473 0.17077048 1.4448518 0.44296354 -0.16885774 -0.6364098 -0.685383 -0.38557708 0.35728577 -0.25426036 1.3008964 -1.0953772 -0.5872642
com.fasterxml.jackson.databind.jsontype.typeserializer 0.62965524 -0.7796654 -0.5607157 0.12985605 -0.69500786 0.30641893 -0.75399035 -0.23044984 0.40403688 0.5690464 -0.19576289 0.6573603 -0.8775462 0.22979958 -0.33250138 -0.028043522 0.33646923 -0.47821692 0.4030417 -0.06559759 0.51634455 -0.2433221 -0.22950247 -0.38859 -0.72807 0.22932434 0.3337255 -0.43936718 0.50112617 -0.5449167 -0.38080132 0.012404934 0.09706517 0.9832206 0.14935528 0.039701834 -0.1835535 -0.032094017 -0.626627 0.1753789 0.17342396 -0.9522874 -0.55791587 -0.56265295 -0.4917902 0.21690546 -0.37387425 0.62710255 -0.43801206 0.25497764
com.fasterxml.jackson.databind.type.typefactory.unknowntype() 0.4040554 -0.5071106 -0.5287077 0.39335597 0.054424066 -0.26279253 0.053071078 0.416667 -0.22154292 0.2983737 -0.06868653 -0.21158852 -0.14548446 -0.120588824 -0.65124506 -0.12302885 0.5383752 -0.07260347 0.32946146 -0.33157986 0.11729609 0.106535904 0.14299454 -0.8683817 -0.5527459 0.07798513 0.44539633 0.27972987 0.58273107 -0.54682237 -0.5829086 -0.05795268 -0.048337616 1.3768804 0.36326918 0.36400247 -0.45915544 -0.49162826 -0.15224862 0.32443476 -0.25773758 -0.29634428 -0.41064245 -0.45737723 -0.58110696 0.20056635 -0.4764879 1.2224972 -0.60312265 0.31155193
com.fasterxml.jackson.databind.objectmapper.valuetotree() 0.52617925 -0.9365579 0.4934025 0.35461402 -0.2125094 -0.63499796 -1.1386784 -0.25063717 -0.31084523 0.63409686 -0.4972835 1.4222953 -0.8145933 -0.20917837 0.3212583 0.43689352 0.5930164 -0.05371574 0.3669388 0.3069734 0.7747648 -0.37888053 -0.16014229 -0.4068457 -0.5521759 -0.08733889 -0.43761647 0.32397124 -0.092867814 0.27994937 -0.06854052 1.2226093 -0.09982622 0.7159971 0.1466202 -0.24640611 -0.9479122 -0.34530628 -0.31904006 1.3143967 -0.21980943 -0.34591788 -0.38388422 -0.7798283 -0.55231124 0.45340365 -0.43637547 0.55069464 -0.20047301 -0.9770496
com.fasterxml.jackson.core.json.jsonfactory.creategenerator() -0.46068734 -0.28206977 -0.2618593 0.31350297 -0.8026744 0.079228945 -1.1037128 0.064059965 -0.53878355 -0.03125337 -0.53663653 0.91980755 -0.82432765 -1.417973 0.51855534 0.021448622 0.39863473 0.422852 0.6139473 -0.04997241 0.40787134 -0.32903218 0.6132924 -0.41345346 -0.69017667 0.931309 -0.27803808 0.50558454 -0.230261 0.028017705 0.36300048 0.125003 -0.11986171 0.85038024 0.08183103 0.40773946 -1.2289653 0.21409418 -0.21475153 0.29822463 0.92865133 -0.45660052 -0.94206953 -0.53787625 0.6655146 -0.024009645 -0.22556183 0.50394565 -0.9938341 0.33497432
com.fasterxml.jackson.core.jsonparser.getembeddedobject() -0.034832723 -0.5304995 -0.18517476 0.34295183 -0.9285406 -0.6524068 -0.40087515 -0.13318379 -0.8695212 0.390504 -0.67743057 0.22118871 0.3570745 -0.39959586 0.82119375 -0.84683245 1.004162 0.056715276 -0.16064776 0.20675516 -0.17629282 -0.9164272 -0.29745075 -0.84041744 -0.93619084 0.36220667 -0.2291244 -0.38578618 0.5896755 -0.45735145 0.75684863 -0.741676 -0.605545 0.64629084 0.5071765 0.3966978 -1.0150484 0.0014309087 -0.14022012 0.34926546 -0.16195185 0.132009 -0.034795336 0.020357937 0.10451751 0.56497693 -0.08759818 0.9098995 -0.8654253 -0.5186418
com.fasterxml.jackson.core.jsongenerator.writeraw() -0.17944573 0.1868125 -0.5124447 0.4378149 -0.6026118 -1.8677903 -1.7733747 0.49842113 -0.67718714 -0.29592028 -0.35557893 -0.02802193 -1.0437132 -0.70398307 -0.5960223 -0.7050944 0.38149068 -0.088794865 0.26191932 0.5769885 0.28369662 -0.9386924 -0.3858094 -0.31634215 -0.9926998 0.21135545 0.36208168 0.57930356 0.18426117 0.051709376 -0.6105782 -0.2518584 -0.33583015 0.31768388 0.87618333 0.15462776 -0.5495228 0.44368014 -0.25732473 0.43966436 0.7594135 -0.52458096 -0.14877954 -1.1836056 0.45878556 0.5795491 0.95289546 1.0903964 -0.30950204 -0.073837616
com.fasterxml.jackson.databind.objectmapper.writerfor() -0.1989502 0.1526735 -0.3552187 -0.031306975 -0.45642096 -0.07807076 -0.045422707 -0.114767686 0.101757586 0.61752325 -0.13706103 0.7300648 0.12923302 -0.40726626 0.27674598 -0.22467849 -0.039612472 -0.055391397 0.25142267 -0.41754395 0.13321905 -0.5587399 0.08439761 -0.29280707 -0.4615198 0.1832518 0.12688735 -0.05998928 0.16729364 0.017772458 0.23547556 0.64329886 -0.7807888 0.606374 -0.0733609 0.65074295 -0.38483265 0.20031272 -0.34307042 0.05123014 0.8219782 -0.046651475 -0.49040434 -0.7540364 0.14764473 0.17722508 -0.055764504 0.6919386 -0.10904963 0.5929143
com.fasterxml.jackson.simple.tree.jsonobject -0.0065852893 0.000101582074 -0.0037705929 -0.0072172903 0.009887997 -0.008014969 -0.0048331344 -0.00088931934 0.005076565 0.0066552428 -0.009059558 -0.00025297442 -0.0065190173 0.009494603 0.002258646 0.00956967 0.0039701993 0.008238502 -0.0070769866 -0.0020961857 0.0073488946 0.0054067676 0.0075124623 0.007958004 -0.009750804 0.0028001633 0.0064103627 -0.005167528 0.0032675571 -4.4925935e-05 0.0027422502 0.009424398 0.0028520068 0.0055799126 -0.007921831 0.002494944 -0.0013989774 -0.008483364 -0.0015850671 -0.009625704 0.002890328 0.0027993368 0.0069525223 -0.009658521 -0.0060486956 -0.0049929474 0.0035885868 0.0037347972 -0.0012371673 -0.004685877
com.fasterxml.jackson.databind.ser.impl.propertyserializermap.serializerfor() 0.32415405 -0.14896955 -0.6885577 0.06444591 -0.15791808 0.26870152 -0.3037856 0.09711649 -0.14722872 0.38680997 -0.7327588 0.32274348 -0.101919875 -0.31160092 0.084316716 -0.35642627 0.673321 0.2803435 0.54900956 0.048572943 0.47239372 -0.36014628 -0.016514855 -0.33795273 -0.40304294 0.008541145 0.32734033 -0.063146435 1.0217044 -0.9776069 -0.2856922 -0.01616439 -0.039022874 0.98079926 -0.13850953 0.028591376 -0.37028798 -0.33781663 -0.31328052 -0.1483151 0.4116056 -0.93616706 -0.72221494 -0.79935277 0.24991752 0.36477098 -0.088247366 0.62461466 -0.6240504 0.39144602
com.fasterxml.jackson.databind.javatype.getvaluehandler() 0.5516085 -0.5140139 -0.9579836 0.34292176 -0.56865007 -0.35040975 -0.24568063 0.0213468 0.5004764 1.179981 0.15281765 -0.029977832 -0.42182332 0.057349477 -0.03097457 -0.6473173 0.7584145 -0.19239964 0.32149386 0.0032171092 0.7186139 -0.41035354 0.25396222 -1.0865928 -0.5946331 -0.4053224 0.22605222 -0.779983 0.95497537 -1.20051 -0.26682055 -0.47938585 -0.56037474 1.2948192 -0.4985166 0.27241403 -0.42462328 -0.42750382 -0.2235183 0.29360294 -0.107956246 -0.64059746 -0.35132322 -0.4500387 -1.22415 0.54747105 -0.99007577 1.7340719 -0.6235774 0.23501143
com.fasterxml.jackson.databind.introspect.pojopropertybuilder 0.61409545 0.51446676 0.62704223 0.07562207 -0.39187652 -0.45132577 0.06337335 0.0545855 0.15822905 0.6593013 -0.43582574 0.2193537 0.45756754 0.024911083 0.5726118 0.09222157 0.9174956 0.159706 -0.18282542 0.08286206 0.46926832 -0.087694675 -0.41237432 -0.13372627 -1.1436976 -0.73032874 -0.20553125 0.16405396 0.9361793 -0.51234114 -0.6252166 -0.029794661 -0.22769387 0.7977764 0.6493294 -0.4303253 0.054803155 -0.49549678 -0.46537665 0.5367032 -0.43429148 0.27410477 -0.46007004 -0.69764906 0.30661842 0.7065714 0.17559181 0.7023064 0.49953142 -0.15512973
com.fasterxml.jackson.databind.jsonnode.asint() 0.037176505 -0.007131806 0.39140135 0.543362 -0.81822735 -0.9312644 -0.22541957 -0.031371865 -0.8371014 0.34581727 -0.2784925 1.0252886 -0.76320076 -0.4165591 -0.23413123 -0.121893555 -0.17074288 0.20151295 -0.011130877 0.019697659 0.4325399 -0.53793323 -0.4772939 -0.053112946 -0.33557576 0.097786635 -0.40832257 0.12378163 0.3037408 0.18230844 -0.035241112 0.6690373 -0.64413744 0.5157569 0.37284428 0.19663018 -0.9325045 0.35711202 -0.96102303 0.86666095 0.030236324 -0.10813817 0.04916822 -0.5919167 -0.10688917 0.4676399 -0.13593827 0.17820778 -0.36962008 -0.47538665
com.fasterxml.jackson.databind.jsontype.typeresolverbuilder 0.77331895 -0.7018588 -0.6769227 -0.028295781 0.019275362 -0.4130131 -0.16567996 -0.24525134 0.5115568 1.166127 -0.21826121 0.44103354 0.17800604 0.4220853 0.19852297 0.10248603 0.48136345 -0.87093323 0.16061889 -0.238933 0.6798717 0.040126976 0.3504945 -0.4777287 -0.9731522 -0.23723191 0.34636304 -0.101721205 1.3940202 -0.76299757 -0.1498891 0.6121057 -0.81832135 1.3891981 0.17875873 0.21081944 -0.19089812 -0.7764286 -0.6011154 0.05669863 -0.175642 -0.021052305 -0.11612528 -0.2970964 -1.2069892 0.3950143 -0.828609 0.5162859 -0.089312926 -0.07132152
com.fasterxml.jackson.databind.beanproperty.getmember() 0.61188483 -0.33536422 -0.050681915 0.060471892 -0.10252308 0.09831378 -0.14947373 -0.23825467 -0.093952276 0.6690532 -0.27231404 -0.12864274 -0.02541172 0.31879947 0.004497263 -0.114213146 0.40902668 -0.13383628 0.17987873 -0.062393147 0.22704594 -0.23096727 0.026780138 -0.37406376 -0.7113094 0.02947037 0.11781035 -0.21493657 0.82873833 -0.46842992 -0.39236525 -0.039203744 -0.14654109 1.0693638 0.29591835 0.070320934 -0.4242038 -0.65095913 -0.17541885 0.4293065 -0.32356557 -0.27309862 -0.42200413 -0.23532186 -0.57288456 0.3568276 -0.11578437 0.9439697 -0.28063092 -0.40514913
com.fasterxml.jackson.databind.objectmapper.readerfor() -0.5431271 -0.095837876 -0.5119944 -0.05558091 -0.6782968 -0.6300762 -0.38185105 -0.19098815 0.021823417 0.650646 -0.14604062 0.73478144 -0.11259899 -0.5391822 0.29154873 0.12397049 -0.0657624 0.007323203 0.18005209 -0.54516995 0.26193592 -1.1488513 0.12213634 -0.42061356 -0.08722807 0.2711894 -0.2158762 -0.57184637 0.09365003 0.04084473 0.517388 0.54714906 -0.87046874 0.915719 -0.3788301 0.6329124 -0.57859564 0.18180738 0.19157006 -0.12844618 0.8176086 -0.06017265 -0.5186691 -0.8216797 0.16001256 0.17746517 0.38927057 0.7791589 -0.16505828 0.81575716
com.fasterxml.jackson.databind.objectmapper.writerwithview() -0.013152142 -0.22447303 0.065301605 0.07238288 -0.9025054 -0.9095698 -0.40912586 0.35150644 0.30414903 0.8717313 0.22511147 0.5932872 -0.079529025 -0.64881164 0.16676795 0.8012077 -0.07035441 0.4971322 0.380656 0.15342377 0.5478336 -0.8697133 0.24813859 -0.18000491 -0.6056199 -0.2917517 -0.51605517 -0.44825086 0.05631815 0.33656043 0.17213906 0.88439184 -0.24320395 0.53993475 -0.38257545 0.40225098 -0.56810427 -0.09803302 -0.008267502 0.3080282 0.3846916 -0.037919007 -0.40677553 -0.6989842 0.20534766 0.4044205 0.11423201 0.3662803 -0.0024157716 0.47378594
com.fasterxml.jackson.databind.serializerprovider.getannotationintrospector() -0.0020412817 0.0076794787 -0.007858298 0.009163298 0.008221576 -0.009660154 -0.006997049 0.0043601315 -0.0063944245 -0.0032459449 0.0025408836 0.0061647627 -0.0074665714 0.005025505 -0.00041217965 0.0071798624 -0.00023702832 -0.0036302886 -0.00721716 -0.009798391 -0.0016956747 0.0030249911 0.0027947875 -0.009229924 -0.001874618 -0.00038988813 -0.00825155 0.0039956192 -0.005409876 0.0012471682 -0.005352189 -0.008161984 0.0033871369 0.0017448744 -0.008204749 -0.00967382 -0.0016162395 -0.0062273676 0.008025909 -0.00040539727 -0.0030693144 0.0059418334 0.004820542 -0.008516495 0.0046308124 -0.0010518946 0.00050603953 0.0026531331 -0.00034338958 0.009285711
com.fasterxml.jackson.core.jsongenerator.writebooleanfield() -0.4759815 -0.37802818 -0.12391803 0.22689551 -0.40771195 0.19213359 -1.0725852 0.06473337 -0.27885708 -0.17003182 -0.87379944 0.50164163 -0.20057383 -0.86753327 0.40724716 0.46693304 0.8606196 0.14709134 0.51150024 -0.009139312 0.3676557 -0.26284048 -0.5196642 -0.18567911 -0.6294904 0.49254608 -0.11890677 0.6302704 0.38919726 0.4414916 -0.06540046 0.29266205 0.49428812 0.71805143 0.5208708 0.13551898 -0.51820743 -0.023836654 -0.09212727 0.49898487 0.20184639 -0.3618401 -0.48922494 -0.5814149 0.40782198 0.28253195 0.23092341 0.50913095 -0.46944475 -0.17251979
com.fasterxml.jackson.databind.jsonnode.isintegralnumber() -0.0035555842 0.009373361 0.0017387532 0.007480593 -0.007157371 -0.0035798813 -0.0013217782 -0.00032881956 -0.008906226 0.009223126 -0.0028554816 0.0014916315 0.0056667975 0.008404515 0.007204125 -0.007883338 0.0041780095 0.00014776639 -0.0020910962 0.0047274423 0.009109335 -0.009230091 -0.0036936903 0.004888029 -0.003855292 -0.0037592985 -0.004417961 -0.0019621407 0.005765434 -0.0052421857 -0.0026693183 -0.0036340146 0.0019135451 -0.009889741 0.009187662 0.005751717 -0.0066324393 0.0014264552 -0.0025401819 0.0066334656 -0.007985305 0.0011964703 0.0043169702 -0.0067717615 0.0007996283 0.0016884567 0.0009963596 -0.0043401592 0.008707871 -0.0053688493
com.fasterxml.jackson.databind.deser.impl.propertybasedcreator.build() 0.71868795 0.5138224 -0.20775956 0.2675428 -1.4036655 -0.016488638 -0.25415212 0.18864714 0.0092751095 0.945265 -0.7944904 0.236918 0.31645375 -1.1981373 1.031179 -0.8944803 0.5192899 0.75362104 -0.014075569 0.23941028 0.9331637 -0.40667063 -0.08605398 -0.49817166 -1.1209136 0.5009564 -0.26644704 -0.31327647 0.4837468 -0.49456885 0.31319305 -0.5123584 -0.2913326 0.81754106 -0.13648188 0.047475345 -0.2449618 -0.2930844 -0.9439642 0.2103336 0.23739894 -0.102487974 -0.5877525 -0.36200556 0.55021626 0.80822647 -1.1137885 0.9378606 -1.04137 -0.60451657
com.fasterxml.jackson.databind.keydeserializer 0.6843661 -0.33072022 -0.63325626 0.16668308 -0.47827402 -0.46496058 -0.5152254 -0.47653273 0.19055077 0.96545875 -0.2009709 0.19725692 -0.27938235 0.38897946 0.03940663 -0.8319889 1.0442119 0.018969592 0.10823034 -0.062325053 0.3185015 -0.41185948 0.05209267 -1.1525538 -0.6216013 -0.20208137 0.4912826 -0.76364213 0.68065226 -1.2257364 -0.23902664 -0.5563039 -0.5028108 0.69278145 -0.35132152 0.20288052 -0.8370739 -0.71805936 -0.5350956 0.75787693 0.3906347 -0.89144653 -0.3738598 -0.4715067 -0.41103226 0.34086263 -0.4879302 1.2495311 -0.9353874 0.254153
com.fasterxml.jackson.databind.serializationconfig.with() 0.6431317 -0.8659375 -0.875355 -0.1463978 -0.00673004 -0.28856862 -0.40845945 0.10237289 -1.1976693 0.22108833 -0.5818239 0.3624809 0.62513787 -0.1562629 -0.010170768 0.0018022251 0.07426828 -0.3415674 0.6148237 -0.46894607 1.0619686 -0.23808078 0.79542494 -0.06884221 -1.5038536 0.33453125 -0.032455195 0.6504462 1.240661 -0.07840033 0.25153825 0.41286984 -0.15398559 2.070689 0.17178586 0.4700823 -0.34423545 -0.67644304 -0.06749943 0.7342815 -0.537963 0.007012098 -0.14764675 -0.48463708 -0.9852173 0.72850436 -0.84448296 0.5800724 -0.38539416 -0.73146665
com.fasterxml.jackson.databind.deserializationconfig.isenabled() 0.25956017 0.21604389 -0.37198535 0.2709024 -0.19556926 0.06296634 -0.9147574 -0.468155 0.020008935 0.88506085 -0.2818602 -0.37513435 0.031680625 0.13835941 0.2174617 -0.96908236 0.75479007 -0.16956018 0.1438309 -0.431993 0.325938 -0.46642426 -0.116035014 -0.6042538 -0.71736133 0.15043695 0.5142858 -0.5076384 1.0214349 -0.38274333 -0.056681253 -0.5956515 -0.4764282 0.78928584 -0.16424604 0.2721615 -0.33933908 -0.35815588 -0.16644655 0.25220335 0.23063917 -0.6025801 -0.6386407 -0.65937364 -0.27277383 0.28895944 -0.6915734 1.146223 -0.5934164 -0.08640243
com.fasterxml.jackson.databind.serializerprovider.getconfig() 0.009240703 -0.005682263 -0.008475862 -0.007380318 0.006858343 0.003053763 -0.007059176 -0.0064280857 -0.00972295 0.0045508225 -0.0021359245 -0.004062547 0.0022671914 -0.007229228 0.0034768062 -0.00015487989 0.0017896756 -0.008232586 -0.0048665022 -0.0027418253 -0.0012862633 0.008800801 0.006794578 0.0041522887 0.0020126537 -0.0067535974 0.00023136073 -0.004301958 0.007540879 0.0029134653 -0.0027620909 -0.0047724457 0.005738436 0.004321985 -0.004857375 -0.0060957996 -0.008392328 0.0004968362 -0.003292047 0.008379426 -0.0013124754 -0.0051149274 -0.006356628 -0.007802492 3.0081143e-05 -0.0044141114 0.009688211 0.006522514 0.0074968543 0.0011677729
com.fasterxml.jackson.databind.node.intnode.valueof() 0.005029972 0.0060218205 0.0062530013 0.00089447066 0.006232383 -0.008588728 -0.002725838 -0.0015196708 -0.007453064 -0.0047448776 -0.007901619 0.009808331 -0.008049436 -0.00840228 -0.00616165 0.00030550803 -0.0005930894 0.009626119 -0.00014085053 -0.0015535854 0.008882364 0.008648533 0.0049785655 -0.00484615 -0.0009736063 0.00094307266 0.0048286244 -0.0060363496 0.0012006806 0.005062225 0.009808638 -0.008580081 0.00048066324 -0.0012698056 0.008693098 0.0061484543 0.0021968745 0.003772323 0.0055075 0.0004550744 -0.004398478 -0.0028860876 -0.003323881 -0.0045687133 0.0027311158 -0.00044999193 -0.004242028 -0.009899952 0.008341717 -0.006645967
com.fasterxml.jackson.simple.tree.jsonarray -0.008808775 -0.0053504677 0.0013300707 -0.008522265 -0.0047770324 -0.0036157037 0.009709962 0.0050102635 -0.0010519952 -0.002768486 0.004156058 -0.008325489 -0.005303282 -0.004735928 0.006337272 0.00093331194 0.0052269707 0.003670844 -0.0017875715 0.0023551737 -0.0039749728 -0.0029561354 0.009672328 0.0065400815 -0.0078074923 -0.0063221804 -0.0054658297 -0.0066743633 6.5157925e-05 0.008328269 -0.0063415742 -0.0077599827 -0.0036439043 -0.006743464 -0.0057232263 -0.002880632 -0.006936905 0.0043727155 -0.008982868 -0.0033371204 -0.009157859 -0.0073663434 0.008971748 -0.0054305266 -0.0073787807 0.0030320587 -0.0029768038 0.0058148964 0.00357295 0.0069106384
com.fasterxml.jackson.databind.util.tokenbuffer.close() 0.17285007 0.09124409 -0.053129774 0.0067232316 -0.503465 0.28108343 -0.20240003 -0.06879003 -0.04579766 0.20849463 -0.33677402 0.117619805 -0.1762955 -0.1813562 0.47847718 -0.35400268 0.36090773 0.15290238 0.02058061 -0.080019645 0.34318665 -0.37677723 -0.18373226 -0.24420254 -0.5049798 0.33635926 -0.1122972 -0.006907654 0.54726416 -0.16351697 0.0637306 -0.3378074 -0.23675327 0.8770181 0.6669164 0.032546695 -0.25151128 -0.06568331 -0.39647868 0.1883858 -0.09356672 -0.25381175 -0.25121605 -0.28735256 0.3748782 0.46117187 -0.29995495 0.70030594 -0.3550569 -0.17901272
com.fasterxml.jackson.databind.node.jsonnodefactory.numbernode() 0.42429698 -1.0677462 -0.3458905 0.76493853 -0.96801263 -1.1137736 -1.1043344 -0.3280175 -1.2095234 0.37359416 -1.5535507 0.58394825 -1.2488356 -0.262303 0.65932286 -0.46337885 0.90624064 0.12557359 0.33326313 0.45284232 0.65692914 -1.4539727 -0.82879883 -0.17645857 -0.64039934 -0.516187 -0.19574282 0.11036841 -0.0067898137 0.1357226 0.27101812 0.06977067 -0.32301477 0.8362038 0.6408255 0.060207102 -1.5456685 0.81675345 -0.034007672 1.8776827 0.64732265 -0.23066573 0.1427193 -0.5247768 -1.1016159 0.5511516 -0.73394084 0.49793628 -0.9682874 -1.51691
com.fasterxml.jackson.databind.deserializationcontext 0.20555596 -0.77811503 -0.79179144 0.36970982 -0.97911376 -0.7682757 -0.330798 0.36775216 -0.09445039 0.9817696 -0.057563674 0.6302024 -0.36877513 0.15943807 0.3310321 -0.3914698 1.1811163 0.0915859 -0.09869143 0.6075306 -0.07496823 0.46947116 -0.22317387 -0.05949742 -1.7477974 -0.25805026 -0.15031093 -0.7681814 0.28965914 -1.3091655 0.21601366 -0.4879946 -0.6134451 1.4800874 -0.027706731 1.0996752 -0.4449204 0.34779593 0.35720053 0.65372545 0.3705021 -0.6503842 -1.1646842 -0.5269984 -0.39961296 -0.247523 -0.58423287 0.120575875 -0.8946595 -0.45128798
com.fasterxml.jackson.databind.util.tokenbuffer.writefieldname() 0.59423995 0.063130066 0.2921874 0.6551554 -0.8830433 0.656348 -0.49214256 -0.09027518 -0.12990415 0.79817855 -0.37799293 -0.02666858 -0.7118626 -0.3771668 0.92267466 -1.1282258 0.6101483 0.7518438 0.3727898 0.30212355 1.1411712 -0.68943 0.067232266 -0.48451188 -1.0957094 0.6834112 -0.6335233 -0.060153894 0.35193595 0.0489563 0.10952838 -0.6406204 -0.1695162 1.2355993 0.39923805 0.07639641 -0.07626244 -0.30496392 -1.1183461 0.5905969 0.42226627 -0.42301068 -0.7153257 -0.18115029 0.29670247 0.7506341 -0.5251865 1.0030888 -0.4213976 -0.59238905
com.fasterxml.jackson.core.jsonparser.getbinaryvalue() -0.2586882 -0.258491 -0.24265288 -0.02381256 -0.49394843 -0.23452128 -0.33599493 0.15440273 -0.28456074 0.24032545 -0.20769826 0.40682596 -0.0657241 -0.2258007 0.071558155 -0.19849874 0.39530686 0.21335429 -0.09849627 0.06668201 0.06981386 -0.10038495 -0.15130332 -0.059512984 -0.54588956 0.30515656 -0.06258949 0.0073377015 0.21816821 0.17480177 0.27634355 -0.23180707 -0.12646767 0.63511634 0.33542705 0.5458227 -0.40892726 0.082218446 0.020579081 0.5077751 0.031682696 -0.21727028 -0.31269878 -0.17386608 0.48919106 0.030242039 -0.17033888 0.32082215 -0.5313869 -0.06469472
com.fasterxml.jackson.databind.cfg.mapperconfig.getannotationintrospector() 0.44385785 -0.16367675 -0.41381133 0.44872764 0.20053054 -0.17647907 -0.49556538 0.061238963 0.112615116 0.9330942 -0.464846 -0.18841809 0.2280979 0.104481414 -0.33005998 0.17136669 0.5807609 -0.32978773 -0.068615586 -0.052796204 0.24476163 -0.22614439 -0.44542783 -0.52224445 -1.0134139 -0.13515249 0.2136411 0.018610323 0.86224496 -0.5526653 -0.6898234 0.29709902 -0.3246283 0.972128 0.29882538 -0.02174678 -0.35857755 -0.71882886 0.054357663 0.29741222 -0.43645623 -0.34576988 -0.35589358 -0.35481462 -0.85292023 0.043842718 -0.21460345 1.0019405 -0.32970405 -0.12643962
com.fasterxml.jackson.databind.util.tokenbuffer.copycurrentstructure() 0.84705985 -0.0032905766 0.58753043 0.17346187 -1.3697132 0.39588708 -0.5764445 0.06318893 -0.33415806 0.6477084 -0.57772535 0.3492354 -0.47526357 -0.718165 0.8163972 -0.78771573 0.5185085 0.5637707 -0.20652367 0.18576205 1.0167154 -0.14635168 -0.09106853 -0.31835297 -1.2192386 0.41515142 -0.32926124 -0.24115194 -0.016381256 -0.4239473 0.09029526 -0.9287554 -0.028612478 0.9355663 0.18803793 0.13233356 -0.29464737 -0.39091337 -0.8513396 1.0275357 0.35161182 -0.8805618 -0.707244 -0.07037192 0.51399857 0.6235188 -0.8754858 0.99463344 -0.7945473 -0.48697534
com.fasterxml.jackson.databind.javatype.gettypehandler() 0.9034332 -0.605644 -0.5771046 0.25755847 -0.30779958 -0.37148225 -0.72935104 -0.114944555 0.6627635 0.9798172 -0.32018492 0.1690975 -0.56847787 -0.108875364 -0.24868809 -0.49539217 0.8155601 -0.22431514 0.37115836 0.040193576 0.2882317 -0.21678506 0.34038737 -1.1955001 -1.1256748 -0.36202216 0.74534893 -0.48091277 0.7397392 -1.2612836 -0.27169934 -0.6223927 -0.23665379 1.0932454 -0.0036570511 0.1509683 -0.5247138 -0.78373224 -0.3184673 0.105207935 -0.3304509 -0.5507258 -0.19293658 -0.4745302 -0.70346105 0.13257654 -0.8662365 1.1913878 -0.61970115 0.16506204
com.fasterxml.jackson.databind.deserializationcontext.getannotationintrospector() 1.1629308 -0.17824447 -0.5278195 0.2827081 -0.13194561 -0.27333266 -0.3799754 -0.55049354 0.1634756 1.1897653 -0.41261643 -0.36739653 0.03921401 0.38354197 0.105841294 -0.54855084 0.7446256 -0.12307196 0.021077633 0.12388429 0.757627 -0.42641836 -0.14656459 -0.57085454 -0.7835138 0.061333425 0.18227525 -0.6894131 0.73410875 -0.72751564 -0.4366191 0.091180794 -0.5461737 0.9949251 -0.31882644 0.21365969 -0.9349918 -0.8421013 -0.3971452 0.58572835 -0.07311638 -0.28366902 -0.7045069 -0.03884176 -0.86909217 0.46220425 -0.124588914 1.4911954 -0.44324145 -0.08410519
com.fasterxml.jackson.databind.node.jsonnodefactory.objectnode() 0.87492007 -0.03167145 0.18612318 0.7192923 -1.4413303 -0.9922626 -1.1067218 0.41135836 -0.42315602 0.31656653 -0.08804754 0.75999856 -1.2295014 -0.11521905 0.11714451 0.40915984 0.18172964 -0.07618988 -0.019953446 0.13814633 0.35132265 -0.8788672 -0.21131761 -0.83158 -1.2658212 0.22565125 -0.022256624 0.14028236 -0.57696974 0.1977037 0.03521373 0.48113963 -0.95048773 0.83766305 0.23812741 0.24538824 -1.7048115 -0.19856557 -0.25716072 1.4253975 0.19451882 -0.40693113 -0.15464753 0.01322897 -0.7252791 -0.21878524 -0.011368606 0.52184105 -0.7031327 -0.95248526
com.fasterxml.jackson.databind.javatype.getkeytype() 0.52817833 -0.11818944 -0.850215 0.19174208 -0.47638223 0.062730104 -0.28563875 -0.13840555 0.20660236 0.7098219 -0.18838389 -0.2116662 -0.14941466 -0.10539849 0.17338899 -0.4112771 0.6748468 -0.19086437 0.04156308 0.28395694 0.5179216 -0.30796024 -0.18158814 -0.542386 -0.4892015 0.14019619 0.22449777 -0.78498 0.76695967 -0.83555025 -0.031084374 -0.6185631 -0.4755694 1.2339834 0.11336749 0.09818897 -0.5013574 -0.42654195 -0.7336047 0.29791585 -0.006301083 -0.8161082 -0.09413262 -0.6672648 -0.03763224 0.64479226 -0.53958225 1.2581928 -0.7760111 -0.025339438
com.fasterxml.jackson.databind.jsondeserializer.deserializewithtype() 0.19418833 -0.46400183 -0.65737283 -0.09452067 -0.39898506 -0.42096934 -0.42945066 0.060561396 -0.3138169 0.9933136 -0.13274309 0.2043972 0.06209931 -0.47907078 0.5292566 -0.99943995 0.87657714 -0.19440949 0.14795122 0.3311427 0.442208 -0.021782802 0.14706632 -0.11797574 -1.2709637 0.13415669 -0.016810602 -0.4353408 0.43923086 -0.48152113 -0.023664238 -0.8129385 -0.2866962 0.57293916 0.24015298 1.0248811 -0.2986166 0.022945909 -0.20953469 0.07854996 0.7590353 -0.0120282825 -0.880456 -0.7911204 0.72297883 0.2530379 -0.83645076 0.5837354 -0.54280937 -0.43713126
com.fasterxml.jackson.databind.jsondeserializer.getnullvalue() 0.24636467 -0.27346623 -0.40309584 -0.10213773 -0.8598367 -0.59611523 -0.3959985 0.16400018 -0.4037606 0.8349488 0.27568772 -0.157632 0.30816808 -0.37843907 0.577324 -0.8269535 0.7581042 0.10477085 0.21780679 0.6466994 0.48471174 -0.1330212 0.08717639 0.080722325 -1.4397881 0.31923932 -0.11091813 -0.35959846 0.33897263 -0.46515378 0.23015334 -0.6153495 -0.19288352 1.0742092 0.19145684 0.820547 -0.19156231 0.15298617 -0.094342515 0.2561889 0.054882415 -0.06816766 -0.53572243 -0.432886 0.67192984 0.87406796 -0.6984978 0.5548209 -0.54819226 -0.72704256
com.fasterxml.jackson.databind.ser.serializercache.untypedvalueserializer() 0.97539747 -1.5306047 -2.003443 0.3491497 -0.6630446 -0.72955674 -0.69541186 0.34417742 0.0027885023 1.4006525 -0.98662317 1.0832363 -0.48916125 -0.12445876 -0.2661337 -0.30808806 0.75960845 -0.21264574 0.7621889 0.2493156 0.88366127 -0.15169337 -0.11652334 -0.7068981 -1.7281085 -0.20958945 1.31065 -0.29831842 0.5621718 -0.90579224 -0.45059428 -0.4894786 -0.020930659 1.1542126 -0.24030922 0.042726435 -0.45528296 0.037755605 -0.40199634 0.40194538 0.80733377 -0.8110005 -0.3286695 -0.8383168 -0.7343996 0.36675552 -0.24938652 0.47144878 -0.73053855 0.8354043
com.fasterxml.jackson.databind.deser.settablebeanproperty.deserializeandset() 0.61913604 0.7184907 0.032408055 0.96236753 -1.1291106 0.10215253 -0.40431967 0.40708593 -0.30592415 0.5665462 -0.10572389 -0.18954189 -0.35218248 -0.4693079 0.21022938 -0.39445707 -0.19071464 0.94526577 0.5424416 0.52855945 0.9579354 -0.28396273 -0.11771745 -0.5682993 -1.6915785 0.64110357 -0.7556521 0.21862717 0.068925366 -0.10993407 0.1334938 -0.7314086 -0.07700701 1.2665343 0.43691546 0.11067391 0.036730874 -0.22772983 -1.2672608 0.929757 0.10417076 -0.26894838 -0.5069992 0.0889476 1.0232975 0.6178925 -0.55033964 0.864808 -0.48749277 -0.2819206
com.fasterxml.jackson.databind.jsonserializer.serializewithtype() 0.0041896706 0.009509877 0.0046136715 0.003732017 0.007972124 0.0066645457 0.0032428473 0.0087991515 -0.0061978786 -0.0018538592 0.0072595035 -0.00962559 0.0028938316 0.0018390532 -0.009673577 -0.008772301 -0.005949653 -0.009004094 0.0005361896 0.0067091384 0.0088874325 0.008135339 -0.008708529 0.0012592359 0.0016147626 -0.0057800054 -0.0069920775 0.0054897442 0.00819171 -1.5465881e-05 0.002584732 -0.0036936903 0.0015362813 0.0055996347 -0.00037616966 -0.00086861476 0.0005889971 0.0025348447 -0.005215638 -0.0015426009 -0.0021384035 -0.0013137113 -0.008892596 0.004488936 0.008417496 -0.0071782395 0.0016587912 -0.0024549393 0.0044543874 -0.002873153
com.fasterxml.jackson.databind.util.tokenbuffer.writestartobject() 0.6071648 0.29593116 0.23311907 0.1542134 -0.98762625 -0.43598688 -0.5764298 -0.1591368 0.05758961 1.1404614 -0.39582422 0.037258256 0.13223407 -0.67658585 0.21514077 -0.44417715 0.47812828 0.4693056 0.18908562 0.08197203 0.25441173 -0.38763988 0.12311639 -0.48613444 -1.5018384 0.6900751 -0.25269857 -0.79658115 0.17469564 -0.11616412 0.42234904 -0.6073887 -0.18319294 0.59689933 -0.12387848 -0.046680838 -1.1034502 -0.9461829 -0.26994333 0.9348054 0.044205666 -0.1948345 -0.1867597 -0.46201345 -0.08166088 0.039362896 -0.3760375 0.88169056 -0.9939542 -0.7518087
com.fasterxml.jackson.core.util.jsonparsersequence.nexttoken() 0.008848894 0.0063911104 -0.002760823 -0.004440336 0.0054031075 0.004722269 0.003673519 0.002160918 -0.009160218 0.004495595 -0.008649371 0.0058879578 0.005920071 -0.0038174265 0.0037141207 -0.00801878 -0.0007614305 -0.008493473 0.0054217908 0.008607733 -0.0081711775 -0.0075792815 0.0013294352 0.0073298505 0.0073513 0.0051739076 -0.0062177973 -0.004326492 -0.003710258 -0.001122096 0.0028947908 0.0010042824 -0.0064192195 0.0030639078 -0.0046075447 0.004563291 -0.008143309 -0.004463489 -0.0010447432 -0.001269547 -0.0050694942 0.007285171 0.00035108373 0.0010336365 -0.0018653689 -0.009948706 -0.0052858437 0.003482693 0.0032291298 0.008466053
com.fasterxml.jackson.databind.deser.settablebeanproperty.gettype() 0.49525493 0.5867097 -0.2623208 0.2201706 -0.9154853 -1.0338793 -0.82043046 0.4739759 -0.0143861035 0.5013638 -0.0077549685 -0.7440364 0.121930696 -0.48476008 0.06511173 -0.16088247 0.67095286 -0.25488153 0.39699337 0.21244963 0.46651268 0.06192058 -0.051078927 -0.57028836 -0.33056176 0.36229888 0.29236194 -0.36483926 1.0084531 -0.6990275 -1.0656588 -0.3016106 -0.39875665 1.1059594 0.4085419 -0.5481007 -0.5559003 -0.50544834 -0.5357127 0.12363568 -0.30889422 -0.8616441 0.015656654 -0.45259905 0.32286835 0.52749735 -0.29073572 1.3950783 -0.3113852 0.26462093
com.fasterxml.jackson.databind.ser.impl.propertyserializermap 0.009711649 -0.007001522 -0.0032421562 -0.008632307 0.0058670375 -0.007278815 0.004582597 -0.009467244 0.006915432 0.006374213 0.00924759 0.0063672904 0.009830263 0.0031153336 0.006099932 -0.008352591 0.0009584667 -0.0059165303 -0.0039984123 -0.0059517175 -0.008869584 -0.0070824316 0.0068359245 0.007817211 -0.0039393287 -0.0018987537 -0.007014615 0.0008851792 -0.008805359 0.0021427951 0.0071071214 0.0056784917 -0.0046583056 -0.009630897 0.008448319 -0.003475516 -0.009387258 0.008561278 -9.917709e-05 -0.0044598435 -0.0046567656 0.0024170114 -0.0073687267 0.008326344 -0.0036961024 -0.00533422 -0.008419165 -0.006071647 0.0004111968 0.0046502366
com.fasterxml.jackson.databind.node.objectnode.equals() 0.0044694575 0.009705213 0.009640408 0.0014581718 -0.0009489765 0.0010608933 -0.00743406 0.008024965 0.0051689837 -0.0030580068 -0.006037029 -0.0097989235 0.0028224064 -0.006409167 -0.007923846 -0.0012875964 0.008222412 -0.0058942446 -0.003082004 -0.0047875578 -0.002437296 -0.0085335765 0.0010855931 0.0076189674 -0.0018139508 -0.009385858 0.0013854963 -0.0086725885 0.009276752 0.005014989 0.0021444396 -0.0068650665 0.0040870644 -0.009722652 0.005456503 0.009599533 0.0063532423 0.006084641 0.008477925 0.0026754318 0.0044087064 -0.004835472 -0.0067537613 0.007068969 -0.0035915158 0.0015585865 0.0055028643 -0.005713958 0.0036723888 -0.008735278
com.fasterxml.jackson.databind.introspect.pojopropertiescollector -0.0027455096 -0.007191897 0.0054227035 0.0031336788 -0.0031812906 0.007124253 0.006208654 -0.0030462956 -0.0023234712 0.0021611736 -0.0038956485 0.0031659228 -0.0098467 0.002127113 -0.0016741308 0.0013449381 0.0031197858 -0.008510957 -0.0057791304 -0.005926426 -0.008296237 0.007565036 -0.000116486066 0.0009625328 -0.0002945039 -0.0030596708 0.0016451806 0.009150429 0.004420873 -0.006110175 0.0076506166 0.008150217 -0.0074546174 -0.0041665314 -0.0036494643 0.006251687 -0.0022990159 0.0027522328 0.004883429 0.0046870224 -0.0041056825 0.0072067124 -0.0029029285 0.009122863 0.009921847 -0.007537548 -0.009584319 0.001101185 0.0049033305 -0.009768588
com.fasterxml.jackson.core.jsongenerator.writearrayfieldstart() -0.09061617 0.16232763 -0.302485 0.08256744 -0.6587191 -0.20033939 -1.5823377 -0.026661288 -0.80789965 0.09553468 -1.0333339 0.08878119 0.115605876 -0.73045546 0.30554694 0.22748268 0.6921625 0.25875187 0.849343 0.21642914 0.27458152 -0.6987284 -0.6184568 -0.0062569613 -1.2214851 0.44401568 0.27511796 1.0261753 0.4485338 0.29766408 -0.16930044 0.28596145 0.54377204 0.45220625 0.15945819 0.049474206 -0.6018166 -0.16426653 -0.12754819 0.41843706 0.18065514 -0.49977264 -0.14806794 -0.63366264 0.7124625 0.31358436 0.2060326 0.23444583 -0.9906742 -0.31163216
com.fasterxml.jackson.databind.propertyname.getsimplename() 0.19325614 -0.22428195 -0.6918965 -0.21964145 -0.76631254 -0.70686823 -0.39752287 -0.30970997 -0.16442779 0.82717097 -0.24193674 -0.2889423 -0.007651114 0.32780638 0.21484706 0.2723646 0.7153313 0.19560535 0.14599217 0.089684255 0.4147691 -0.24158056 -0.46254495 0.31212497 -1.2355319 -0.55940557 -0.47462103 -0.41046312 0.82199377 -0.47949782 -0.26366663 -0.9143704 -0.37741274 1.2832608 0.8792904 -0.06139793 -0.08359026 -0.09238476 0.36217952 0.58155394 -0.5903755 -0.6405294 -0.17943372 -0.5562273 0.62794304 0.30246657 0.26908392 0.6329537 -0.39975953 0.122093536
com.fasterxml.jackson.databind.util.classutil.checkandfixaccess() 0.3348218 0.43891498 -0.71918005 0.19467328 0.008267112 -0.13856949 -0.6840395 -0.57725996 0.12960918 1.1028892 -0.45800412 0.03763011 -0.075290956 0.15064614 0.14894332 -0.7878636 0.29677242 -0.07152235 0.18164128 -0.9850451 0.46669978 -0.8677039 -0.02114817 -0.5806682 -0.45355213 0.77911013 0.59285504 -0.41773593 0.7392848 -0.04726354 0.13963392 -0.2861667 -0.7731753 0.75708926 0.101416305 0.1114523 -0.4246522 -0.629332 -0.65905124 0.045794435 0.27528292 -0.23800068 0.2046234 -0.5670357 -0.17944595 0.1892218 -0.47229406 0.9194567 -0.59072614 0.3077354
com.fasterxml.jackson.core.jsonparser.isexpectedstartarraytoken() 0.689444 0.43581077 -0.49393517 -0.044213276 -0.9156765 -0.7397112 -0.4722283 -0.4664344 0.48396495 0.824739 -0.34589332 -0.078231335 -0.7241656 -0.36747983 0.65426767 -0.78384537 0.53901595 -0.27601612 0.2696773 0.28308806 0.21083261 -0.3071227 -0.545632 -0.67958987 -0.9567164 0.40045258 -0.263914 -0.685391 0.024277126 -0.518818 -0.13686393 -0.56838554 -0.5857514 0.8158212 0.09043213 0.14443138 -0.5221522 -0.14338268 0.0052175066 0.6305586 0.38649833 -0.5269344 -0.43877673 -0.17527142 0.19683874 0.13032636 -0.06721222 0.81291837 -0.62935835 -0.670659
com.fasterxml.jackson.databind.deser.valueinstantiator.createusingdelegate() 0.3412098 -0.39095944 -0.5696005 0.19040148 -1.0833415 -0.7604285 -0.9481297 -0.6961241 -0.03024312 0.9203204 -0.6064493 -0.29953283 -0.5357148 -0.42372817 0.6626871 -1.1116006 0.9338008 -0.5814263 0.090735875 0.1065974 0.38952833 -0.6563021 -0.7127193 -0.731574 -0.9702836 0.2583842 -0.5245204 -0.5645353 0.35280177 -0.086252436 0.12220317 -0.7619593 -0.20553692 0.93988484 -0.06877131 0.05565985 -0.7789165 0.7835882 -0.40983525 0.30244905 0.5064834 -0.21649215 -0.11110624 0.04919358 0.008342454 0.6640474 -0.50684327 1.1032187 -0.8976223 -0.87890077
com.fasterxml.jackson.databind.introspect.pojopropertiescollector.getpropertymap() -0.0007066885 0.0034791776 0.00451184 0.008043439 -0.0006255355 0.0057690716 0.0018485083 0.004367263 0.005114085 0.0054231277 0.0019984273 -0.0005129646 0.008832739 0.0019710583 -0.0063017015 0.0073670484 0.008309807 0.006029883 0.0072392984 0.009766293 0.0058783847 0.003395889 -0.00603192 0.006911478 -0.008121041 -0.0017509517 -0.003011303 0.009892791 0.0035641997 -0.0073134303 0.0031796792 -0.0045240372 0.0027765022 -0.0018322917 -0.00015629685 -0.0014403691 0.00756992 -0.0075282324 -0.007913296 0.0048324927 0.006038051 -0.006554538 0.0010252289 0.0043455274 -0.004625502 0.004463646 -0.0020716893 0.0012690241 -0.0040080156 0.008402614
com.fasterxml.jackson.databind.objectreader.fortype() 0.19805406 -0.09216616 -0.08005776 -0.10464977 -0.32199174 -0.10127458 -0.12724964 -0.069433056 0.21956083 0.47824347 -0.04710543 0.4040133 0.081265904 -0.019477796 0.02534236 -0.017671535 0.24933667 -0.043218143 0.24268943 -0.056953885 0.007772258 -0.12933056 -0.11968233 -0.31256232 -0.4187939 0.01671349 0.106332816 -0.10013776 0.1224814 -0.00083610136 -0.055854686 0.47167456 -0.34264654 0.5931211 0.13282761 0.2937955 -0.26269662 -0.06577296 -0.11135441 0.11041861 0.19729652 -0.10639576 -0.35172826 -0.21850467 -0.029992683 0.14711806 -0.056982435 0.39907777 -0.09813469 0.2080141
com.fasterxml.jackson.databind.deser.settablebeanproperty.deserialize() 0.7349713 0.17134371 0.08535234 0.38906652 -1.1941465 0.4222657 -0.50071996 0.035178643 -0.07390095 0.81932485 -0.67188495 0.0014967131 -0.21970145 -0.5903064 0.5359509 -0.7860396 0.40481657 0.67445254 0.4920795 0.67006993 1.1677461 -0.45620093 -0.3281507 -0.39002615 -1.3324273 0.43720216 -0.42933592 -0.10799411 0.33852264 -0.1920703 0.14182596 -0.7647007 0.038922183 1.1146723 0.1906966 -0.24427375 -0.40851614 0.0049047605 -1.1883411 0.6976917 0.19776873 -0.23627071 -0.6273618 -0.19283085 0.687123 0.91602874 -0.8860924 1.089854 -0.585192 -0.743386
com.fasterxml.jackson.databind.objectmapper._deserializationcontext() 0.18974662 -0.8218893 -0.47794464 0.50592905 -0.19836913 0.60417086 -1.3937042 0.105343886 0.26278526 -0.1822554 -0.63987106 0.813603 -0.24422668 0.2021339 0.68310374 1.0906585 0.85622025 -0.10273028 0.44928062 -0.31330687 0.71196735 0.109602906 0.026331821 -1.0739851 -0.88874567 0.5218527 -0.2866415 0.5273504 0.75000733 -0.25224268 -0.16637622 0.5686559 -0.21940921 1.9489621 0.16095708 -0.44925556 -0.1551965 -0.7905574 -0.47092795 0.1490442 0.18139213 -0.7845276 -0.44288152 -0.48999316 -0.78041387 0.45907414 -0.15821457 0.81688184 -0.22745748 0.06834743
com.fasterxml.jackson.databind.introspect.annotatedmethod 0.7555911 -0.28603122 -0.6070423 0.26346046 -0.07610372 0.043941997 -0.36004585 -0.35045812 0.03122519 1.1951076 -0.48624966 -0.4972591 0.4188965 0.7954414 0.17011389 -0.27923715 0.61800677 -0.027713206 0.36981156 0.30301088 0.57291627 -0.71834713 -0.07440695 -0.8454321 -0.9196875 -0.22488417 0.2521494 -0.18856688 0.86901546 -0.47350913 -0.2835954 -0.38558018 0.021468658 0.8877281 0.3964319 -0.26921916 -0.36257732 -0.83485174 -0.29910216 0.54307556 -0.5942007 -0.5756818 -0.22038576 -0.41423622 -0.06630958 0.17385165 -0.3923108 0.88095534 -0.80838567 -0.29636192
com.fasterxml.jackson.databind.deserializationconfig.with() 0.45303965 -0.35260668 -0.21974768 -0.29253924 0.01432118 0.19191527 -0.7790027 0.25739086 -0.3337774 0.25384188 -0.6948225 0.57499 1.0450251 0.03627761 0.57384455 0.3695003 0.24430436 -0.7784453 0.8366548 -0.4943312 0.8638713 -0.377279 0.1960996 -0.25155553 -1.6146734 0.35179216 0.37556875 0.5717276 0.80455965 -0.09193831 -0.031811915 0.65293616 -0.12936474 1.6520483 0.6902413 -0.10764029 -0.4624046 -0.5331978 -0.20658794 0.8182056 -0.031688742 0.12862058 -0.3573486 -0.51615363 -1.0452541 0.39012468 -0.5175868 0.826877 -0.19336501 -0.7213578
com.fasterxml.jackson.databind.jsonnode.aslong() 0.14179732 0.2451821 0.46683562 0.07691859 -0.57812524 -0.33693027 -0.22017434 0.16093765 -0.12433249 0.031362336 -0.25603735 0.8019518 -0.14056863 -0.43999746 0.14147559 0.2416447 0.3743118 0.13191739 0.14700176 0.10613581 -0.07911545 -0.17085543 0.010055839 -0.23192902 -0.42000225 -0.05526968 -0.14681827 0.06709343 0.19330138 0.0005055161 0.028569391 0.4267802 -0.29231077 0.68082285 0.30482787 0.19948803 -0.4703927 0.06820501 -0.1319377 0.32276326 0.14355192 -0.20179471 -0.50288135 -0.54469657 0.3969 0.13128161 0.10823955 0.22240575 -0.09393394 0.04012277
com.fasterxml.jackson.databind.node.nullnode.getinstance() 0.37621728 -0.10965132 0.11354344 0.25920022 -0.56601876 -0.56462336 -0.56246144 0.32774997 0.014235842 0.215067 -0.041787725 0.6971775 -0.7409202 -0.10913458 0.08244662 0.29223856 0.16534473 -0.07857204 0.18958957 0.13625748 0.100112915 -0.37167126 -0.093638435 -0.6531724 -0.54398376 0.16368763 -0.045718864 0.050527148 -0.2770618 0.28452224 0.083653644 0.6780389 -0.38554826 0.5953385 0.13506728 0.3218281 -0.99499595 -0.25261152 0.008925537 0.9121109 0.046913628 -0.11294139 -0.34795132 -0.08059998 -0.4190122 0.033079244 0.08441718 0.5343689 -0.35248217 -0.37540972
com.fasterxml.jackson.databind.jsonnode.textvalue() 0.032671195 -0.19654368 0.025823316 0.06906651 -0.0722598 0.0027241812 -0.24679282 -0.07554179 -0.04368593 0.06849419 -0.18036355 0.21472731 -0.13785112 -0.021448214 0.19161594 0.031116148 0.19686693 -0.12832668 0.07072335 -0.11942492 0.0947729 -0.22245218 -0.07187674 -0.1921746 -0.22075878 0.041837983 -0.030518878 0.13587756 0.13406788 0.041489348 -0.051312488 0.25488368 -0.15898037 0.47685826 0.31814831 0.07411621 -0.06503112 -0.04979554 0.0035723404 0.14857563 0.019387994 -0.12527695 -0.15751772 -0.21787152 -0.17717269 0.17424345 -0.06166944 0.3357361 0.011263821 -0.10380009
