643 50
com.fasterxml.jackson.databind.objectmapper 0.18400 0.18804 1.00846 0.28948 0.49400 -0.08066 0.49256 0.00413 -0.46979 1.79137 -0.53593 0.00187 0.70011 0.53973 0.21926 -0.27010 -0.08301 -0.87872 -0.90314 -0.37620 1.02266 -0.06121 0.72849 0.46545 -0.17493 0.21666 0.23173 -0.05144 0.96751 -0.00373 -0.63544 0.12176 0.27336 0.41153 -0.34160 0.17313 0.48806 0.99931 -0.13752 -0.17014 -0.17216 0.94095 0.22054 -0.36904 0.04833 0.66179 -0.56535 -0.65349 0.17964 0.82195
com.fasterxml.jackson.databind.objectmapper.readvalue() 0.31069 0.13296 1.44566 0.08066 0.54390 0.29758 0.43099 0.17626 -0.97181 1.66096 -0.32941 -0.55029 0.60886 0.11599 0.40287 0.02436 -0.29404 -0.63742 -0.66090 0.06405 0.79069 0.16956 0.37214 -0.12725 0.23360 -0.06623 0.62208 0.68458 1.35416 -0.06850 -0.52714 0.03765 -0.46580 0.20385 -0.78662 0.41801 0.74305 0.41467 -0.47813 0.64011 -0.32898 0.64487 0.80691 -0.17907 0.01599 0.53452 0.25328 -0.63168 0.20594 0.73147
com.fasterxml.jackson.core.jsonparser.gettext() -0.33592 0.53010 -0.14889 0.77095 0.22927 -1.15281 -0.50690 0.16413 -0.06807 0.25324 -0.49190 -0.05026 1.02193 -0.17354 0.27576 -0.25197 0.15980 0.40757 -0.70234 -0.02193 0.22161 0.29972 0.39808 0.59874 -0.78475 0.04725 0.08235 -0.27970 0.88150 -0.53399 -1.13597 0.13682 -0.50978 1.35700 -0.19592 0.63841 0.56491 0.15705 -0.16209 -0.25940 -1.73629 0.16193 1.04801 -1.14834 -0.25707 0.26440 -0.29722 -0.82331 0.33137 0.86595
com.fasterxml.jackson.databind.objectmapper.writevalueasstring() 0.17322 0.19186 0.79380 0.92112 0.66091 -0.23866 0.41771 -0.08241 -0.55671 1.29792 -0.03463 -0.18404 0.98557 0.62782 0.24087 -0.03072 0.14581 -0.73231 -0.92116 0.39799 0.87408 0.11366 0.20410 -0.27011 0.19343 0.18025 0.76568 0.26095 1.14580 0.13875 -0.91662 -0.08173 -0.16295 0.70525 -0.71920 0.59024 0.91187 0.76899 -0.06619 -0.12122 -0.52492 0.76259 0.69156 -0.50938 -0.19602 0.62754 0.00842 -0.00066 0.17286 0.28421
com.fasterxml.jackson.databind.jsonnode 0.02809 -0.28481 0.62332 0.24424 -0.05728 -0.72812 0.14643 -0.39408 -0.59602 0.94360 0.24321 0.01093 -0.06329 0.82173 -0.44453 -0.58522 -1.71824 -0.14593 -0.98654 -1.31327 0.49796 0.11231 0.37536 0.33230 0.65397 -0.58313 0.40118 1.09828 -0.01750 0.46799 -0.69282 0.34034 0.53460 0.97274 -0.10717 0.59214 0.80307 0.62883 0.82168 -0.31604 -1.43596 0.09826 0.57742 -0.12551 0.70821 0.20193 -0.77666 -0.88521 -0.03621 -0.23212
com.fasterxml.jackson.core.jsongenerator.writestringfield() 0.43215 0.33433 0.25972 -0.02844 0.98781 -0.91889 -0.53835 -0.06346 -1.07337 1.21581 -0.01033 -0.88022 -0.44348 0.35076 0.03008 -1.04427 -0.75255 -0.69371 -0.65776 -0.93899 0.01892 -0.29161 0.34751 0.69573 -0.17793 0.58633 0.00639 -0.09962 0.31513 -0.25951 0.15667 0.03318 -0.29787 0.90872 -0.81924 0.29845 0.89645 0.30743 0.18909 -0.26511 -2.33465 0.39378 -0.36411 -0.32847 -0.04345 0.29275 -0.38747 -0.31246 -0.48279 1.34582
com.fasterxml.jackson.core.jsonparser.getcurrenttoken() -0.03586 0.14364 -0.68704 1.04502 0.25808 -1.17966 -0.14102 0.30951 -0.14433 0.23520 0.03543 -0.68860 0.51611 -0.45922 -0.03320 0.24241 -0.60264 -0.03328 -0.41690 0.00890 0.81450 0.34856 0.09648 0.36346 -0.43587 -0.21870 0.51767 0.34927 0.63224 -0.40295 -0.66204 0.37829 0.04805 1.17241 -0.26241 1.10212 -0.06080 0.50648 0.10770 -0.50014 -1.56022 0.81787 0.66911 -0.71404 0.75204 -0.64467 -0.37430 -0.77498 0.20280 0.76226
com.fasterxml.jackson.core.jsonparser.getcurrentname() -0.07957 0.31399 -0.32502 0.91651 0.01596 -1.10423 -0.35918 0.40186 -0.93862 -0.59004 0.09669 -0.95071 0.25685 0.00669 0.42907 0.16414 -0.65387 -0.27691 -0.35685 0.15526 0.16553 0.19150 1.25975 0.48638 -0.94045 -0.23232 0.48945 0.20478 1.03870 -0.31441 -0.34650 0.22995 -0.33123 0.96107 -0.77250 0.53241 0.09781 0.26529 0.73996 -0.21173 -1.99590 0.71771 1.18702 -0.47539 0.27265 -0.44724 -0.15415 -0.63753 -0.31628 1.07987
com.fasterxml.jackson.databind.javatype -0.01144 0.77122 -0.86369 0.65437 0.19063 -0.02925 0.18140 0.43410 -1.21361 0.65053 -0.71792 -0.44844 0.17656 -0.54904 -0.28646 1.36789 -1.41245 -0.41905 0.21671 -0.24262 0.31758 -0.21008 -0.04080 0.27499 -0.36976 0.53061 -0.03314 0.50549 0.32889 -0.32573 -1.19276 -0.40547 0.05507 -0.05276 1.11579 0.86239 0.03190 0.37186 0.76479 0.50206 -1.30890 0.31188 -0.51653 -1.03343 0.24948 -0.71312 0.28511 -0.21120 0.14261 -0.31474
com.fasterxml.jackson.core.jsongenerator.writestring() -0.02619 0.55773 -0.64723 0.02724 1.02640 -0.80080 -0.49134 -0.01932 -0.40529 1.11588 -0.50445 -0.70928 0.93985 0.25301 -0.59451 -0.48053 -0.50475 -0.53106 -0.34308 0.07831 0.55405 0.28839 -0.20641 0.75782 -0.46690 0.29169 0.42450 -0.64688 0.27214 -0.12721 0.26476 -0.44582 0.36853 0.62811 -0.62201 0.81139 0.86255 0.61711 0.20208 -0.26029 -1.13528 0.39107 -0.28999 -0.71652 -0.21489 0.73937 0.12754 -0.09389 0.42175 0.83559
com.fasterxml.jackson.databind.jsonnode.get() 0.07189 -0.77212 1.33296 0.10606 0.41624 -0.37371 -0.28922 -0.20907 -0.73275 0.95742 -0.78155 -0.65246 0.45218 1.10782 0.65594 -0.11324 -2.10817 -0.10472 -1.10684 -0.77514 -0.65165 0.12418 -0.52502 0.56017 0.17054 -0.66388 0.25337 0.31594 0.80722 0.87184 -0.98495 0.07964 -0.07969 1.54568 0.06606 0.08733 0.84924 0.29370 0.46778 -0.23479 -1.25130 0.11289 0.21144 -0.63743 0.39958 0.07553 -0.44111 -0.22551 0.18256 0.22725
com.fasterxml.jackson.databind.javatype.getrawclass() 0.21836 -0.04610 -1.05458 0.57306 0.20771 -0.36996 0.66978 0.98200 -1.26521 0.54367 -0.51108 -0.70649 0.66433 -0.02533 0.06618 1.24525 -0.85354 -0.40535 -0.21026 0.06208 0.41076 0.14948 0.43502 -0.02468 -0.24075 0.15186 0.38787 -0.17416 -0.84679 -0.07744 -0.49119 0.45155 -0.20836 0.45254 0.09498 0.66723 0.95545 -0.03281 -0.45359 -0.05967 -1.09267 0.83233 -0.84258 -1.05935 -0.05507 -0.38354 -0.30354 -0.54379 0.03088 0.32833
com.fasterxml.jackson.databind.node.objectnode 0.28446 -0.26204 0.86449 0.81594 -0.12917 -0.85178 0.25616 -0.21929 -0.68451 1.37240 0.37257 0.04337 0.68768 0.01213 -0.31217 -0.44894 -1.70636 -0.32406 -0.48540 -0.21084 0.18388 -0.56870 0.38145 0.48160 -0.05507 -0.48907 -0.12878 0.61459 0.51268 0.06352 -0.96389 1.06416 -0.13284 0.65554 0.10291 0.36669 0.20422 0.45106 0.64286 0.15672 -1.47308 -0.09150 0.69327 -0.21106 0.47248 1.02985 -0.74338 -0.79444 -0.56894 0.62468
com.fasterxml.jackson.databind.node.objectnode.put() -0.05104 -0.63437 0.88521 0.72533 0.16907 -0.89405 0.00332 -0.20942 -0.76204 1.54275 -0.04295 0.11251 0.57149 -0.13944 0.39320 0.08674 -1.62295 -0.56936 -0.48992 -0.22774 0.35118 -0.74688 0.22371 0.39196 -0.07901 -0.22785 -0.19754 0.61430 0.55072 0.11214 -0.59512 1.14912 0.12596 0.84703 -0.07758 0.40762 0.24199 0.56430 0.51034 0.57889 -1.71048 -0.43611 0.39379 0.14463 0.44252 1.20970 -0.79670 -0.75906 -0.57660 0.87834
com.fasterxml.jackson.core.jsongenerator.writenumber() -0.08294 0.40749 -1.15063 -0.16334 0.80993 -1.03107 -0.91775 0.44308 -0.43198 0.72454 -0.23227 -0.95409 0.54105 0.12935 -0.95377 -0.18373 -0.61424 -0.57083 -0.31965 -0.59748 0.05026 0.11786 0.17704 0.92711 -0.72897 1.12463 0.58188 0.16024 0.44425 -0.40359 0.08165 -0.49462 -0.29593 1.24954 -0.53884 0.24029 0.78668 0.41424 -0.11094 -0.15530 -1.19274 0.09417 -0.37260 -0.86744 0.02920 0.00317 0.31607 0.40102 0.20450 1.22583
com.fasterxml.jackson.core.jsonparser.getvalueasstring() -0.18809 -0.01851 -0.50575 0.10275 0.37320 -1.01627 0.08081 -0.00810 -0.40251 0.41198 -0.33079 -0.34570 1.19797 -0.15049 0.10421 -0.27812 -0.33416 -0.16157 -0.46407 0.37813 -0.00514 0.48155 0.63045 0.51627 -0.26261 -0.17014 0.26210 -0.16788 0.83387 0.17225 0.21176 -0.21886 -0.48188 0.98101 -0.24417 0.38178 0.26834 0.21910 -0.05644 0.08388 -1.68427 0.50264 0.58496 -0.60335 0.06474 -0.00635 0.04936 -0.15883 0.50363 0.77655
com.fasterxml.jackson.core.jsongenerator.writenumberfield() 0.40424 0.33486 0.07177 0.20944 1.01006 -0.71152 -0.60983 0.02782 -0.52721 1.17943 0.21838 -0.91765 0.13494 0.15061 -0.44488 -1.07719 -0.88050 -0.87043 -0.90857 -1.00901 0.13854 -0.62603 0.43580 0.52383 -0.39841 0.93994 0.10574 -0.17021 -0.11103 -0.50962 0.14722 -0.26461 -0.43953 0.92241 -0.96534 0.11329 0.94255 0.13326 0.04319 0.07154 -2.12921 0.30953 -0.49894 -0.22566 -0.10290 0.56855 -0.03288 0.08835 -0.27793 0.96367
com.fasterxml.jackson.databind.objectmapper.createobjectnode() -0.63556 0.03404 0.67041 0.52915 0.28774 -0.22403 1.10618 -0.22896 -1.23034 1.22434 0.05697 0.29566 0.32547 0.36411 -0.27621 -0.44532 -1.87719 -0.27772 -1.02733 -1.11678 0.44961 -0.75771 0.05386 0.80420 -0.06730 0.15316 0.35934 1.91779 0.62296 -0.10627 -0.87343 0.71413 0.91236 1.55440 -1.10724 0.45677 0.66317 -0.02100 0.70087 0.10802 -1.19956 -0.25208 1.14397 -0.10137 0.05017 0.70571 -0.86825 -0.66999 -0.59607 0.73718
com.fasterxml.jackson.core.jsongenerator.writenull() 0.28573 0.07528 -0.67997 0.40759 0.63213 -0.68353 -0.92164 0.52806 -0.44987 0.72838 -0.29394 -0.68510 0.81618 -0.03261 -0.76726 0.19974 -1.09358 -0.33533 -0.23815 -0.20335 0.32459 0.01323 -0.00677 0.37965 -0.22586 0.02347 0.37774 -0.55267 0.61306 0.26703 -0.20495 -0.75038 0.25039 0.55232 -0.48453 0.06405 0.85707 0.38834 0.26081 -0.34039 -1.46425 -0.20906 -0.35084 -1.17985 0.01374 0.21090 0.38147 0.40327 0.46480 0.61357
com.fasterxml.jackson.core.jsongenerator 0.32213 1.05095 0.39308 0.40383 0.55304 -1.16392 -0.68323 0.52203 -0.50299 1.38963 -0.21278 -0.09936 0.36844 0.69504 -0.31291 -0.30276 -0.70238 -0.78161 -0.92639 -0.17742 1.13913 -0.53476 0.34393 0.01054 -0.11286 -0.00376 -0.40337 -0.06913 0.08628 0.20945 -0.19742 0.62742 -0.34315 0.48015 -1.36726 0.69164 0.73086 0.38859 0.51879 -0.44521 -1.34362 0.13024 -0.46395 -0.11601 0.55268 0.52665 -0.65063 -0.12945 -0.18485 0.82161
com.fasterxml.jackson.databind.type.typefactory.constructtype() -0.26126 0.26681 -0.86597 0.34973 0.70375 -0.36861 0.65805 0.80676 -0.51573 0.52594 -0.20385 -0.13132 0.59850 -0.57906 -0.55356 0.56678 -1.13567 0.03942 -0.26187 -0.73527 0.45657 0.05027 -0.17558 -0.18280 -0.14115 0.52777 -0.12124 0.42178 0.03114 -0.26111 -0.08282 0.42366 -0.04274 0.05646 0.57753 0.24431 0.26980 -0.21299 -0.37222 0.31211 -0.74280 0.11831 -0.89630 0.05637 0.16480 -0.45807 -0.23434 -0.15080 0.44813 0.27196
com.fasterxml.jackson.databind.objectmapper.readtree() 0.32711 -0.23203 1.36539 0.49808 0.33783 -0.17973 0.28414 -0.27523 -1.02816 0.83003 0.37495 -0.12296 0.12388 0.79560 0.06416 -0.64460 -1.32310 -0.49937 -0.77131 -0.44917 0.39700 -0.16763 0.41776 0.39916 0.01448 -0.66229 -0.34753 0.70793 1.12409 0.34679 -0.82331 0.23458 -0.00345 0.72758 -0.40920 0.08543 0.45953 0.79056 0.42671 -0.11040 -1.22351 0.63104 0.67046 0.04075 0.06045 0.36520 -0.26493 -0.56560 0.17347 0.53482
com.fasterxml.jackson.databind.objectmapper.writevalue() 0.14118 0.52284 1.51087 0.61195 0.65075 -0.43827 -0.13227 0.53577 -0.19517 0.91705 0.20579 -0.24971 0.70638 0.54211 0.26161 -0.38455 -0.57528 -1.31261 -0.85440 0.32237 0.97274 0.22022 0.38328 -0.09054 0.34679 0.23550 -0.21890 0.12860 0.35433 0.34404 -0.00114 0.03236 -0.35333 0.66835 -1.28533 0.57690 1.10318 0.42082 0.08372 0.00735 -0.65424 -0.15800 0.29361 -0.31280 -0.33687 0.37487 -0.50443 -0.61599 -0.26015 0.97776
com.fasterxml.jackson.databind.deser.settablebeanproperty 0.55661 0.40587 -0.70321 1.39547 -0.32755 0.02253 0.30856 0.81008 -0.50138 -0.35254 0.76592 -0.11619 0.64896 -0.01394 0.12083 0.88542 -1.46171 -0.95628 -0.35245 0.41471 0.05343 -0.20621 1.30990 0.26392 0.15890 -0.06499 -0.48577 0.26689 -0.35409 -0.62491 -0.26122 0.25156 -0.30141 0.69646 -0.14341 0.88071 -0.06611 -0.53329 0.42861 0.14579 -0.93285 0.91312 0.36338 -0.27080 0.20980 0.35537 -0.19117 -0.79191 -0.22456 0.55872
com.fasterxml.jackson.databind.jsondeserializer.deserialize() -0.15317 0.18960 -0.36307 0.57610 0.32221 -0.10927 -0.81531 0.64057 0.27415 0.06990 -0.52291 -0.70660 1.39832 0.29071 -0.15892 0.31113 -0.51772 -0.32494 -1.11930 0.29630 0.91959 0.47561 0.69242 -0.24271 -0.40108 -0.37690 0.67797 1.08784 0.55241 -0.27674 -1.73141 -0.24984 -0.05638 1.58074 -0.10012 0.19662 0.11398 -0.94334 0.28944 -0.88914 -1.20701 -0.21488 -0.01566 -1.40725 0.53288 -0.06079 -0.43877 -0.09396 -0.09870 0.73628
com.fasterxml.jackson.databind.node.arraynode.add() -0.35321 -0.37560 0.27216 0.64884 -0.01625 -1.44547 -0.08084 -0.66488 -0.52332 1.04766 -0.52776 0.16495 1.04902 0.02667 0.21836 -0.62061 -1.54381 -0.48921 -0.43421 -0.13736 -0.42954 -0.05070 0.80753 0.49399 -0.40644 -0.61742 -0.07625 1.27575 0.41385 0.19100 -0.39130 0.03145 -0.13214 1.53407 -0.37074 0.08640 0.04478 0.34227 0.39753 0.30919 -1.94098 -0.27443 0.59448 -0.46915 0.36416 1.27112 -0.37984 -0.16348 -0.47463 1.17079
com.fasterxml.jackson.databind.node.arraynode 0.11750 -0.17480 0.54852 0.60205 -0.09291 -0.69199 0.25065 -0.48961 -0.75373 0.75076 -0.04523 0.01684 0.38804 0.06839 0.04435 -0.43546 -1.66186 -0.24528 -0.19083 -0.44470 -0.22917 -0.12659 0.32925 0.32468 0.08718 -0.58593 -0.17457 1.23994 0.54288 0.09360 -0.68177 0.51026 0.21711 0.87980 0.21846 0.02965 0.24444 0.37615 0.59496 0.29771 -1.21787 -0.31413 0.27833 -0.21874 0.28760 0.79596 -0.56035 -0.35337 -0.00389 0.61637
com.fasterxml.jackson.databind.deserializationcontext.isenabled() 0.07059 0.72509 -0.93281 0.88870 0.82543 -0.69913 0.16885 0.52787 -0.55747 0.59011 0.27770 0.26875 0.59396 -0.77054 0.15511 0.31510 -0.57291 0.89107 -0.80926 -0.06395 -0.23232 0.63938 0.74593 0.57524 0.06498 -1.04649 0.26747 0.05434 0.48022 0.04629 -0.79622 0.03827 -0.42919 1.19305 0.11241 0.26098 -0.69513 0.06049 -0.01845 0.50226 -1.21345 0.03384 -0.28238 -1.45804 1.15764 0.42930 0.25516 0.35215 0.21976 0.60021
com.fasterxml.jackson.databind.type.typefactory.defaultinstance() 0.08011 0.62820 -0.33494 0.58919 0.34073 -0.58850 0.84048 -0.07667 -0.55588 0.70485 -0.57845 -0.16177 0.90468 -0.04322 -0.68344 0.44860 -1.80009 -0.27555 -0.21825 0.14114 0.30257 -0.19214 -0.12130 -0.11399 -0.73944 -0.03161 -0.03843 0.82803 0.58118 0.14622 -0.62937 0.40421 0.65352 0.38062 0.18194 0.49268 -0.21945 0.48287 0.58060 0.36408 -0.36092 0.43170 -0.57662 -0.17987 0.49365 0.06676 -0.14103 -0.34415 0.34933 -0.01876
com.fasterxml.jackson.databind.jsonserializer 0.13307 -0.22121 -0.24761 -0.14490 0.52814 -0.45485 -0.31512 1.29328 -0.84565 0.85302 0.05072 -0.67495 0.06745 -0.11452 -0.49402 1.10892 -0.85458 -0.95400 -0.66897 -0.68286 1.08055 -0.01786 0.09855 -0.53400 -0.64342 0.16514 0.43384 0.27671 -0.23388 -0.40687 -1.00714 0.26250 -0.27843 0.54038 -0.23829 0.69675 1.08639 -0.25286 0.71129 0.43239 -1.09703 0.22180 -0.54887 -0.87620 0.28909 -0.43918 0.54390 -0.01140 0.32882 0.30917
com.fasterxml.jackson.databind.jsondeserializer 0.43674 0.73562 -0.96330 1.08144 0.11988 -0.24849 0.06513 1.08406 -0.78810 0.23724 -0.19603 -0.80326 0.52447 -0.02619 -0.43225 1.16190 -1.59141 -0.24168 0.05814 -0.18993 0.75398 0.04317 0.96138 -0.11029 -0.46879 0.04235 0.07941 0.37866 0.44948 -0.28476 -0.88647 0.31212 -0.31581 0.53518 0.34270 0.48724 0.06387 -0.20762 0.59601 -0.65089 -0.64875 0.56374 -0.40972 -0.54947 0.48346 -0.50688 0.28131 -0.30567 0.33038 0.38580
com.fasterxml.jackson.databind.jsonnode.size() 0.26667 -0.29205 1.02950 -0.05436 0.38359 -0.22798 -0.68046 0.32575 -0.88452 1.14113 0.28695 -0.63276 0.46627 0.42385 0.07707 -0.34371 -2.43633 -0.25283 -1.17609 -0.73236 -0.76821 -0.11148 0.07075 0.20284 0.47701 -0.34790 0.25875 0.61028 0.70020 0.02128 -0.87442 0.10627 -0.38294 1.09831 0.10062 -0.36992 0.43331 0.08799 0.36377 -0.07585 -1.05780 -0.16044 0.41360 -0.65369 0.44566 0.34083 -0.45675 0.06812 -0.04780 0.28649
com.fasterxml.jackson.databind.module.simplemodule -0.01164 0.52313 0.54236 0.15769 0.43019 -0.45301 0.56980 -0.05650 -0.60559 1.14667 -0.21726 -0.20474 0.90268 0.44561 -0.42065 -0.27824 -0.64346 -0.72887 -1.10517 -0.25747 0.82757 0.09354 -0.07535 0.16352 -0.22233 0.08249 0.15530 0.26037 0.49236 0.20426 -0.36754 0.19127 0.20671 -0.24087 -0.43550 0.22969 0.50649 0.59366 0.28871 0.05519 -0.11707 0.05235 -0.02476 -0.04134 -0.10758 0.27087 -0.36694 0.08521 0.28052 0.44548
com.fasterxml.jackson.databind.jsonserializer.serialize() 0.19578 -0.25473 -0.59242 0.55646 0.45513 -0.60361 -0.96813 0.73613 -0.50013 0.51696 -0.09744 -0.92208 -0.24675 0.05755 0.16877 0.25862 -1.11239 -0.63786 0.23894 -0.53614 0.63337 0.01772 0.30449 -0.14571 0.49814 -0.00021 0.10176 -0.13850 0.32110 -0.43655 -0.14932 -0.55761 -0.18306 0.69744 -0.52697 0.08948 1.25403 -0.13940 0.23229 0.05473 -1.87227 0.26411 -0.87357 -0.83461 -0.10647 -0.13616 0.09257 0.11079 0.36452 0.63742
com.fasterxml.jackson.core.jsongenerator.writenullfield() -0.05280 0.27634 -0.09098 -0.04253 0.23202 -0.24960 -0.07399 0.06574 -0.09153 0.17257 0.06563 -0.09433 0.04992 0.03878 -0.18804 -0.19999 -0.44784 -0.11717 -0.28238 -0.46732 -0.00091 -0.18514 0.09672 0.18258 0.01346 0.24590 0.00794 0.07587 0.13710 -0.21330 0.05547 -0.07914 0.15590 0.30053 -0.18826 0.06390 0.27896 -0.14113 0.02075 0.13757 -0.79629 0.11522 -0.05359 -0.14968 0.00596 0.24734 -0.15608 0.04587 -0.18430 0.47560
com.fasterxml.jackson.databind.jsonnode.astext() -0.08423 -0.38373 1.12168 0.28504 0.72928 -0.73887 0.04074 -0.40627 -0.52366 0.88057 -0.42356 -0.21874 0.33075 0.48989 0.51139 -0.37401 -1.26593 -0.46306 -1.09815 -0.19296 0.19834 -0.02453 0.13511 0.16673 0.36960 -0.61596 0.35245 0.11201 0.84251 0.13569 -0.59925 -0.03894 0.10623 1.44006 -0.42155 0.28717 0.51515 0.84093 0.45611 0.14622 -1.11796 0.04491 0.53174 -0.13335 0.19158 -0.04492 -0.94800 -0.59102 0.07419 0.10813
com.fasterxml.jackson.databind.util.tokenbuffer.asparser() 0.05920 0.68754 -0.19185 0.94473 0.17872 -0.51132 -0.12062 0.07929 -0.32990 0.23147 0.74640 -0.34984 0.67872 0.17572 -0.03409 0.24764 -0.82581 -0.04220 -1.01821 -0.79916 0.92751 -0.12463 0.62875 -0.59220 0.04113 -0.65911 -0.24866 0.09886 0.89830 -0.50488 -1.01219 0.60714 -0.22970 0.88000 -0.51625 0.26348 0.36274 -0.70493 0.55805 -0.21985 -0.91829 0.14528 0.17244 -0.77617 0.83618 -0.12099 -0.82574 -0.85957 -0.13724 0.52472
com.fasterxml.jackson.databind.annotationintrospector 0.65492 -0.02468 -0.43129 1.18675 -0.09873 0.48087 0.62891 0.66105 -0.95519 0.15225 -0.02284 -0.20337 0.68489 -0.39848 -0.09933 0.31096 -1.21678 0.24202 -0.06533 0.19026 0.25175 0.41822 -0.01922 0.34572 -0.33422 0.15633 0.21538 0.52928 0.52643 -0.51164 -0.53137 0.24585 0.38945 0.02046 0.74924 0.86535 0.43582 -0.26709 0.10128 0.19023 -0.86560 0.50507 -0.62693 -1.29322 0.04713 -0.46128 0.26463 -0.17431 0.40024 0.74608
com.fasterxml.jackson.core.jsonparser -0.19399 0.68334 0.28747 0.58549 -0.04636 -0.91885 -0.02156 0.15143 0.03310 0.37712 0.33762 0.08075 0.50463 0.56251 0.06433 -0.04755 -0.71207 0.01976 -1.05330 -0.48869 1.31788 -0.40005 0.78625 -0.43016 -0.12115 -0.30636 -0.86518 0.38007 0.20935 0.23247 -0.75107 0.49696 -0.02348 0.52098 -0.41591 0.57023 0.49725 0.46033 0.79227 -0.44386 -1.05878 -0.16524 0.17027 -0.77985 0.49386 0.19657 -0.61168 -0.71756 0.02742 0.88281
com.fasterxml.jackson.databind.type.typefactory 0.11050 0.39169 -0.56856 0.37323 0.00800 -0.10847 0.63116 0.43046 -0.59238 0.05960 -0.16475 -0.04465 0.61321 -0.60434 -0.29674 0.64076 -1.07070 -0.07595 0.23877 -0.48504 0.46048 -0.30439 -0.24258 -0.06280 -0.47274 0.22574 0.25556 0.33466 0.16146 -0.03861 0.13252 0.29345 -0.04362 -0.01710 0.97856 0.43779 0.29408 -0.50391 0.08891 0.55109 -1.07195 0.36748 -0.95933 -0.14175 0.08491 0.16703 -0.03301 0.04028 -0.15979 0.40629
com.fasterxml.jackson.databind.node.objectnode.set() 0.25335 0.12584 0.48632 0.51254 -0.15674 -0.45476 0.04201 -0.35195 -0.51506 1.07062 0.05694 0.27183 0.54219 0.17255 -0.45597 -0.27166 -1.48734 -0.48093 -0.24463 -0.52670 0.04919 -0.46005 0.32772 0.36687 -0.16819 -0.30837 -0.29403 0.65096 0.70858 0.09283 -0.50422 0.75216 0.53265 0.52396 -0.05238 0.10588 0.25409 0.49104 0.32274 0.12689 -1.36683 -0.07343 0.17081 -0.15227 -0.05488 1.00825 -0.71216 -0.58151 -0.50694 0.72982
com.fasterxml.jackson.databind.propertyname 0.64723 0.53531 -1.09443 1.36866 0.39918 0.82842 0.53364 0.85033 -1.06983 -0.04761 0.95067 -0.07165 0.35755 -0.04082 0.07742 -0.09454 -0.82333 -0.14490 -0.21412 -0.58294 0.24789 0.55320 0.47998 1.11759 -0.08305 0.66039 0.37345 -0.05113 0.02436 -1.09070 -0.24063 0.41892 0.07648 0.67786 0.22748 0.36140 0.05311 -0.17302 -0.56320 0.13198 -1.31111 0.21730 0.23092 -0.83270 0.90249 -0.58938 -0.41506 -0.33928 0.34270 0.16906
com.fasterxml.jackson.databind.serializationconfig -0.37233 0.01600 -0.26054 0.20513 0.31455 -0.37220 0.52701 0.89181 -1.43647 1.00068 0.99528 0.03087 -0.13977 -0.52046 -0.75563 0.54949 -1.01705 -0.44143 -1.11716 -1.46687 1.20580 0.91450 -0.62572 -0.05110 -0.06758 1.88686 -0.09876 0.18432 0.32250 -0.46962 -0.67823 1.15647 -0.14801 0.86788 -0.10590 0.52924 0.16109 -0.07454 0.03259 0.09373 -1.05103 0.29135 -0.48249 0.12017 1.23430 0.20284 -0.93207 0.10240 -0.21449 -0.00386
com.fasterxml.jackson.core.json.jsonfactory.createparser() -0.07351 0.38819 0.73307 0.69972 0.79955 -1.08361 -0.06528 0.78906 -0.60842 0.69549 0.47215 -0.26415 0.13942 -0.11866 -0.13910 -0.26261 -1.33205 -0.37904 -1.26653 -0.92251 1.06083 0.33976 0.74394 -0.48489 -0.38200 -0.61598 -0.95325 0.13451 0.70562 -0.12692 -1.37936 1.29577 -0.25994 1.02632 -0.49102 0.62212 0.31367 0.55171 0.37724 -0.52884 -1.44825 -0.09457 -0.16933 -0.39830 0.63726 -0.28818 -0.52539 -0.85667 -0.51478 0.24935
com.fasterxml.jackson.databind.jsonnode.isarray() 0.17912 -0.03554 0.67481 0.16684 0.38315 -0.50093 0.00338 -0.52865 -0.67462 0.18972 0.12796 -0.22956 0.33078 0.49679 0.32303 -0.28862 -1.47955 -0.01538 -0.63332 -0.83529 -0.17237 0.13767 0.16765 0.28497 0.38671 -0.27897 -0.02773 0.43884 0.44494 0.07411 -0.59598 0.10701 0.44657 0.75743 -0.30807 -0.17499 0.18126 0.34881 0.20090 0.10317 -0.99522 -0.06747 0.23845 -0.44504 0.06591 0.16348 -0.55880 -0.13137 0.32723 0.67958
com.fasterxml.jackson.databind.objectwriter -0.32947 0.25114 0.41750 0.20045 0.49931 0.01288 0.45051 -0.25492 -0.51809 1.03886 -0.17159 0.34034 0.45841 0.44725 -0.07777 -0.43828 -0.46265 -0.69871 -0.83967 -0.16432 0.75194 0.26006 -0.29661 -0.19416 0.04785 -0.03718 -0.04823 0.11141 0.63859 0.34433 -0.33187 0.16317 0.10941 0.29066 -0.15593 0.26667 0.40055 0.57511 -0.02541 0.26191 -0.52159 0.41990 0.23125 0.57202 -0.15030 0.40782 -0.27420 -0.14850 -0.04430 0.42981
com.fasterxml.jackson.databind.deserializationcontext.getconfig() 0.19826 0.13792 -0.61587 0.57666 0.16734 0.06761 0.37080 1.43173 -0.87488 0.11862 0.12583 -0.99112 0.58583 -0.24996 -0.13571 0.43498 -1.39562 0.04357 -0.07747 0.45157 0.31807 -0.16046 0.28997 0.22458 -0.55412 0.02181 0.46737 0.82490 -0.05000 -0.48996 -0.79697 0.46533 0.23043 0.23511 0.79343 1.28456 -0.02295 0.32845 0.31193 0.45064 -0.82498 0.30757 -0.66426 -0.76651 0.41402 -0.08631 -0.06178 -0.15769 0.14573 1.06252
com.fasterxml.jackson.databind.objectreader 0.17276 0.08293 -0.28399 0.79397 -0.03554 -0.12213 0.71452 0.20534 -0.50901 0.70955 -0.31020 -0.28018 0.10444 -0.04832 -0.07211 0.24305 -1.24179 -0.97901 -0.44257 -0.05652 0.26559 -0.25292 0.04447 0.07873 -0.09201 0.35009 -0.40652 0.34998 0.19180 -0.23476 -0.10144 0.18708 0.29257 0.17992 0.31924 -0.25579 0.05879 0.53882 0.32545 0.15987 -0.76253 -0.24137 0.06583 0.71091 0.28750 -0.09320 -0.28286 -0.30068 0.31503 -0.44134
com.fasterxml.jackson.databind.node.objectnode.get() 0.19628 0.03394 0.54403 0.33930 0.02061 -0.12583 0.27284 -0.06544 -0.31077 0.37968 0.09538 0.12024 0.18488 0.11483 -0.12459 -0.32227 -0.90963 -0.37007 -0.48507 -0.43295 0.17932 -0.25346 0.28828 0.07330 0.16275 -0.30833 -0.16332 0.16437 0.58644 -0.02440 -0.27601 0.18991 0.46793 0.36330 0.00904 -0.11781 0.36794 0.18985 0.16177 0.45553 -0.66331 0.17289 0.23819 -0.19732 -0.15159 0.41974 -0.36331 -0.38447 -0.10709 0.21375
com.fasterxml.jackson.databind.jsonmappingexception.from() 0.31154 1.62447 -0.66385 -0.21164 1.37613 -0.40571 0.32149 1.04010 0.02143 0.40722 0.27381 -0.78173 0.77553 -0.30666 0.55472 -0.05817 -0.62933 -0.16354 -0.65623 0.31605 0.12750 -0.13852 0.79280 -0.05459 -0.41288 -0.50507 0.35601 -0.16906 0.65767 -0.05838 -0.40255 0.02181 -0.29855 1.63441 0.29159 0.87652 0.20393 0.12627 0.59655 -0.05632 -1.57263 0.50291 -0.30244 -0.47046 1.03606 -0.93380 0.33015 -0.32801 -0.16922 0.01869
com.fasterxml.jackson.core.version.unknownversion() -0.06197 0.24722 -0.11304 0.12866 0.31277 -0.27326 0.04888 0.25362 -0.24031 0.23053 -0.17460 0.23275 0.26715 0.02957 0.07093 0.06071 -0.33110 -0.24179 -0.35263 -0.09614 0.43075 0.29565 0.09501 -0.11425 0.16702 0.00345 -0.02165 -0.07023 0.29492 -0.08319 -0.13307 -0.07568 -0.06281 0.20914 0.21080 0.14426 0.34845 0.00215 -0.04085 0.16491 -0.44484 0.21540 -0.03234 -0.09056 -0.02786 0.06591 -0.03826 0.07698 0.09527 0.28747
com.fasterxml.jackson.databind.util.tokenbuffer -0.39533 0.28691 -0.50859 1.10026 -0.38048 -0.56699 0.36534 0.16576 -0.75309 0.71970 1.16158 -0.67720 0.64326 -0.01759 -0.10053 0.68377 -0.89384 -0.45366 -0.79779 -0.04477 0.48632 -0.16667 0.66093 -0.40603 -0.23906 0.11550 -0.36121 -0.27247 0.32036 0.03638 -0.43748 0.84333 -0.38562 0.80988 -0.48546 0.47921 -0.00371 -0.14996 0.56071 0.06780 -1.07106 0.45953 0.20429 -0.75016 0.95758 0.22973 -0.38189 -0.61339 -0.22450 0.92494
com.fasterxml.jackson.databind.jsonnode.has() 0.17811 0.15127 0.81922 -0.11651 0.55829 -0.77782 -0.15808 0.02309 -0.75645 0.89570 -0.01848 -0.12172 0.56087 0.40128 0.05262 -0.11770 -2.23996 -0.15652 -0.91806 -0.99070 -0.48518 -0.19569 0.17417 0.48731 0.09267 -0.24038 -0.17106 0.88368 0.89493 0.22285 -0.73520 0.21436 -0.08614 1.03909 -0.10778 -0.00306 0.29882 0.41250 0.22865 0.21076 -1.27690 -0.04436 0.18348 -0.60739 0.27288 0.32905 -0.78264 -0.50118 -0.15826 0.28641
com.fasterxml.jackson.databind.objectwriter.writevalueasstring() -0.23721 0.24804 0.42529 0.06108 0.47271 -0.03906 0.28491 -0.02651 -0.45444 0.76935 -0.17323 0.35414 0.32252 0.21353 0.14840 -0.46761 -0.11343 -0.57551 -0.75387 0.06527 0.73986 0.21304 -0.03242 -0.29756 0.02452 -0.13119 0.04395 -0.03722 0.50363 0.22974 -0.29337 -0.07735 -0.10542 0.17643 -0.11186 0.31240 0.31121 0.32148 0.05215 0.23433 -0.81246 0.65202 0.15448 0.28186 -0.15368 0.24763 -0.18388 -0.14732 -0.19713 0.30149
com.fasterxml.jackson.databind.jsonnode.isobject() 0.34149 0.01590 0.76626 0.02745 0.46177 -0.70834 -0.12953 -0.04564 -0.91611 0.60657 0.14484 -0.18110 0.11405 0.40746 0.48025 -0.05179 -2.21310 0.00644 -0.84504 -1.07123 -0.28009 -0.48433 0.27499 0.65164 0.41768 -0.45459 -0.07107 0.74242 0.65996 -0.28800 -0.51419 0.23644 0.19113 0.65581 -0.07847 -0.15776 0.27302 0.04717 0.45437 0.13986 -1.27310 -0.24303 0.38777 -0.70044 0.29486 0.40103 -1.01341 -0.26730 -0.09459 0.34145
com.fasterxml.jackson.databind.jsontype.typedeserializer 0.05617 0.33343 -1.08438 1.29023 -0.18293 -0.33267 0.31678 1.11761 -0.97423 -0.04790 0.26158 -1.05853 0.86104 -0.44373 -0.56530 1.00307 -1.58152 -0.32879 -0.34557 0.41067 0.89446 -0.41064 0.75777 0.42195 -0.62982 -0.15396 0.32339 0.66693 0.43279 -0.09693 -1.27750 0.37914 -0.04247 0.28517 0.48376 0.66057 -0.16267 -0.11571 0.53026 -0.49154 -0.66006 0.38508 -0.15168 -0.75341 0.57240 -0.00704 -0.06974 -0.58946 -0.51520 0.67011
com.fasterxml.jackson.databind.node.objectnode.size() 0.00998 0.00008 0.00979 0.00799 0.00784 -0.00254 0.00916 -0.00079 -0.00227 0.00991 -0.00985 -0.00362 0.00049 -0.00523 0.00954 0.00692 0.00314 -0.00298 0.00280 0.00670 0.00695 0.00011 0.00979 -0.00968 0.00222 -0.00888 0.00551 0.00231 -0.00729 -0.00210 0.00641 -0.00163 0.00787 -0.00484 -0.00654 0.00262 -0.00306 0.00274 -0.00911 -0.00628 0.00566 -0.00602 -0.00712 -0.00911 -0.00625 -0.00115 -0.00881 -0.00495 -0.00167 0.00861
com.fasterxml.jackson.databind.node.arraynode.size() -0.02842 0.17306 0.52365 -0.10638 0.08621 -0.38046 0.11901 -0.18293 -0.43315 0.37417 0.03935 0.02217 0.32045 0.25989 -0.06788 -0.26407 -1.17409 -0.01782 -0.43616 -0.74165 -0.24184 -0.13381 -0.03280 0.16099 0.09007 -0.18395 -0.09109 0.68847 0.55008 0.07551 -0.31723 0.21236 0.26976 0.38289 0.06623 0.04464 0.13103 -0.03307 0.08534 0.19728 -0.78792 0.02274 0.01809 -0.26238 0.14004 0.24928 -0.50454 -0.32481 -0.17908 0.46445
com.fasterxml.jackson.databind.objectmapper.writevalueasbytes() -0.36534 0.04029 1.22415 0.66612 0.29822 -0.06883 0.22646 0.75419 -0.33941 1.03463 -0.22247 -0.43594 0.28007 0.53878 -0.97051 0.04258 -1.29527 -0.93527 -1.05674 -1.10683 0.55871 -0.37242 0.31255 0.61467 -0.32420 0.00726 0.04239 1.21743 0.31574 0.09139 -0.89800 0.28633 0.52876 0.44032 -0.51440 -0.36448 0.99779 0.55750 -0.14952 0.23141 -0.30515 0.17149 0.90234 -0.18618 -0.65641 0.52719 0.12611 -0.68796 -0.70500 0.99624
com.fasterxml.jackson.annotation.value -0.38523 -0.54958 0.12019 0.54670 -0.95048 0.12470 0.61076 0.25923 -0.99421 -0.22313 0.45960 0.27698 0.84177 -0.07935 -0.71776 0.29876 -1.08964 -0.17874 -0.40176 -0.35169 -0.04147 0.43836 0.11874 0.29277 -0.04021 0.84309 0.11622 1.15947 -0.05011 -0.24501 -0.83751 -0.07111 0.63505 0.58279 0.48036 0.65406 -0.68281 -0.60691 -0.48750 0.20138 -1.31628 0.37671 0.12482 -1.59570 0.03884 -0.26470 0.76791 0.20724 0.09234 0.91129
com.fasterxml.jackson.core.json.jsonfactory -0.13862 0.54884 0.63506 0.26796 0.28521 -1.29491 -0.47269 0.31652 -0.49565 0.94330 -0.04299 0.29054 0.06326 0.57756 -0.15322 -0.52130 -0.75341 -1.00514 -0.90970 -0.11523 1.17562 -0.31945 0.67069 -0.03462 -0.15249 -0.33075 -0.69789 -0.28830 0.59822 0.30725 -0.34665 0.48191 -0.40094 0.59630 -0.70358 0.55364 0.36181 0.36747 0.39557 -0.49615 -1.30417 0.25038 0.02664 -0.19634 0.17673 0.39668 -0.48548 -0.53397 -0.24873 0.73802
com.fasterxml.jackson.databind.serializerprovider.findvalueserializer() -0.07095 -0.02717 -0.32300 0.12321 -0.14880 0.00504 -0.07059 0.71452 -0.14635 0.59383 0.14115 -0.56512 0.22368 0.36978 -0.38825 0.35643 -0.37474 -0.62616 -0.33804 -0.47142 0.43463 0.10707 0.30126 -0.07133 0.03825 0.16980 -0.13064 0.13235 0.13849 -0.13522 -0.27445 -0.23150 0.17918 0.25081 -0.30091 0.26838 0.49083 -0.19249 0.17457 0.06068 -0.61062 -0.08533 -0.12126 -0.36067 0.07727 0.00448 0.16183 -0.13706 0.10831 0.50675
com.fasterxml.jackson.databind.objectmapper.isenabled() -0.54978 0.36695 0.23781 0.44419 0.11508 -0.56542 1.14421 -0.15647 -0.33278 1.21559 -0.58670 -0.00292 1.06949 -0.22377 -0.13803 -0.38829 -1.10203 -0.29287 -0.07616 -0.82341 0.82031 0.08347 -0.47525 -0.39834 -0.43883 -0.49245 0.37743 0.69785 0.49549 0.33805 -0.01371 0.56767 -0.18981 -0.39251 0.30394 0.26909 0.61852 -0.32197 0.21068 0.31635 -0.99516 0.22320 -0.82008 0.49675 0.26414 0.65659 -0.28423 -0.24319 -0.33765 1.29722
com.fasterxml.jackson.databind.objectmapper.writerwithdefaultprettyprinter() 0.24231 -0.19696 0.38184 0.36400 0.75919 -0.29870 0.36453 -0.73402 -0.77656 1.62420 -0.20622 0.45801 0.38615 0.09011 0.62472 -0.57019 -0.70764 -0.75597 -0.88313 0.10404 0.79146 -0.08155 0.18079 -0.74207 0.00280 0.01699 0.19201 0.04099 0.76925 0.19168 -0.41986 0.45382 0.05344 0.83607 -0.51006 0.27873 0.37815 0.47147 0.31803 0.18183 -1.19323 0.59408 0.38456 0.28923 -0.33646 0.46567 -0.59408 -0.18654 0.11910 0.02508
com.fasterxml.jackson.databind.jsonnode.istextual() 0.03545 0.26945 0.04961 0.05460 0.25632 -0.54898 0.28325 0.04633 -0.17120 0.38385 -0.14915 0.04838 0.43564 -0.01733 0.29508 0.09504 -0.92723 -0.07372 -0.25230 -0.13821 0.32306 0.20132 0.12055 0.05356 0.08694 -0.35564 0.17513 0.15227 0.39177 -0.05122 -0.16041 0.09733 0.06779 0.25406 0.15115 0.12245 0.25693 0.32488 0.41901 0.40117 -0.50243 -0.03269 -0.09220 -0.20055 0.21281 0.21917 -0.48151 -0.09177 0.06671 0.20476
com.fasterxml.jackson.databind.objectmapper.writer() -0.24978 0.14367 0.50694 0.05404 0.43916 -0.21982 0.16905 -0.07655 -0.24468 1.02936 -0.24580 0.16077 0.53454 0.18755 -0.17365 -0.39095 -0.33289 -0.57691 -0.59771 -0.33621 0.81181 0.30299 -0.12468 -0.38568 -0.05089 -0.03557 -0.12888 -0.09399 0.70132 0.19203 -0.32847 0.18301 -0.12566 0.02623 -0.03078 0.08273 0.72278 0.30938 0.01147 0.22244 -0.53568 0.34880 -0.15920 0.34868 -0.39057 0.36093 -0.24249 -0.00578 0.03941 0.48442
com.fasterxml.jackson.databind.javatype.getcontenttype() 0.08332 0.60383 -0.87630 0.55409 -0.10610 -0.17736 0.66999 0.69514 -0.88177 -0.30241 -0.12769 -0.44189 0.47918 -0.55848 0.17612 1.05659 -1.25743 -0.21363 0.03686 0.38618 0.75434 -0.08381 0.26577 0.04869 -0.27229 -0.12854 0.42285 0.63854 0.34743 -0.05078 -0.68489 -0.09489 0.02950 0.76445 0.64958 0.55452 0.02696 -0.19456 0.74941 -0.12278 -1.42167 0.57982 -0.77592 -0.39512 0.33827 -0.42690 0.15981 -0.11352 -0.18000 0.29563
com.fasterxml.jackson.databind.objectmapper.createarraynode() -0.35180 -0.20059 0.84685 0.68730 0.29727 -0.36317 0.67455 -0.37171 -1.07382 0.71468 -0.06893 0.23358 0.42579 0.12178 -0.25409 -0.64821 -1.86693 -0.32570 -0.66482 -0.99310 0.22870 -0.56431 0.07754 0.47163 -0.25410 0.03377 0.15627 1.70106 0.50599 0.00218 -1.00445 0.58656 0.70577 1.07355 -0.64620 0.32699 0.39372 0.17701 0.56248 0.35365 -1.43286 -0.04951 0.65214 -0.46068 -0.09859 0.85434 -0.73417 -0.57938 -0.70297 0.88734
com.fasterxml.jackson.databind.introspect.annotatedmember 0.05804 -0.03397 -1.04511 1.19961 0.18911 0.66138 0.73869 0.63862 -1.10213 -0.22535 0.55325 -0.39687 0.67981 0.09547 -0.32196 0.32111 -1.14410 -0.04384 -0.24544 -0.25691 0.24248 -0.02633 0.11913 0.64213 0.28921 0.27612 0.31578 0.67246 0.52951 -0.41107 -0.06202 0.10139 0.65001 0.25775 0.46395 0.64755 0.14743 -0.75076 -0.41622 0.44612 -0.64185 0.46633 0.31953 -0.91402 0.09398 -0.40525 0.42230 0.18817 0.58896 0.46242
com.fasterxml.jackson.databind.serializerprovider.isenabled() 0.29624 0.48484 -0.48687 0.10579 0.25002 -0.21810 -0.15975 0.22769 -0.48298 0.29045 -0.13453 -0.14846 0.29622 0.17747 -0.26023 0.14332 -0.44446 -0.04928 -0.28266 -0.12423 0.01831 0.02245 0.07507 0.23875 -0.20450 0.08132 0.13419 -0.15491 0.32348 0.07502 -0.00861 0.00954 0.22989 0.25716 -0.04777 0.34856 0.20194 0.06011 -0.03593 -0.09867 -0.84688 0.14694 -0.29634 -0.54365 0.14869 0.06286 -0.10996 0.22362 0.03126 0.52982
com.fasterxml.jackson.databind.serializationconfig.isenabled() -0.07270 0.82506 -0.41935 -0.15903 0.74572 -0.19154 -0.77867 1.25142 -1.28080 0.93265 0.52890 -0.30898 -0.08414 -0.15155 -0.13306 0.61339 -1.15607 0.11306 -1.49952 -0.78207 1.17092 0.01156 0.13903 -0.46234 0.31684 0.80856 -0.01748 -0.79867 0.46299 -0.07495 -0.66732 0.87382 -0.39338 0.98909 0.22629 1.11677 0.41916 0.40253 0.30718 0.10760 -0.74408 -0.12339 -0.55216 -0.73672 0.51066 0.32886 -0.95112 0.75968 -0.27133 0.79665
com.fasterxml.jackson.databind.objectmapper.gettypefactory() 0.05329 -0.02564 0.43357 -0.02714 0.65441 0.27395 0.89036 0.36349 -0.97214 0.64759 -0.24483 -0.50347 0.42934 0.01257 -0.00868 0.11688 -0.33487 -0.36872 -1.21633 0.24466 0.97953 0.37789 -0.10780 -0.43731 0.33471 -0.21899 0.34204 -0.24810 0.71197 -0.01715 -0.31779 -0.11060 0.34811 0.41346 -0.16402 0.18972 0.77829 0.29930 -0.14284 0.61789 -0.49835 0.93647 -0.13445 -0.19723 -0.38641 -0.35896 0.15474 -0.06612 0.42002 0.11667
com.fasterxml.jackson.databind.serializerprovider.defaultserializenull() 0.00746 0.78431 -0.27264 -0.18703 0.35485 -0.52339 -0.55617 0.67183 -0.06351 0.74107 0.26669 -0.44784 0.17412 0.03346 -0.76868 -0.12438 -0.57852 -0.43438 -0.53655 -1.01636 -0.15384 -0.40092 0.48488 0.77423 -0.07954 0.74422 0.20705 -0.16148 0.18108 -0.30072 0.06003 -0.56606 -0.05756 0.62068 -0.30905 -0.05459 0.55539 -0.26749 -0.31294 0.11231 -1.40938 0.04381 -0.00836 -0.31222 -0.02709 0.39328 0.08868 0.30211 -0.26207 0.81418
com.fasterxml.jackson.databind.objectmapper.reader() 0.08204 0.02807 0.57697 0.54458 0.25827 0.10436 0.68009 -0.17866 -0.86519 0.91664 0.27567 -0.19793 -0.00564 0.55683 -0.61211 -0.29248 -1.59070 -0.61910 -0.62432 -0.81621 0.30490 -0.50804 -0.05976 0.45763 -0.32159 0.28911 0.04773 1.39056 0.79430 -0.00451 -0.98558 0.60138 0.83624 0.64981 -0.25410 0.13119 0.63273 0.66552 0.61782 0.38121 -1.37599 0.14714 0.59956 0.14889 -0.28366 0.55080 -0.67232 -0.53286 -0.45772 0.40331
com.fasterxml.jackson.databind.module.simplemodule.adddeserializer() 0.01497 0.66173 0.25877 0.11138 0.50204 -0.12854 0.57569 -0.09306 -0.48319 1.18170 -0.29546 -0.09144 0.73633 0.39616 -0.59154 -0.22017 -0.74278 -0.38829 -0.98176 -0.39245 0.55264 -0.01584 -0.12278 0.04397 -0.11424 0.30914 0.14593 0.42082 0.44263 0.31206 -0.27684 0.40669 0.39571 -0.33675 -0.18429 0.39544 0.42045 0.32426 -0.00030 -0.07927 -0.03560 0.25358 -0.19295 -0.04293 0.11713 0.38151 -0.36509 -0.12952 -0.01227 0.50716
com.fasterxml.jackson.databind.jsonnode.isnumber() -0.15324 0.16676 0.69068 0.29152 0.03776 -0.76019 0.32937 0.06206 -0.73528 0.99563 0.03465 0.28798 0.47641 -0.01457 -0.15374 -0.17094 -1.52971 -0.19384 -0.47755 -0.84838 -0.06826 -0.52353 0.15767 0.65325 -0.08732 -0.34043 0.00565 1.07990 0.67362 -0.02922 -0.44638 0.60582 0.13940 0.78614 0.08227 -0.07076 -0.19850 0.11394 0.19779 0.23610 -1.65882 -0.09737 0.27468 -0.39063 0.18007 0.63249 -0.83120 -0.64644 -0.41295 0.72535
com.fasterxml.jackson.databind.javatype.containedtype() -0.25193 0.80662 -0.54806 0.69718 0.29707 -0.18724 0.19324 1.04433 -0.16700 0.63796 -0.38611 -0.65229 0.78846 -0.30265 -1.05874 1.10463 -1.13155 -0.18608 0.05398 -0.47535 0.54898 -0.25917 -0.16332 0.34517 -0.52693 0.81839 0.39389 0.17572 0.11294 -0.03932 -0.72748 -0.11837 -0.00245 -0.02117 0.50212 0.17370 0.11209 -0.07646 0.04387 0.07480 -0.72874 0.12904 -0.58961 -0.51897 0.02995 -0.28181 -0.22080 -0.29044 0.17871 0.44361
com.fasterxml.jackson.databind.deserializationconfig 0.15718 -0.15838 -0.41430 0.88549 0.21089 -0.02259 0.70954 1.03056 -0.66501 0.66148 -0.10622 -0.49750 0.66685 -0.01891 -0.89125 0.70206 -1.41146 0.12700 -0.17030 -0.26812 1.07270 0.39524 0.03720 -0.18436 -0.56870 0.54579 0.23893 0.42568 0.18051 -0.35502 -0.93258 1.15778 0.22352 0.33862 0.54412 0.67028 -0.21215 0.21993 0.38059 0.34927 -0.80369 0.37055 -0.60391 -1.27240 0.64759 -0.05349 -0.43326 -0.52274 0.23809 0.58130
com.fasterxml.jackson.core.jsongenerator.writeobject() 0.57548 0.37629 -0.51072 0.14170 0.62830 -0.57900 0.05035 -0.21570 -0.28989 0.50153 -0.79333 -0.63074 0.42561 -0.20556 -0.98262 -0.08555 -1.37849 -0.40664 -0.65697 -0.30335 0.72850 0.11561 -0.10674 0.06970 -0.45589 0.33164 0.17214 -0.13884 0.32177 0.13949 -0.16664 -0.47919 0.35332 0.60644 -0.97581 0.80348 0.34761 0.76012 0.84390 -1.13719 -1.69149 0.24197 -0.31084 -1.05362 0.45879 0.31192 0.37916 0.00208 0.27250 0.33650
com.fasterxml.jackson.databind.jsonnode.isnull() 0.18088 0.18854 0.27272 0.10251 0.25626 -0.17099 0.30833 0.09396 -0.25009 0.17867 0.11434 0.02538 0.17542 0.03525 -0.06898 -0.25274 -0.88236 0.04651 -0.40854 -0.66171 0.00369 -0.08614 0.09017 0.25725 0.35157 -0.16166 -0.00532 0.44275 0.29421 -0.25104 -0.04868 0.02370 0.11377 0.25416 0.20196 -0.21067 0.34203 0.01080 0.03106 0.47032 -0.67742 0.07093 0.02016 -0.27981 -0.07126 0.07015 -0.38820 -0.23193 0.07371 0.06691
com.fasterxml.jackson.databind.deser.settablebeanproperty.getname() 0.61315 0.89333 -0.50545 1.18643 0.26111 -0.07870 0.12544 0.70204 -0.49447 0.48986 -0.11559 -0.29105 0.10528 0.08954 1.08344 0.81255 -1.64584 -1.28318 -0.33111 0.52564 -0.08703 0.16485 0.94304 -0.04887 0.04380 0.68730 -0.46079 0.11587 -0.16815 -1.03385 0.04026 -0.00182 -0.71576 1.00158 -0.59240 0.04512 0.00801 -0.71016 0.68143 0.07231 -1.12539 -0.06882 0.47530 -0.33516 0.52947 -0.04691 -0.25375 -0.72307 -0.51380 0.03435
com.fasterxml.jackson.core.jsongenerator.canwritetypeid() -0.00515 0.00162 0.00116 -0.00495 -0.00681 0.00753 -0.00164 0.00709 -0.00106 0.00138 -0.00207 0.00618 -0.00140 0.00216 0.00689 -0.00555 -0.00976 0.00822 0.00431 0.00172 -0.00457 -0.00126 0.00101 0.00342 0.00457 0.00528 -0.00494 -0.00432 0.00745 0.00097 -0.00167 -0.00349 0.00328 -0.00153 0.00026 -0.00281 -0.00556 -0.00476 -0.00273 -0.00218 0.00711 -0.00706 -0.00910 -0.00378 -0.00959 -0.00951 0.00638 0.00119 -0.00647 0.00079
com.fasterxml.jackson.core.jsongenerator.writeobjectfield() 0.04926 0.28985 -0.49281 0.17255 0.49436 -0.34672 -0.43526 -0.25721 -0.27726 0.79786 -0.01396 -0.54096 0.39977 0.11657 -0.22975 -0.16506 -0.46957 -0.39770 -0.37677 -0.72159 0.32764 -0.45294 0.24139 0.01214 -0.02923 0.11613 -0.11181 -0.06675 0.15382 -0.32690 0.10671 0.04101 -0.07870 0.47507 -0.79534 0.21572 0.57999 0.04577 0.32490 -0.14556 -1.64467 0.36459 -0.57705 -0.47367 -0.04149 0.45328 -0.22017 -0.03121 0.11876 0.94339
com.fasterxml.jackson.databind.node.arraynode.get() -0.07499 0.16512 0.60462 -0.18223 0.19207 -0.33446 0.06082 -0.18653 -0.49324 0.39614 0.09989 0.04366 0.31228 0.29965 -0.04864 -0.24835 -1.27441 0.09856 -0.49453 -0.80631 -0.25458 -0.08827 -0.10777 0.23838 0.13697 -0.10506 -0.06252 0.81309 0.58075 0.07152 -0.36147 0.29075 0.22928 0.49804 0.05682 0.07294 0.15423 -0.03861 0.14905 0.19338 -0.79239 -0.00863 0.03660 -0.31593 0.19185 0.25458 -0.58042 -0.36240 -0.19722 0.48134
com.fasterxml.jackson.databind.deserializationcontext.weirdstringexception() -0.34129 0.29578 -0.85122 0.57414 0.82659 -0.93428 -0.02258 0.72288 -0.26410 0.33066 -0.26499 0.42805 0.87799 -0.30782 0.49645 0.24608 -0.29947 0.09273 -0.59814 0.16607 0.21629 0.63488 0.66339 0.27751 0.04752 -0.57962 0.20731 0.09251 0.59187 -0.17475 -0.38857 -0.02781 -0.51193 1.55139 0.52951 0.21373 -0.20537 0.09186 0.08223 0.55908 -1.02235 0.00435 0.25232 -0.96103 0.37475 0.04105 -0.01745 -0.41681 -0.13870 0.55055
com.fasterxml.jackson.databind.ser.beanpropertywriter 0.31942 0.00511 -0.22250 0.61499 0.02526 0.28243 0.30577 0.57647 -0.40917 -0.03791 0.26249 -0.36015 0.41063 -0.24178 -0.23431 0.42938 -0.81027 -0.14415 -0.63254 -0.48945 0.26094 -0.08397 0.33429 0.06403 0.27437 0.28016 0.24459 0.38574 0.29490 -0.34182 -0.32393 0.13574 0.35266 0.34167 0.22251 -0.23041 0.32485 -0.33680 0.11135 0.52907 -0.27839 0.23762 -0.04925 -0.76282 -0.00283 -0.35081 0.01014 0.32580 0.24987 0.30826
com.fasterxml.jackson.databind.introspect.annotatedclass 0.42227 0.22153 -0.66377 0.76771 -0.07116 0.32348 0.81009 1.01896 -1.36979 -0.27602 0.31474 -0.36300 0.37318 -0.23413 -0.15156 0.60860 -1.17545 0.00273 -0.09790 -0.42565 0.14505 -0.06256 -0.01018 0.70642 -0.26977 0.79671 0.13224 0.21080 0.39102 -0.07238 -0.15238 0.43826 0.20693 0.09212 0.69831 0.57255 0.20608 -0.35517 -0.31035 0.11456 -1.00107 0.38000 -0.37812 -0.78903 0.24010 -0.45813 0.26997 0.07901 0.22306 0.85662
com.fasterxml.jackson.core.jsonparser.next() -0.00359 0.00796 -0.00051 -0.00498 0.00331 0.00942 -0.00932 -0.00215 0.00347 0.00388 0.00656 -0.00227 0.00662 0.00170 -0.00725 -0.00194 -0.00876 0.00972 -0.00592 0.00085 -0.00037 -0.00067 0.00640 0.00670 0.00200 -0.00489 0.00586 -0.00612 0.00544 0.00138 -0.00236 -0.00888 0.00205 0.00720 0.00774 -0.00366 0.00994 0.00562 -0.00300 -0.00236 0.00263 -0.00719 0.00266 -0.00221 -0.00535 0.00165 -0.00433 0.00314 0.00541 -0.00944
com.fasterxml.jackson.databind.objectreader.readvalue() 0.10644 0.22663 0.00143 0.16838 0.35363 -0.30422 0.27868 0.11145 -0.17666 0.53718 -0.19039 0.17645 0.48252 -0.07516 -0.07185 -0.21684 -0.48722 -0.28310 -0.45144 -0.09579 0.52895 0.07312 0.10785 -0.25288 -0.14741 -0.08425 -0.02681 0.03492 0.37801 0.09251 -0.03715 0.08277 -0.16687 0.11104 0.11873 0.26144 0.34478 0.29266 0.05229 0.26563 -0.42929 0.24634 -0.19395 -0.14630 -0.06708 0.14391 -0.10730 0.06286 0.04517 0.30103
com.fasterxml.jackson.databind.module.simplemodule.addserializer() -0.10285 0.53283 0.28583 0.09763 0.49321 -0.15958 0.54787 -0.11055 -0.44655 1.23312 -0.21132 -0.06203 0.87491 0.38900 -0.43797 -0.24623 -0.52113 -0.49825 -1.03930 -0.37283 0.73045 0.20017 -0.13049 -0.06667 -0.13499 0.31997 -0.03786 0.25321 0.50394 0.23664 -0.29845 0.37164 0.17719 -0.28150 -0.23574 0.19702 0.32292 0.48079 0.05949 0.05909 -0.16589 0.26592 -0.12208 0.02299 -0.03763 0.28059 -0.39537 0.02324 0.04644 0.33918
com.fasterxml.jackson.databind.node.textnode.valueof() 0.00846 -0.00514 -0.00923 0.00224 -0.00293 -0.00452 0.00158 -0.00718 0.00931 -0.00788 -0.00989 -0.00219 0.00962 -0.00046 -0.00270 0.00035 -0.00439 -0.00940 -0.00145 0.00228 -0.00956 -0.00503 0.00858 -0.00391 0.00569 0.00030 -0.00348 -0.00051 -0.00463 0.00856 -0.00532 -0.00693 0.00998 -0.00732 -0.00204 0.00657 0.00512 0.00509 0.00159 0.00509 -0.00500 -0.00992 -0.00312 -0.00337 0.00061 -0.00367 0.00745 0.00196 0.00279 -0.00872
com.fasterxml.jackson.databind.jsonnode.ismissingnode() 0.11051 -0.06522 0.30875 0.24594 0.17009 -0.19840 0.18003 0.01575 -0.21732 0.22862 0.11544 0.18000 0.32464 -0.18881 -0.14575 -0.27468 -0.88285 -0.18169 -0.48457 -0.57942 -0.01669 -0.04033 0.17026 0.06145 0.29381 -0.12572 -0.03235 0.51807 0.28896 -0.20861 -0.20301 0.07636 0.28472 0.39944 0.21286 -0.32896 0.15565 -0.06473 -0.07967 0.61308 -0.59806 0.20674 0.04909 -0.27295 -0.03231 0.09134 -0.17434 -0.05957 -0.00513 0.25885
com.fasterxml.jackson.core.jsongenerator.writetypeid() -0.00407 -0.00315 0.00436 0.00830 -0.00189 0.00584 0.00764 -0.00312 0.00309 0.00404 0.00162 -0.00164 0.00941 0.00272 0.00989 0.00320 0.00104 -0.00349 -0.00611 -0.00965 0.00025 -0.00078 -0.00673 0.00538 -0.00686 0.00263 -0.00031 0.00462 0.00646 -0.00248 0.00561 -0.00522 -0.00976 -0.00309 -0.00959 0.00995 -0.00824 0.00161 -0.00552 0.00801 -0.00551 0.00400 0.00524 0.00569 -0.00945 -0.00258 -0.00259 -0.00880 0.00751 0.00908
com.fasterxml.jackson.databind.deserializationcontext.wrongtokenexception() -0.05508 0.40545 -0.66261 0.85709 0.45852 -0.91576 0.44662 0.03397 -0.11297 0.33501 0.08606 -0.06539 0.97756 -0.20225 0.55128 -0.32012 -0.76598 -0.15025 -0.78068 0.50943 0.32472 0.23584 0.45424 0.75583 -0.69912 -0.94058 0.61595 0.55364 0.88829 -0.29944 -0.19307 0.24231 -0.23877 1.25480 0.21607 0.48573 -0.23926 0.04214 0.45838 0.09597 -1.23312 0.28112 0.33737 -0.69774 0.86948 -0.08076 -0.33811 -0.12423 0.23795 0.14180
com.fasterxml.jackson.databind.objectmapper.convertvalue() 0.08331 0.26519 0.94259 0.15406 0.75638 0.28123 0.18252 -0.04303 -0.52775 0.15916 -0.15672 -0.56259 0.19042 0.79042 0.06916 -0.33334 -0.93061 -0.12193 -0.76317 -0.38245 0.53736 0.17945 -0.06995 0.04017 0.20291 0.05965 0.03455 0.34856 0.38390 0.02031 -0.50795 -0.39478 0.59868 0.57994 -0.51564 0.04823 0.73294 0.65493 0.21106 0.38696 -0.44132 0.16150 0.06699 -0.34696 -0.34957 0.39251 -0.10513 0.00715 0.31567 0.69389
com.fasterxml.jackson.databind.deserializationcontext.findcontextualvaluedeserializer() 0.80410 0.30427 -0.56929 1.68135 -0.00028 -0.54487 0.48544 -0.10360 -0.42590 -0.23825 -0.01843 -1.28847 0.48075 -0.26747 -0.75037 0.27693 -1.52882 -0.39599 -0.25023 -0.48886 0.70834 -0.19080 0.24824 0.42453 -0.80195 0.23120 0.10962 0.37962 0.71353 -0.72266 -1.05315 -0.15923 0.40385 0.96505 -0.12368 0.39648 -0.14193 -0.04529 0.81019 -0.95105 -1.26053 0.23397 -0.67970 -0.85500 0.63041 0.07388 -0.03768 -0.82066 0.20324 0.34719
com.fasterxml.jackson.databind.jsontype.typeserializer -0.05574 0.04236 0.02811 0.38449 0.39548 -0.30453 0.25806 0.90967 -0.54192 0.13018 0.07898 -0.05961 0.54535 -0.36653 -0.01479 0.56259 -1.04003 -0.08861 -1.13058 -0.83772 0.63908 -0.29462 0.17269 -0.53434 -0.49618 0.02589 -0.23438 0.60694 0.09187 -0.27389 -0.47851 0.89081 0.08124 -0.09482 0.49786 0.41961 0.60607 -0.71720 0.17702 0.41885 -0.86907 0.20353 -0.38783 -0.64685 0.27348 -0.55389 -0.15560 0.13985 -0.15975 0.12992
com.fasterxml.jackson.databind.type.typefactory.unknowntype() 0.08544 0.35637 -0.66109 0.70708 -0.03993 -0.21807 0.65773 0.99874 -0.90435 0.42494 -0.52354 -0.16593 0.51611 -0.34637 -0.63451 0.98151 -1.41801 -0.28763 -0.10234 -0.59333 0.40589 -0.19845 -0.32562 0.51126 -0.23970 0.49423 0.03576 0.15783 0.34361 -0.17062 -0.10160 0.14508 0.04875 -0.08605 0.76738 0.02145 0.01406 -0.19562 -0.28084 0.22699 -0.74987 0.11135 -0.35738 -0.28760 0.11358 -0.10208 -0.07707 -0.19919 0.29957 -0.14780
com.fasterxml.jackson.databind.objectmapper.valuetotree() -0.18882 0.40682 0.87410 -0.00238 0.28542 -0.25377 0.21418 -0.09184 -1.08452 0.75236 0.22344 0.15025 0.28015 0.61828 -0.34447 -0.40548 -1.80368 -0.24170 -0.80763 -1.25518 -0.11292 -0.40241 0.10422 0.59315 -0.03405 0.25864 0.00434 1.31487 0.73370 0.10421 -0.77332 0.30765 0.53154 0.83886 -0.17563 0.11923 0.04347 -0.07376 0.19140 0.22802 -1.24552 0.28002 0.31774 -0.23926 -0.17560 0.41264 -0.60990 -0.54046 -0.63064 0.72248
com.fasterxml.jackson.core.json.jsonfactory.creategenerator() -0.44747 0.60683 -0.01937 -0.20510 0.46967 -1.30314 -0.73026 0.26736 -0.42157 1.63768 -0.09374 0.18317 0.51142 0.23527 0.12740 -0.11277 -0.66987 -0.92802 -0.44454 -0.51060 0.83718 -0.29246 0.08016 -0.37385 -0.08440 -0.29551 -0.07919 -0.25211 0.29858 0.14554 -0.36751 0.26889 -0.50782 0.61499 -1.05148 0.73629 0.30713 -0.39762 0.33979 -0.01269 -1.66254 0.02009 -0.69039 0.30037 0.02792 0.41965 -0.64886 -0.37082 -0.47456 1.06559
com.fasterxml.jackson.core.jsonparser.getembeddedobject() -0.69637 0.10033 -0.89628 0.30738 0.22326 -0.96813 0.06846 0.34324 -0.20726 0.26785 0.28869 -0.38119 1.45205 -0.10708 -0.18572 0.08473 -0.91864 -0.22732 -0.27196 0.28174 0.16705 -0.26546 0.43735 0.57733 -0.22351 -0.52003 0.33515 0.50447 0.94283 0.16531 -0.10549 -0.60470 -0.20517 1.26238 -0.02260 0.24556 0.14159 -0.26298 0.32976 -0.22380 -1.48148 -0.13099 0.38731 -0.64480 0.66203 -0.09128 0.16351 -0.08185 0.34885 0.95932
com.fasterxml.jackson.core.jsongenerator.writeraw() 0.26670 0.66159 0.05319 -0.49548 1.10486 -0.92303 -0.33767 0.94946 0.05875 1.25223 -0.75579 -0.36539 0.49518 -0.41005 -0.56320 0.12529 -2.35568 -0.86529 -0.85923 0.42741 0.03689 0.07150 0.84082 0.76752 0.16582 0.41594 -0.55507 -0.28518 0.06835 -0.25910 -0.15620 -0.24828 -0.28855 0.44471 -0.90964 0.26475 0.63598 0.18763 0.97017 -0.88634 -1.39147 0.06828 0.02737 -1.08181 0.36577 0.84523 -0.68574 0.51391 -0.53011 -0.04742
com.fasterxml.jackson.databind.objectmapper.writerfor() -0.20221 0.23679 0.00848 0.34895 0.59247 -0.49425 0.42428 0.16128 -0.13808 0.81852 -0.56725 -0.10395 0.74598 0.02686 0.23339 -0.19115 -0.47143 -0.42643 -0.62184 -0.11027 0.86868 0.50850 -0.05681 -0.66029 0.24327 -0.33466 -0.01998 0.02562 0.42340 0.07197 -0.28741 -0.05776 -0.33650 0.21871 0.06685 0.13136 0.79058 0.18965 0.00914 0.31966 -0.48521 0.24776 -0.67087 0.15559 -0.09704 -0.21655 0.01532 0.06756 0.38148 0.54244
com.fasterxml.jackson.simple.tree.jsonobject -0.00895 -0.00562 0.00617 -0.00684 -0.00111 0.00330 0.00699 0.00715 0.00813 0.00575 0.00069 -0.00836 0.00180 0.00844 -0.00817 0.00458 -0.00065 -0.00650 0.00686 0.00143 -0.00230 0.00175 0.00697 0.00780 0.00374 -0.00484 0.00919 0.00084 -0.00270 0.00512 0.00499 -0.00121 -0.00550 0.00037 -0.00640 -0.00555 0.00380 0.00820 0.00478 -0.00243 -0.00033 -0.00646 -0.00866 -0.00986 0.00303 0.00106 -0.00217 -0.00838 -0.00094 0.00457
com.fasterxml.jackson.databind.ser.impl.propertyserializermap.serializerfor() -0.10117 0.38452 -0.62026 0.02146 0.45043 -0.09911 0.31774 1.07677 -0.61081 0.33679 0.34662 -0.77456 0.27922 -0.02526 -0.02889 0.90273 -0.54707 -0.27091 -0.58621 -0.32203 0.92966 -0.24249 -0.19363 -0.33586 -0.10720 0.41925 0.04472 -0.28057 -0.06300 -0.07460 -0.08649 0.15852 -0.43044 0.42312 -0.05199 0.59476 0.90435 -0.29202 0.22752 0.37053 -1.14744 0.56840 -0.53448 -0.35737 0.10103 -0.14041 -0.11689 0.12821 0.06284 0.70958
com.fasterxml.jackson.databind.javatype.getvaluehandler() -0.14649 0.34442 -0.68663 0.74755 0.88528 0.27273 0.65039 1.30992 -1.36419 0.02685 -0.58098 -0.53620 1.07545 -0.43551 -0.11870 1.47878 -1.38393 -0.04500 -0.79446 -0.21324 1.11864 -0.21738 0.30888 -0.17643 -0.42922 -0.18267 0.69424 0.55495 0.58681 -0.30796 -0.74598 0.34410 0.15465 0.42950 0.82995 0.70533 0.15001 -0.59437 0.30152 0.01384 -0.48011 0.54962 -0.42425 -0.81184 0.39727 -0.75644 0.24105 -0.70347 -0.05018 0.16490
com.fasterxml.jackson.databind.introspect.pojopropertybuilder 0.64704 0.37523 -0.17389 0.96908 -0.25058 0.64626 0.71165 0.47216 -0.85055 -0.51202 0.07116 -0.78281 -0.30673 0.33416 0.04204 -0.30838 -0.94739 -0.30721 -0.21577 -0.36846 0.45993 0.26697 0.33255 0.74511 0.58109 0.27508 -0.10948 0.40200 0.03161 -0.91508 -0.01570 -0.71519 0.26647 0.40952 -0.07164 0.19770 1.08053 -0.20059 0.22970 0.05565 -0.94164 0.06556 0.06088 -0.59539 0.05958 0.29543 -0.08924 -0.42490 0.20746 0.85869
com.fasterxml.jackson.databind.jsonnode.asint() 0.04024 0.31844 0.95059 -0.08402 0.49781 -0.49507 0.07040 -0.18762 -0.57290 0.66766 0.00504 -0.04143 0.01102 0.24069 0.59850 -0.40181 -1.36638 -0.31294 -0.83154 -0.31376 -0.10929 0.19042 0.29289 0.15660 0.24499 -0.65419 -0.18377 0.06839 0.77722 -0.18572 -0.48912 -0.20034 0.20482 0.94260 0.08834 -0.10949 0.65242 0.23958 0.44031 0.28400 -0.97314 0.21785 0.20587 -0.18259 0.33346 0.09582 -0.43400 -0.53719 -0.06865 -0.09575
com.fasterxml.jackson.databind.jsontype.typeresolverbuilder 0.21099 0.40735 0.08404 0.92374 0.23618 0.63123 0.56039 0.83830 -0.94507 -0.32258 -0.19671 -0.21587 0.60914 -0.59453 0.28491 0.57476 -1.25482 -0.16990 -0.32760 -0.91213 0.79751 0.49386 -0.03795 0.36454 -0.03313 0.19026 0.47795 0.68255 0.22295 -0.29557 -0.84179 0.00313 0.37000 0.26987 0.99011 0.14371 0.21278 -0.77540 -0.10686 0.23604 -0.86009 0.50222 -1.15796 0.22596 0.11887 -0.65329 0.65495 -0.14711 0.01514 0.41773
com.fasterxml.jackson.databind.beanproperty.getmember() 0.23761 0.18646 -0.60851 0.68196 0.08823 0.02438 0.58397 0.36304 -0.91697 -0.23285 0.19390 -0.13061 0.52942 -0.20245 0.06404 0.61682 -0.95010 -0.02744 -0.24569 -0.52383 0.35984 0.07592 -0.08475 0.30264 -0.12078 0.34956 0.06664 0.41669 0.40662 -0.31395 0.07125 0.34445 0.32199 0.14099 0.66629 0.41425 0.19288 -0.48000 -0.01364 0.22278 -0.68876 0.27554 -0.13560 -0.55007 0.23930 -0.22905 0.16314 0.06411 0.17584 0.52358
com.fasterxml.jackson.databind.objectmapper.readerfor() -0.27041 0.58926 0.06806 0.07943 1.11879 -0.56291 0.43839 0.01965 -0.31030 1.20992 -0.54305 0.29550 1.07437 0.15718 -0.15531 -0.49745 -0.26724 -0.25079 -0.67199 0.37918 1.02171 0.52897 -0.12651 -0.47495 0.00127 -0.26913 0.17806 -0.31607 0.80824 0.23915 -0.15154 -0.10530 -0.21521 0.14421 0.13717 0.63167 0.69692 0.54170 0.10687 0.41941 -0.63989 0.38280 -0.42437 0.15461 -0.09557 0.11548 -0.13845 0.08880 0.21948 0.40788
com.fasterxml.jackson.databind.objectmapper.writerwithview() -0.08266 0.28432 0.45247 0.47781 0.66712 0.18867 0.50362 -0.04147 -0.68512 0.81444 -0.15996 0.29725 0.53103 0.28489 -0.26012 -0.56077 -0.38430 -0.72764 -1.00766 0.14132 0.87611 0.30570 -0.15087 -0.08256 -0.37012 0.09408 0.38784 -0.17241 0.63415 0.19466 -0.82714 0.05676 0.33859 0.30443 -0.45029 0.16839 0.35982 0.64697 0.38624 0.52492 -0.81295 0.62193 0.28659 -0.18654 -0.32835 0.50757 -0.05170 -0.12608 -0.29237 0.09003
com.fasterxml.jackson.databind.serializerprovider.getannotationintrospector() -0.00701 -0.00465 -0.00451 -0.00382 -0.00327 0.00651 -0.00378 0.00953 0.00277 0.00387 0.00255 -0.00165 -0.00474 -0.00506 0.00181 -0.00396 0.00072 -0.00568 -0.00718 -0.00217 0.00598 -0.00160 0.00230 -0.00168 -0.00137 -0.00240 0.00499 0.00206 -0.00928 0.00962 0.00813 0.00311 -0.00524 0.00075 -0.00141 0.00388 -0.00997 0.00340 0.00875 0.00788 -0.00280 -0.00737 -0.00275 0.00435 0.00014 0.00729 -0.00600 -0.00595 -0.00932 -0.00396
com.fasterxml.jackson.core.jsongenerator.writebooleanfield() -0.04473 0.34136 -0.09864 -0.01760 0.53614 -0.66981 -0.17580 0.02533 -0.18106 0.78210 -0.13490 -0.07495 -0.05635 0.06339 -0.28345 -0.61759 -0.50754 -0.50641 -0.30841 -0.96843 0.11042 -0.37249 0.12434 0.19561 -0.07333 0.47952 -0.07221 0.06988 0.08128 -0.35336 0.36628 -0.22423 0.19304 0.46075 -0.59755 0.15868 0.56470 -0.30874 -0.11479 0.24325 -1.64764 0.27961 -0.33657 -0.11631 -0.14813 0.36904 -0.14066 -0.12361 -0.37809 1.16146
com.fasterxml.jackson.databind.jsonnode.isintegralnumber() 0.00404 0.00263 -0.00155 -0.00449 -0.00280 0.00644 0.00717 -0.00428 0.00255 -0.00019 0.00612 -0.00749 0.00177 -0.00495 0.00481 0.00727 -0.00437 0.00545 0.00191 -0.00976 -0.00395 -0.00519 0.00937 0.00159 -0.00796 -0.00509 0.00915 0.00121 0.00999 0.00696 0.00673 -0.00811 0.00967 -0.00262 -0.00979 -0.00128 -0.00642 0.00426 0.00161 -0.00048 -0.00646 0.00821 0.00498 0.00703 -0.00773 -0.00177 0.00075 -0.00612 -0.00446 -0.00510
com.fasterxml.jackson.databind.deser.impl.propertybasedcreator.build() -0.63202 -0.13108 -0.96878 0.98997 -0.15901 -0.20016 0.15865 0.68138 -1.11754 0.06792 0.44539 -0.50997 0.44932 0.04888 0.70776 0.63388 -0.50454 -0.91028 -0.51270 0.47952 0.88215 0.09208 0.12559 -0.35952 0.37838 -0.31297 -0.09826 0.39600 0.27402 -0.35581 -0.55846 -0.11669 -0.48148 1.65905 -0.47841 0.35962 0.47596 -0.55133 0.38531 -0.18781 -1.85801 0.32447 0.21490 -0.59602 0.26115 -0.08974 -0.37033 -0.71428 -0.20537 1.28710
com.fasterxml.jackson.databind.keydeserializer -0.11420 0.18783 -0.57840 0.97930 0.07821 -0.24118 0.50474 1.15562 -1.01742 0.49030 0.02928 -1.22920 0.91885 -0.35815 -0.23675 1.08451 -1.35206 -0.22265 -0.54068 0.04358 0.87660 -0.48063 0.32179 0.07678 -0.25277 -0.07249 0.74559 0.56019 0.73377 0.04705 -0.62921 0.35432 -0.26868 0.38628 0.61187 0.88883 0.29439 -0.24349 0.47036 -0.24922 -0.49031 0.14856 -0.44234 -0.84568 0.69899 -0.65502 -0.01078 -0.25829 0.10380 0.53574
com.fasterxml.jackson.databind.serializationconfig.with() -0.30555 0.33190 -0.59517 0.57070 0.72781 0.02887 0.42757 0.58850 -1.08193 0.47307 0.69314 0.18539 0.64029 -0.70099 -0.35462 0.32331 -1.37038 -0.36291 -0.41104 -1.57539 0.40710 0.89331 -0.30303 0.67543 0.02820 1.87819 0.34980 0.51300 0.26440 -0.58343 -0.58485 0.12093 -0.33957 0.70660 0.65636 0.18813 0.04567 -0.81024 -0.63877 0.12119 -1.30739 0.49079 -0.67906 0.66492 0.22811 -0.20975 -0.14293 -0.14274 -0.12345 0.08622
com.fasterxml.jackson.databind.deserializationconfig.isenabled() -0.26942 0.09257 -0.96961 0.71214 0.48042 -0.11976 0.03312 1.08721 -0.75506 0.09664 -0.44116 -0.75475 0.86196 -0.26071 -0.03869 0.69752 -0.96099 0.14082 -0.39508 0.18716 0.59063 0.15478 0.39003 0.10304 0.12464 0.13240 0.21008 0.22750 0.27406 -0.00720 -0.18596 0.04077 -0.11219 0.28457 0.22496 0.86567 -0.04971 -0.31134 -0.30619 -0.21008 -0.81601 0.34768 -0.74663 -0.68127 0.05742 -0.60738 -0.03003 -0.18909 0.09685 0.92867
com.fasterxml.jackson.databind.serializerprovider.getconfig() -0.00250 -0.00089 -0.00724 0.00868 -0.00568 0.00433 -0.00704 -0.00637 0.00483 0.00578 0.00814 0.00582 0.00063 0.00373 -0.00029 0.00700 0.00314 0.00278 -0.00229 0.00205 -0.00416 0.00295 0.00441 0.00225 -0.00069 0.00749 0.00430 -0.00903 0.00731 0.00045 -0.00170 -0.00004 0.00049 0.00290 -0.00722 -0.00486 0.00757 0.00466 0.00628 0.00151 -0.00864 -0.00154 0.00316 -0.00524 -0.00256 0.00162 -0.00216 0.00587 -0.00843 0.00008
com.fasterxml.jackson.databind.node.intnode.valueof() 0.00587 0.00103 0.00055 -0.00741 -0.00291 -0.00864 0.00495 0.00301 -0.00115 0.00573 -0.00617 0.00511 -0.00975 0.00231 -0.00408 0.00140 0.00606 -0.00333 0.00770 -0.00229 -0.00279 -0.00974 -0.00247 -0.00695 0.00263 0.00073 -0.00785 0.00077 -0.00120 -0.00153 -0.00039 0.00130 0.00785 0.00258 0.00175 -0.00611 0.00581 0.00154 -0.00194 -0.00157 -0.00608 0.00344 0.00571 -0.00664 -0.00101 -0.00837 -0.00673 0.00184 0.00938 0.00950
com.fasterxml.jackson.simple.tree.jsonarray 0.00450 -0.00872 -0.00947 -0.00083 0.00657 -0.00115 0.00938 -0.00013 0.00421 0.00786 -0.00875 -0.00833 -0.00786 -0.00946 -0.00333 0.00742 0.00014 0.00620 -0.00386 0.00246 0.00569 -0.00665 -0.00746 -0.00814 0.00389 0.00463 0.00394 -0.00384 0.00025 0.00708 0.00326 -0.00118 -0.00715 0.00285 -0.00043 0.00876 0.00684 0.00790 0.00750 -0.00843 -0.00204 -0.00742 -0.00294 -0.00107 0.00464 -0.00436 -0.00231 -0.00261 0.00830 -0.00580
com.fasterxml.jackson.databind.util.tokenbuffer.close() -0.27489 0.37609 -0.71100 0.39195 0.10736 -0.39080 0.17200 0.36956 -0.21796 -0.01016 0.19577 -0.07694 0.38210 -0.04917 0.28850 0.30851 -0.45771 -0.22088 -0.32455 -0.11116 0.20643 0.00034 0.17620 0.03400 0.16779 -0.15606 -0.08437 0.07110 0.16666 -0.26720 0.07278 -0.04554 -0.12982 0.56486 -0.02915 0.19238 0.26308 -0.44429 0.06027 0.12386 -1.00433 0.15807 0.10795 -0.38300 0.30173 -0.08165 -0.30150 -0.14243 -0.03550 0.60996
com.fasterxml.jackson.databind.node.jsonnodefactory.numbernode() -0.27487 0.20258 0.28912 -0.01396 0.86317 -0.91133 -0.57164 0.04499 -0.84014 1.01790 0.15028 -0.46116 1.32057 0.35369 -0.45114 0.24801 -1.91179 0.52413 -0.61305 -1.12141 -0.32810 -0.25214 -0.01979 1.00968 -0.08424 -0.04470 0.50128 1.43549 0.77244 -0.21067 -0.51412 0.44899 -0.36466 1.79960 -0.46581 -0.22393 -0.00296 0.18753 0.41618 0.22208 -1.62121 -0.23426 0.50761 -1.68005 0.68110 0.32557 -1.09618 -0.58139 0.42165 0.45394
com.fasterxml.jackson.databind.deserializationcontext -0.41873 0.30693 0.43236 1.01928 0.27805 -0.29779 -0.39295 1.21801 -0.00767 -0.28410 0.42823 -0.30724 1.14554 0.02569 -1.45081 1.10811 -0.81098 -0.29816 -0.81146 -0.68315 1.44920 0.29365 0.41304 -0.35465 -0.43112 -0.25747 0.38882 -0.30449 0.60456 -0.26901 -1.21261 0.74138 -0.01373 0.92066 0.26001 0.25444 0.14897 -0.12763 0.30577 -0.09319 -1.17598 -0.00040 -0.11653 -1.10925 0.36281 -0.30058 -0.19506 -1.03437 0.05218 0.63689
com.fasterxml.jackson.databind.util.tokenbuffer.writefieldname() -0.46101 0.05830 -0.75009 0.87508 0.07624 -0.33693 -0.23642 0.45057 -1.08961 0.11846 0.10658 0.26214 0.31699 -0.31339 1.01060 0.75958 -0.91194 -0.53726 -1.01296 -0.25552 0.56662 0.18207 0.41468 -0.19403 0.46610 0.13704 -0.31386 0.34052 0.21397 -0.45417 0.06986 0.43807 -0.48179 1.39141 -0.13486 0.79083 0.19175 -0.84101 0.21502 0.20982 -1.48267 -0.07920 0.60055 -0.93688 0.77383 0.47766 -0.37428 -0.15468 -0.62644 1.36391
com.fasterxml.jackson.core.jsonparser.getbinaryvalue() -0.21596 0.31089 -0.10010 0.14664 0.18801 -0.68361 -0.03075 0.33106 0.19374 0.52517 0.15928 -0.03215 0.55028 0.05030 -0.26962 -0.02146 -0.43678 -0.30419 -0.36332 -0.13892 0.15292 0.17986 0.24500 -0.07520 -0.13834 -0.02067 0.16896 -0.36137 0.28026 -0.15222 -0.04529 -0.13250 -0.33637 0.53127 -0.02841 0.12138 0.08979 -0.05077 -0.14627 0.08360 -0.74118 -0.01835 0.08258 -0.28026 0.22732 0.09714 -0.34558 -0.34080 -0.21335 0.60727
com.fasterxml.jackson.databind.cfg.mapperconfig.getannotationintrospector() 0.46275 -0.02717 -0.49315 0.81951 0.19122 0.05371 0.65059 0.57398 -0.86560 0.11973 -0.07858 -0.13692 0.57138 -0.37056 -0.52475 0.41860 -1.16734 0.13733 0.22360 -0.37803 0.14797 0.17511 0.03349 0.44725 -0.41383 0.22037 0.00976 0.25466 0.35040 -0.26276 -0.29095 0.08669 0.19006 0.00837 0.85874 0.28850 0.46397 -0.55660 -0.08093 0.09642 -1.00767 0.42688 -0.43465 -0.72405 -0.24124 -0.18922 0.35489 -0.07403 0.40832 0.65885
com.fasterxml.jackson.databind.util.tokenbuffer.copycurrentstructure() -0.45840 0.21391 -0.81393 1.03673 -0.22006 -0.67543 -0.05796 0.17855 -0.99647 0.21532 0.78503 -0.34875 0.15351 -0.05742 0.62487 0.46487 -0.73251 -0.46878 -0.95389 -0.04876 0.74592 -0.24211 0.29176 -0.35059 0.15431 0.02181 -0.30170 0.24341 0.39642 -0.64755 -0.80671 0.35842 -0.72945 1.24322 -0.29073 0.54474 0.52550 -0.75358 0.43260 -0.11827 -1.47874 -0.17125 0.71350 -0.99526 0.74162 0.14466 -0.73559 -0.93879 -0.67166 1.10413
com.fasterxml.jackson.databind.javatype.gettypehandler() -0.02358 0.34167 -0.42597 0.92497 0.24058 0.00181 0.25710 1.69060 -1.23830 -0.06128 -0.12747 -0.59327 0.96531 -0.56163 -0.27715 1.42904 -1.64623 -0.18662 -0.41236 -0.09145 0.81420 -0.47611 0.18757 0.45123 -0.30322 -0.04708 0.31833 0.50556 0.25110 0.11572 -0.83184 0.43902 0.04920 0.12013 0.65433 0.54067 0.14683 -0.58367 0.11167 0.20209 -0.82404 0.53759 -0.12933 -0.62930 0.09408 -0.48134 0.12908 -0.52808 -0.03203 0.32846
com.fasterxml.jackson.databind.deserializationcontext.getannotationintrospector() 0.58136 0.05444 -0.77376 1.14877 -0.14073 0.29130 0.57368 0.77500 -1.16715 -0.00044 -0.08474 -0.36873 0.97414 -0.48186 0.20530 0.85429 -1.26408 -0.18848 -0.44314 -0.08987 0.87654 0.40665 -0.36614 0.16964 -0.34781 0.21933 0.48491 0.74287 0.72139 -0.04633 -0.30105 0.47740 -0.01031 0.36414 0.71866 0.96456 0.18394 -0.28353 0.27178 0.19204 -0.66853 0.46705 -0.70892 -1.10430 0.60581 -0.27729 0.18541 -0.15055 0.32773 0.71219
com.fasterxml.jackson.databind.node.jsonnodefactory.objectnode() 0.41699 -0.33688 0.58627 0.98067 0.01915 -0.85705 0.22873 -0.01704 -0.78200 1.22831 0.33903 0.22005 0.78503 -0.27706 -0.09359 -0.17901 -1.94595 -0.23890 -0.46351 -0.25530 0.05983 -0.46982 0.37448 0.41250 -0.25820 -0.67067 -0.02737 0.79365 0.74769 -0.16875 -0.90757 1.15728 -0.19719 1.05538 0.25647 0.09041 -0.12625 0.30281 0.59546 0.36533 -1.58378 -0.18018 0.13937 -0.45840 0.49131 0.91412 -0.88006 -0.90276 -0.36256 0.27193
com.fasterxml.jackson.databind.javatype.getkeytype() -0.08934 0.53037 -0.95854 0.83398 0.25667 -0.32845 0.62060 0.98039 -0.72010 -0.26528 0.04597 -0.33887 0.58236 -0.51939 0.05514 0.95083 -1.05670 0.01365 -0.60425 0.19657 0.58343 -0.19374 0.27825 -0.23328 -0.10541 -0.18938 0.10625 0.22223 0.28711 -0.34304 -0.13790 0.21935 -0.10138 0.79019 0.10459 0.52499 0.26933 -0.61735 0.39555 0.13852 -0.93701 0.49658 -0.40562 -0.82313 0.74362 -0.39073 -0.02964 -0.05745 -0.09224 0.38439
com.fasterxml.jackson.databind.jsondeserializer.deserializewithtype() -0.38679 0.44041 -0.64121 0.68996 0.13619 -0.26062 -0.27915 0.46968 -0.10400 0.30709 0.00231 -0.56447 1.10811 -0.18670 -0.45029 0.79407 -0.60944 -0.75705 -0.71426 0.16728 0.89419 0.67467 0.51016 -0.32427 0.08773 0.28438 0.32762 -0.13058 0.71985 -0.17508 -0.73869 -0.38111 -0.31026 1.13088 -0.41834 0.17322 0.05157 -0.69812 0.09475 -0.26111 -0.60014 -0.29820 -0.22627 -0.61786 0.18693 -0.02910 -0.34511 -0.45122 0.10762 1.05113
com.fasterxml.jackson.databind.jsondeserializer.getnullvalue() -0.25078 0.33502 -0.73313 0.94780 0.13374 -0.22550 -0.48514 0.44255 -0.14335 -0.05045 0.28372 -0.36805 0.92872 -0.11828 -0.20419 0.44739 -0.62795 -0.85944 -0.92964 -0.08462 0.65565 0.53268 0.54123 0.14893 0.30119 0.37518 0.20128 -0.16197 0.55231 -0.44811 -0.92465 -0.52077 -0.16599 1.48627 -0.32087 -0.02626 -0.24405 -0.52665 0.02356 -0.40038 -1.12013 0.15638 0.24959 -0.40187 0.43627 -0.15514 -0.22913 -0.49099 -0.11271 0.84780
com.fasterxml.jackson.databind.ser.serializercache.untypedvalueserializer() 0.05198 -0.25902 0.15607 0.59847 0.63424 -0.79193 0.18656 1.74794 -0.75021 0.60403 -0.07265 -0.73842 0.40454 -0.67940 -0.57357 1.52179 -1.46205 -0.20955 -1.17758 -1.09869 1.65223 -0.02078 -0.19424 -0.11086 -1.04604 1.01960 0.50570 0.78830 -0.37465 -0.45175 -1.22007 0.54980 -0.63212 1.15413 -0.29656 0.55989 0.71848 0.14038 0.39486 0.29610 -1.23388 0.39751 -0.49523 -0.99399 0.12140 -0.26805 0.21899 -0.60644 0.10770 0.07957
com.fasterxml.jackson.databind.deser.settablebeanproperty.deserializeandset() -0.16302 -0.00955 -0.86858 1.18554 0.17373 -0.44095 -0.02514 0.33302 -0.98028 -0.05521 0.02171 0.33116 -0.18355 -0.25373 0.66909 0.60265 -0.73395 -1.22090 -0.57821 0.40397 0.47890 0.19869 0.82539 -0.04303 0.36449 0.21538 -0.62714 -0.21296 0.44615 -0.64407 -0.16041 0.60087 -1.01042 1.34699 -0.33991 0.54446 0.38220 -0.31873 -0.06271 0.11139 -1.77301 0.06171 0.85955 -0.45583 0.46585 0.64471 -0.24315 -0.24949 -0.36958 0.67718
com.fasterxml.jackson.databind.jsonserializer.serializewithtype() 0.00004 -0.00740 -0.00785 0.00002 -0.00701 0.00543 -0.00731 -0.00921 -0.00429 0.00213 0.00736 0.00322 -0.00879 0.00257 0.00479 0.00433 0.00124 0.00636 -0.00500 -0.00558 0.00297 -0.00338 -0.00873 -0.00324 -0.00069 0.00774 -0.00824 -0.00049 0.00393 0.00914 -0.00923 0.00535 0.00118 0.00217 0.00135 0.00943 -0.00293 0.00534 -0.00326 -0.00989 -0.00330 0.00925 0.00285 0.00671 0.00252 -0.00408 0.00444 0.00307 0.00798 -0.00955
com.fasterxml.jackson.databind.util.tokenbuffer.writestartobject() -0.34825 -0.12452 -0.33420 1.41120 -0.20156 -0.47588 0.52781 -0.02932 -0.93847 0.52721 0.60415 -0.66495 0.98488 -0.05700 -0.05046 0.51064 -0.91214 -0.55121 -0.42812 0.27830 0.26689 0.26269 0.43070 0.02508 -0.31301 -0.32860 -0.27831 0.04520 0.65206 0.06512 -0.40796 0.45791 -0.08583 0.79860 -0.32133 0.52183 -0.50377 -0.21746 0.51834 -0.16012 -1.60103 0.80580 0.31242 -0.62164 0.75275 -0.01969 -0.12548 -0.84228 -0.04409 0.81346
com.fasterxml.jackson.core.util.jsonparsersequence.nexttoken() -0.00881 0.00211 0.00391 0.00737 -0.00408 0.00597 0.00329 -0.00344 -0.00584 0.00937 -0.00093 0.00407 0.00368 -0.00462 -0.00769 0.00320 0.00147 0.00303 0.00218 -0.00222 -0.00404 -0.00063 -0.00652 0.00854 -0.00231 -0.01000 -0.00411 -0.00921 -0.00794 0.00174 -0.00445 -0.00014 0.00732 0.00927 -0.00669 0.00537 -0.00461 0.00731 -0.00379 -0.00448 0.00678 0.00769 -0.00125 -0.00178 -0.00156 0.00103 -0.00053 -0.00232 -0.00540 -0.00354
com.fasterxml.jackson.databind.deser.settablebeanproperty.gettype() 0.87792 0.93337 -0.69829 0.99643 0.42906 0.36189 0.46171 0.73749 -0.93828 -0.03598 -0.29746 -0.42683 0.25165 -0.34366 0.22483 1.00700 -1.59160 -0.42051 -0.40869 0.44998 0.31795 -0.56119 -0.00502 0.72272 -0.20152 0.22440 -0.02018 -0.42678 0.46032 -0.35391 0.01907 -0.26608 -0.01768 0.58460 -0.04490 0.04740 0.18090 -0.30023 0.24354 -0.33451 -1.75337 0.52801 -0.78405 -0.46922 -0.01737 -0.42090 -0.34664 -0.15418 -0.01004 -0.13678
com.fasterxml.jackson.databind.ser.impl.propertyserializermap -0.00409 -0.00935 0.00257 -0.00797 -0.00361 -0.00857 0.00607 0.00391 -0.00247 -0.00195 0.00881 0.00774 -0.00183 0.00987 -0.00756 -0.00371 -0.00448 -0.00775 -0.00634 -0.00838 0.00731 -0.00483 0.00388 -0.00756 -0.00808 0.00085 0.00394 -0.00893 0.00855 0.00504 0.00871 -0.00619 0.00186 0.00126 -0.00913 0.00401 0.00092 -0.00144 0.00140 -0.00445 0.00365 -0.00462 -0.00256 -0.00302 0.00052 0.00737 -0.00119 -0.00051 0.00578 0.00320
com.fasterxml.jackson.databind.node.objectnode.equals() 0.00200 -0.00001 0.00244 -0.00896 0.00753 0.00648 -0.00095 -0.00667 -0.00949 -0.00203 -0.00431 0.00750 0.00584 0.00158 -0.00971 0.00091 -0.00450 -0.00927 -0.00130 -0.00720 0.00849 -0.00049 0.00851 0.00524 0.00937 -0.00354 -0.00501 -0.00621 -0.00618 0.00337 -0.00834 -0.00561 0.00999 0.00771 -0.00928 -0.00265 0.00757 0.00209 0.00722 -0.00480 -0.00355 0.00183 -0.00909 -0.00161 0.00817 0.00722 0.00650 0.00989 0.00355 -0.00723
com.fasterxml.jackson.databind.introspect.pojopropertiescollector -0.00447 -0.00789 0.00074 0.00357 -0.00411 -0.00116 0.00471 0.00727 -0.00141 -0.00216 0.00288 -0.00897 -0.00037 0.00027 0.00856 0.00370 -0.00030 -0.00060 -0.00306 0.00571 -0.00864 -0.00765 -0.00987 0.00515 -0.00128 -0.00040 0.00967 -0.00201 -0.00667 0.00756 0.00354 0.00119 0.00075 0.00143 0.00852 0.00894 -0.00338 0.00820 0.00841 -0.00828 -0.00356 0.00865 0.00060 0.00042 -0.00465 0.00830 0.00156 -0.00191 -0.00390 -0.00537
com.fasterxml.jackson.core.jsongenerator.writearrayfieldstart() 0.39024 0.03871 -0.40773 0.06353 0.45608 -0.72617 -0.61838 0.06790 -0.55757 1.00349 0.20648 -0.63209 -0.02234 0.06686 -0.06656 -0.56615 -0.71034 -0.68199 -0.25587 -0.66856 -0.02458 -0.33283 0.55923 0.28199 -0.16460 0.82797 0.20270 0.04795 -0.08582 -0.42351 0.14135 -0.09699 -0.20363 0.88535 -0.65728 0.15860 0.58133 -0.08620 -0.00004 0.00891 -1.85606 0.41646 -0.51419 -0.03134 -0.06961 0.45689 0.05697 0.21987 0.06631 1.16810
com.fasterxml.jackson.databind.propertyname.getsimplename() 0.15093 0.86531 -0.63557 0.65545 0.49054 -0.02862 0.52490 0.79458 -0.34466 -0.10955 0.65370 -0.25733 0.47127 0.16720 -0.36475 0.14671 -0.47124 0.18153 -0.36124 -0.15104 0.52677 0.69094 0.51953 0.89839 -0.24343 0.80745 0.40817 -0.65975 0.48647 -0.89879 -0.25681 -0.20314 -0.13139 0.61727 -0.04775 0.41087 0.41441 -0.34609 -0.07193 -0.01400 -1.46373 0.41470 0.08585 -1.07145 0.34780 -0.39202 -0.14985 -0.30799 0.14393 0.28113
com.fasterxml.jackson.databind.util.classutil.checkandfixaccess() -0.09273 0.32675 -0.76350 0.63661 0.44566 -0.45221 0.49729 0.84017 -0.74099 0.33068 -0.41664 -0.75067 0.98993 -0.28057 0.64998 0.43370 -0.80856 -0.04995 -0.37875 0.41379 0.29468 0.61915 0.40641 0.11512 0.18451 0.15362 0.46226 0.42483 -0.03865 0.17156 0.09072 0.12305 -0.55429 0.30455 0.81377 0.82510 -0.05570 -0.20249 -0.20521 0.41335 -0.58562 0.58527 -1.02909 -0.15316 0.34399 -0.58084 -0.10958 -0.08394 -0.00428 0.60364
com.fasterxml.jackson.core.jsonparser.isexpectedstartarraytoken() 0.43659 0.53308 -0.42334 1.24814 -0.03256 -0.37458 0.21382 0.42618 -0.39798 -0.14553 0.18119 -0.35213 1.07391 0.05234 0.36823 0.56084 -0.78559 -0.40233 -0.46275 0.17979 0.60928 0.16440 0.99140 0.02345 -0.14530 -0.65968 0.16384 0.36805 0.63302 -0.16302 -0.45223 0.30847 -0.23209 0.72570 0.18193 0.58693 0.14633 0.21894 0.68601 -0.58961 -0.93714 0.30508 -0.22594 -1.02432 0.61045 0.12585 -0.56550 -0.18037 -0.14527 0.54951
com.fasterxml.jackson.databind.deser.valueinstantiator.createusingdelegate() -0.01070 0.47034 -0.59863 0.20180 0.40740 -0.30417 -0.27922 0.22945 -0.50816 0.44060 -0.41578 -0.16340 1.64262 0.17942 0.31683 0.31526 -0.78439 -0.13522 -0.85337 0.34620 0.48729 0.37050 0.84782 0.23070 -0.51391 -0.39379 0.63319 0.95916 0.58638 -0.23249 -0.64342 0.26800 -0.13034 1.44514 -0.12083 0.52543 0.12242 -0.45360 0.47088 -0.75459 -1.50505 0.07428 -0.06885 -1.72094 0.76769 -0.39435 -0.38720 0.13211 0.04321 0.55420
com.fasterxml.jackson.databind.introspect.pojopropertiescollector.getpropertymap() 0.00360 0.00697 -0.00907 0.00402 0.00473 -0.00684 0.00747 0.00829 0.00703 -0.00083 -0.00674 -0.00473 0.00665 -0.00212 0.00421 -0.00873 0.00934 0.00256 -0.00355 -0.00267 -0.00276 -0.00136 -0.00562 -0.00062 -0.00998 -0.00178 0.00661 0.00380 0.00286 -0.00842 -0.00319 -0.00630 0.00199 -0.00468 -0.00213 -0.00963 -0.00826 0.00814 -0.00196 -0.00261 -0.00782 -0.00925 -0.00052 -0.00913 0.00684 0.00490 0.00381 0.00028 0.00584 -0.00291
com.fasterxml.jackson.databind.objectreader.fortype() 0.08204 0.14331 -0.04791 0.40948 0.08865 -0.12686 0.21466 0.24668 -0.23593 0.20953 -0.09630 -0.01017 0.36870 -0.00812 -0.05894 0.01978 -0.51795 -0.21556 -0.39927 -0.33965 0.51632 0.10396 0.06701 -0.19956 -0.07459 -0.05714 -0.02389 0.22215 0.31478 0.01029 -0.25030 0.05440 -0.04704 0.09958 0.13457 0.04769 0.29989 0.06163 -0.10321 0.20591 -0.33988 0.23049 -0.25068 -0.20955 0.00460 0.03340 0.01049 0.01010 0.06432 0.35954
com.fasterxml.jackson.databind.deser.settablebeanproperty.deserialize() -0.27259 -0.10607 -0.80758 0.80814 -0.12876 -0.20600 0.03702 0.65101 -0.85911 -0.22317 0.50306 -0.02902 0.22467 0.08039 0.73138 0.39549 -0.71143 -0.91960 -0.91805 0.05810 0.67244 0.00052 0.56602 0.01476 0.14126 0.14451 -0.53429 0.69074 0.32922 -0.64937 -0.14020 0.30596 -0.58684 1.52285 -0.59091 0.64557 0.30650 -0.84491 0.29578 0.15750 -1.50930 0.27603 0.47937 -0.90311 0.32082 0.35488 -0.13642 -0.38217 -0.28041 1.21398
com.fasterxml.jackson.databind.objectmapper._deserializationcontext() -0.27203 0.54845 -0.14611 0.39919 0.30759 -0.33510 0.62714 0.51692 -0.85749 0.53250 -0.33749 0.69972 0.42694 -0.51744 -0.19501 -0.23843 -1.10639 -0.25042 0.11901 -0.92608 0.71352 -0.41608 -0.37040 0.21476 -0.60128 0.34730 0.44729 1.20300 0.48366 0.09778 -0.06954 0.39811 -0.29403 -0.01221 1.17800 0.70137 0.28030 -0.82698 -0.14536 0.37081 -1.49674 0.50093 -1.04377 0.33686 0.12743 0.32888 -0.11837 -0.01431 -1.05175 1.34999
com.fasterxml.jackson.databind.introspect.annotatedmethod 0.10230 0.07406 -0.76379 0.76524 -0.09609 0.18832 0.73088 1.03336 -0.92625 -0.40602 0.53091 -0.51077 0.33752 -0.13315 -0.04876 0.85742 -1.02998 -0.18433 -0.22829 -0.14694 0.22109 0.04806 0.48780 0.52967 -0.34803 0.81535 0.25712 0.60232 0.22366 -0.12013 -0.18474 0.35402 0.00259 0.60749 0.44645 0.58514 0.09806 -0.17679 -0.03810 0.24664 -1.04874 0.21149 -0.15270 -0.82960 0.36568 -0.44649 0.65730 0.25460 0.34537 0.84509
com.fasterxml.jackson.databind.deserializationconfig.with() 0.19274 0.14960 -0.47736 0.86790 1.01087 -0.12749 0.48994 0.40432 -0.85983 0.22498 0.28168 -0.05776 0.39890 -0.51634 -0.16519 -0.17553 -1.53806 -0.34262 0.11182 -1.52374 0.39381 0.03891 -0.14007 0.42341 -0.27438 1.28643 -0.22178 1.11306 0.11214 -0.31312 -0.24734 0.30125 -0.14376 0.41859 0.44957 0.39290 0.37769 -0.72500 -0.39372 0.38069 -1.28406 0.48620 -1.12338 0.67915 -0.21724 -0.12825 0.14252 0.27193 -0.00574 0.87021
com.fasterxml.jackson.databind.jsonnode.aslong() 0.00711 0.29949 0.37826 0.30266 0.09430 -0.25319 0.13694 0.03608 -0.14058 0.47104 0.04159 -0.13525 0.18677 0.35400 -0.08761 -0.37074 -0.64978 -0.40102 -0.39357 -0.34406 0.53563 -0.09032 0.24242 0.00970 0.24956 -0.31305 -0.39699 -0.05315 0.31351 -0.03608 -0.05435 -0.07875 0.12664 0.24170 -0.12664 0.04697 0.67414 0.10977 0.08567 0.14483 -0.67622 0.10223 -0.12435 0.05518 -0.03090 0.41796 -0.41413 -0.22206 -0.07275 0.62132
com.fasterxml.jackson.databind.node.nullnode.getinstance() 0.22172 0.03567 0.35550 0.40888 -0.02543 -0.43703 0.07397 -0.00188 -0.29956 0.75371 0.07902 0.30913 0.54689 -0.03197 -0.25061 -0.18311 -1.29688 -0.35864 -0.39771 -0.50244 0.03195 -0.23530 0.30046 0.20842 -0.25247 -0.24972 -0.23224 0.65951 0.63681 0.04706 -0.49630 0.51707 0.09441 0.43988 0.24996 -0.02695 -0.00174 0.33732 0.06770 0.38633 -0.76849 -0.03066 0.07813 -0.20891 0.16873 0.68799 -0.39548 -0.36414 -0.28301 0.40222
com.fasterxml.jackson.databind.jsonnode.textvalue() -0.12448 0.16784 -0.02464 0.04415 0.23751 -0.23877 0.14543 0.07793 -0.07395 0.20520 -0.07902 0.02213 0.15742 -0.00126 -0.09491 -0.04658 -0.44879 0.09188 -0.20270 -0.34273 0.05577 -0.04429 -0.03952 0.07458 0.10642 -0.02346 0.03124 0.30332 0.17045 -0.05627 -0.03573 0.06282 0.06895 0.10665 0.12074 0.01622 0.21291 -0.04846 -0.02198 0.10468 -0.52156 0.02661 -0.09859 -0.15230 0.07654 0.07414 -0.20577 -0.02473 -0.03185 0.29854
com.fasterxml.jackson.databind.introspect.beanpropertydefinition 0.90904 0.37771 -0.53175 1.43986 -0.54651 0.82483 0.58067 0.47497 -1.43252 -0.45644 0.39108 -0.38807 -0.22436 0.01420 0.12372 0.08777 -1.30983 -0.48600 -0.01697 -0.42100 0.20467 0.20274 0.15794 0.93807 0.57915 0.06752 -0.29283 0.34444 0.38551 -0.39230 0.06118 -0.01594 0.42810 0.98464 0.41792 0.18481 0.31814 0.18002 0.43445 0.31331 -0.96068 0.05918 0.09242 -0.45021 0.36247 0.71764 -0.19123 -0.31220 0.01637 0.53480
com.fasterxml.jackson.databind.deserializationcontext.handlesecondarycontextualization() 0.09064 0.26219 -0.48343 1.10599 0.01379 -0.14936 0.36495 0.84909 -0.61969 -0.12737 -0.39882 -0.61142 0.56788 -0.26743 -0.62767 0.82926 -1.44520 -0.02090 -0.08332 -0.41962 0.66616 0.05360 0.06086 0.03498 -0.58861 0.40096 0.33734 0.50956 0.58805 -0.51999 -0.67851 0.18544 0.10968 0.24945 0.53483 0.41509 0.20236 -0.33209 0.35211 -0.26277 -0.91581 0.03623 -0.74342 -0.94430 0.21923 -0.39560 0.03465 -0.24885 -0.00186 0.36286
com.fasterxml.jackson.databind.beandescription 0.22136 0.18579 -0.71687 0.58094 0.08540 -0.14610 0.55193 1.17332 -0.80525 0.07358 -0.27299 -0.46044 0.57121 -0.25943 -0.13462 0.65663 -1.18974 -0.27102 -0.19916 -0.37153 0.11756 0.01550 0.14295 0.16408 -0.29427 0.51680 0.04679 0.63096 0.32150 -0.07666 -0.22689 0.33733 -0.07445 -0.18311 0.75053 0.65323 0.28870 -0.45921 -0.25163 0.24935 -0.42362 0.27229 -0.58999 -0.41997 0.26135 -0.47386 0.24340 -0.08800 0.15726 0.52288
com.fasterxml.jackson.databind.deserializationcontext.gettypefactory() 0.32987 0.37218 -0.59641 0.87048 0.12389 -0.24553 0.58343 0.41370 -0.45361 0.20588 -0.50874 -0.16933 0.86616 -0.39941 -0.53851 0.75176 -1.25080 0.10454 -0.12158 -0.36983 0.69823 -0.29363 -0.23390 -0.19221 -0.72140 -0.10967 0.33645 0.49332 0.50513 -0.39620 -0.49696 0.03017 0.30011 0.30404 0.41439 0.30619 0.09793 -0.16367 0.44645 0.13804 -1.25966 0.41379 -0.80020 -1.08698 0.33340 -0.04821 0.03500 -0.39876 0.04764 0.12123
com.fasterxml.jackson.databind.node.longnode.valueof() 0.00363 -0.00231 0.00425 0.00778 0.00402 0.00058 -0.00417 0.00526 0.00120 -0.00233 -0.00788 -0.00194 0.00999 0.00293 -0.00847 -0.00125 0.00033 0.00840 0.00414 -0.00763 -0.00166 0.00206 -0.00499 -0.00622 0.00491 0.00376 -0.00794 0.00056 -0.00189 -0.00647 -0.00659 -0.00315 0.00467 -0.00621 0.00181 0.00324 0.00243 0.00711 -0.00855 0.00056 0.00278 0.00888 -0.00872 -0.00276 -0.00254 0.00301 -0.00514 0.00990 0.00560 -0.00728
com.fasterxml.jackson.databind.jsonnode.asdouble() -0.00845 0.27150 0.28456 0.12585 0.26944 -0.22318 0.13409 0.03578 -0.14194 0.35801 -0.15076 0.02093 0.16576 0.14960 0.08178 -0.25006 -0.38436 -0.34130 -0.41368 -0.08945 0.16746 0.16914 0.12976 0.00799 0.12365 -0.05217 0.02114 0.14254 0.20487 -0.03477 -0.17510 -0.20094 0.09022 0.28063 -0.00840 0.03485 0.28199 0.10039 -0.01502 0.16120 -0.48771 0.24004 -0.02267 0.09916 0.07284 0.10920 -0.14522 -0.11607 -0.11094 0.16682
com.fasterxml.jackson.databind.propertyname.construct() 0.45093 0.36295 -0.65854 1.04307 0.09507 0.37116 0.82827 0.56372 -0.89242 -0.34980 0.31912 0.10696 0.35229 -0.06066 -0.27810 0.40991 -1.03069 0.29763 -0.25699 -0.45934 0.06418 0.50162 -0.05713 0.65566 0.16451 0.49174 -0.11376 0.23459 0.38636 -0.72623 0.09752 -0.14750 0.25183 0.23385 0.51711 0.45252 0.30004 -0.67243 -0.20234 0.18005 -0.84403 0.36401 0.11613 -1.00799 0.28671 -0.10593 0.05556 0.01278 0.08906 0.34346
com.fasterxml.jackson.databind.util.tokenbuffer.writeendobject() -0.46015 0.45661 -0.77413 1.09575 0.09561 -0.69761 0.16490 0.43639 -0.29178 -0.01806 0.55481 -0.44951 0.55507 0.02298 0.39616 0.36826 -0.79558 -0.16796 -0.57859 -0.10649 0.62375 -0.20271 0.44236 -0.27640 -0.02109 -0.52655 -0.43795 0.14472 0.31433 -0.52093 -0.44690 0.29558 -0.36826 0.99874 -0.21319 0.19433 0.40464 -0.68520 0.27901 -0.24382 -1.65263 0.13100 0.40559 -0.56636 0.68410 -0.14872 -0.77900 -0.66724 -0.29448 0.73193
com.fasterxml.jackson.databind.ser.filterprovider -0.29299 0.57124 0.11253 0.16908 0.48543 -0.19706 0.26145 0.14076 -0.47186 0.46000 -0.04873 0.48507 0.82482 0.31440 -0.39032 -0.30510 -0.53704 -0.14051 -0.66099 -0.08956 0.39999 0.11447 -0.01170 0.17227 -0.04039 -0.08724 0.21272 0.15522 0.58243 0.37995 -0.35321 -0.02617 0.34514 -0.09981 0.14559 0.40407 0.13840 0.04767 0.02987 0.02365 -0.46713 0.53097 0.28190 -0.16203 -0.09250 0.24048 -0.18888 -0.15404 -0.38058 0.62642
com.fasterxml.jackson.databind.node.objectnode.has() 0.05011 0.13135 0.47609 0.00407 0.04254 -0.28221 0.21131 -0.03700 -0.26334 0.39294 0.09463 -0.00686 0.21521 0.11334 -0.09536 -0.23422 -0.59232 -0.16852 -0.37969 -0.37638 0.06557 -0.16665 0.05222 0.03257 -0.03507 -0.20980 -0.10988 0.20906 0.45947 0.05377 -0.15579 0.23437 0.11797 0.18378 -0.02926 0.05360 0.16082 0.07536 0.06675 0.19868 -0.54882 0.15788 0.03996 -0.10001 -0.05693 0.21494 -0.30688 -0.25110 -0.18519 0.28669
com.fasterxml.jackson.databind.util.classutil.createinstance() 0.36674 0.12312 -0.46110 0.73577 0.40685 -0.01037 0.72721 0.78337 -0.63577 -0.06501 0.05903 -0.62458 0.63187 -0.71894 0.24271 0.41477 -1.01441 -0.23384 -0.36470 -0.44530 0.65420 -0.02282 0.06946 0.34050 0.04118 0.18264 0.22425 0.60609 0.28540 -0.15407 -0.23687 0.20718 -0.20991 0.36626 0.70820 0.04946 0.72748 -0.07223 -0.05009 0.45520 -0.55667 0.36495 -0.84544 -0.07660 0.23741 -0.51797 0.40232 0.42163 0.57098 0.11191
com.fasterxml.jackson.core.base64variant.decodebase64char() 0.20263 0.04943 -0.06312 0.94662 -0.18567 -1.01268 0.03374 0.97391 -0.53826 0.34456 -0.54434 0.40317 0.00066 -0.44456 0.50101 0.57183 -1.43255 -0.66508 -0.82993 -0.28325 0.15591 0.10210 0.40561 0.45502 -0.11846 0.19542 -0.08714 0.72621 -0.28419 -0.35925 0.15817 0.24776 -0.64816 0.91711 0.35831 -0.46637 0.10251 -0.24261 -0.37777 0.38235 -0.47799 -0.39840 0.25081 -0.55357 0.21464 0.21242 0.20307 0.24538 -0.58025 0.52027
com.fasterxml.jackson.databind.deserializationcontext.getactiveview() 0.05783 -0.33096 -0.42691 1.56107 -0.03164 -0.26974 0.74800 0.28083 -0.97207 -0.23704 0.65894 -0.91476 0.61647 -0.00702 0.08463 0.35355 -0.82760 -0.99568 -0.00880 0.62076 0.39514 0.05620 0.34060 0.09991 -0.78239 -0.40499 -0.37376 0.21137 0.50554 0.07003 -0.32778 0.51049 -0.08772 1.29365 0.07498 0.46264 0.01705 -0.09234 0.39680 -0.18098 -1.68176 1.00073 0.66999 -0.49099 0.38334 0.02018 0.44035 -0.33487 0.31749 0.94066
com.fasterxml.jackson.core.jsonparser.getvalueaslong() -0.21657 0.33113 -0.39889 0.03183 0.30947 -1.11215 -0.14493 -0.02491 -0.03682 0.29401 0.01388 0.19763 0.62139 0.16059 -0.05561 -0.29585 -0.40849 -0.13773 -0.34747 -0.18599 -0.12169 0.00895 0.61307 0.57446 -0.03794 0.02342 0.31120 0.10879 0.45186 -0.13753 -0.05451 -0.21814 -0.12128 0.89799 -0.19462 0.19480 0.12191 0.03816 -0.05856 -0.03255 -1.41315 0.17822 0.41118 -0.68098 0.31391 0.29874 -0.21289 0.07392 0.21965 0.70432
com.fasterxml.jackson.databind.beandescription.getbeanclass() 0.52610 0.48908 -0.76355 0.54468 0.74071 -0.29463 0.02219 0.65673 -0.41779 0.23909 -0.03691 -0.27895 0.89008 -0.11905 0.11641 0.18631 -0.92659 0.15482 -0.39985 0.21584 0.10089 0.13252 -0.14339 0.21985 -0.33289 -0.21668 0.28090 -0.25008 0.15970 -0.21868 0.13241 -0.36082 -0.07310 0.37621 0.08239 0.54841 0.69620 0.09094 -0.19340 0.02948 -1.06812 0.45895 -0.20857 -0.85429 0.29598 -0.21697 -0.12408 -0.18858 0.19664 0.01923
com.fasterxml.jackson.databind.node.doublenode.valueof() 0.00570 0.00099 0.00427 -0.00147 0.00041 0.00682 -0.00975 -0.00217 -0.00323 -0.00695 0.00559 0.00138 0.00672 0.00645 -0.00433 0.00937 0.00592 0.00974 0.00650 0.00791 -0.00008 0.00199 0.00484 -0.00332 -0.00350 -0.00136 0.00941 0.00268 -0.00646 0.00914 -0.00446 0.00961 0.00559 0.00856 0.00883 -0.00464 -0.00260 -0.00114 0.00471 -0.00216 0.00887 -0.00503 0.00280 -0.00627 -0.00147 0.00316 0.00232 -0.00405 -0.00817 0.00050
com.fasterxml.jackson.databind.jsonmappingexception.wrapwithpath() 0.14260 0.58047 -0.45835 0.95429 0.25135 -0.32641 -0.34852 0.40755 -0.00768 0.48359 -0.15162 -0.22727 1.19351 -0.11043 0.32343 0.60965 -0.70580 -0.49218 -0.61575 0.06169 0.56590 0.51714 0.67386 -0.04239 0.22512 -0.52979 0.43502 -0.26628 0.63292 0.12650 -0.53225 -0.29395 -0.51256 0.76239 -0.10807 -0.15470 0.13575 -0.44456 -0.09699 -0.16688 -0.30487 -0.36276 -0.12558 -0.57854 0.18588 0.09267 -0.25541 0.21298 -0.21300 1.07907
com.fasterxml.jackson.databind.util.arraybuilders.insertinlistnodup() -0.63208 0.48013 -0.59900 0.82323 0.90978 -0.24021 0.44873 0.64061 -0.70896 1.27780 -0.13622 -0.12827 1.10323 -0.02769 -0.01890 0.64373 -1.18941 -0.28997 -0.87280 -0.33241 0.69410 0.60677 -0.26799 0.61760 0.38582 -0.07980 0.61642 0.12116 0.30520 -0.16591 -0.23959 -0.02027 0.12427 0.29610 -0.31672 -0.48958 0.31554 -0.36891 -0.23151 -0.12116 -0.12921 -0.29254 -0.04843 0.46202 0.15501 -0.41630 -0.62585 -0.12730 0.86324 0.09321
com.fasterxml.jackson.databind.propertyname.isempty() 0.52405 0.30269 -0.68235 0.95437 -0.01674 -0.00892 0.51454 0.66963 -0.92538 -0.24591 0.25992 0.31093 0.26947 -0.25382 0.29967 0.49054 -1.17938 0.01817 -0.47337 0.14519 -0.18009 0.50216 0.42516 0.73475 0.16016 0.54842 0.28907 0.28436 -0.06754 -0.55390 0.13216 0.18320 0.22667 0.87332 0.69213 0.14579 0.24456 0.01444 -0.10305 0.51840 -0.97942 -0.09798 0.29027 -0.90326 0.41470 0.37322 -0.06578 0.30278 -0.11165 0.54740
com.fasterxml.jackson.core.jsonparser.nexttextvalue() -0.16364 0.32341 -0.56759 0.83420 -0.08437 -0.40035 0.22656 0.38934 -0.08762 0.10362 0.28060 -0.07495 0.53966 0.19090 -0.16543 0.10569 -0.46386 -0.27305 -0.39736 -0.05226 0.27160 0.38964 0.34699 0.21025 -0.09250 -0.13908 -0.16499 -0.33028 0.42544 -0.06085 -0.45059 0.13938 -0.01750 0.53696 -0.04545 -0.01368 0.22811 0.10535 -0.04709 -0.35788 -1.17046 0.19898 0.85443 -0.60201 0.33244 0.20487 -0.44987 -0.42210 -0.11992 0.67557
com.fasterxml.jackson.core.jsongenerator.writebinary() -0.06319 0.24243 0.01281 -0.06988 0.28667 -0.57664 -0.09808 0.12472 -0.07183 0.70372 -0.11212 -0.00630 0.01892 0.11402 -0.33361 -0.25826 -0.39255 -0.43506 -0.21435 -0.60990 0.26390 -0.24782 0.06905 0.01775 -0.16681 0.14733 -0.17029 -0.04587 0.19184 -0.03506 0.20639 0.04023 0.07791 0.19651 -0.40692 0.26782 0.37766 -0.05249 -0.03022 0.12053 -0.93603 0.16044 -0.22793 -0.10982 0.02341 0.33126 -0.14772 -0.25026 -0.25618 0.82777
com.fasterxml.jackson.databind.node.decimalnode.valueof() -0.00044 0.00403 0.00386 0.00947 0.00797 -0.00311 0.00564 -0.00588 0.00329 -0.00777 -0.00883 0.00023 0.00374 0.00953 -0.00866 -0.00933 0.00554 -0.00281 -0.00237 -0.00522 -0.00824 -0.00253 -0.00072 0.00896 0.00248 0.00249 0.00083 0.00843 0.00305 0.00398 -0.00989 -0.00715 0.00634 0.00650 -0.00165 -0.00821 -0.00531 0.00159 0.00401 -0.00180 -0.00679 0.00322 -0.00148 0.00012 0.00789 0.00288 0.00656 0.00738 0.00559 0.00685
com.fasterxml.jackson.databind.util.tokenbuffer.writestartarray() -0.07011 0.53811 -0.35466 0.66149 -0.00003 -0.65619 0.20376 0.10388 -0.23838 0.24962 0.50266 -0.12318 0.54744 0.13850 -0.14052 -0.00327 -0.60422 -0.18210 -0.62789 -0.47435 0.50126 -0.19941 0.49976 -0.28433 -0.28726 -0.27863 -0.40109 0.14149 0.74234 -0.23964 -0.32327 0.45705 -0.56263 0.59918 -0.20416 0.50256 0.05865 -0.43018 0.18401 -0.08272 -1.28846 0.28471 -0.12656 -0.57017 0.57906 0.23046 -0.60530 -0.58523 -0.30405 0.72712
com.fasterxml.jackson.databind.mappingiterator 0.21533 0.26080 0.47763 0.80637 0.00301 -0.13679 0.47800 0.03870 -0.39067 0.56595 -0.10472 -0.32500 0.50691 0.19234 -0.25207 -0.29851 -0.64245 -0.37600 -0.70939 -0.33499 0.65717 0.10877 0.25629 -0.50857 -0.18618 -0.56601 -0.11302 0.21844 0.37121 0.10636 -0.68207 0.24825 0.17254 0.05219 -0.01953 -0.06388 0.36764 0.36501 0.17839 0.22718 -0.52147 0.37251 -0.04416 -0.06089 -0.09625 -0.00674 -0.19427 -0.51218 -0.06121 0.22391
com.fasterxml.jackson.databind.serializerprovider.findtypedvalueserializer() 0.00542 -0.00944 -0.00324 0.00443 0.00597 -0.00856 -0.00618 -0.00775 -0.00823 0.00628 0.00731 -0.00469 -0.00615 0.00483 0.00637 -0.00806 0.00846 0.00661 0.00062 0.00857 0.00107 0.00552 0.00595 -0.00730 0.00485 0.00092 -0.00340 0.00572 0.00211 0.00248 -0.00973 -0.00713 -0.00480 -0.00647 -0.00055 -0.00174 -0.00460 0.00454 -0.00941 0.00249 0.00542 -0.00232 -0.00833 -0.00304 -0.00174 0.00667 -0.00368 -0.00017 0.00746 0.00042
com.fasterxml.jackson.core.io.numberinput.parseint() -0.34235 0.22795 -0.39021 0.25122 0.33404 -0.90441 -0.18276 0.80334 -0.12631 0.51890 -0.19977 0.72974 0.63540 -0.18666 0.29840 0.09504 -0.48260 -0.31045 -0.63124 0.27602 0.04721 0.82542 0.48839 0.27040 0.07332 -0.11800 0.24223 0.16368 0.23941 -0.16141 -0.42765 -0.29455 -0.31967 1.23068 0.63448 -0.03765 0.17373 0.10901 -0.31475 0.45913 -0.86017 -0.03103 0.34181 -0.34723 0.33232 0.22665 0.16409 -0.11149 -0.09899 0.33079
com.fasterxml.jackson.databind.ser.impl.readonlyclasstoserializermap.untypedvalueserializer() 0.14225 -0.08516 -0.05553 0.52946 0.40581 -0.61966 0.31341 1.57460 -0.62173 0.65665 0.11625 -0.75130 0.45177 -0.51464 -0.43923 1.27695 -1.23252 -0.33652 -1.06287 -0.92606 1.41155 -0.04018 -0.06449 -0.30383 -0.91681 0.60722 0.53278 0.54744 -0.18908 -0.30720 -1.01498 0.37139 -0.66095 0.84153 -0.10271 0.43895 0.87130 0.15610 0.35032 0.24164 -1.10446 0.35635 -0.59631 -0.78866 0.14439 -0.33340 0.27077 -0.39934 0.18035 0.08769
com.fasterxml.jackson.core.jsongenerator.writebinaryfield() 0.00337 -0.00201 -0.00120 -0.00462 0.00220 -0.00720 0.00432 0.00986 0.00061 0.00194 0.00834 0.00560 -0.00427 -0.00892 0.00965 0.00344 -0.00496 -0.00849 0.00710 -0.00736 -0.00105 -0.00169 -0.00236 0.00845 0.00800 -0.00845 -0.00493 -0.00808 0.00123 0.00214 0.00353 -0.00079 0.00922 0.00255 -0.00102 0.00334 -0.00531 -0.00781 0.00160 0.00135 0.00704 0.00986 -0.00785 -0.00443 0.00856 0.00823 0.00237 -0.00835 -0.00999 0.00472
com.fasterxml.jackson.databind.deser.impl.propertybasedcreator.findcreatorproperty() -0.05646 0.06320 -0.50721 1.22066 -0.06928 -0.21719 0.05597 0.38311 -0.82337 -0.49363 0.55603 -0.17769 0.29196 -0.08394 0.33292 0.08450 -0.96480 -0.87524 -0.78860 -0.03369 0.47904 -0.01034 0.85690 0.10753 -0.22525 0.03521 -0.53619 0.42853 0.49305 -0.56872 -0.11027 0.38739 -0.56668 1.43941 -0.73676 0.64788 -0.17031 -0.71993 0.45563 -0.21670 -1.64507 0.50173 0.65381 -0.91763 0.30615 0.28991 0.04854 -0.48713 -0.38795 0.87798
com.fasterxml.jackson.databind.introspect.annotatedmethod.getname() 0.15926 0.59654 -0.79486 0.84097 0.37511 -0.02833 0.46781 0.65924 -0.83949 -0.16598 0.10087 0.20488 0.55362 -0.48526 -0.22079 0.52815 -1.09148 0.38174 -0.24799 -0.07155 0.28368 0.48299 -0.08403 0.41064 -0.19087 0.62598 0.21424 -0.04601 0.33026 -0.38249 -0.03146 -0.07129 0.11516 0.14144 0.63340 0.48437 0.33611 -0.44322 -0.17891 -0.04224 -0.72564 0.36430 -0.04660 -0.60889 0.40665 0.01479 0.08129 0.13076 0.13058 0.25621
com.fasterxml.jackson.databind.jsonschema.jsonschema -0.00091 -0.00998 -0.00464 -0.00570 -0.00444 -0.00956 -0.00827 -0.00071 -0.00020 0.00286 0.00761 0.00832 0.00315 0.00836 -0.00707 -0.00167 0.00183 -0.00744 -0.00790 -0.00466 0.00090 0.00371 -0.00146 0.00161 -0.00584 0.00380 0.00466 -0.00322 -0.00097 -0.00078 -0.00614 -0.00992 -0.00455 0.00173 0.00681 0.00446 0.00543 -0.00660 0.00404 -0.00534 0.00793 -0.00831 -0.00629 0.00504 0.00680 -0.00882 0.00516 -0.00771 0.00874 0.00027
com.fasterxml.jackson.core.jsongenerator.writeboolean() -0.25731 0.33012 -0.91210 0.09961 0.29872 -0.99138 -0.32988 0.06664 0.04390 0.55452 -0.46445 -0.28369 0.80247 0.08723 -0.13923 -0.05863 -0.56753 -0.46467 -0.10690 -0.07002 -0.14509 -0.05125 0.45202 0.58286 -0.11042 0.14983 0.39451 0.47701 0.29937 -0.08544 0.22311 -0.68448 -0.20141 0.80236 -0.26591 0.22102 0.21608 -0.17138 -0.07724 -0.07653 -1.55269 0.10110 -0.13087 -0.46944 0.20155 0.11045 -0.10288 0.11055 0.22469 0.97566
com.fasterxml.jackson.databind.ser.impl.simplebeanpropertyfilter.filteroutallexcept() -0.22884 0.82135 0.21428 0.13321 0.64347 -0.23926 0.27826 0.09584 -0.59092 0.63864 -0.16375 0.62492 0.90114 0.52477 -0.44085 -0.34465 -0.56092 -0.19983 -0.83013 -0.07933 0.68592 0.21088 -0.11263 0.19015 -0.14854 0.02447 0.25492 0.04360 0.69593 0.46841 -0.45280 -0.00623 0.34497 -0.12532 -0.07186 0.54896 0.26159 0.04591 0.09636 -0.06690 -0.55279 0.56101 0.34634 -0.15878 -0.19265 0.35760 -0.17031 -0.17974 -0.48295 0.73681
com.fasterxml.jackson.databind.introspect.annotatedparameter 0.47849 0.53916 -0.46999 1.34855 -0.33081 0.67239 0.61556 0.87642 -1.16926 0.07060 0.93061 -0.08370 0.05353 -0.16252 0.11470 0.22027 -1.18744 -0.63411 0.16433 0.06980 -0.01754 -0.26646 0.24500 0.81309 0.54199 0.06055 0.13522 -0.01597 0.24527 -0.58880 0.43426 -0.02128 0.30569 0.78232 0.77699 -0.04077 0.34057 -0.04872 0.23481 0.43390 -0.85357 -0.11025 0.22823 -0.28481 0.32383 0.47616 0.05039 -0.19760 -0.20447 0.52859
com.fasterxml.jackson.databind.cfg.handlerinstantiator 0.16972 0.34170 -0.42811 0.82899 0.48341 -0.10797 1.07528 0.69999 -0.74745 0.14764 -0.31501 -0.66141 0.67735 -0.53991 0.64203 0.55361 -1.09973 -0.34056 -0.00664 -0.16572 0.91634 -0.01734 0.04247 0.18709 -0.23454 -0.08733 0.31161 0.50718 -0.01653 -0.25368 -0.08054 0.25430 -0.17740 0.25584 0.87169 0.26917 0.89926 -0.21831 0.19481 0.37466 -0.90904 0.48453 -1.00603 0.13863 0.19347 -0.55139 0.19600 0.33751 0.51120 -0.13727
com.fasterxml.jackson.databind.introspect.pojopropertybuilder.hasgetter() -0.00398 0.00476 0.00846 -0.00768 0.00231 0.00854 0.00856 -0.00956 -0.00731 -0.00040 -0.00831 0.00818 0.00215 -0.00257 0.00996 -0.00122 0.00612 -0.00115 0.00597 -0.00497 0.00241 -0.00896 0.00181 -0.00919 -0.00210 -0.00614 0.00899 -0.00461 0.00696 0.00114 -0.00707 -0.00176 -0.00951 -0.00901 0.00994 -0.00602 -0.00319 0.00939 -0.00889 0.00494 -0.00286 -0.00993 0.00623 0.00069 0.00625 -0.00145 0.00771 -0.00825 -0.00674 0.00603
com.fasterxml.jackson.databind.deser.settablebeanproperty.deserializesetandreturn() -0.26148 -0.00578 -0.64470 0.97536 0.06328 -0.66979 -0.02472 0.45350 -0.68256 -0.22667 0.18952 0.44344 0.22843 -0.22516 0.60876 0.40643 -0.93153 -1.04949 -0.63055 0.33309 0.39958 0.34581 0.98909 -0.21564 0.20606 0.08968 -0.38499 0.19562 0.26804 -0.44717 -0.17442 0.44176 -0.87292 1.48429 -0.37390 0.84749 0.36558 -0.56834 0.26634 0.18809 -1.32341 -0.02113 0.56525 -0.70637 0.52337 0.56972 -0.07427 -0.06543 -0.54417 1.10708
com.fasterxml.jackson.databind.introspect.withmember.withmember() 0.31168 -0.02651 -0.26696 0.35662 0.06336 -0.11232 0.25353 0.39755 -0.39916 -0.32234 -0.18630 0.00002 0.20066 -0.43871 0.26833 0.26605 -0.76223 -0.11693 -0.80112 -0.01503 0.61870 0.04231 0.22561 -0.06936 0.03357 0.01743 0.11601 0.11286 0.52834 -0.33558 0.12994 0.14565 -0.09462 0.52118 0.28042 0.19679 0.14555 -0.43306 0.10934 0.05368 -0.86925 0.23154 0.26226 -0.77693 0.31807 -0.07132 0.02666 0.40209 0.10954 0.43189
com.fasterxml.jackson.databind.mappingiterator.hasnext() -0.02932 0.28678 0.34362 0.41527 -0.01931 -0.03563 0.30646 0.25002 -0.35306 0.28714 -0.04076 -0.07135 0.11983 0.41957 -0.24564 -0.29455 -0.43662 -0.36671 -0.50511 -0.37539 0.48223 -0.01087 0.09908 0.07087 -0.06015 -0.01869 -0.25720 0.19144 0.21263 -0.02825 -0.39858 -0.09891 0.26294 -0.01132 0.07235 -0.02017 0.43250 0.16185 -0.07977 0.03757 -0.46107 0.11185 0.29832 -0.07923 -0.31267 0.32217 -0.17424 -0.18301 -0.37780 0.55597
com.fasterxml.jackson.databind.node.objectnode.putobject() -0.04645 0.18173 0.43067 0.12970 -0.01147 -0.35415 0.23230 -0.07355 -0.38498 0.60148 0.05093 0.26607 0.38643 0.03514 -0.22585 -0.24409 -0.78962 -0.20810 -0.32116 -0.54135 0.07524 -0.29118 -0.00733 -0.01973 -0.18366 -0.13934 -0.23940 0.45123 0.47290 0.16357 -0.22331 0.52817 0.06039 0.11939 -0.09253 0.14932 0.04710 0.02213 0.04018 0.10563 -0.87661 0.03532 0.04728 -0.04782 0.02689 0.50094 -0.49728 -0.32224 -0.46542 0.63452
com.fasterxml.jackson.databind.type.maptype 0.00719 -0.00421 0.00509 0.00720 -0.00171 -0.00525 0.00521 0.00893 -0.00137 -0.00758 0.00917 0.00358 0.00740 -0.00431 -0.00187 -0.00195 0.00630 -0.00886 0.00372 -0.00455 -0.00468 -0.00980 0.00254 0.00283 0.00604 0.00659 0.00793 0.00876 -0.00003 0.00590 0.00786 -0.00641 0.00921 -0.00512 0.00235 0.00701 0.00200 0.00895 -0.00314 -0.00241 0.00495 -0.00848 0.00692 -0.00017 -0.00337 -0.00830 -0.00962 0.00443 0.00429 -0.00931
com.fasterxml.jackson.databind.util.classutil.wrappertype() -0.11891 0.48583 -0.52725 0.21919 0.33029 -0.35827 0.71673 0.65461 -0.39246 0.26919 0.03266 -0.56167 0.42322 -0.21332 0.12348 0.63133 -0.96876 0.06035 -0.21653 0.05312 0.27696 -0.18559 -0.14478 -0.17456 -0.05784 -0.01444 0.01002 0.00226 0.16004 -0.01760 -0.04161 -0.23295 -0.06447 0.31551 0.04762 -0.01447 0.66526 -0.27180 0.11609 0.31079 -1.00539 0.64965 -0.47926 -0.49799 0.11402 -0.35251 -0.01783 -0.12735 0.17656 0.39808
com.fasterxml.jackson.core.type.typereference 0.04364 0.32581 0.45825 0.58027 0.12497 0.09943 0.56872 0.08773 -0.40700 0.61925 -0.32715 -0.30162 0.61853 0.17692 -0.03071 0.01604 -0.33137 -0.51388 -0.68692 -0.11763 0.78952 0.22077 0.23578 -0.23142 -0.26380 -0.27545 0.25143 0.37459 0.22336 0.06367 -0.41523 -0.07902 0.30773 0.15432 -0.11472 -0.13499 0.71530 0.39902 0.12177 0.16150 -0.30735 0.55273 -0.04360 -0.19046 -0.40508 0.14113 0.26842 -0.03411 0.27063 0.51377
com.fasterxml.jackson.databind.objectmapper.getnodefactory() 0.00173 -0.00015 -0.00298 -0.00246 -0.00568 0.00785 -0.00083 0.00533 -0.00768 0.00055 -0.00759 -0.00483 -0.00243 -0.00013 0.00956 -0.00904 0.00147 -0.00291 -0.00467 0.00836 -0.00299 0.00616 -0.00492 -0.00527 0.00166 0.00394 -0.00782 -0.00966 -0.00653 -0.00604 -0.00783 -0.00788 -0.00470 -0.00317 -0.00382 0.00352 -0.00921 -0.00226 0.00363 -0.00514 0.00496 -0.00117 -0.00417 0.00636 -0.00039 0.00582 0.00466 -0.00630 0.00391 -0.00392
com.fasterxml.jackson.databind.mappingiterator.nextvalue() 0.00260 -0.00795 -0.00932 -0.00698 0.00835 -0.00192 -0.00132 -0.00700 -0.00551 -0.00088 0.00615 0.00132 -0.00032 0.00491 -0.00417 0.00687 -0.00827 0.00526 -0.00660 0.00467 -0.00583 -0.00031 0.00108 0.00273 -0.00646 0.00811 -0.00967 0.00661 -0.00905 -0.00481 0.00627 0.00762 0.00017 -0.00385 -0.00591 0.00926 0.00256 0.00201 0.00875 -0.00317 -0.00697 0.00678 0.00299 -0.00535 -0.00047 -0.00821 -0.01000 -0.00657 0.00424 -0.00914
com.fasterxml.jackson.databind.javatype.ismapliketype() -0.19904 0.58412 -0.69055 0.43590 0.44151 -0.19794 0.55936 0.92042 -0.35694 -0.08864 -0.12374 -0.31808 0.73008 -0.41815 -0.46560 0.89058 -0.95041 0.38019 0.12034 -0.53275 0.44194 -0.14443 -0.08847 0.09678 -0.38245 0.46165 0.47376 0.23519 0.04865 -0.39408 -0.20150 0.15955 -0.18517 0.17134 0.93848 0.55266 0.26615 -0.53655 -0.04617 0.38049 -1.21836 0.28549 -0.63610 -0.88839 0.17593 -0.19263 -0.03998 -0.10168 -0.06386 0.73079
com.fasterxml.jackson.databind.jsonnode.intvalue() -0.12657 0.20977 -0.02120 0.09434 0.20742 -0.25873 0.17877 0.24708 -0.11034 0.20553 -0.08411 0.10000 0.22418 0.02423 -0.12804 0.07345 -0.39450 0.03352 -0.20560 -0.29106 0.12008 0.03260 -0.00645 0.17360 0.10201 0.06545 0.03745 0.21452 0.13209 -0.12944 -0.00580 0.02045 0.01741 0.11593 0.22477 -0.02954 0.22057 -0.05335 -0.13057 0.16445 -0.49466 0.06275 -0.00823 -0.19183 0.02322 0.01330 -0.13865 -0.04897 -0.02215 0.25727
com.fasterxml.jackson.databind.javatype.hasrawclass() -0.26085 0.23838 -0.47986 0.80524 0.45209 -0.10609 0.89797 1.02590 -0.62873 0.02883 -0.47630 -0.20722 0.68410 -0.35139 0.03232 1.09348 -0.92337 0.03920 -0.52918 -0.05047 1.25757 0.44515 -0.20563 -0.35146 0.31385 0.25190 0.46217 0.14219 0.18115 -0.15145 -0.72661 0.07025 -0.34908 0.33291 0.41016 0.11929 0.71991 -0.12348 -0.00479 0.40363 -0.75152 0.81782 -0.85425 -0.62714 -0.02527 -0.54084 0.05229 0.26258 0.47888 0.16896
