162 50
com.google.gson.gson -0.23870 0.77228 -0.07516 0.65744 -0.63054 -0.62990 0.37516 0.44469 0.20381 0.58716 0.18981 -0.49222 0.71005 0.56586 -0.48478 0.02221 -0.87703 -0.73303 -0.79692 -0.53090 0.43402 -0.32700 -0.07247 -0.56947 0.00533 0.81258 -0.22144 0.52187 0.20786 -0.40269 -0.63109 -0.80527 -0.85680 0.37418 0.10474 0.41259 -0.08348 0.04826 0.14819 -0.27511 -0.76984 0.48306 1.07495 0.00353 1.25160 -0.86088 0.29859 -0.61586 -0.26315 0.60258
com.google.gson.jsonelement 0.24862 0.16254 0.55002 0.94473 0.10588 -0.23664 0.26981 0.39087 -0.39080 0.65980 -0.21287 -0.38920 0.63130 0.12025 -0.81980 0.26276 -1.18196 -0.73858 -1.06762 -0.72881 0.44018 0.13084 0.16811 0.09033 -0.05354 -0.32821 -0.44703 1.06321 0.54619 0.57509 0.14329 1.14628 0.26745 0.53959 -0.45065 0.56770 0.54472 0.09330 0.66957 -0.38728 -1.16520 -0.30493 -0.69478 -0.42893 0.37910 0.11053 -0.58924 -1.08413 0.29785 0.67607
com.google.gson.jsonobject.get() -0.00374 -0.00105 1.35943 0.11429 -0.13270 -0.91407 0.02705 -0.40327 -0.39852 0.81670 -0.13290 -0.10279 0.92521 0.50626 -0.00980 -0.56705 -2.71764 -0.36320 -0.80753 -1.56250 -0.00814 0.19805 0.41653 -0.17208 0.28032 -0.47541 -0.10252 0.98767 1.02825 -0.09189 -0.70079 0.06059 -0.39784 0.93336 -0.26488 -0.25188 -0.12419 -0.15253 0.33426 0.33239 -0.85144 -0.25283 0.81317 -0.30075 -0.03980 -0.45497 -1.51103 -0.40665 0.06074 0.54340
com.google.gson.gson.fromjson() -0.07323 0.04031 0.56398 1.21943 -0.05266 -0.92545 0.16221 0.19860 -0.01804 0.44080 -0.30933 0.05536 0.06156 1.12505 -0.05748 0.11826 -0.93318 -1.19991 -0.98290 0.16179 -0.46415 0.36068 0.07643 -0.32017 -0.36387 -0.02280 0.25842 0.12001 0.71918 -0.39606 -1.16205 -0.12692 -0.42866 0.53424 0.00886 0.62285 -0.24097 -0.38167 0.09974 -0.22024 -0.60899 0.14211 1.84139 -0.18054 1.01038 -0.42148 -0.10202 -0.69728 0.16372 0.08804
com.google.gson.stream.jsonwriter.value() 0.28307 0.98419 -0.03483 0.66924 -0.01775 -0.86504 -0.00019 0.76607 -0.51975 0.51638 -0.40141 -0.01929 1.03178 0.09511 0.67973 -0.09671 -0.76574 -0.94416 -0.73129 -0.31284 1.06867 -0.30770 0.95683 -0.06493 -0.38427 -0.84282 -0.48539 0.13690 0.64645 0.33863 -0.98308 0.53692 -0.36518 0.39073 1.47140 0.75635 1.08688 0.11380 0.28007 0.28621 -1.88259 0.37848 -0.27882 0.28962 0.04681 0.32450 -0.62852 0.15639 -0.91189 0.78074
com.google.gson.gson.tojson() 0.79908 0.22400 -0.23474 0.80639 0.27614 -0.98847 -0.05400 0.26105 0.39236 0.70505 -0.32331 0.06452 0.76872 1.17039 0.10078 0.02651 -0.74184 -0.77596 -1.34648 -0.43706 -0.08493 -0.64727 -0.47405 0.04453 0.33162 0.13383 -0.36331 -0.27927 0.71694 0.03362 -0.79602 -0.05454 -0.38353 0.57133 -0.09765 0.37654 -0.18692 0.02613 -0.00676 -1.01522 -0.65469 0.03855 1.91700 -0.98665 0.65012 -0.60074 0.04067 -0.76424 0.24025 0.93580
com.google.gson.jsonobject -0.47888 -0.12418 0.36853 0.96677 0.02852 -0.69259 0.94264 0.02825 -0.30901 1.24216 -0.16672 -0.09397 0.97843 0.11383 -0.62962 -0.07917 -1.65018 -0.76861 -0.36009 -0.19748 0.65179 0.01322 0.94975 0.20878 -0.22881 -0.26124 -0.15177 0.83263 0.13497 0.20936 0.16565 0.39486 -0.43663 0.82885 -0.78128 -0.01412 0.35646 0.92009 0.86862 -0.26638 -1.43933 -0.50434 -0.28108 -0.63510 0.45566 0.77391 -0.44793 -0.71393 -0.03490 1.26062
com.google.gson.metrics.bagofprimitives 0.01048 0.40837 -0.06201 1.06259 0.12174 -0.54068 0.50461 0.45089 -0.37648 0.43845 -0.05564 -0.02689 -0.07288 0.63300 -0.13902 -0.27012 -0.94504 -0.56739 -0.67993 -0.46251 0.60205 -0.33950 -0.09964 -0.14872 -0.43796 -0.32961 -0.24964 -0.09665 -0.11748 -0.35716 -0.15029 -0.32158 0.28920 -0.05224 0.25033 -0.06520 0.34783 0.24573 0.12385 -0.60191 -0.88453 -0.00283 0.60881 -1.06129 -0.00781 -0.15492 -0.18873 -0.33202 0.01656 0.97089
com.google.gson.stream.jsonreader.peek() 0.03055 0.43167 0.18892 0.88017 0.06952 -0.10194 0.54070 1.01635 -0.58455 0.34971 0.33508 -0.55320 0.76810 -0.08450 0.01392 0.69483 -0.88022 -1.23757 -1.62624 -0.92405 1.18426 -0.72598 0.17900 0.74716 -0.70107 -0.52467 -0.19037 0.40401 0.80069 0.30603 -0.84825 -0.24247 0.49168 -0.29128 0.55157 -0.18961 0.83090 -0.13226 0.45611 -0.00528 -1.32341 0.39557 0.13778 -0.25861 -0.75742 1.24902 -0.19267 -0.44272 -0.55039 1.24814
com.google.gson.reflect.typetoken.get() 0.38264 -0.03318 0.22719 0.53753 1.07710 -0.10611 0.29125 0.31051 -1.44886 0.58886 -0.11909 -0.83025 0.62358 0.61992 -0.26444 -0.08255 -1.46891 -0.67359 -1.13845 -0.54433 -0.12026 -0.57917 -0.35369 1.35387 0.28768 0.41623 -0.00308 -0.35320 0.56146 0.70289 -0.81483 0.15767 0.65334 0.75345 0.20455 0.94214 1.15406 0.21697 0.37518 0.26425 -1.49830 0.64159 -0.48580 -0.75832 -0.48637 0.74096 0.41815 -0.99162 0.25556 0.20925
com.google.gson.jsonobject.add() -0.62078 -0.16940 0.12088 1.18698 0.34727 -1.25078 0.14531 -0.63262 -0.80653 1.37189 -0.79315 0.55125 1.46282 -0.12303 -0.22734 -0.60137 -1.57642 -0.79640 -0.32708 -0.19679 0.14319 0.44747 1.26441 0.54130 -0.86774 -0.17418 0.15880 1.24688 0.38153 -0.01928 -0.03972 -0.17028 -0.19842 1.25724 -0.33862 0.38608 -0.09059 0.54998 0.80025 0.13934 -2.47712 -0.42894 0.56373 -0.26742 0.03616 1.83772 -0.49431 0.12769 -0.35315 1.16250
com.google.gson.stream.jsonwriter.name() -0.09900 0.82827 0.19387 1.07160 -0.16567 -0.28211 0.52412 0.36960 -0.30460 0.83467 -0.29482 0.13445 0.51758 0.20316 0.47873 -0.06114 -1.13504 -1.32111 -1.16909 -0.19757 0.67084 0.38659 0.75205 -0.43586 -0.24610 -0.45853 -0.43477 0.17209 0.54844 0.76623 -0.53987 0.81859 -0.25808 0.08615 0.87917 0.24483 1.58508 0.22186 -0.05644 0.59379 -2.73003 0.16765 0.38252 0.22567 -0.09453 0.42745 -0.93818 0.13750 -0.73157 1.02022
com.google.gson.jsonprimitive 0.16802 0.08048 0.56053 0.44728 0.64011 -1.25714 -0.07204 0.40878 -0.04739 0.58652 -0.52771 -0.19392 0.46970 0.14024 -0.47188 0.10938 -0.76511 -0.23664 -0.18055 -0.45914 0.91013 -0.25373 0.73466 0.32144 -0.71014 -0.68696 -0.21820 0.73866 -0.26676 -0.21986 -1.23550 0.79853 0.33864 0.83652 -0.07298 0.33431 -0.12520 0.50462 0.81001 -0.10297 -1.38902 -0.18257 -0.43797 -0.37591 0.31967 0.40954 -0.24990 -0.64702 -0.56920 0.19386
com.google.gson.stream.jsonwriter.beginarray() 0.29189 1.15126 0.25341 1.07577 -0.21507 -0.16420 0.14532 0.36746 -0.75036 0.40710 -0.20098 0.00078 0.04954 -0.10961 0.07608 -0.16533 -0.87394 -0.61793 -1.19297 0.07826 0.13264 0.14639 0.62117 -0.21018 0.04934 -1.01259 -0.16299 -0.08545 0.48363 0.59430 0.20653 0.12040 0.32885 0.29835 0.64150 0.65290 1.05364 -0.49155 -0.10837 -0.14809 -2.31835 -0.02741 0.12819 -0.00663 0.24383 0.63818 -0.28003 0.30010 -0.77192 0.75148
com.google.gson.jsonarray.add() 0.09019 -0.31539 -0.05759 0.56749 -0.47930 -1.90729 -0.14802 -0.49780 -0.63435 1.06919 -0.51336 -0.33611 0.95822 0.11645 0.50011 -0.17564 -1.89448 -0.56414 -0.60036 0.22215 -0.66145 -0.41250 0.97167 0.37417 -0.51549 -1.00336 -0.32086 1.21790 0.15484 0.44756 -0.98831 0.38979 -0.22990 1.96778 -0.22456 0.29352 0.48172 0.41681 0.54604 0.61974 -1.70714 -0.11560 0.55537 -0.67515 1.13931 0.94992 0.22984 -0.19572 -0.58234 1.35286
com.google.gson.jsonelement.getasjsonobject() 0.41024 0.16218 0.93820 0.48038 0.37102 -0.79935 0.40633 0.20099 0.09461 0.75981 0.14557 0.03309 0.81008 -0.11443 0.04436 -0.49760 -2.07921 -0.38178 -1.07877 -0.85616 0.16312 0.09030 0.36099 0.09959 -0.33263 -0.42089 -0.35677 1.13845 0.46739 0.00153 -0.52292 0.31338 -0.44986 1.09646 -0.33126 0.05268 0.16420 0.60810 0.21792 -0.82027 -1.23724 -0.02649 0.26594 -0.68462 0.32071 -0.20222 -0.81203 -0.38717 -0.29338 0.81677
com.google.gson.stream.jsonreader.nextstring() -0.01191 0.51449 0.18139 0.58006 -0.68792 -0.63871 0.13552 1.18164 -0.48141 0.38384 -0.00951 -0.30048 0.83913 0.82913 0.04134 0.14193 -0.52976 -1.02556 -0.40194 -0.95473 0.56837 -0.98243 0.18757 0.44312 -0.72127 -0.92635 -0.56760 0.49714 0.56879 -0.13069 -1.32747 -0.20662 0.46500 0.27169 0.53609 0.45340 0.77736 0.33274 -0.20520 -0.06307 -0.87611 0.46559 0.29417 -0.05512 -0.07596 0.30227 0.09225 -0.48918 -1.29783 1.42670
com.google.gson.jsonobject.addproperty() 0.27137 -0.40693 -0.23015 0.14827 0.44812 -0.87133 -0.73864 0.42841 -0.66051 1.32591 -0.29056 -0.06008 0.95573 0.12454 0.43531 0.12509 -1.51588 -0.23979 -0.60860 -0.66012 0.98629 0.39949 1.23826 0.11173 -0.50865 -0.58061 -0.33408 0.84042 0.42024 0.33824 -1.17291 -0.11775 -0.10886 1.67932 0.05707 -0.07478 0.17357 0.82454 0.81098 -0.13618 -1.56691 -0.45893 0.80222 -1.40935 0.56924 -0.19457 -0.27697 -0.14356 -0.08317 0.80846
com.google.gson.jsonarray 0.45635 -0.66578 0.05816 0.95211 0.00939 -0.61412 0.52447 -0.09703 -0.63996 0.84839 -0.48298 -0.59272 0.17376 -0.32237 -0.34587 -0.35382 -1.65844 -0.22876 -0.51377 -0.35391 0.38731 -0.69866 0.67500 -0.04203 0.13199 -0.59966 -0.34219 0.92817 0.32816 0.22670 -0.33322 0.26457 -0.31077 1.24134 -0.11007 0.23784 0.71873 0.74404 0.78390 -0.49904 -1.61086 -0.78019 0.00955 -0.32584 0.51986 0.79413 -0.66891 -0.47332 0.00762 0.77105
com.google.gson.stream.jsonwriter.endarray() 0.04508 0.75056 -0.07484 0.67040 -0.33770 -0.33966 0.09891 0.47334 -0.50048 0.57075 0.14441 0.13255 0.22953 0.25849 0.41736 -0.12893 -0.92092 -0.77681 -0.75413 -0.49617 0.64698 0.11846 0.53529 -0.41552 0.18575 -0.54770 -0.27690 -0.08390 0.48000 -0.12581 0.02038 0.35270 -0.22087 0.26039 0.48893 0.16195 0.80272 -0.09180 -0.04323 -0.03838 -1.72735 0.15356 0.15275 0.43830 0.30111 0.49940 -0.11649 -0.00155 -0.28235 0.87354
com.google.gson.stream.jsonwriter 0.42589 0.54896 0.47866 0.43354 0.09508 -0.31585 0.24154 0.63631 -0.75190 1.39704 -0.36424 -0.05103 0.63702 0.24770 0.02564 0.58177 0.23960 -0.47225 -0.97795 -0.07510 0.93640 -0.29109 0.08589 0.27653 -0.19707 0.01363 -0.56065 -0.44003 0.70799 0.81733 -0.23659 -0.03265 0.62147 0.97894 -0.25312 1.17746 0.93900 -0.45830 -0.25873 -0.24289 -1.64581 0.96104 0.05395 -0.06732 -0.12686 0.12990 -0.45939 -0.50632 -0.67588 1.03970
com.google.gson.stream.jsonwriter.beginobject() -0.04439 0.74237 0.26531 0.98499 -0.02469 -0.58338 0.37276 0.46638 -0.85943 0.53183 -0.48037 -0.22253 0.11539 0.20319 0.08576 0.24561 -1.17866 -1.04601 -1.05499 0.10351 0.53754 0.11327 0.63809 -0.24830 0.09422 -0.75759 -0.32897 0.06941 0.41926 0.86691 -0.34560 0.78412 0.27133 0.07940 0.68728 0.54033 1.57609 -0.13614 -0.24605 0.45991 -2.35764 0.12625 0.14420 -0.03437 -0.00370 0.20991 -0.63392 -0.10063 -0.60218 0.72399
com.google.gson.stream.jsonreader.beginarray() 0.08226 0.87293 -0.13292 1.20927 -0.57711 -0.00883 0.53417 0.96179 -0.61097 0.12821 0.21786 -0.81193 -0.20474 0.62208 -0.04780 0.02296 -1.03119 -0.83906 -1.19519 -0.96569 0.69645 -0.44445 -0.06294 0.71681 -0.15246 -0.89437 -0.43790 0.02975 0.23918 0.36872 -0.50894 -0.76566 0.83037 -0.05072 0.28104 -0.09254 0.96675 0.26032 -0.00298 -0.48967 -1.52751 0.08089 0.86942 -0.22461 0.08986 0.76695 -0.29733 -0.43885 -0.90486 1.16379
com.google.gson.reflect.typetoken.getrawtype() 0.23331 0.41835 0.02476 0.10949 0.49490 -0.55123 0.88626 0.67030 -0.93423 0.41986 0.32850 -0.59256 0.69378 0.53405 -0.26155 0.93753 -1.55317 0.01906 -0.76980 -0.72094 -0.19157 -0.38716 0.07251 1.13783 0.21679 0.15286 0.40199 0.10885 0.89007 0.57238 -0.15721 0.22558 0.34952 0.52332 0.68533 0.10855 1.03021 0.59023 -0.41100 0.92000 -1.53286 0.58274 -0.08268 -0.96630 0.02258 0.14121 -0.11829 0.34768 0.47299 1.30286
com.google.gson.typeadapter 0.36499 0.48896 0.44978 0.79626 0.72009 -0.42208 0.99184 0.94953 -1.09448 0.54157 -0.16291 -0.72707 0.78389 0.40545 -0.41273 0.50947 -1.39957 -0.58147 -0.83314 -0.02394 0.12166 -0.22485 -0.27918 0.74518 -0.16175 -0.21126 -0.27227 -0.30344 1.00256 0.98196 -0.39127 0.02679 0.13587 0.20709 0.69129 0.77304 1.27734 -0.11599 0.46288 0.54777 -1.59885 0.90830 -1.06548 -0.48660 -0.23802 -0.15958 -0.54510 -0.19404 0.35047 0.54172
com.google.gson.reflect.typetoken.gettype() 0.85221 0.68487 -0.25427 1.16953 0.12001 0.44022 0.93523 0.70910 -1.28211 0.07638 -0.07583 -0.56553 0.72587 0.06925 0.00822 0.71575 -2.05139 -0.38863 -0.97003 -0.03901 0.26760 -0.31681 -0.08643 1.10384 -0.02232 0.14936 -0.14300 -0.22547 0.92235 0.22485 -0.13261 -0.11911 0.58046 0.60749 0.38800 0.14162 0.62460 0.25290 -0.01057 0.29810 -1.78139 0.47113 -0.64495 -0.80392 -0.03112 0.15241 -0.22031 0.06456 0.00989 0.58999
com.google.gson.gsonbuilder -0.54821 0.52118 0.12716 -0.09278 -0.73618 -0.94457 -0.15535 0.45463 -0.07040 0.85680 0.47291 -0.79799 0.23087 0.36257 0.79495 0.47211 -1.05115 -0.26858 -0.87799 -0.31388 0.72143 -0.29838 -0.02959 -0.18346 -0.17240 0.31062 0.01558 0.28577 0.22319 0.05704 -0.93107 0.13218 0.03954 0.77588 0.16227 0.38844 -0.28253 0.32690 0.78492 0.25080 -1.00343 0.54771 0.51417 -0.53267 0.93772 -0.00728 -0.00664 -0.42019 0.07995 0.97788
com.google.gson.stream.jsonreader.beginobject() 0.01869 0.95197 0.55284 0.93237 -0.14618 -0.13718 0.73927 1.11383 -0.78060 0.11556 0.14417 -0.72786 0.59820 0.80629 0.19540 -0.19845 -1.00274 -0.79332 -1.39449 -1.04108 0.89517 -0.25322 -0.00530 0.30001 -0.09821 -0.52138 -0.32543 0.51191 -0.05006 -0.08407 -0.75902 -0.60063 0.79321 -0.01883 0.40799 -0.30539 0.73137 -0.01550 -0.32515 -0.44149 -1.13446 0.07322 0.99912 -0.34704 -0.47425 0.22324 -0.38837 -0.33973 -0.59151 1.13683
com.google.gson.stream.jsonreader.nextname() 0.10772 1.22898 0.66405 0.82336 -0.26798 -0.20305 0.67058 1.14209 -0.97846 0.29863 0.05572 0.03578 0.73930 1.25656 -0.10899 -0.36426 -1.24362 -0.92235 -1.03833 -1.36479 0.38703 -0.78312 -0.03984 0.30297 -0.28126 -0.30691 -0.73156 0.42351 -0.00155 -0.14778 -0.91469 -0.07458 1.18664 -0.24371 0.69730 -0.48398 0.66535 0.47728 -0.24059 0.03375 -1.31343 0.49306 0.35662 -0.47682 -0.69783 0.17066 -0.43400 -0.40664 -0.67005 1.31868
com.google.gson.stream.jsonreader.hasnext() 0.18458 0.95392 0.30994 1.37488 -0.38280 0.12034 0.80360 1.08211 -0.91306 -0.17642 0.12574 -0.58380 0.10252 0.95592 -0.35556 -0.34695 -1.32570 -0.50007 -1.13060 -0.80482 0.74643 -0.29908 0.16866 0.42196 -0.00788 -0.34119 -0.70359 0.47585 0.12483 -0.25211 -1.01461 -0.58081 0.88483 -0.10224 0.49465 -0.36335 0.73725 0.17189 -0.27548 -0.19758 -1.14811 0.16822 0.88511 -0.62699 -0.55527 0.30229 -0.52642 -0.44388 -1.03472 1.29701
com.google.gson.stream.jsonreader.nextnull() 0.07220 0.95807 -0.14150 0.62928 -0.29807 -0.29467 0.32317 1.31988 -0.53046 0.53554 0.45834 -0.60249 0.65189 -0.20322 -0.24496 0.83813 -0.67803 -0.95936 -0.75931 -0.91462 1.27921 -0.70043 -0.10487 1.07315 -0.92028 -1.19220 -0.30934 -0.12323 0.82327 0.23172 -0.97611 -0.38892 0.41382 0.04412 0.70099 -0.35198 0.78783 0.02148 0.13304 0.03117 -1.26568 0.42858 0.23465 -0.66096 0.18822 0.96001 0.14368 0.14807 -0.82607 1.06777
com.google.gson.common.moreasserts.assertequalsandhashcode() -0.00238 0.01458 -0.00621 -0.00678 0.00140 -0.00059 -0.00170 0.00412 0.00011 0.00777 -0.00564 -0.00031 0.00025 -0.00284 -0.00362 0.00323 -0.00073 0.00986 -0.00588 0.00669 0.00220 0.00204 0.00790 -0.00536 0.01280 0.00475 -0.00831 0.00128 -0.00348 -0.00469 0.00442 -0.00721 0.00406 -0.00951 0.00138 0.00649 -0.00383 -0.00751 0.00168 0.00809 -0.00454 0.00219 0.00427 0.00596 -0.00287 0.00644 -0.00489 -0.00406 0.00393 -0.00298
com.google.gson.stream.jsonwriter.endobject() -0.34806 0.59968 0.01004 0.79247 -0.24421 -0.55600 0.27534 0.50797 -0.78982 0.49154 -0.50430 -0.01201 0.28504 0.53526 0.66045 0.20503 -1.32908 -1.03278 -0.78057 -0.57953 1.02900 0.24119 0.64795 0.00798 -0.05793 -0.33550 -0.11128 0.40207 0.28675 0.07195 -0.62112 0.94822 -0.10430 0.08705 0.76610 0.45416 1.25497 -0.02432 -0.45102 0.56034 -2.17900 0.21424 -0.00127 0.28288 -0.08064 0.29062 -0.17379 -0.17302 -0.21677 0.75443
com.google.gson.stream.jsonreader.getpath() -0.00250 -0.00640 -0.00514 -0.00011 -0.00000 -0.00380 0.00392 -0.00057 0.00369 -0.01051 0.00301 -0.00242 -0.00185 -0.00596 -0.00151 -0.00220 0.01035 -0.00171 -0.00072 0.00671 0.00005 -0.00471 -0.00229 0.00790 -0.00655 0.00541 0.00166 0.01851 -0.00125 -0.00228 -0.00481 -0.00253 -0.00523 0.01108 0.00070 -0.01287 0.00368 0.01056 -0.00645 -0.00563 0.00347 0.00278 -0.01134 -0.00228 -0.00385 0.00536 0.01426 -0.00648 0.00174 0.00059
com.google.gson.internal.bind.typeadapter -0.00140 0.24862 -0.12117 0.18939 0.45707 -0.08184 0.10420 0.26335 -0.61998 0.12673 0.24014 -0.36236 0.34305 0.51920 0.02681 0.29420 -0.92784 -0.08432 -0.31975 -0.03992 0.01925 -0.24757 -0.03548 0.06059 0.06478 -0.05055 0.26113 -0.25197 0.26923 -0.07343 -0.11580 0.00453 0.22544 0.10172 0.21234 -0.02834 0.65844 0.07570 -0.12239 0.23564 -1.05535 0.39178 -0.25371 -0.79760 -0.03167 0.12648 0.11141 -0.32205 0.29788 0.35912
com.google.gson.stream.jsonwriter.nullvalue() 0.30682 1.07401 0.47443 0.87954 -0.03308 -0.05575 -0.22879 0.74053 -0.29658 0.69091 0.55700 0.03649 0.39216 -0.10488 -0.00258 0.60787 -0.87087 -0.33482 -0.51460 -0.10695 0.61992 -0.26509 0.33923 0.36787 -0.07085 -0.94356 -0.20823 -0.46663 0.48088 0.49462 -0.17934 0.52587 0.19477 0.56270 0.62288 0.35507 0.68072 -0.03754 -0.06746 -0.33677 -1.74408 0.28641 -0.04071 -0.36723 0.42520 0.91286 -0.18204 0.07389 -0.94250 0.63370
com.google.gson.jsonarray.get() 0.29006 0.12486 1.04793 0.08915 -0.74372 -0.02027 -0.54253 0.72032 -0.53193 0.81852 0.06070 -0.28751 -0.43067 0.96342 0.55322 -0.02675 -2.50009 -0.23050 -1.07142 -0.94818 -0.82418 -0.23557 0.54348 0.47623 -0.08276 -0.54432 0.37596 0.92151 1.03168 0.06086 -0.87144 0.25802 -0.17524 1.59267 -0.10602 -0.01078 0.41783 0.14064 -0.07581 -0.18830 -1.09543 -0.45838 0.53143 -1.09983 1.23539 0.73888 -0.05097 -0.15956 -0.53311 1.08524
com.google.gson.stream.jsonreader 0.37883 0.17583 0.42985 0.57105 0.02816 -0.12706 0.36663 0.62809 -0.83897 0.61189 -0.03742 -0.05708 0.65174 0.46164 0.05785 0.60301 -0.37896 -0.08447 -2.03412 -0.58000 1.45291 -0.21827 -0.34059 0.23765 0.23795 -0.11634 -0.18988 0.23494 1.03212 0.21532 -0.38184 -0.66609 0.98822 0.43323 -0.08907 0.95462 0.48987 -0.08165 1.02195 -0.70678 -1.30071 0.43427 0.20395 -0.25295 -0.14062 0.09490 -0.09543 -0.60695 -0.29680 0.63882
com.google.gson.reflect.typetoken 0.12867 0.26861 -0.00585 0.52978 0.33106 -0.06519 -0.00180 0.51250 -0.89377 0.23630 -0.05680 -0.55633 0.21474 0.38603 -0.56951 0.67314 -0.92093 -0.55220 -0.47703 -0.24906 0.17512 -0.26169 -0.19541 0.58577 0.48562 0.15973 -0.19866 -0.06587 0.34360 0.34904 -0.49387 -0.07608 0.62204 0.14492 -0.04354 0.80789 1.49843 -0.53247 0.39516 -0.11748 -0.89403 0.47032 -0.49814 -0.36231 -0.29481 0.22113 -0.06454 -0.78266 -0.11931 0.15527
com.google.gson.stream.jsonreader.endarray() 0.25313 0.75336 0.10821 1.08298 -0.51624 -0.00875 0.56268 0.56482 -0.76092 0.43830 0.25972 0.25885 -0.13137 0.71634 -0.57261 -0.76172 -0.95620 -1.27922 -0.89287 -0.24990 0.28456 -0.04355 0.01521 -0.09274 0.37857 -1.07822 -0.69851 0.25628 0.34721 -0.03350 -0.17246 -0.97469 0.86366 0.36871 0.15274 0.14844 1.19620 0.10916 0.00964 -1.03313 -1.44318 0.00404 0.38358 -0.24456 0.09992 0.68523 -0.02307 -0.20519 -0.81623 0.74149
com.google.gson.internal.bind.jsontreereader 0.03732 0.06218 -0.16434 0.08101 0.14520 -0.10429 -0.14977 0.19645 -0.28777 0.17917 0.00946 -0.23434 0.05077 0.10014 -0.05614 0.11748 -0.36102 -0.20835 -0.21016 -0.16663 0.09164 -0.16387 0.03865 0.09224 0.14056 -0.17125 -0.05503 -0.09595 0.18681 -0.01163 -0.15234 -0.11456 0.12001 0.40658 -0.06215 0.01258 0.47444 -0.05938 0.07274 -0.07713 -0.70230 0.10550 0.01445 -0.35521 0.08709 0.14674 -0.20475 -0.33830 -0.14861 0.28803
com.google.gson.stream.jsonreader.setlenient() 0.10917 0.47402 -0.06049 0.30202 0.71159 -0.15891 0.29585 0.80011 -0.95903 0.76133 -0.15899 -0.26320 0.82759 0.24384 -0.26299 0.54758 -0.58875 -0.81575 -0.87254 -0.73583 1.06421 -0.46319 -0.75445 0.52574 0.41478 0.24199 0.08461 -0.20252 1.19681 0.44115 -0.51613 -0.22433 0.02365 0.82313 -0.21995 0.52164 1.06990 -0.30006 0.08081 -0.05109 -0.83400 0.67383 -0.21928 -0.41557 -0.56337 0.26800 -0.44097 -0.75161 -0.11453 0.63684
com.google.gson.jsonarray.size() 0.53932 0.09627 0.68047 0.42464 0.21474 -0.18431 -0.64702 0.52143 -0.72948 0.55839 0.25496 -0.49996 -0.10965 0.28641 0.14501 -0.28979 -2.46243 0.14353 -1.08040 -0.89941 -0.60707 -0.30753 0.17566 0.17270 0.49951 -0.39104 0.14298 0.56999 0.67503 0.03874 -0.74851 0.11866 -0.14650 1.24542 0.05881 -0.14425 0.16920 -0.03567 0.51577 -0.47806 -0.99359 -0.75598 0.43623 -0.44750 0.94454 0.71342 -0.58484 0.07555 -0.50539 0.41387
com.google.gson.stream.jsonreader.endobject() -0.09635 0.28265 0.53797 0.40058 -0.36804 -0.05461 0.50426 0.78140 -1.06035 0.54824 0.17558 -0.51763 0.20962 0.97532 -0.11123 -0.12036 -0.72066 -1.28415 -1.07877 -0.80449 0.51770 -0.74035 0.05971 0.25816 0.08104 -0.57762 -0.53806 0.47310 0.08232 -0.31921 -0.67159 0.05805 0.66669 0.02432 0.40173 0.02708 0.50408 0.11320 0.09579 -0.01208 -1.17966 0.14196 0.08411 0.27380 0.04350 0.43392 0.06939 -0.85839 -0.60179 0.68320
com.google.gson.gsonbuilder.registertypeadapter() -0.48517 0.34938 0.02441 0.36083 -0.50304 -0.98010 -0.09493 0.55412 -0.35694 1.06511 0.54226 -0.60151 0.56622 0.42921 0.44604 0.24790 -1.02492 -0.61532 -1.00348 -0.32923 0.64046 0.15528 0.05992 -0.16196 -0.02268 -0.05598 0.08275 0.43814 0.12885 0.26378 -0.97825 0.07367 -0.18417 0.69653 -0.16144 0.15366 -0.30409 0.17077 1.04869 -0.09962 -1.26666 0.03868 1.22892 -0.68531 0.50162 0.04695 -0.32236 0.07753 0.12203 0.91566
com.google.gson.stream.jsonreader.nextboolean() 0.24970 0.99832 0.24084 0.23805 -0.62915 -0.51069 -0.05631 1.30744 -0.80500 0.54000 -0.39010 -0.20575 0.25453 0.70027 0.04941 -0.07848 -0.63567 -1.18504 -0.15817 -0.96154 0.41273 -1.10858 -0.02086 0.37561 -0.46785 -0.51818 0.04670 0.35902 0.60080 0.17640 -0.68203 -0.17812 0.45170 0.29608 0.61309 0.09925 0.78579 0.17351 -0.68217 -0.41338 -1.56914 0.34964 0.17965 -0.35147 0.03587 0.70787 -0.07549 -0.69955 -0.92556 1.41792
com.google.gson.gsonbuilder.create() -0.89135 0.21534 0.00683 0.55544 -0.46771 -1.00377 -0.22694 0.29204 0.05836 0.92460 0.26144 -0.59463 0.39324 1.07996 0.64957 0.46171 -1.14589 -0.65725 -1.28386 -0.38810 0.46922 0.38912 -0.07954 -0.14558 -0.24317 0.25527 0.28910 0.24153 0.34172 0.19215 -1.09442 -0.45762 -0.17021 0.68994 -0.21080 0.54591 -0.36115 0.19149 0.61111 -0.29759 -1.33642 0.19556 1.42282 -1.30146 0.64843 -0.15217 0.19367 -0.41210 0.13805 0.90597
com.google.gson.stream.jsonwriter.setlenient() 0.22048 0.38249 0.29030 0.45169 1.26958 -0.26288 0.39455 0.81802 -0.96548 1.60604 -0.44511 0.14512 0.87283 0.19187 0.27063 0.12158 -0.28944 -0.69123 -0.91153 -0.31087 1.14806 -0.04952 -0.70378 0.29006 0.21391 0.40783 0.15985 -0.26695 1.56492 0.70982 -0.45147 -0.70647 0.10017 1.00821 -0.27336 0.72374 1.01971 -0.31352 -0.07178 -0.29702 -1.16118 0.79222 -0.34258 -0.67321 -0.42861 0.17883 -0.51889 -0.40013 -0.19699 0.77266
com.google.gson.jsonelement.isjsonobject() 0.24319 0.08625 0.80047 0.34993 0.33774 -1.16905 0.14774 0.02014 0.05279 0.57020 -0.04293 0.26142 0.20336 0.03493 -0.13832 -0.45829 -1.34338 0.06217 -0.47048 -0.76271 0.21898 -0.17224 0.49393 0.24997 -0.09533 -0.60403 -0.50367 1.07997 0.68231 0.03553 -0.23508 0.18389 -0.08557 0.58675 0.12809 0.33423 0.49480 0.06306 0.26762 -0.62505 -1.41880 -0.33602 -0.11301 -0.56950 0.18960 0.15938 -0.67450 -0.36909 -0.30948 0.60785
com.google.gson.internal.bind.jsontreewriter -0.10328 0.45400 -0.15865 -0.13226 0.46348 0.30486 -0.13741 1.03116 -0.59715 1.34935 0.14508 -0.09617 0.72133 0.33070 -0.07604 0.62075 0.42699 -0.44537 -0.44085 0.08858 1.08034 0.07561 0.16801 0.39427 -0.22343 -0.26302 -0.08567 -0.16148 0.92048 0.12183 -0.93277 0.18723 0.56229 0.49718 0.06114 0.94780 0.71499 -0.60836 0.23052 0.10090 -1.48329 0.83132 -0.13903 -0.22090 -0.08805 0.20778 -0.32564 -0.13058 -0.39749 0.45852
com.google.gson.jsonelement.getasstring() 0.26026 -0.22630 0.88165 0.35063 -0.33839 -0.51868 -0.38634 0.33215 -0.49044 0.81811 0.03758 0.02305 0.70406 -0.33092 0.01731 -0.01479 -1.15187 -0.68798 -0.45291 -0.74875 0.08461 -0.15906 0.22278 -0.03355 -0.43842 -0.36130 -0.30211 0.92701 0.92306 -0.32047 -1.11822 0.03038 -0.39876 1.43292 -0.60901 0.15351 -0.04330 -0.24055 -0.34301 -0.16852 -0.38708 0.10780 -0.05031 -0.84998 0.15807 -0.11855 -0.59125 -0.49203 -0.51393 0.83390
com.google.gson.stream.jsonwriter.close() -0.08496 0.30991 -0.19197 0.23204 -0.14549 -0.19549 -0.07812 0.29739 -0.24596 0.09816 0.05030 -0.06304 0.14650 0.27594 0.18990 0.07398 -0.35844 -0.32481 -0.27764 -0.24108 0.45331 -0.07413 0.12419 -0.32070 0.08021 -0.09846 -0.14053 -0.00869 0.07123 -0.07663 -0.22430 0.07980 -0.11033 0.20898 0.16769 -0.00828 0.25775 -0.11157 0.12058 0.11661 -0.64143 0.27473 -0.00600 0.01392 0.19524 0.03271 -0.07228 -0.13236 0.04679 0.60167
com.google.gson.internal.bind.jsontreewriter.value() 0.00152 -0.00123 0.00810 -0.00761 -0.00539 -0.01071 -0.01060 0.00360 -0.00078 0.01048 -0.00324 0.00884 0.00247 0.00409 0.00060 0.00147 0.00566 -0.00181 0.00368 0.00217 -0.00859 -0.00036 0.00339 -0.00168 0.00362 -0.00461 -0.01239 0.00768 0.00326 -0.00456 -0.00154 0.00752 -0.00538 0.00176 -0.00788 -0.00396 0.00347 0.00304 -0.00385 -0.00212 -0.00378 -0.01116 0.00357 0.01050 0.00256 -0.00214 -0.00880 -0.00347 0.00382 -0.00318
com.google.gson.gson.tojsontree() -0.13346 0.03851 0.07124 0.35121 0.18025 -0.39119 -0.32292 0.12653 0.00009 0.18774 0.24279 -0.03086 0.36142 0.26144 -0.01134 0.07396 -0.56224 -0.14711 -0.73000 -0.25338 0.58169 -0.02934 0.23740 -0.32635 0.07663 0.02016 -0.15522 0.20740 0.18543 -0.05581 -0.42626 -0.02658 -0.08624 0.58440 -0.51191 0.09830 0.36432 0.02870 0.33378 -0.36996 -0.67170 -0.05898 0.06244 -0.57454 0.22811 0.04348 -0.26830 -0.28182 0.08731 0.36327
com.google.gson.jsonobject.has() 0.33941 0.39402 0.98480 -0.25949 0.84962 -1.33116 0.07437 -0.23511 -0.44405 0.28493 0.27692 0.25028 0.48849 0.11225 0.09957 -0.24016 -2.08865 0.11525 -0.72762 -1.13048 -0.44585 -0.32164 0.35974 0.43346 0.04556 -0.15440 -0.57933 1.51151 1.13995 -0.11881 -0.41971 0.49014 -0.07090 0.99336 -0.58908 -0.33521 -0.13065 0.59012 -0.17736 0.55857 -1.49840 0.02576 0.03525 -0.85999 -0.04006 0.19244 -1.43878 -0.69592 -0.27282 0.28886
com.google.gson.stream.jsonreader.nextint() -0.04164 0.84186 0.16961 0.36821 -0.81352 -0.80059 -0.00068 1.01473 -0.70776 0.18627 -0.08058 -0.06148 0.19265 1.04099 0.44241 -0.31941 -0.92697 -1.66730 -0.24668 -1.27763 0.31101 -0.98935 0.20646 0.50900 -0.16900 -0.73225 -0.47884 0.69544 0.01824 0.03405 -0.71789 0.02714 0.58601 0.19649 0.51404 0.15777 0.81546 0.32304 -0.50952 -0.26276 -1.53865 0.27258 0.62684 -0.48761 0.01978 0.32518 0.11079 -0.75696 -0.76603 1.40364
com.google.gson.jsonelement.getasjsonarray() 0.43850 0.09894 0.45209 0.27238 0.66820 -0.86856 -0.03009 0.14759 -0.11821 0.30958 -0.23050 -0.31247 0.27186 -0.16286 -0.03752 -0.09990 -1.62243 0.45443 -1.06760 -0.48400 0.14679 -0.34662 0.10533 -0.06096 0.04756 -0.71445 -0.06865 0.97570 0.76380 0.17629 -0.48842 0.14087 -0.51334 1.22571 0.02614 0.36981 0.25413 0.23063 0.60683 -0.75711 -1.19439 -0.69311 -0.02851 -0.48236 0.54951 0.41879 -0.42151 -0.27538 -0.21198 0.54231
com.google.gson.jsonobject.getasjsonarray() 0.13501 -0.06037 0.29200 0.82422 0.10406 -0.19063 0.03267 0.02255 -0.48312 0.12323 0.14200 -0.10916 0.32863 -0.12227 -0.10328 -0.08477 -2.00624 -0.29677 -0.91434 -0.58961 0.15646 -0.17456 0.32180 0.09701 0.12110 -0.12718 -0.23770 0.57229 0.33503 -0.25806 -0.08060 0.31145 -0.21059 0.71807 -0.32721 -0.22886 0.69095 -0.03226 0.00455 -0.25644 -1.06350 -0.26899 0.36175 -0.62999 0.27784 -0.02428 -0.39588 0.08331 0.02069 0.71146
com.google.gson.internal.bind.jsontreewriter.beginarray() 0.00535 0.00481 0.00179 -0.00634 -0.00448 -0.00340 -0.00285 -0.00873 -0.00348 0.00448 0.00071 -0.00105 0.00149 -0.01324 -0.00546 0.00058 0.00727 -0.00318 -0.00294 -0.00724 0.00945 0.00233 -0.00597 0.00133 0.00759 0.00363 0.00061 -0.00408 -0.00718 -0.01161 -0.00846 0.02042 -0.00335 0.00065 0.00908 0.00177 0.00052 -0.00402 -0.00528 0.00142 -0.00200 0.00220 0.00648 0.00466 0.00185 -0.00060 -0.00136 -0.00055 -0.01086 0.00827
com.google.gson.internal.excluder 0.14407 0.39406 -0.36780 0.32650 1.01595 -0.40520 0.43650 0.54481 -0.72827 1.48455 0.29306 -0.04980 0.17400 -0.14475 -0.96718 0.28321 -1.11793 0.07672 0.01406 -0.59594 0.26264 0.30465 0.06282 -1.05855 -0.91953 -0.19257 0.16183 -0.81934 1.07195 -0.04254 -0.40194 -0.89343 -0.14463 1.28023 -0.17386 -0.00798 0.62217 0.24182 0.08103 0.70396 -1.61467 0.03826 -0.03875 -0.45939 1.00977 -0.37722 -0.98536 -0.02804 -0.19702 0.66238
com.google.gson.internal.streams.parse() 0.40850 0.52300 0.32908 0.35030 0.49338 -0.20771 0.02903 0.63818 -0.98715 1.15746 -0.45543 -0.15483 1.07268 0.19883 -0.59586 0.40810 -0.77635 -0.89254 -0.98692 -0.67885 1.34500 -0.48240 0.17466 0.58590 -0.00266 0.39764 -0.34791 0.52245 0.93964 0.31976 -0.76395 0.80432 -0.03531 0.80180 -0.28562 0.71410 0.62697 -0.10771 0.35888 0.02732 -0.92269 0.67833 -0.55077 -0.11403 -0.22457 0.52824 -0.40475 -0.45167 -0.23236 0.42321
com.google.gson.internal.constructorconstructor.get() 0.43409 0.06536 -0.15771 0.18051 0.73205 -0.42136 0.35847 0.56612 -0.65317 0.53126 -0.14404 -0.92835 0.82768 0.42107 -0.22392 0.64636 -1.67689 -0.10559 -1.03549 -0.47511 -0.03490 -0.34011 -0.31654 0.96822 0.12716 0.02588 -0.03278 -0.29672 0.96383 0.80129 -0.22480 -0.00647 0.55304 0.60662 0.72418 0.30236 1.45057 0.33092 0.26020 0.28485 -1.74880 0.46232 -0.35465 -1.17721 0.01218 0.13560 0.07660 -0.48005 0.22551 0.39388
com.google.gson.jsondeserializationcontext.deserialize() 0.05197 -0.46369 0.36366 0.64105 0.14981 -0.17871 -0.43794 0.21148 -0.35561 0.09160 0.12583 -0.51053 0.45543 0.12243 0.32930 -0.38189 -1.24271 -0.46816 -0.81875 -0.48791 0.48071 0.21617 0.13348 -0.18520 0.30142 -0.05341 -0.18981 0.94375 0.61839 -0.16278 -0.52574 -0.02542 -0.25185 0.98148 -0.35481 -0.09527 0.25889 -0.23451 0.03709 -0.39264 -1.00362 0.03668 -0.03327 -0.69347 -0.12059 -0.12228 -0.20576 -0.13036 0.18858 0.77877
com.google.gson.stream.jsonwriter.sethtmlsafe() 0.10512 0.67333 -0.00053 0.54910 1.22862 -0.20080 0.52987 0.94017 -0.54720 0.96147 -0.52847 0.47534 0.91751 0.32067 0.35298 0.31546 -0.20552 -0.53606 -0.96482 -0.57725 1.05343 0.03331 -0.51765 0.33631 0.41629 0.39213 -0.04567 -0.27078 1.70478 0.62196 -0.60089 -0.54580 0.06113 0.68285 -0.15724 0.72912 1.12747 -0.55832 -0.30217 -0.42561 -0.84618 0.70597 -0.53078 -0.83462 -0.53972 -0.20498 -0.72641 -0.19557 -0.41290 0.82876
com.google.gson.jsonstreamparser.next() 0.00546 -0.00073 0.00055 -0.00500 -0.00387 -0.00492 0.00229 0.00423 0.00406 0.00091 -0.00207 0.00917 0.00610 -0.00529 -0.00720 -0.00140 -0.00146 -0.00789 -0.00533 0.00131 0.00943 -0.00702 0.00157 0.00163 -0.00102 -0.00105 0.00390 -0.00393 -0.00428 -0.00349 0.00878 -0.00776 0.00195 -0.01243 0.00458 0.01322 0.00168 -0.00265 0.00927 0.01147 0.00751 -0.00118 -0.00250 -0.00403 0.00067 0.00908 0.00181 0.00775 0.00714 0.00075
com.google.gson.jsonstreamparser.hasnext() 0.00725 0.00670 0.00192 0.00130 0.00696 -0.00688 -0.00394 -0.00674 0.00395 0.00487 0.00468 0.00035 -0.00412 0.00441 -0.00113 0.01116 -0.00131 0.01398 -0.00110 -0.00421 -0.00564 -0.00459 -0.00267 0.00806 -0.00706 0.00824 -0.00537 0.00191 -0.00615 -0.00567 -0.00533 -0.00069 0.00966 -0.00484 -0.00561 0.00319 0.00571 0.00049 0.00278 -0.00127 -0.00629 -0.01842 0.00631 -0.00224 0.00120 0.00115 0.00275 -0.00263 0.00206 0.00400
com.google.gson.internal.linkedtreemap -0.14833 0.25694 -0.27023 0.40660 0.06357 0.12197 0.26325 0.20042 -0.26560 -0.09559 -0.15316 0.08123 0.26512 0.22654 0.09336 0.11659 -0.40212 -0.34735 -0.50527 -0.27742 0.00553 -0.02140 0.06665 -0.04966 0.03497 0.05329 0.03565 0.13542 0.01708 -0.32747 0.02463 -0.17978 0.00841 0.29392 -0.14239 0.15110 0.19460 -0.35660 -0.11515 -0.12881 -0.30671 0.15430 0.16854 -0.19645 0.10896 0.07878 -0.15426 -0.08392 0.03101 0.34918
com.google.gson.codegen.functional.order -0.11254 0.05757 -0.40520 0.27949 0.11605 0.01150 0.16963 0.01700 -0.20474 0.26618 -0.02510 -0.02871 -0.01665 0.11422 0.04266 -0.05433 -0.44934 -0.22281 -0.08784 -0.15702 -0.00156 -0.14072 -0.03805 -0.04936 0.12881 -0.05918 -0.20090 -0.01596 0.26223 -0.27536 -0.09162 -0.15469 0.04055 0.26005 -0.20636 0.02208 0.30421 -0.18870 0.11307 0.07598 -0.60740 0.15930 0.01653 -0.22058 0.40670 0.18570 -0.11959 -0.20101 -0.14727 0.38015
com.google.gson.jsonelement.isjsonarray() 0.15999 0.12562 0.74128 0.51253 0.18622 -1.09410 0.00878 0.02711 -0.08371 0.35513 0.06568 0.07644 0.02274 0.21092 -0.26365 -0.24439 -1.22194 0.03771 -0.57616 -0.73555 0.18384 -0.41429 0.16348 0.24862 0.09425 -0.57206 -0.38766 0.95295 0.63515 -0.07213 -0.40618 0.14377 -0.28782 0.49017 0.07715 0.77134 0.19387 0.18427 0.26324 -0.71113 -1.32290 -0.15904 -0.02020 -0.59584 0.44541 0.43904 -0.40146 -0.53345 -0.27515 0.78954
com.google.gson.stream.jsonreader.nextdouble() 0.24651 0.57991 -0.16679 0.18822 -0.54775 -0.39605 0.03509 0.90852 -0.85774 0.40317 -0.00338 -0.54972 0.04396 0.81891 -0.48858 -0.40853 -0.40907 -1.11660 -0.12479 -0.58987 0.43462 -0.98297 -0.08945 0.21001 0.25002 -0.38182 -0.69053 -0.06949 0.02249 0.10345 -0.72180 -0.85497 0.60660 0.11707 0.44233 -0.25495 1.14084 -0.10371 0.09700 -0.44242 -1.42620 0.37571 0.19028 0.02157 0.25918 0.79137 -0.32070 -0.99670 -0.57867 0.80097
com.google.gson.stream.jsonreader.skipvalue() -0.22044 0.51585 0.11475 0.28421 -0.38347 -0.13402 0.15862 0.70685 -0.82675 0.72042 0.08936 0.13426 0.14892 0.74334 -0.17853 0.09074 -0.28811 -1.00862 -0.27903 -0.84008 0.37208 -0.77603 -0.09070 0.17801 -0.22912 -0.34779 -0.34108 0.13076 0.36722 -0.47369 -0.53686 0.33846 0.47432 -0.24276 0.66788 0.39465 0.51919 -0.14213 -0.09005 -0.11046 -1.24214 0.53123 -0.05487 0.06107 0.03715 0.53139 -0.08909 -0.63180 -0.63076 0.77192
com.google.gson.internal.linkedhashtreemap -0.00260 -0.00209 -0.00886 -0.00181 -0.00403 0.00279 0.00723 0.00329 0.00331 -0.00438 0.00072 0.00393 0.00682 0.00701 -0.00658 0.00422 -0.00069 0.00417 -0.00287 -0.00248 -0.00009 -0.01367 -0.00320 0.00520 0.00435 0.00066 -0.01294 0.00226 0.00046 -0.00065 0.00273 -0.00500 -0.00475 -0.00465 -0.00002 0.00451 -0.00299 0.00126 0.00009 0.00285 0.00981 0.00833 -0.00444 0.00046 0.00742 -0.00500 -0.01115 -0.00513 0.00131 -0.00240
com.google.gson.jsonelement.isjsonnull() 0.03613 0.18012 1.04965 0.02983 0.45507 -0.77416 -0.14821 -0.04619 -0.04361 0.30480 -0.41768 0.14082 0.65260 0.05140 -0.27424 -0.05214 -1.19187 -0.14333 -0.64778 -0.98767 0.23095 -0.48544 0.42708 0.30151 0.10051 -0.50764 -0.28903 1.16478 1.17460 0.34538 -0.44613 0.97774 0.24312 0.65706 -0.13375 0.75517 0.47759 -0.17645 0.45456 -0.48098 -1.65631 -0.15012 -0.33970 -0.35461 0.06579 0.34689 -0.78718 -0.63103 -0.35475 0.16523
com.google.gson.jsonelement.isjsonprimitive() -0.06777 0.08558 0.96184 0.05324 0.45258 -0.81522 -0.24637 0.25744 0.28020 0.50807 -0.11703 0.26606 0.28137 0.25476 0.03705 -0.30982 -0.67261 0.17734 -0.53640 -0.48618 0.63831 -0.10623 0.19157 0.26407 -0.45402 -0.43966 -0.02499 1.01644 0.96505 -0.08961 -0.55507 0.33304 -0.15362 0.41490 0.36808 0.27144 -0.12734 -0.14133 0.21971 -0.42722 -1.70925 0.07020 0.03654 -0.74590 0.05236 0.43449 -0.64500 -0.77368 -0.45749 0.55941
com.google.gson.jsonelement.getasjsonprimitive() 0.11060 0.09837 0.89391 -0.10819 0.47058 -0.61612 -0.24932 0.55078 0.12754 0.57678 -0.08425 0.12741 0.49117 -0.04732 -0.04789 0.06950 -0.35982 0.14734 -0.80955 -0.72808 0.73659 -0.20854 0.15880 0.59689 -0.36463 -0.51608 -0.00876 1.06079 0.99881 -0.02926 -0.69738 0.30862 -0.20878 0.89393 0.06864 0.27212 -0.17520 -0.18692 -0.09293 -0.49415 -1.38412 0.05287 0.19207 -0.43455 -0.16012 0.22797 -0.89213 -0.83971 -0.51720 0.72083
com.google.gson.pair 0.25658 0.59319 0.12399 0.35227 0.61249 0.25750 0.24201 0.40785 -0.63203 0.57690 0.62140 -0.41702 0.33129 -0.02291 -0.51713 0.49727 -0.48159 0.07909 -0.21573 -0.06430 -0.47875 0.11723 -0.14255 0.19446 0.19414 -0.30559 -0.29412 0.38892 0.56440 -0.20817 0.15660 0.28152 0.05874 0.96613 -0.04841 0.56667 0.09786 -0.33003 -0.03306 -0.13645 -1.12560 -0.14370 -0.27413 -0.52042 0.95446 0.47201 -0.26474 0.12063 -0.33313 -0.45798
com.google.gson.jsonparser.parse() -0.10858 0.06730 0.51588 0.15846 -0.06809 -0.82107 -0.44625 0.10819 0.15958 0.46682 0.36542 -0.07797 0.50573 0.27120 0.13586 -0.25465 -1.27298 -0.29638 -0.77869 -0.62124 0.38959 -0.00707 0.43773 -0.25050 -0.04675 -0.41437 -0.37286 0.85278 0.49110 -0.11616 -0.59042 0.27502 -0.51852 0.91206 -0.42023 0.12566 0.17251 0.12227 0.56268 -0.22907 -0.85734 -0.24401 0.31708 -0.53885 0.52673 -0.08106 -0.48544 -0.41674 0.12920 0.58504
com.google.gson.jsonserializationcontext.serialize() 0.00797 0.00173 -0.02580 0.02762 0.22273 -0.38361 -0.41036 0.23231 -0.13107 0.32783 -0.02936 -0.19067 0.29617 0.10427 0.09010 0.03844 -0.45599 -0.20586 -0.36794 -0.08467 0.44618 0.04315 0.34521 -0.05910 0.00687 -0.14577 0.03675 0.14689 0.36932 -0.02182 -0.32601 0.06291 -0.18737 0.61976 -0.15121 0.15640 0.41827 -0.10020 0.19441 0.01557 -0.91983 0.04351 -0.13145 -0.47472 -0.03523 0.10945 -0.23776 -0.20036 -0.05256 0.41016
com.google.gson.internal.bind.jsontreewriter.endarray() -0.00280 -0.00039 0.00040 -0.00409 0.01404 -0.00247 -0.00494 0.00182 -0.00501 0.01195 -0.00460 -0.00239 0.00025 -0.00169 -0.00371 -0.01023 -0.00326 0.01145 -0.00343 -0.00483 -0.00831 -0.00295 -0.00162 -0.00155 -0.00287 0.00059 0.00109 0.00238 0.00693 -0.00448 -0.00200 -0.01014 0.00562 -0.00474 0.00355 -0.00131 -0.00671 0.01656 -0.00377 0.00084 0.00656 0.00606 -0.00204 -0.00671 -0.00203 -0.00479 0.00251 -0.01060 0.00032 0.00217
com.google.gson.internal.bind.jsontreewriter.beginobject() 0.02233 -0.00431 -0.00855 -0.00404 -0.01935 -0.00109 0.00833 0.00334 -0.00354 -0.00285 -0.00130 0.00554 -0.00175 0.00490 -0.00108 0.00915 -0.00361 0.00213 0.00015 0.00126 0.00163 0.00004 0.00040 -0.01221 -0.00256 0.00726 -0.00777 0.00473 0.00190 0.00592 -0.00515 0.00301 0.00709 0.00457 0.00200 -0.00227 0.00194 -0.00418 0.00373 -0.00207 -0.00317 -0.00723 -0.01126 0.00426 0.00701 -0.00197 0.00451 0.00256 -0.00662 0.00115
com.google.gson.internal.bind.jsontreewriter.name() 0.00440 0.00205 0.00907 0.00279 0.00432 0.00291 -0.00301 0.00584 -0.00161 -0.00593 0.01189 0.00279 0.00344 0.00883 -0.00209 0.00488 0.00075 -0.00060 -0.00232 -0.00147 0.00047 -0.00469 -0.00218 -0.00344 0.00165 0.00179 -0.00016 0.00287 0.00012 0.01616 0.00130 -0.00046 -0.00575 0.00659 0.00256 0.00043 0.00901 0.00969 -0.01474 -0.00284 0.01093 -0.00052 -0.01163 -0.00233 -0.00757 0.00805 0.00691 -0.00592 0.00828 -0.00070
com.google.gson.internal.bind.jsontreewriter.endobject() 0.00569 -0.00869 0.00322 -0.00105 0.00651 -0.00025 0.00902 0.00293 -0.00013 0.00777 -0.00733 0.00310 0.00186 0.00470 0.00560 -0.00541 0.00547 0.00000 -0.00364 -0.00547 0.00363 -0.00002 0.00045 0.00614 0.00293 0.00197 0.01046 -0.00589 0.00795 0.00462 0.00472 -0.00531 0.00777 -0.00448 0.00438 -0.00463 -0.00037 -0.00923 0.00528 0.00164 0.00052 -0.00619 -0.00698 -0.00531 0.00270 0.00994 0.00506 -0.00144 0.00198 0.00381
com.google.gson.internal.streams.write() -0.34749 0.30735 0.25509 0.53532 0.72160 -0.31488 0.43352 0.22187 -0.67522 1.42378 -0.34481 0.18173 1.15746 0.10036 -0.06313 -0.34682 -0.90731 -1.19090 -1.17825 -0.39466 1.37514 0.34551 0.00795 -0.26831 -0.02077 0.24378 -0.09696 0.03379 1.22437 0.15180 -0.19015 0.26975 -0.29074 0.64196 -0.03702 0.52029 1.27340 -0.09673 -0.04994 0.44893 -1.67941 0.70736 -0.47855 0.16778 -0.54005 0.56495 -0.34187 0.09923 -0.12580 1.15109
com.google.gson.stream.jsonwriter.ishtmlsafe() -0.06332 0.82259 -0.14142 0.52064 1.06530 -0.36024 0.47928 0.67214 -0.25329 0.54800 -0.77207 0.42928 0.64298 0.22221 0.22752 0.26824 -0.56886 -0.12556 -0.79907 -0.77749 0.68588 -0.29710 -0.82023 0.14137 0.57371 0.44785 0.06095 -0.26792 1.14944 0.37071 -0.24681 -0.70266 -0.11938 0.73903 -0.32681 0.10961 0.89018 -0.51524 -0.44951 -0.06986 -0.77226 0.70629 -0.53473 -0.99639 -0.47053 -0.17959 -0.79735 -0.19433 -0.08602 1.04548
com.google.gson.internal.excluder.excludeclass() 0.00540 0.38173 -0.14836 0.47956 0.11307 -0.37946 0.34881 0.36328 -0.28303 -0.50709 -0.15416 -0.44217 0.03609 0.60859 -0.01165 0.29853 -1.12262 -0.07776 -0.42286 -0.36852 0.35486 -0.39976 0.26047 0.58701 0.60035 0.21618 -0.04516 0.68008 0.26922 -0.13972 -0.12178 0.52778 0.57307 0.05451 0.43865 0.37594 0.89695 -0.36627 -0.19832 0.64570 -1.75681 0.17887 -0.39442 -0.36042 -0.10662 0.07661 -0.32250 -0.33458 -0.17874 0.60363
com.google.gson.internal.bind.typeadapters.newfactory() 0.00806 -0.17639 -0.43088 0.52915 0.01603 -0.36570 -0.28094 0.04844 -0.46767 -0.38934 -1.04672 -0.43519 0.06866 0.78756 -0.47914 0.50949 -0.82236 -0.77007 -0.78065 -0.06283 -0.32461 -0.69010 0.49201 0.66418 0.63774 0.09681 -0.23027 0.39188 0.01424 0.47545 -0.71312 0.10605 1.02443 0.39020 -0.46927 0.74830 1.86187 -0.31277 0.34076 -0.03465 -1.54365 0.41165 -0.56727 -1.04702 0.09406 0.77474 -0.05962 -0.76543 -0.15955 0.43768
com.google.gson.parameterizedtypehandlermap 0.02049 0.89434 -0.86102 0.38071 0.30812 0.51416 -0.21056 0.78716 -0.48138 -0.18113 0.53042 -1.04070 -0.30165 0.83576 0.34658 0.73215 -0.68121 -0.55737 -0.10568 -0.25576 -0.45371 0.35943 0.38214 -0.10416 0.50155 0.22141 -0.19510 -0.37120 -0.41316 -0.17928 -0.23269 -0.39836 0.63089 0.45256 -0.40272 0.46506 0.90027 -0.67077 0.06388 -0.09043 -1.17815 -0.04360 -0.10343 -0.69474 0.84985 -0.03271 -0.08998 0.28687 -0.12810 0.32391
com.google.gson.jsonobject.entryset() 0.34596 -0.08907 0.34704 0.48439 0.42100 -0.79898 0.27929 -0.03669 -0.49172 0.12041 0.19262 -0.15982 0.63114 -0.10546 -0.28637 -0.19582 -2.24159 -0.01697 -0.77305 -0.48687 -0.31126 0.07545 0.30565 -0.27614 0.21252 0.11168 -0.20905 0.71359 0.64892 -0.14596 -0.30007 0.16469 0.11237 0.58176 -0.04610 -0.00020 0.71918 0.06190 0.28957 0.08675 -1.09774 -0.22804 -0.29833 -0.78991 0.24903 0.03005 -0.43955 0.06711 -0.03933 0.54569
com.google.gson.stream.jsonwriter.setindent() -0.00390 0.71783 0.18827 0.27947 0.38384 -0.46222 0.13225 0.81883 -0.26295 0.50995 -0.35182 0.00500 0.16567 -0.12703 -0.01389 0.32595 0.09661 -0.38631 -0.83884 -0.43692 0.89447 -0.33020 -0.17953 0.05976 0.27071 -0.02157 -0.18378 -0.40721 0.83230 0.40211 -0.02325 -0.30033 0.40832 0.58495 0.02093 0.62198 0.73656 -0.32674 -0.37836 -0.53039 -1.20114 0.57802 -0.06266 -0.36907 -0.36885 0.03509 -0.63326 -0.46491 -0.42645 0.82974
com.google.gson.instancecreator -0.16058 0.22322 -0.23649 0.33440 0.78463 -0.19721 0.42520 0.78710 -0.68092 0.72608 0.35316 -0.31688 0.94249 0.43481 -0.19009 0.68461 -1.48044 0.12015 -0.60973 -0.06236 -0.43005 0.30375 0.01916 0.17837 -0.20092 0.23020 0.22909 -0.10066 0.15589 -0.32197 -0.44645 0.21454 0.26000 0.09979 0.54656 -0.18867 0.67174 -0.21250 -0.02670 0.59945 -1.17606 0.56205 -0.28175 -0.99137 -0.15079 -0.20102 -0.20528 0.24286 0.29688 0.45859
com.google.gson.stream.jsonreader.islenient() 0.01196 0.52620 -0.22886 0.43537 0.60686 -0.14835 0.38403 0.79791 -0.95691 0.65532 -0.15033 -0.22622 0.80357 0.21750 -0.32168 0.54441 -0.62535 -0.85877 -0.81628 -0.71329 1.00940 -0.47658 -0.71304 0.43356 0.37672 0.20150 0.02552 -0.34516 1.26694 0.35575 -0.34805 -0.23841 -0.03080 0.78110 -0.23954 0.43142 1.02830 -0.27322 0.01456 -0.02716 -0.79733 0.79449 -0.35269 -0.45848 -0.48314 0.17340 -0.43519 -0.72380 -0.13549 0.69976
com.google.gson.internal.objectconstructor 0.02032 0.16931 -0.20011 0.16464 0.82521 -0.20123 0.38585 0.75268 -0.72830 0.40647 0.02474 -0.70215 1.04526 0.67480 -0.23087 0.77035 -1.33687 0.12678 -0.83628 -0.33271 -0.18074 -0.07096 -0.20326 0.49015 0.02016 -0.01934 0.36647 -0.33509 0.57867 0.10298 -0.26762 -0.11927 0.44952 0.30022 0.69522 0.21094 1.04238 -0.20177 0.11014 0.39715 -1.68266 0.67676 -0.20233 -1.04050 -0.28709 -0.00196 -0.11888 -0.09895 0.61317 0.43971
com.google.gson.defaultdatetypeadapter -0.33442 0.09585 -0.31759 0.46242 0.30303 -0.19540 0.26457 0.23732 -0.38231 0.14068 0.00329 -0.18677 0.00497 0.47146 -0.46497 0.48812 -0.47335 -0.13765 -0.58217 0.05338 -0.14655 -0.02564 -0.17246 0.48774 0.13729 0.27097 0.13928 -0.08628 0.69084 -0.23217 -0.11239 0.22117 0.45031 -0.12574 -0.12455 0.80404 0.61659 -0.40518 0.39032 0.32189 -0.98095 0.46746 -0.00739 -0.21227 -0.10025 0.45590 -0.15333 -0.47243 -0.06562 0.17711
com.google.gson.stream.jsonwriter.islenient() 0.13655 0.67374 0.15331 0.51573 1.00909 -0.46409 0.25936 0.71968 -0.56723 0.45475 -0.52042 -0.02949 0.46513 0.20678 0.07763 0.30667 -0.72790 -0.29168 -0.89947 -0.64658 0.73254 -0.52627 -0.91040 0.19389 0.51218 0.27216 0.16892 -0.46078 0.98414 0.52696 -0.07160 -0.75526 0.15783 0.62290 -0.08509 0.16952 1.04068 -0.32997 -0.30273 -0.34763 -1.13354 0.70458 -0.40575 -0.95007 -0.53071 0.06740 -0.67008 -0.55306 0.02963 0.86101
com.google.gson.stream.jsonreader.nextlong() 0.02907 0.95882 0.10967 0.45547 -0.34609 -0.60323 -0.00692 0.84032 -0.64434 -0.14236 -0.16262 -0.20896 -0.02567 0.73750 0.27805 -0.13282 -0.95687 -1.13547 -0.32108 -0.63807 0.12616 -0.91234 0.31188 0.45756 -0.17906 -0.45633 -0.14281 0.46540 0.15908 0.02333 -0.50988 0.34375 0.75614 -0.01017 0.40955 0.24323 0.70710 0.18802 -0.70061 -0.03826 -1.23734 0.29661 0.11626 -0.81468 0.02130 0.01011 -0.00989 -0.52329 -0.95317 1.12267
com.google.gson.reflect.typetoken.getparameterized() 0.03915 0.16216 -0.46595 0.27805 0.65618 -0.05767 0.06318 0.24223 -0.88726 0.59169 0.37299 -0.47099 0.86078 1.36917 0.11469 0.05139 -1.17621 -0.38658 -0.78786 0.18835 0.39272 0.17731 0.45767 0.18009 -0.05879 -0.49776 0.28891 -0.13424 0.51218 0.36680 -0.75324 -0.38713 0.15498 0.49428 0.84728 -0.26904 0.93980 0.14005 0.33206 0.60377 -2.36466 0.48675 0.44858 -1.17610 -0.15898 0.47982 -0.23362 -0.47874 0.83911 0.41917
com.google.gson.internal.excluder.excludefield() -0.00572 0.00643 0.00129 0.00427 -0.00905 0.00176 0.00671 0.00995 0.00528 -0.00528 -0.00343 0.00265 0.00474 -0.00295 0.00694 0.00404 -0.00519 0.00417 -0.00241 0.00238 0.00728 0.00451 0.00185 -0.01110 -0.00283 0.00754 0.00889 -0.00576 0.00035 -0.00456 0.00648 0.01509 -0.00265 -0.00301 -0.00004 -0.00168 0.00898 -0.00661 -0.00039 -0.00254 0.00718 0.00076 -0.00640 -0.00065 0.00932 0.00869 0.00519 -0.00277 0.00420 -0.00313
com.google.gson.typeadapters.runtimetypeadapterfactory.of() -0.30783 0.34538 -0.33660 0.14350 -0.01418 -0.22756 -0.02176 0.41884 -0.21066 0.52069 0.08100 -0.26654 0.15484 0.58885 0.17245 0.12632 -0.36198 -0.48278 -0.30370 -0.31214 0.11872 -0.05950 -0.08784 -0.04210 0.08000 0.21157 0.05165 0.13315 -0.10114 -0.11926 -0.46623 -0.09734 -0.18246 0.23169 -0.22169 0.04233 -0.04626 -0.11483 0.29649 -0.02541 -0.27947 0.22429 0.41829 -0.36817 0.47502 0.05964 -0.11305 -0.08049 0.23347 0.37441
com.google.gson.fieldattributes -0.12208 0.10517 -0.43914 0.51691 0.23226 -0.10458 0.39270 -0.04391 -0.07820 -0.14872 -0.28354 0.11792 -0.27804 0.19482 -0.45783 0.29528 -1.22899 0.01677 -0.49286 -0.18494 0.09272 -0.15281 0.16528 0.35788 0.35205 0.20391 -0.00966 0.20638 0.39703 -0.37871 0.10118 0.26882 0.12426 0.32817 -0.05072 0.26420 0.90307 -0.51041 0.17597 0.80381 -1.15338 -0.11358 -0.29168 -0.24025 0.36546 0.40553 -0.61760 -0.02935 -0.23600 0.27286
com.google.gson.jsonserializer 0.25758 0.23788 -0.10174 0.03807 0.25102 -0.43552 -0.41443 0.71992 -0.62312 0.61511 -0.04290 -0.72499 0.06302 0.18064 -0.29610 0.73995 -1.19018 -0.54298 -0.19283 -0.42022 0.27357 -0.13840 0.52020 0.00658 -0.28140 -0.05670 0.27129 0.37673 0.15452 -0.04913 -0.77231 0.26653 0.07482 0.60361 0.07568 0.60901 0.51345 0.06714 0.72197 -0.00262 -0.86451 0.20100 -0.11345 -0.71506 0.59137 0.08231 0.46544 -0.30998 0.08895 0.18363
com.google.gson.jsonparser -0.14092 0.03787 0.24634 0.42369 0.05868 -0.68362 -0.34708 0.06104 -0.11396 0.38183 0.21335 -0.23458 0.46318 0.31688 -0.01567 -0.03570 -1.04280 -0.01502 -0.82646 -0.33293 0.60992 -0.14055 0.53498 -0.36578 -0.07785 -0.19653 -0.36209 0.75857 0.14002 0.04382 -0.69952 0.23954 -0.14717 0.80122 -0.61596 0.19851 0.18087 0.23249 0.66498 -0.43066 -0.86894 -0.23030 0.11041 -0.91673 0.48167 0.12597 -0.29182 -0.32212 0.20992 0.71131
com.google.gson.jsonprimitive.isnumber() -0.14176 0.21804 0.27485 0.10119 0.13101 -0.40672 0.08630 0.37392 -0.24107 0.41956 0.08918 0.16446 0.15886 -0.07299 0.03298 -0.00013 -0.56519 -0.10237 -0.15826 -0.62349 0.28091 -0.31603 0.01063 0.16548 0.09344 -0.16320 0.02749 0.49973 0.43416 -0.20537 -0.29127 0.36657 -0.03862 0.29108 0.22402 -0.01186 0.01500 -0.28508 -0.04891 0.01602 -0.95323 0.09703 0.05383 -0.20610 -0.06950 0.03294 -0.62137 -0.52998 -0.26953 0.40052
com.google.gson.objectconstructor 0.05174 0.38151 -0.12338 0.18700 0.86991 -0.15798 0.42014 0.76866 -0.72365 0.45710 0.09296 -0.71607 0.65908 0.61699 -0.21049 0.63882 -1.27668 0.13203 -0.88936 -0.30070 0.09106 -0.15381 -0.21225 0.49597 -0.08032 -0.05680 0.36925 -0.43065 0.42832 0.15243 -0.00088 -0.08628 0.41009 0.24671 0.68305 -0.01204 1.06076 0.05676 -0.07386 0.38384 -1.61054 0.64045 -0.33277 -1.09574 -0.31203 -0.03790 -0.22935 -0.16483 0.41812 0.49946
com.google.gson.jsonprimitive.isstring() -0.13094 0.29066 0.14706 0.11709 0.06867 -0.31005 0.25372 0.40613 -0.24123 0.22333 0.07875 0.12949 0.16565 0.05522 -0.01591 0.02196 -0.46726 -0.10743 -0.00674 -0.69772 0.35438 -0.26688 -0.00955 0.21340 0.25485 -0.11228 0.06265 0.42065 0.59429 -0.20705 -0.29763 0.30031 -0.04309 0.17150 0.20861 0.12709 0.13277 -0.35208 -0.24493 0.16206 -0.89129 0.18252 -0.14090 -0.15623 -0.12668 -0.05879 -0.71600 -0.42323 -0.25252 0.40936
com.google.gson.stream.jsonwriter.getserializenulls() -0.17525 0.69239 -0.22421 0.33683 0.97971 0.02581 0.52560 0.78032 -0.35724 0.67825 -0.51481 0.28841 0.72552 0.08644 -0.02737 0.34247 -0.35558 -0.38669 -0.77496 -0.80077 0.86677 -0.11197 -0.52110 0.07537 0.33618 0.42869 0.22166 -0.23179 1.40772 0.14214 -0.41634 -0.50899 -0.26279 0.92734 -0.42135 0.35757 0.90495 -0.66265 -0.46108 -0.04217 -0.56755 0.62033 -0.52954 -0.49615 -0.42866 -0.05790 -0.80262 -0.14760 -0.23183 0.94396
com.google.gson.internal.streams.writerforappendable() 0.18118 0.58283 0.00859 0.04497 0.76062 -0.25335 0.09060 0.79437 -0.53979 0.80685 -0.51256 0.06103 0.40674 -0.01941 -0.45676 0.71739 0.30108 -0.91875 -0.78718 -0.44957 0.98638 -0.52682 -0.10223 0.30158 -0.18816 -0.10847 -0.13068 -0.65561 1.02231 0.27319 -0.62585 -0.16592 0.59267 0.78090 -0.09321 0.70360 1.06463 -0.36787 -0.49567 -0.52531 -1.09403 0.67437 -0.20526 -0.54646 -0.20712 0.20713 -0.62420 -0.77367 -0.40138 0.57727
com.google.gson.stream.jsonwriter.setserializenulls() -0.16816 0.54261 -0.25788 0.30584 0.89051 0.07409 0.45807 0.82535 -0.50291 0.83156 -0.41860 0.17881 0.84451 0.07441 -0.05212 0.38083 -0.37107 -0.48410 -0.79590 -0.67412 0.93136 -0.11580 -0.47407 0.08482 0.28925 0.45133 0.21914 -0.17575 1.47955 0.06048 -0.47029 -0.36817 -0.25223 0.97242 -0.49245 0.43216 0.87994 -0.65614 -0.41730 0.00736 -0.55181 0.60601 -0.44027 -0.50162 -0.40519 0.03598 -0.73068 -0.16556 -0.21007 0.88386
com.google.gson.jsondeserializer 0.02701 0.12621 -0.35806 0.31801 0.02561 -0.45305 0.17865 0.75385 -0.87949 0.92721 -0.12187 -0.30411 0.38595 0.19295 -0.50658 0.80160 -1.09872 -0.41074 -0.48188 -0.56420 0.53653 -0.03110 0.48561 -0.05920 -0.62089 -0.14954 0.20577 0.07988 0.11436 -0.10844 -0.94083 0.29771 -0.37613 0.56079 0.06600 0.60135 0.43998 -0.14050 0.67741 0.04618 -0.61616 0.15765 -0.04078 -0.31364 0.46844 -0.17843 0.12200 -0.32598 0.16564 0.32764
com.google.gson.internal.primitives.isprimitive() 0.11760 0.22901 0.11105 0.17082 0.69985 -0.64076 0.20224 0.70287 -0.26692 0.38125 -0.05461 -0.43972 0.81784 0.02359 0.14740 0.50386 -1.55904 0.44654 -0.53792 -0.43199 -0.13322 -0.30788 -0.27580 0.40670 0.18507 -0.05525 0.34528 0.04761 0.69403 0.17589 -0.23875 -0.24845 0.10648 0.40466 0.36464 -0.13861 0.78017 -0.25184 -0.38612 0.01527 -1.36115 0.54027 -0.18752 -1.05056 -0.41298 -0.34004 -0.48918 -0.27886 0.09649 0.79492
com.google.gson.internal.bind.treetypeadapter.newfactory() 0.18276 -0.34936 -0.33622 0.65547 0.45290 -0.33022 -0.22682 -0.11504 -0.39620 -0.06726 -0.38752 -0.40416 0.05203 0.59957 -0.51248 -0.27917 -1.04683 -0.77910 -0.92098 0.01101 -0.14736 -0.81477 0.30265 0.39756 0.31510 -0.06913 -0.60686 0.04516 0.17051 -0.21323 -0.49498 -0.03692 0.70202 0.39111 -0.29226 0.50115 1.44528 -0.12447 0.27754 0.03993 -1.44060 -0.04421 -0.26048 -0.46945 0.15281 1.03315 -0.12742 -0.67490 0.01493 0.31855
com.google.gson.objecttypepair 0.14653 0.23919 0.09836 0.19293 0.72585 -0.16719 0.20481 0.39931 -0.24927 0.38584 -0.28359 0.05664 0.16322 -0.02546 -0.33366 0.47346 -0.47473 -0.05201 -0.25136 -0.29983 0.30519 -0.03378 0.47588 0.44792 -0.21576 -0.07192 -0.09280 0.40677 0.55984 -0.12050 -0.43075 0.58588 0.49947 0.40430 0.20834 0.55717 0.39609 -0.21692 0.12326 -0.04636 -0.88868 0.19545 -0.56831 -0.54107 0.09645 0.04189 -0.26440 -0.24431 -0.33767 0.05904
com.google.gson.stream.jsonreader.close() -0.19296 0.30163 -0.39312 0.43089 0.04064 0.09019 0.36784 0.49862 -0.44809 0.16887 0.23940 -0.33309 0.18736 0.02858 -0.14373 0.12333 -0.42612 -0.38893 -0.49379 -0.29769 0.21817 -0.05742 -0.00122 0.21026 0.12118 -0.36490 -0.07761 -0.03421 0.24828 -0.20245 -0.15097 -0.12967 0.13737 0.26478 0.12252 0.26120 0.35472 -0.35219 0.09065 -0.07887 -0.58875 0.01281 0.20793 -0.19376 0.06285 -0.07737 -0.28420 -0.05747 -0.27065 0.25933
com.google.gson.jsonelement.tostring() -0.00021 -0.00610 0.00368 0.00746 -0.00693 -0.00196 0.00713 -0.00534 0.00256 -0.00508 0.00079 0.00612 -0.00665 0.00094 0.00672 0.00146 0.00252 0.01977 0.01020 -0.00040 -0.01316 -0.00701 0.00142 0.00310 -0.00312 0.00402 -0.00079 -0.00309 -0.00640 0.00516 0.00524 0.01110 -0.00415 0.00531 0.00063 0.00524 0.00794 -0.00681 -0.00279 -0.00078 -0.00085 -0.00378 -0.00774 -0.00496 0.00320 0.00373 0.00192 -0.00270 0.00454 0.00170
com.google.gson.typeadapterfactory 0.00006 -0.00048 -0.00763 -0.00212 0.00121 0.00486 -0.00428 -0.00777 0.00697 -0.00698 0.01214 0.00137 -0.00410 0.00610 0.00461 -0.00716 0.00425 0.00178 0.00324 0.00900 0.00113 -0.00395 -0.00928 0.00591 -0.00091 0.00684 0.00185 -0.00174 0.00151 0.00343 -0.00164 -0.00082 -0.00223 -0.00266 -0.00122 0.00263 -0.00427 -0.00679 0.00070 0.00245 -0.00434 0.00200 0.00902 -0.01293 -0.00134 -0.00589 -0.00002 -0.00788 0.00278 0.00455
com.google.gson.internal.bind.treetypeadapter.newfactorywithmatchrawtype() 0.19483 -0.00334 -0.40385 0.41134 0.24509 0.00795 -0.33017 0.26931 -0.60922 -0.15762 -0.50755 -0.57327 -0.00892 0.56603 -0.41535 0.39053 -0.85997 -0.75592 -0.33548 -0.22880 -0.22584 -0.50854 0.36427 0.37155 0.42796 -0.06232 -0.43385 0.01153 -0.12797 0.09458 -0.71412 -0.07399 0.76831 0.26968 -0.23530 0.42692 1.40695 -0.35339 0.34722 -0.07301 -0.96940 0.31849 -0.37427 -0.59826 0.23903 0.52600 0.07250 -0.75831 -0.09314 0.04530
com.google.gson.internal.bind.treetypeadapter.newtypehierarchyfactory() 0.08372 -0.07579 -0.47622 0.42401 -0.03249 -0.00942 -0.15323 0.22831 -0.51710 -0.10813 -0.47914 -0.40225 -0.17527 0.45046 -0.60295 0.58770 -0.98556 -0.59018 -0.17429 -0.09869 -0.57867 -0.29754 0.47709 0.58542 0.37741 -0.06748 -0.41257 0.29425 -0.05858 -0.20176 -0.79706 -0.03257 0.63604 0.21916 -0.15589 0.56639 1.07989 -0.47702 0.42486 -0.01704 -0.91137 0.22698 -0.06991 -0.52822 0.63245 0.54234 0.06020 -0.63883 -0.30989 0.01760
com.google.gson.fieldattributes.getname() 0.16400 0.27665 -0.19703 0.63032 0.15077 -0.04383 0.10176 0.19885 -0.51567 0.22636 0.00234 0.13352 0.14298 -0.07906 0.21791 0.01107 -1.07024 -0.37983 -0.25279 -0.18012 -0.02347 0.41798 0.30445 0.06939 0.10514 0.43485 -0.12610 0.28599 0.08234 -0.63273 0.03710 -0.01971 -0.21805 0.56620 -0.11643 0.16283 0.14068 -0.45734 0.16878 0.04729 -0.62166 -0.06413 0.33750 -0.23308 0.34292 0.22011 -0.11256 -0.30237 -0.23003 0.24664
com.google.gson.common.moreasserts.assertcontains() -0.00473 0.00402 -0.00698 -0.00531 -0.01110 -0.01173 -0.00242 0.00651 0.00078 0.00750 -0.00093 0.01017 0.01190 -0.00817 0.01308 -0.00096 0.00150 -0.00290 0.00714 -0.00035 -0.00212 -0.00468 0.00243 -0.00212 0.00205 0.00889 -0.00220 0.00863 0.00305 0.00669 -0.00402 -0.01625 0.00311 -0.00135 -0.00272 0.00261 0.00289 -0.00214 -0.00716 0.00153 -0.00932 0.00502 0.00481 0.00592 0.00826 -0.00038 0.00160 0.00266 0.00186 0.00883
com.google.gson.internal.javaversion.getmajorjavaversion() 0.00371 0.00780 0.00223 -0.00535 0.00030 0.00359 0.00303 0.00557 0.00809 0.00149 0.00108 -0.00122 0.00173 0.00605 0.00229 -0.01219 0.00137 -0.00833 -0.00575 0.00163 0.00479 0.00699 -0.00424 0.00518 -0.01363 0.00308 -0.00209 -0.00322 -0.00601 -0.00035 -0.01009 0.00416 0.00084 0.00737 -0.00672 -0.00994 0.00805 -0.00044 -0.00667 -0.01033 0.00992 0.00312 -0.00003 0.00365 0.00088 0.00167 0.00170 -0.00044 0.00706 0.00333
com.google.gson.typeadapters.runtimetypeadapterfactory -0.25831 0.34873 -0.27339 0.15571 0.04340 -0.26276 -0.03018 0.42835 -0.10348 0.48094 0.16258 -0.19076 0.05717 0.68458 0.14011 0.14116 -0.43201 -0.60650 -0.26234 -0.41801 0.01687 -0.04654 -0.15092 -0.05879 0.08604 0.21811 -0.01227 0.06220 -0.05686 -0.20583 -0.41498 -0.10192 -0.33704 0.23570 -0.14928 0.06328 0.00130 -0.16154 0.27550 -0.07301 -0.22545 0.21802 0.37508 -0.43048 0.50204 0.01504 -0.10648 -0.13654 0.20687 0.32262
com.google.gson.modifyfirstletternamingpolicy 0.00047 0.00039 -0.00154 0.00898 0.00886 0.00590 0.00651 -0.00331 -0.00442 0.00050 -0.00190 -0.00249 -0.00163 -0.00132 0.00852 -0.00436 -0.00768 0.00565 0.00302 -0.00714 0.00022 0.00369 -0.00559 0.00675 -0.00644 -0.00161 0.00072 -0.00022 0.00166 0.00632 0.00399 -0.00151 -0.00040 -0.01114 0.00205 -0.00352 -0.00693 -0.01188 0.00858 -0.01016 -0.00416 -0.00646 -0.00167 -0.00196 0.00373 -0.00123 -0.00678 -0.00345 0.00864 -0.00166
com.google.gson.internal.javaversion.isjava9orlater() 0.00574 -0.00776 -0.00253 0.00651 0.00068 0.00260 0.00248 0.00012 0.00379 -0.00509 0.00554 -0.00304 0.00542 -0.00741 0.00383 -0.00332 0.00730 0.00424 0.00198 -0.00594 -0.01830 -0.00014 -0.00174 0.00476 -0.00445 0.00531 -0.00475 -0.00980 0.00166 -0.00577 -0.00866 -0.00815 0.00557 -0.00676 -0.01711 0.00112 -0.00149 0.00324 -0.01027 -0.00028 0.00003 -0.00060 -0.00253 -0.00042 0.00453 0.00481 0.00111 -0.00255 0.00612 0.00879
com.google.gson.jsonstreamparser -0.00709 0.00023 0.00324 -0.00489 0.00726 -0.00970 0.00404 -0.00057 0.00038 -0.00378 -0.00174 0.00942 -0.00259 -0.00430 0.00047 0.00315 -0.00630 -0.00440 -0.00670 0.00266 0.00486 0.00157 0.00428 -0.00376 -0.00829 0.00529 0.00628 -0.00787 -0.00657 -0.00105 0.00831 0.00423 0.00285 0.00677 -0.00366 -0.00678 0.00467 -0.00890 0.00533 -0.00179 0.01231 0.00349 -0.00623 -0.00353 -0.00161 -0.01044 -0.00141 0.00332 -0.00322 -0.00022
com.google.gson.gsonbuilder.registertypehierarchyadapter() 0.01451 0.00031 -0.00296 0.00443 0.00145 -0.00724 0.00045 0.00161 -0.00114 0.01129 -0.00703 0.00148 0.01183 0.00500 0.00467 0.00831 -0.00261 0.00263 -0.01241 0.00340 -0.00398 -0.00349 0.00497 0.00623 0.00279 -0.00477 -0.00171 0.00131 0.00966 0.00656 -0.00126 0.00178 -0.00325 0.00248 -0.00392 -0.00026 0.00077 0.00493 0.00137 0.00430 0.00334 0.00487 0.00155 -0.00018 0.00284 0.01079 0.00972 -0.00601 0.00374 0.00600
com.google.gson.internal.unsafeallocator.newinstance() -0.08539 0.20910 -0.19272 0.27654 0.16655 -0.04944 0.12433 0.56005 -0.49750 0.49541 0.28815 -0.11427 0.24981 0.03999 -0.16858 0.33041 -0.35993 -0.46057 -0.34601 -0.22979 0.46559 0.03267 0.14785 0.16079 -0.05399 0.08166 0.02209 0.00234 0.47526 -0.33624 -0.38029 0.07124 0.00022 0.31228 0.06232 0.17330 0.33617 -0.21039 -0.00838 -0.06577 -0.55741 0.23493 -0.11466 -0.31320 0.06915 0.00281 -0.14606 -0.19222 -0.14646 0.32027
com.google.gson.typeadapters.runtimetypeadapterfactory.registersubtype() 0.00320 0.01474 0.00067 -0.00092 0.00116 -0.00134 0.00303 0.00051 0.01048 0.00378 -0.00014 0.01348 -0.00418 0.00306 -0.00225 0.00504 0.00404 -0.00224 -0.00052 0.00991 -0.00781 0.00118 -0.00123 -0.00252 -0.00711 -0.00937 0.00464 -0.00064 0.00315 -0.00481 0.00027 0.00235 -0.00084 -0.00028 0.00218 -0.00209 0.00565 -0.01654 0.01155 0.00354 0.01128 0.00544 0.00352 -0.00766 -0.00397 -0.00336 -0.01147 -0.00137 0.00445 0.00182
com.google.gson.gsonbuilder.setprettyprinting() -0.58855 0.15824 -0.15406 0.56183 -0.44516 -0.82450 -0.07015 0.49512 -0.26451 0.76527 0.50363 -0.57767 0.37033 0.80415 0.37396 0.26459 -0.83756 -0.60888 -0.73771 -0.27262 0.31781 -0.13951 -0.09813 -0.06096 0.21499 0.05130 0.03956 0.09719 -0.03927 0.08337 -0.95709 -0.59839 -0.20488 0.38097 -0.19289 0.19992 0.05258 -0.07226 0.67590 -0.37615 -0.81357 0.23396 0.93280 -0.66077 0.65126 0.06424 -0.12866 -0.33604 0.25964 0.96195
com.google.gson.jsonobject.getasjsonobject() 0.06638 -0.24155 0.51332 0.34698 0.43775 -0.27517 -0.16802 0.28231 0.03409 0.74333 0.01447 -0.28830 0.48952 -0.33725 -0.16348 -0.15953 -1.52084 -0.08074 -0.57430 -0.54613 0.42749 -0.38674 0.18481 0.20945 0.07116 -0.18702 -0.45944 0.50235 0.29965 -0.50721 -0.70730 -0.00734 -0.14901 1.03357 -0.22755 0.00657 0.74373 0.32921 0.23442 -0.43724 -0.81619 -0.12984 -0.28320 -0.79625 0.28085 -0.20385 -0.28599 -0.06499 -0.30974 0.78936
com.google.gson.internal.primitives.wrap() -0.00360 -0.00297 0.00355 0.00162 0.00466 0.00327 -0.00680 0.00322 0.00311 0.01347 0.00059 -0.00322 -0.00756 -0.00444 -0.00099 -0.00213 -0.00587 -0.00591 -0.00362 0.00096 -0.00925 0.00706 -0.00444 -0.00181 0.00899 0.01221 -0.00665 -0.00532 -0.00178 -0.00195 0.00207 -0.00179 0.00310 -0.00341 0.00204 0.00231 0.00119 -0.01287 -0.00261 -0.00691 0.00343 -0.00015 -0.00720 0.00026 -0.00446 -0.00089 0.00346 -0.00586 0.01099 -0.00209
com.google.gson.internal.bind.jsontreewriter.close() 0.00215 -0.00395 -0.00374 -0.00183 -0.00987 -0.00144 -0.00249 0.00026 0.00308 0.00638 0.00373 0.00093 0.00673 -0.00220 0.00364 -0.00237 -0.00606 -0.00117 0.00517 0.00720 -0.00795 -0.00893 0.00567 0.00461 0.00399 0.00777 0.00391 -0.00919 -0.00241 0.00407 0.00496 -0.00474 0.00251 -0.00819 -0.01135 0.00831 0.00967 0.00369 -0.00749 0.00111 0.00508 0.00727 -0.00001 0.00055 0.00263 -0.00778 0.00726 0.00091 0.00497 -0.00471
com.google.gson.internal.bind.jsontreewriter.nullvalue() -0.00661 0.00295 0.00086 0.00121 -0.00132 0.00307 0.00311 0.00472 0.00208 0.00205 0.00326 0.00757 0.00023 -0.01422 0.00353 0.00660 -0.00316 0.00344 0.00761 -0.00331 0.00538 0.00796 -0.00708 -0.01051 -0.00957 0.00597 0.00543 -0.00048 0.00679 0.00611 -0.01159 0.00923 0.00021 -0.00298 -0.00183 -0.00185 -0.00423 0.00283 0.01613 -0.00797 -0.00543 0.00304 -0.00160 -0.00015 -0.00229 0.00175 -0.00049 0.00082 0.00219 0.00450
com.google.gson.internal.lazilyparsednumber 0.06087 0.26641 -0.25174 -0.08403 0.70791 0.15408 0.24083 0.23529 -0.39296 0.31960 -0.22078 0.10957 0.25197 0.11208 -0.82122 0.47932 -0.28782 0.00083 0.05888 -0.21575 0.19900 -0.08513 0.35694 0.13195 -0.33446 -0.21284 0.17321 -0.09066 0.31113 -0.33503 -0.45697 0.15892 0.34256 0.40658 -0.04526 0.47146 0.28791 -0.39047 0.39545 -0.12966 -0.90134 0.15578 -0.27351 -0.25884 0.27965 0.19638 -0.24174 -0.40906 -0.41710 -0.10928
com.google.gson.jsonobject.getasjsonprimitive() -0.13260 0.20784 0.49919 0.49360 0.65983 -0.29747 0.31918 0.20168 0.08056 -0.16558 0.00888 0.41635 0.66600 0.07685 0.16778 -0.04229 -0.97095 -0.10669 -0.89778 -0.50722 0.05716 -0.00362 0.20548 -0.24118 0.27652 0.34056 -0.05231 1.03028 0.28964 -0.32908 0.01870 0.37969 -0.02045 0.45027 -0.57148 -0.03161 0.06241 -0.24646 -0.28993 -0.49145 -0.70762 -0.14074 0.24017 -1.28879 -0.20581 -0.19546 -0.46475 -0.30329 -0.24670 0.46381
com.google.gson.internal.bind.util.iso8601utils.parse() -0.08707 0.39922 -0.38712 0.54756 0.03567 0.24534 -0.08591 0.81627 -0.73542 1.06018 -0.09186 0.19162 0.41093 -0.23446 0.14474 0.64133 -0.09555 -0.94329 -0.44320 -0.31849 1.03545 0.19011 0.39705 -0.00122 -0.19943 -0.21473 0.00357 0.17822 1.10178 -0.42758 -0.58218 -0.08627 -0.21813 1.04782 -0.30032 0.79021 0.44045 -0.63469 -0.26008 -0.06939 -0.72584 0.36735 -0.28145 -0.04104 0.28181 0.21753 -0.25617 -0.18221 -0.67884 0.73154
com.google.gson.internal.unsafeallocator 0.10307 -0.22733 -0.35030 0.21779 0.46904 0.13205 0.15796 0.78598 -0.46945 0.65743 0.36768 -0.43007 0.47764 0.22035 -0.06773 0.85677 -0.76959 -0.35583 -0.62667 -0.21707 -0.04347 0.36123 0.04922 0.18279 -0.18640 0.06694 0.24803 -0.09603 0.58318 -0.07447 -0.38025 -0.19202 0.22831 0.68588 0.02680 0.23219 0.74231 -0.17456 -0.01929 -0.25558 -0.75919 0.33385 -0.09812 -0.67929 0.02646 -0.28064 -0.14438 0.09852 -0.02034 0.14769
com.google.gson.internal.bind.jsontreewriter.get() -0.24416 0.10909 -0.03151 0.06484 0.14842 0.18901 -0.12908 0.70324 -0.75039 1.00091 0.14185 -0.11880 0.49936 0.17317 0.22034 0.46885 0.19768 -0.45327 -0.72038 -0.07461 0.90320 0.09357 0.03215 0.18119 0.15578 -0.43597 0.10625 -0.01398 0.84727 0.01118 -0.79166 -0.28709 0.16411 0.76640 -0.10368 0.69414 0.44329 -0.53368 0.15772 -0.26132 -1.09198 0.67074 -0.08450 -0.18226 0.01622 0.11058 -0.39361 -0.30463 -0.34894 0.58692
com.google.gson.jsonprimitive.getasstring() -0.00567 0.00526 -0.00069 0.00110 0.00242 0.00659 -0.00103 -0.00384 0.00219 0.01980 0.00022 0.00045 -0.00114 0.00206 0.00078 0.00581 0.00591 -0.00477 0.00414 -0.00806 -0.01040 -0.00062 -0.00163 -0.00131 -0.01030 -0.01409 0.01067 -0.00125 -0.00499 0.00567 -0.00091 -0.00907 0.00045 -0.00587 0.00197 0.00009 0.00214 0.00953 -0.00813 -0.00704 -0.00230 0.00240 -0.00643 0.00425 0.00189 0.00546 0.00087 -0.00621 -0.01071 0.00432
com.google.gson.internal.linkedtreemap.entryset() 0.09488 0.10036 -0.12579 0.08280 0.59914 -0.06002 -0.25860 -0.07866 -0.45952 0.58222 -0.05518 -0.28905 0.34096 -0.02171 -0.32295 0.06262 -0.97132 -0.27597 -0.45386 -0.10598 0.45143 0.17754 0.51045 -0.32781 -0.18313 -0.17621 -0.02317 0.17024 0.53057 -0.03350 -0.08376 0.36533 -0.01585 0.64859 -0.28005 0.32372 0.74375 0.00312 0.63796 0.51094 -1.13604 0.14245 -0.34815 -0.30253 0.65561 0.39561 -0.18961 -0.07945 -0.32057 0.34789
com.google.gson.internal.primitives.iswrappertype() -0.00178 0.00822 0.00248 -0.00822 -0.00039 0.00115 0.00902 0.00223 -0.00715 0.00036 0.00368 -0.00541 -0.01203 0.00191 0.00037 0.00030 0.00303 0.00954 0.00631 0.00056 -0.00198 -0.00699 -0.00106 -0.00549 0.00615 0.00453 -0.00323 0.00779 -0.00875 0.00018 -0.00360 -0.00037 0.00166 0.00370 -0.00032 -0.00492 0.01086 -0.00494 0.00569 0.00868 0.00377 0.00427 -0.00362 -0.00073 0.01132 0.00648 0.00564 -0.00121 -0.00018 -0.00024
com.google.gson.cache -0.56176 -0.10777 -0.71796 0.15178 0.23834 -0.17449 0.12073 0.22135 -0.18246 0.59124 0.09562 -0.20018 0.26209 0.13173 0.17485 0.09987 0.05892 -0.01534 0.03280 0.05198 0.36933 0.02514 0.13309 -0.02879 -0.09622 -0.20909 -0.23199 0.29093 0.04598 -0.51413 -0.71531 -0.27297 0.00673 0.36719 -0.08801 0.26678 -0.15452 -0.36410 0.52845 0.24937 -0.57817 0.23085 0.29228 -0.29906 0.46185 0.13556 -0.15814 -0.00516 -0.11510 0.33117
com.google.gson.jsonprimitive.getasnumber() -0.03981 0.44590 0.12215 0.08339 0.13769 -0.31617 -0.00075 0.43490 -0.25574 0.18651 0.10750 0.08383 0.17889 0.10061 0.06167 0.14977 -0.52694 -0.20894 0.05245 -0.64140 -0.04735 -0.29328 0.06302 0.23040 0.00255 -0.11009 0.15942 0.40115 0.27437 -0.23972 -0.20904 0.25063 0.23365 0.07456 0.34443 -0.10939 0.13997 -0.37693 -0.34520 0.08471 -0.86540 0.22688 0.14056 -0.14301 -0.18261 -0.09179 -0.47893 -0.26883 -0.47027 0.50743
com.google.gson.defaultdatetypeadapter.serialize() -0.11589 0.15037 -0.10059 0.08595 0.09057 -0.09196 0.04129 0.14162 -0.10627 0.11684 -0.05003 -0.00549 0.10667 0.09730 -0.01830 0.12796 -0.13457 -0.13793 -0.11836 -0.11669 0.04040 -0.12265 -0.00278 0.04442 0.00230 -0.05190 0.02540 0.09987 0.12993 -0.10892 -0.21356 -0.04094 0.05253 0.18191 -0.05666 0.13542 0.12654 -0.19635 0.01680 -0.00185 -0.31310 0.09437 0.00413 -0.15906 0.13619 0.10260 -0.14074 -0.07706 -0.10863 0.11977
com.google.gson.defaultdatetypeadapter.deserialize() -0.05472 0.07144 -0.09921 0.03987 0.08041 -0.01556 0.01036 0.09966 -0.02375 0.06694 -0.05413 -0.01769 0.04061 0.06226 0.01192 0.03334 -0.07290 -0.07579 -0.05555 -0.08982 0.02577 -0.01018 0.02729 -0.01190 0.03159 -0.00964 -0.00411 0.04417 0.07593 -0.06136 -0.09322 -0.04711 0.01835 0.15361 -0.05383 0.04652 0.08581 -0.12236 0.00470 0.02220 -0.19143 0.06341 -0.01745 -0.10872 0.07113 0.02788 -0.11383 -0.02911 -0.04165 0.09841
com.google.gson.gsonbuilder.setdateformat() -0.82872 0.06311 -0.27873 0.31087 0.09122 -0.61169 -0.14626 0.31285 -0.37029 0.61403 0.18792 -0.80455 0.23151 0.48247 0.43047 0.13005 -0.87715 -0.40395 -1.05627 -0.03521 0.48501 0.09967 0.02044 -0.15568 0.20442 0.31334 0.41047 0.22676 0.07121 -0.20134 -0.67092 -0.28491 -0.06597 0.45520 -0.53898 0.30613 -0.20273 0.06366 0.78489 0.03708 -1.31848 0.09025 0.81556 -0.96791 0.28065 0.26588 -0.05800 -0.38075 0.47825 0.64598
com.google.gson.typeadapter.fromjson() 0.00258 -0.00430 0.00882 -0.00053 -0.00097 -0.00004 -0.00707 -0.00162 0.00492 0.00683 -0.00320 0.00466 -0.00841 0.00490 -0.00034 -0.00419 0.00481 -0.00117 -0.00478 0.00036 0.00905 0.00267 -0.00935 -0.00835 -0.01134 0.00208 0.00817 -0.00465 0.00115 -0.01147 0.00434 -0.00499 0.00739 -0.01008 -0.00947 -0.01150 0.00362 -0.00606 0.00615 0.00530 -0.01450 -0.00136 0.00168 -0.01047 -0.00280 0.00515 -0.00783 0.01534 -0.00548 -0.00886
com.google.gson.jsonarray.iterator() -0.02221 0.10931 0.11980 0.21224 0.04885 -0.30319 -0.24324 0.09866 -0.44375 0.38537 0.28286 -0.20840 -0.13918 0.20186 0.01057 -0.33349 -0.97971 -0.31114 0.01974 -0.66027 0.08160 -0.13109 0.32415 -0.26977 0.43977 -0.32837 -0.13738 0.18437 0.40381 -0.58422 -0.21331 0.01878 -0.14644 0.43807 0.03628 -0.23922 0.33712 -0.34687 0.11504 -0.02249 -0.97050 0.02606 0.20324 -0.01535 0.24494 0.27018 -0.55490 -0.41892 -0.11333 0.40265
com.google.gson.gsonbuilder.serializenulls() -0.50540 0.14003 -0.22741 0.53147 -0.07875 -0.60139 -0.24199 0.33204 -0.27008 0.59395 0.47400 -0.66426 0.32375 0.66887 0.37544 0.37250 -0.82927 -0.45526 -0.81358 -0.29793 0.49657 0.07064 -0.19526 -0.21321 0.11480 0.17170 0.13133 -0.08572 0.02615 -0.02145 -0.83134 -0.45288 -0.07979 0.57766 -0.34161 0.34801 -0.07619 -0.04562 0.71069 -0.31435 -1.00691 0.31607 0.66261 -1.09155 0.59205 -0.19534 -0.12249 -0.20496 0.29264 0.85217
com.google.gson.camelcaseseparatornamingpolicy -0.13326 0.26804 -0.47772 0.37630 0.18779 -0.16960 0.10452 0.23589 0.02510 0.29751 -0.18707 0.35652 0.27659 0.18202 0.12119 -0.06006 -0.04952 -0.40235 -0.30077 -0.54559 0.45945 0.09418 -0.10066 -0.29824 0.16431 0.29502 0.04564 0.13899 0.08328 0.04222 -0.68114 -0.79629 0.09990 0.79689 -0.95884 -0.11466 0.07197 -0.19324 0.07316 -0.24127 -0.26075 0.04449 0.15447 -0.30433 0.24918 -0.18470 -0.77368 -0.20045 -0.12593 0.60620
com.google.gson.gsonbuilder.addserializationexclusionstrategy() -0.00764 0.00130 -0.00066 -0.00382 0.00381 0.00043 -0.00164 -0.00237 -0.00015 0.00537 -0.00697 -0.00119 0.01218 -0.00820 0.00298 -0.00412 -0.00052 0.01015 0.00022 0.00519 0.01048 -0.00566 0.01360 0.00820 0.00316 -0.00196 0.00102 -0.00094 -0.00199 -0.00162 0.00403 -0.00327 0.00281 -0.00915 0.00458 -0.01103 -0.00514 -0.00245 0.00218 -0.00789 -0.00055 0.01172 -0.00007 0.00585 -0.00996 0.00453 -0.00281 0.00524 0.00965 -0.00002
com.google.gson.typeadapter.tojson() -0.11009 0.18038 -0.30732 0.20671 0.11462 -0.05259 -0.05513 0.38060 -0.29783 0.28854 0.20126 -0.34329 0.27524 0.27027 0.15820 0.23713 -0.44117 -0.16966 -0.37583 -0.13662 -0.21150 0.14217 0.13133 0.01238 0.09730 -0.16955 0.23033 -0.02071 0.18574 -0.10409 -0.19476 -0.17982 0.01842 0.16774 0.05278 0.08153 0.40458 -0.30145 0.08198 0.03047 -0.78076 0.21669 0.16418 -0.32552 0.14077 -0.09379 -0.16239 -0.09039 -0.07756 0.26997
com.google.gson.jsonnull -0.00097 -0.00782 -0.01162 -0.00551 -0.00558 0.00361 0.00503 -0.00126 0.00470 -0.00556 -0.00417 -0.01057 -0.00377 0.00215 0.00328 -0.00203 0.00278 -0.00435 0.00759 0.00500 0.00399 0.00150 0.00241 0.00339 -0.00456 -0.00545 -0.00168 -0.00729 0.00139 0.00230 0.00307 0.00010 0.00215 0.00213 0.00338 -0.00072 0.00155 0.00678 0.00504 0.00198 -0.00830 -0.00060 0.00525 0.00221 0.00260 0.00782 0.00409 0.00441 0.00266 -0.00736
com.google.gson.stream.jsonwriter.flush() -0.12398 0.35518 -0.16375 0.35571 -0.13848 -0.20535 -0.11161 0.43235 -0.29017 0.29980 -0.04343 0.12621 0.00961 0.29172 0.39628 -0.08388 -0.48577 -0.58849 -0.17067 -0.28631 0.56326 0.24016 0.30672 -0.30406 0.11269 0.13572 -0.16245 0.00731 0.19539 -0.40673 -0.13351 0.03592 -0.24006 0.38008 0.10533 0.02600 0.42192 -0.36697 -0.08708 0.05517 -0.84915 0.34795 0.11296 0.23407 0.07931 0.10373 -0.15019 -0.13681 -0.22357 0.65235
com.google.gson.gsonbuilder.adddeserializationexclusionstrategy() -0.00787 0.00302 -0.00088 0.00773 -0.00919 0.00964 0.00035 0.01062 0.00342 0.00340 -0.00007 0.00240 -0.00161 0.00374 0.00269 0.00286 -0.00445 0.00061 0.00393 0.00203 -0.00917 -0.00448 -0.00410 -0.00524 0.00552 0.00294 -0.00496 0.00639 -0.00072 0.00761 -0.00523 -0.00359 0.00728 0.00633 0.00148 -0.00353 -0.00250 -0.00064 0.00966 0.00625 0.00456 -0.00964 -0.00006 0.00143 0.00547 -0.00098 0.00283 0.00274 0.00947 0.01746
com.google.gson.gsonbuilder.setexclusionstrategies() -0.61955 0.01478 -0.19048 0.35029 0.30528 -0.45540 -0.05406 0.27670 -0.21692 0.47613 0.32910 -0.57674 0.25953 0.43000 0.20512 0.33548 -0.70569 -0.29477 -0.90014 -0.16966 0.36678 0.17286 -0.03468 -0.20260 0.08471 0.21076 0.17070 0.05813 0.15343 -0.10734 -0.72750 -0.17960 -0.06433 0.28714 -0.17723 0.14868 -0.10475 0.03455 0.74582 -0.12023 -1.02358 0.01823 0.65957 -0.92143 0.21509 -0.05572 -0.05029 -0.41696 0.11787 0.43967
com.google.gson.jsonprimitive.isboolean() -0.09985 0.29279 -0.02092 0.04368 0.26879 -0.30637 -0.15152 0.15097 0.00405 0.03631 -0.14815 0.02561 0.05455 0.04497 0.09754 -0.19020 -0.30959 0.00932 -0.12339 -0.54294 0.25004 -0.15521 0.17452 -0.02966 0.22985 -0.25814 -0.10731 0.46363 0.23495 -0.15149 -0.23791 0.00799 0.11067 0.17999 0.11534 -0.00788 0.16001 -0.30236 0.01945 -0.02622 -0.80933 0.03109 -0.21002 -0.17944 -0.00433 -0.00073 -0.46819 -0.21500 -0.25805 0.40292
com.google.gson.gsonbuilder.registertypeadapterfactory() -0.00813 0.00749 0.00106 0.00363 -0.00849 0.01013 -0.00039 0.01121 -0.00231 0.00462 -0.01104 0.00322 0.00824 -0.00620 0.00141 0.00695 -0.01262 0.00308 -0.00473 -0.00312 -0.00744 -0.00159 0.00168 -0.00027 0.00481 0.00023 -0.00626 0.00316 0.00249 0.00924 -0.00188 0.00219 0.00020 -0.00053 -0.00254 -0.00443 -0.00301 -0.00656 -0.00044 -0.00009 -0.00562 -0.00109 0.01148 0.00481 -0.00002 0.00313 0.00507 0.00072 -0.00762 0.00406
com.google.gson.jsonobject.size() -0.29969 -0.20351 0.47907 0.10647 0.12658 -0.39722 -0.18959 -0.09743 -0.72346 0.78323 0.30361 -0.46757 1.01598 0.31267 -0.01597 -0.32061 -1.70187 -0.51045 -0.70283 -0.45890 -0.04050 0.25078 0.18848 -0.41913 0.21395 -0.16191 -0.11844 1.03523 0.22397 -0.47974 -0.61343 0.06848 -0.21506 0.48056 -0.03322 -0.36890 0.47897 -0.24660 0.19904 0.15139 -1.16550 0.46015 0.09098 -0.82360 -0.03610 -0.27170 -0.32382 -0.10895 0.43835 0.82062
com.google.gson.stream.jsonreader.read() -0.00980 0.32652 -0.33110 0.77854 -0.02848 -0.07457 0.37437 0.03255 -0.52423 -0.00696 0.09644 0.08396 0.57471 -0.02406 0.22145 0.53209 -1.06485 -0.54157 -0.89002 -0.35758 -0.29516 0.24023 -0.01702 -0.52848 0.17518 0.06903 -0.09920 0.01056 -0.10677 -0.15603 -0.35166 -0.58908 0.26601 0.54863 -0.13217 0.11412 0.84452 -0.21566 -0.37617 -0.76811 -0.66521 0.27792 0.38819 -0.63789 0.35299 -0.30279 -0.48973 0.17526 -0.19324 0.54695
com.google.gson.gson.getadapter() -0.00355 0.00048 -0.00899 0.00360 -0.00396 -0.00599 -0.00527 0.00654 -0.00060 0.00542 -0.01436 0.00114 0.00001 0.00971 -0.00145 -0.00255 -0.00666 0.01093 0.00184 -0.00580 -0.00539 -0.00639 0.00153 -0.00016 0.00638 0.00139 -0.00989 -0.00220 -0.00425 -0.00026 0.00158 0.00086 -0.00113 0.00614 -0.00857 0.00302 -0.00188 -0.00094 0.00263 0.00165 0.00565 -0.00860 -0.00129 0.00398 -0.00518 0.00308 -0.00043 0.00527 0.00405 -0.00383
com.google.gson.typeadapter.read() 0.00040 0.01132 0.00164 -0.00755 -0.00260 0.00897 0.00111 0.00181 0.00182 -0.00104 -0.00328 -0.00028 0.00247 -0.00210 -0.01291 -0.00277 0.00650 -0.00301 0.00736 -0.00493 0.00113 -0.00508 -0.00068 -0.00378 0.00123 0.00828 -0.00640 -0.00194 -0.00211 0.00229 -0.00084 -0.00537 -0.00442 -0.00225 -0.00190 0.00027 0.00571 -0.00838 -0.00032 -0.01053 0.00106 0.00146 -0.00492 -0.00946 0.00524 0.00273 -0.00699 -0.01292 0.00399 -0.01011
com.google.gson.jsondeserializationvisitor 0.00646 0.27375 -0.14223 -0.02012 0.30166 -0.08023 -0.19115 0.50160 -0.47146 0.07613 0.03698 -0.32156 0.31394 0.04019 0.15915 0.36047 -0.40303 -0.00025 -0.27897 -0.16403 0.08823 0.00963 0.13015 0.25850 0.14592 -0.07233 0.13170 0.07690 0.42836 -0.11255 -0.21820 0.09021 0.06175 0.37886 0.14638 0.38744 0.43162 -0.35683 -0.02842 0.11114 -0.83746 0.29818 -0.19343 -0.43112 -0.02513 0.13115 -0.10524 -0.22105 -0.07949 0.10379
com.google.gson.gsonbuilder.setfieldnamingpolicy() -0.70046 0.07457 -0.21942 0.11330 0.07572 -0.68655 -0.51496 0.22029 0.15866 0.71870 0.23745 -0.43367 0.37940 0.73541 0.59219 0.21897 -0.54097 -0.36594 -0.72883 -0.18421 0.40499 0.17405 0.02682 -0.22532 0.04525 -0.02105 0.10079 0.07376 0.24348 -0.08617 -0.94109 -0.62955 -0.36606 0.58314 -0.23773 0.17939 0.02645 -0.16851 0.56389 -0.15706 -1.13011 0.37631 0.52747 -1.25229 0.73022 -0.03179 -0.10990 -0.07989 0.15669 1.04360
